tree
version=v3
num_class=1
num_tree_per_iteration=1
label_index=0
max_feature_idx=7
objective=regression
feature_names=Column_0 Column_1 Column_2 Column_3 Column_4 Column_5 Column_6 Column_7
feature_infos=[0:14] [2000:2020] [0:3] [1:138000] [0:3] [0:555] [1.1000000000000001:256.80000000000001] [0:2.8999999999999999]
tree_sizes=5587 5566 5621 5667 5647 5566 5580 5617 5616 5604 5645 5646 5616 5705 5681 5654 5638 5645 5643 5643 5645 5739 5698 5610 5724 5734 5763 5783 5801 5855 5766 5796 5773 5820 5770 5886 5815 5803 5869 5857 5879 5902 5928 5849 5945 5843 5865 5949 5813 5980 5944 5801 5972 5942 5982 5938 5879 5960 6057 6057 5954 5940 6048 5854 5903 6099 6009 6110 5970 6094 6084 6106 6160 6143 5986 6130 6122 6213 6197 6229 6133 6276 6171 6134 5950 6105 5989 6264 6097 6195 6323 5963 6215 6265 6249 6192 6222 6239 6014 6194 6227 6266 6204 6234 6059 6146 6282 6334 6175 6215 6212 6089 6159 6344 6371

Tree=0
num_leaves=63
num_cat=0
split_feature=0 1 7 6 1 0 7 3 1 6 0 1 6 1 0 5 7 3 7 1 6 7 6 0 3 1 7 6 1 1 5 3 1 6 6 1 3 0 6 6 0 7 7 3 3 7 6 3 0 1 1 3 6 1 3 6 6 3 1 6 1 0
split_gain=1292.58 383.025 334.876 295.985 104.035 56.0909 51.3306 41.0821 36.959 44.3344 35.4801 27.454 22.7603 21.263 18.594 16.3386 8.91066 6.48839 18.3441 6.33046 6.11246 7.65672 5.81091 6.888 5.66569 5.59871 5.53247 5.40225 5.17157 4.83838 4.73083 4.13327 3.41632 3.31403 3.08937 3.08116 2.69431 2.66725 3.05886 2.65735 2.17531 2.12739 2.06272 1.94827 1.86438 1.83484 1.83073 1.57142 1.44475 2.75909 1.39332 1.35036 1.31286 1.28417 1.26493 1.21352 1.1824 1.16245 1.12533 1.11052 1.09907 1.04164
threshold=8.5000000000000018 2018.5000000000002 1.8500000000000003 36.70000000000001 2017.5000000000002 3.5000000000000004 1.5000000000000002 10058.500000000002 2012.5000000000002 43.850000000000009 5.5000000000000009 2014.5000000000002 57.050000000000004 2018.5000000000002 2.5000000000000004 122.50000000000001 1.6500000000000001 17910.000000000004 2.1000000000000005 2019.5000000000002 45.20000000000001 1.5000000000000002 35.550000000000004 9.5000000000000018 35933.000000000007 2019.5000000000002 1.8500000000000003 53.800000000000004 2011.5000000000002 2018.5000000000002 142.50000000000003 37735.500000000007 2017.5000000000002 35.550000000000004 40.100000000000001 2015.5000000000002 2139.5000000000005 11.500000000000002 61.550000000000004 57.050000000000004 11.500000000000002 1.6500000000000001 1.2500000000000002 18484.500000000004 3276.0000000000005 1.6500000000000001 51.850000000000001 6006.5000000000009 3.5000000000000004 2015.5000000000002 2016.5000000000002 9927.5000000000018 35.100000000000001 2017.5000000000002 1000.5000000000001 57.650000000000013 35.550000000000004 15945.500000000002 2016.5000000000002 41.850000000000009 2016.5000000000002 6.5000000000000009
decision_type=2 2 2 2 2 2 2 2 2 2 2 2 2 2 2 2 2 2 2 2 2 2 2 2 2 2 2 2 2 2 2 2 2 2 2 2 2 2 2 2 2 2 2 2 2 2 2 2 2 2 2 2 2 2 2 2 2 2 2 2 2 2
left_child=3 8 6 10 11 12 54 22 -2 17 -1 16 25 26 39 31 28 18 56 34 32 -22 36 -24 27 -6 51 -23 -5 -12 41 45 58 -9 -4 -19 52 57 53 -13 -37 43 -15 -16 -25 -11 -30 -34 -32 -50 -41 -7 -8 -39 -3 -14 -10 -29 -17 -44 -47 -51
right_child=1 2 19 4 5 13 7 33 9 15 29 14 55 42 30 20 -18 35 -20 -21 21 24 23 44 -26 -27 -28 37 46 -31 48 -33 47 -35 -36 40 -38 38 -40 50 -42 -43 59 -45 -46 60 -48 -49 49 61 -52 -53 -54 -55 -56 -57 -58 -59 -60 -61 -62 -63
leaf_value=0.09811599904898273 -0.074109630630585677 0.037138422546250861 0.17358545911060097 -0.081410057342869532 -0.018738630488611043 0.0011922044335602741 0.080616188511085166 0.025822432900103973 0.030099344306367164 0.020217065359739699 0.02426286538117137 -0.03232583403839346 -0.026463745365900647 0.013333341638565442 -0.030930971622737863 -0.013476933434642119 -0.041997974417814513 0.01584191997330088 0.10981319682162712 0.20822075123968409 0.0043674115594887339 0.042373025540358045 0.065908744120726892 0.092161402278853694 0.011517927839241248 0.0010223815635485441 0.02525575870520198 0.037781292293852881 -0.049798936832367503 0.05560212898664664 -0.034407247275150578 -0.0093105418065144337 0.033314935681684053 0.047343962325781488 0.14730947446571116 0.049744492866703273 0.052237542303153819 0.022584247168857288 0.0097498665227926818 -0.05378166517596393 0.030693112733598205 -0.026001552317150626 0.021699141697300708 -0.041941915491983971 0.079201894275908957 -0.0011804436859825882 -0.063246739149205408 0.012106657546638446 -0.034462039292323395 -0.017730920860890811 -0.046743941144528907 -0.014208950259147542 0.058910824827361777 0.037407122642787942 0.018207052372359471 -0.03859111333145377 0.047793252903374925 0.024809719238914479 0.0030399135176968927 0.039092944551127239 0.0080398067372898351 -0.027217604634483031
leaf_weight=35 10.999999999999998 9.9999999999999982 44 35 151 18 19 53 13.999999999999998 20 39 25 23 13.999999999999998 53 14.999999999999998 61 15.999999999999998 12.999999999999998 10.999999999999998 60 47 63 64 76 47 11.999999999999998 39 34 18 60 61 9.9999999999999982 27 14.999999999999998 31 35 104 48 110 29 35 11.999999999999998 166 49 58 99 69 58 78 195 68 11.000000000000002 17 75 200 29 31 33 39 73 46
leaf_count=35 11 10 44 35 151 18 19 53 14 20 39 25 23 14 53 15 61 16 13 11 60 47 63 64 76 47 12 39 34 18 60 61 10 27 15 31 35 104 48 110 29 35 12 166 49 58 99 69 58 78 195 68 11 17 75 200 29 31 33 39 73 46
internal_value=-4.79357e-10 0.0360958 0.0723973 -0.0287766 -0.033675 -0.0167438 0.0549835 0.0641321 0.0169813 0.0181034 0.0584908 -0.0430474 -0.0263857 0.00815952 -0.0388005 0.0134635 -0.058366 0.0448532 0.0577673 0.173398 0.0180161 0.0209104 0.0744378 0.0791561 0.0236523 -0.0140479 -0.00654775 0.0268769 -0.0643092 0.0341595 -0.0326815 0.00167377 0.00839899 0.0330859 0.166905 0.0353375 0.0616622 0.0238295 0.02043 -0.0479976 0.0405363 -0.0374478 0.0303336 -0.0392772 0.0865418 0.00611114 -0.059809 0.0147912 -0.0276787 -0.0254605 -0.0492821 -0.0109855 0.0726576 0.0246668 0.0204343 -0.0373403 0.0420324 0.0320367 -0.0021216 0.0350003 0.00395756 -0.0212502
internal_weight=0 1380 476 1731 1639 584 406 321 904 893 92 1055 421 163 826 761 229 132 56 70 549 422 241 176 362 198 98 286 168 57 496 212 127 80 59 76 65 239 169 330 60 254 65 219 113 151 133 79 242 182 305 86 30 121 85 223 43 70 48 51 131 124
internal_count=3111 1380 476 1731 1639 584 406 321 904 893 92 1055 421 163 826 761 229 132 56 70 549 422 241 176 362 198 98 286 168 57 496 212 127 80 59 76 65 239 169 330 60 254 65 219 113 151 133 79 242 182 305 86 30 121 85 223 43 70 48 51 131 124
is_linear=0
shrinkage=1


Tree=1
num_leaves=63
num_cat=0
split_feature=0 3 6 7 3 2 7 2 0 5 6 0 5 0 3 7 3 6 6 0 6 6 3 7 6 3 3 3 2 3 3 3 3 3 6 6 3 3 6 3 7 3 6 7 7 7 3 7 6 0 3 3 3 3 3 0 0 3 3 3 5 6
split_gain=1166.55 327.118 267.126 238.377 73.6467 44.4842 41.3543 34.8891 33.8274 33.1625 32.7884 32.0208 28.3718 19.4511 18.3728 17.8103 14.4278 14.1311 12.6199 10.7374 9.65039 8.84295 6.8028 6.14098 6.59522 5.85116 5.31838 5.20903 4.22257 4.16464 3.55551 3.41447 3.36773 3.09531 2.8482 4.21971 3.9248 2.89177 2.56488 2.51149 2.2775 3.49613 2.24572 2.19181 2.09832 2.04272 4.24388 1.71263 1.62577 1.60701 1.57025 1.52801 1.41887 1.36916 1.35634 1.34188 2.46047 1.42153 1.31055 1.2847 1.24957 1.23457
threshold=8.5000000000000018 7336.5000000000009 36.70000000000001 2.1000000000000005 6347.5000000000009 1.5000000000000002 1.5000000000000002 1.0000000180025095e-35 3.5000000000000004 142.50000000000003 57.050000000000004 5.5000000000000009 250.00000000000003 2.5000000000000004 11165.500000000002 2.1000000000000005 41605.000000000007 61.550000000000004 41.20000000000001 2.5000000000000004 41.20000000000001 57.050000000000004 6006.5000000000009 2.1000000000000005 43.150000000000006 12741.500000000002 49032.000000000007 17395.000000000004 1.5000000000000002 21283.000000000004 34784.500000000007 3751.0000000000005 34046.500000000007 18484.500000000004 45.20000000000001 61.550000000000004 5407.5000000000009 2741.0000000000005 39.500000000000007 38324.500000000007 2.1000000000000005 21725.500000000004 57.650000000000013 1.6500000000000001 1.6500000000000001 1.6500000000000001 19796.500000000004 1.8500000000000003 59.500000000000007 11.500000000000002 29301.500000000004 1000.5000000000001 23847.000000000004 18484.500000000004 21964.500000000004 3.5000000000000004 6.5000000000000009 11165.500000000002 59019.500000000007 73019.500000000015 155.00000000000003 57.650000000000013
decision_type=2 2 2 2 2 2 2 2 2 2 2 2 2 2 2 2 2 2 2 2 2 2 2 2 2 2 2 2 2 2 2 2 2 2 2 2 2 2 2 2 2 2 2 2 2 2 2 2 2 2 2 2 2 2 2 2 2 2 2 2 2 2
left_child=2 3 11 6 8 7 51 18 21 19 14 -1 17 33 15 -7 20 23 -3 26 -15 -4 28 24 -9 -20 54 55 34 -13 44 -10 -19 42 37 -36 -37 -8 -5 40 -16 -42 -11 58 53 46 -26 59 -29 -30 -47 -2 -27 -21 -6 -22 57 -57 -32 -18 -48 -12
right_child=1 5 4 38 9 10 22 12 31 13 61 29 -14 16 39 -17 47 32 25 30 27 -23 -24 -25 45 52 -28 48 49 -31 43 -33 -34 -35 35 36 -38 -39 -40 -41 41 -43 -44 -45 -46 50 60 -49 -50 -51 -52 -53 -54 -55 -56 56 -58 -59 -60 -61 -62 -63
leaf_value=0.093210199219839918 0.035987341217696665 0.085837470401417135 -0.010885181959704771 0.18018029369413854 -0.047346882054618761 0.066744291616810697 0.067993501822153732 0.026720870589447578 0.030022338626440617 -0.025220559081971284 0.018664834755472839 0.052345295829905408 -0.070404147018085825 0.014777699603061929 0.042859123904129555 0.14996823191642758 -0.042143021689520943 0.0053015807474133536 0.045884715538957843 -0.030198714673519134 -0.021391045827357499 -0.033190208538012071 0.045646653408485074 0.03817889525865515 0.012956166699303676 0.030569047431965347 -0.073646009737445464 -0.029207666475634428 0.068509386032819752 0.0232697516393203 -0.046802661131168238 0.0044867150382035311 -0.0072141901765262889 -0.045377830330814634 0.085948692262172707 0.053113036346621817 0.08773420778187839 0.046544610708951953 0.15829027269197549 0.02632150494239547 0.086430649161338788 0.048743718024343255 -0.038425208518902465 -0.034231707056363428 -0.016887559375858733 0.026973361273606618 0.0023092732514487578 -0.026608876039584478 -0.017882212222768711 0.085186793039051398 0.011484667036630628 0.01819098473773623 0.01999096414579209 -0.040163409575685732 -0.055541529387235646 0.0022962872485200372 -0.02305091543433567 -0.011977440480775429 -0.060719467344738189 -0.059406797243998603 -0.012997390553355219 0.032286605948493599
leaf_weight=35 15.999999999999998 10.999999999999998 136 32 102 18 33 86 48 41 80 18 10.999999999999998 19 29 10.000000000000002 63 156 46 50 61 66 31 30 149 61 31 169 20 39 87 18 82 140 32 32 10.999999999999998 30 23 10.999999999999998 10.000000000000002 15.999999999999998 150 30 13.999999999999998 30 40 14.999999999999998 39 52 36 49 66 111 100 26 36 53 21 12.999999999999998 20 21
leaf_count=35 16 11 136 32 102 18 33 86 48 41 80 18 11 19 29 10 63 156 46 50 61 66 31 30 149 61 31 169 20 39 87 18 82 140 32 32 11 30 23 11 10 16 150 30 14 30 40 15 39 52 36 49 66 111 100 26 36 53 21 13 20 21
internal_value=0 0.034291 -0.0273377 0.0751904 -0.0319913 0.0198017 0.057965 0.0147196 -0.00801905 -0.0366773 0.0412766 0.0555662 0.00920303 -0.0303511 0.0625291 0.0964671 -0.0240667 0.0105952 0.0339077 -0.0462362 -0.0200062 -0.018173 0.0675109 0.0164422 0.0146358 0.0306059 -0.0543629 -0.0217273 0.0707385 0.0324515 -0.0401866 0.0230581 0.000989424 -0.0397303 0.0656172 0.0722007 0.0619696 0.0577797 0.171026 0.0481312 0.0524931 0.0632387 -0.0355907 -0.0461876 -0.0354543 0.0108565 0.00843489 -0.0420487 -0.0270841 0.0805542 0.018525 0.0225716 0.0250718 -0.0370688 -0.0514036 -0.0153965 -0.0122168 -0.00727976 -0.0495087 -0.045096 -0.00279295 0.0214971
internal_weight=0 1380 1731 361 1639 1019 306 824 268 1371 195 92 640 825 94 28 494 629 184 546 403 202 241 391 361 173 233 384 210 57 313 66 238 331 138 75 43 63 55 66 55 26 191 138 175 275 209 91 208 72 66 65 127 161 202 176 115 79 108 76 60 101
internal_count=3111 1380 1731 361 1639 1019 306 824 268 1371 195 92 640 825 94 28 494 629 184 546 403 202 241 391 361 173 233 384 210 57 313 66 238 331 138 75 43 63 55 66 55 26 191 138 175 275 209 91 208 72 66 65 127 161 202 176 115 79 108 76 60 101
is_linear=0
shrinkage=0.05


Tree=2
num_leaves=63
num_cat=0
split_feature=1 7 7 7 1 7 1 7 3 1 1 3 1 7 1 1 7 7 1 2 2 1 7 5 2 3 3 3 3 2 1 1 7 3 3 4 4 5 3 5 7 2 3 2 4 3 7 5 1 7 1 7 4 2 3 7 5 3 2 2 3 3
split_gain=762.655 444.282 318.952 164.242 149.55 56.2171 53.488 40.0444 37.9221 29.5198 23.0512 18.2773 13.5096 13.5089 11.0402 10.1793 18.9566 9.6094 6.54685 6.11939 5.7389 5.2489 5.22807 4.5204 4.49493 4.27068 4.25141 3.72308 3.30651 3.09202 3.07262 3.05241 2.77558 2.73145 2.56894 2.53918 3.93341 3.98559 3.09682 2.52851 2.40085 2.37736 2.3373 2.32798 2.18175 2.12431 2.10012 1.9006 1.84959 1.77085 1.76612 1.62673 1.85704 2.22982 1.56332 1.2001 1.09397 1.04056 1.03032 0.984413 0.958594 1.49211
threshold=2018.5000000000002 1.5000000000000002 1.5000000000000002 2.1000000000000005 2015.5000000000002 2.3000000000000003 2017.5000000000002 1.8500000000000003 10058.500000000002 2016.5000000000002 2014.5000000000002 18145.500000000004 2017.5000000000002 1.2500000000000002 2017.5000000000002 2012.5000000000002 2.1000000000000005 1.8500000000000003 2019.5000000000002 1.5000000000000002 1.5000000000000002 2019.5000000000002 1.6500000000000001 25.000000000000004 1.5000000000000002 29301.500000000004 23625.000000000004 2543.0000000000005 36947.500000000007 1.5000000000000002 2011.5000000000002 2019.5000000000002 1.1500000000000001 37735.500000000007 10684.000000000002 1.5000000000000002 1.0000000180025095e-35 142.50000000000003 2004.5000000000002 142.50000000000003 1.2500000000000002 1.5000000000000002 36571.500000000007 1.0000000180025095e-35 1.0000000180025095e-35 5001.5000000000009 1.6500000000000001 137.50000000000003 2009.5000000000002 1.6500000000000001 2014.5000000000002 1.6500000000000001 1.5000000000000002 1.0000000180025095e-35 11470.500000000002 1.6500000000000001 122.50000000000001 22.000000000000004 1.0000000180025095e-35 1.0000000180025095e-35 2879.5000000000005 2004.5000000000002
decision_type=2 2 2 2 2 2 2 2 2 2 2 2 2 2 2 2 2 2 2 2 2 2 2 2 2 2 2 2 2 2 2 2 2 2 2 2 2 2 2 2 2 2 2 2 2 2 2 2 2 2 2 2 2 2 2 2 2 2 2 2 2 2
left_child=2 13 6 8 15 21 10 9 17 22 30 14 20 31 -9 48 28 18 19 35 25 -5 44 -12 42 39 40 -8 55 34 -1 32 45 56 58 36 -3 -38 -37 43 -25 59 -13 -11 -6 60 -27 -36 -4 -30 -51 52 -41 -54 -29 -17 -24 -21 -14 -10 61 -2
right_child=1 3 4 5 7 -7 27 11 41 12 23 24 29 -15 -16 16 -18 -19 -20 57 -22 -23 33 26 -26 46 -28 54 49 -31 -32 -33 -34 -35 47 38 37 -39 -40 51 -42 -43 -44 -45 -46 -47 -48 -49 -50 50 -52 -53 53 -55 -56 -57 -58 -59 -60 -61 -62 -63
leaf_value=-0.074613922217796599 -0.0085152557038742568 0.041539163177921661 -0.076825296878814675 0.15112113194274052 -0.029807598845047113 0.053008850105106836 0.011879788208752871 0.037771725539977735 0.03835350078131472 0.024055500969509869 -0.046071624250943993 0.028491753927464114 0.040766692480870656 0.032749399542808533 0.10176074760300771 -0.030391919180270167 0.017002402650680214 0.091517748801331775 0.084415889614158204 0.084911068677902227 0.019569340835548413 0.18890019980343908 -0.0019411875496319097 -0.034033993437503261 0.04870938017964363 -0.016803562613846412 -0.040817691290319848 -0.015220975867544584 -0.045094101317226888 0.034453928172588348 -0.056265326081035294 0.0059192295524884359 -0.015720320632681251 -0.012920660956762732 0.025606900666441237 0.061298694493977929 0.060206617743282002 0.089070891539255792 0.037398512074441621 -0.022817859947681429 -0.023533127669959446 0.049018033700329922 0.015323440674692393 0.0075776769653171433 -0.011617700586793945 0.0021762183637438733 -1.0360507384085886e-05 0.0117863776944686 -0.049832207461198173 -0.039787802262150729 -0.025422320300713182 0.0093615943181287985 -0.01523287872473399 0.0079100489681449681 -0.021926583572843668 -0.016479186658116599 0.010637956241145731 0.070187540203332899 0.02478120172292822 0.023556066934109193 -0.013803725163840378 0.010669059191758817
leaf_weight=29 46 21 11.000000000000002 56 34 15.999999999999998 9.9999999999999982 13 13.999999999999998 34 121 87 13.999999999999998 26 14 31 21 38 36 14.999999999999998 71 10.999999999999998 56 214 20 29 203 152 48 45 107 55 68 50 35 23 59 14.999999999999998 33 9.9999999999999982 73 13.999999999999998 55 58 32 81 52 86 14.999999999999998 46 40 46 14.999999999999998 34 203 31 25 60 36 57 48 12.999999999999998
leaf_count=29 46 21 11 56 34 16 10 13 14 34 121 87 14 26 14 31 21 38 36 15 71 11 56 214 20 29 203 152 48 45 107 55 68 50 35 23 59 15 33 10 73 14 55 58 32 81 52 86 15 46 40 46 15 34 203 31 25 60 36 57 48 13
internal_value=0 0.0419002 -0.0146269 0.0734207 0.0033185 0.137215 -0.0338956 0.0122634 0.0596677 0.00715356 -0.041561 0.0328648 0.0129647 -0.00187314 0.0709512 -0.0316879 -0.0281456 0.0680205 0.0646125 0.061458 0.00688217 0.157324 -0.00951277 -0.0374171 0.026517 0.00364192 -0.03528 -0.0182079 -0.0329829 0.0227924 -0.0601779 -0.00476763 -0.00706364 -0.00373123 0.0197235 0.0556596 0.0606376 0.0660575 0.0472147 0.00761571 -0.031363 0.030187 0.0233914 0.0136673 -0.0209883 -0.0039325 -0.00602274 0.015784 -0.0612524 -0.0374004 -0.0331062 0.00231336 -0.00318187 0.000825479 -0.0190555 -0.0234356 0.00194126 0.0731322 0.0292571 0.0264739 -0.00855685 -0.0042882
internal_weight=0 805 2306 468 1194 83 1112 951 385 762 747 189 565 337 27 243 217 300 262 226 349 67 197 611 162 278 490 365 196 216 136 311 256 131 171 151 95 74 56 197 287 85 142 92 66 188 81 121 26 134 86 105 59 49 355 62 81 75 50 71 107 59
internal_count=3111 805 2306 468 1194 83 1112 951 385 762 747 189 565 337 27 243 217 300 262 226 349 67 197 611 162 278 490 365 196 216 136 311 256 131 171 151 95 74 56 197 287 85 142 92 66 188 81 121 26 134 86 105 59 49 355 62 81 75 50 71 107 59
is_linear=0
shrinkage=0.05


Tree=3
num_leaves=63
num_cat=0
split_feature=0 1 4 1 0 0 0 1 3 1 5 1 1 2 4 0 2 0 2 0 1 3 3 0 0 1 0 0 3 1 0 3 5 5 1 2 3 2 1 5 5 4 3 3 3 1 0 1 3 0 0 2 3 3 3 3 0 4 3 5 3 3
split_gain=965.384 284.401 208.108 165.084 115.448 42.1501 39.8162 40.0037 28.9639 27.1929 22.5323 18.8945 12.3969 12.0234 17.8563 10.2922 8.37902 9.40252 8.40581 7.57442 6.47646 6.06233 5.74669 5.29936 4.93818 4.05928 3.65088 3.54724 3.5355 3.47736 3.32031 3.075 3.01177 4.46304 2.83653 2.79853 2.7827 2.72115 2.69971 2.57393 2.46115 2.32319 2.31866 2.17089 1.79978 1.68479 1.61656 1.58741 2.37758 1.45289 1.44821 1.43432 1.42022 1.3729 1.26693 1.11731 1.08039 1.06331 1.29458 1.04705 1.00072 0.890053
threshold=8.5000000000000018 2018.5000000000002 1.0000000180025095e-35 2018.5000000000002 3.5000000000000004 11.500000000000002 3.5000000000000004 2017.5000000000002 10058.500000000002 2012.5000000000002 122.50000000000001 2014.5000000000002 2015.5000000000002 1.5000000000000002 1.5000000000000002 11.500000000000002 1.5000000000000002 11.500000000000002 1.0000000180025095e-35 5.5000000000000009 2019.5000000000002 17625.000000000004 2004.5000000000002 4.5000000000000009 2.5000000000000004 2019.5000000000002 2.5000000000000004 11.500000000000002 18145.500000000004 2013.5000000000002 6.5000000000000009 37735.500000000007 177.50000000000003 155.00000000000003 2012.5000000000002 1.5000000000000002 2741.0000000000005 1.5000000000000002 2017.5000000000002 142.50000000000003 220.00000000000003 1.5000000000000002 9442.5000000000018 19997.500000000004 6347.5000000000009 2016.5000000000002 9.5000000000000018 2019.5000000000002 5407.5000000000009 11.500000000000002 10.500000000000002 1.0000000180025095e-35 28981.000000000004 42065.000000000007 80757.500000000015 23625.000000000004 6.5000000000000009 1.5000000000000002 3515.5000000000005 1.0000000180025095e-35 39807.000000000007 9927.5000000000018
decision_type=2 2 2 2 2 2 2 2 2 2 2 2 2 2 2 2 2 2 2 2 2 2 2 2 2 2 2 2 2 2 2 2 2 2 2 2 2 2 2 2 2 2 2 2 2 2 2 2 2 2 2 2 2 2 2 2 2 2 2 2 2 2
left_child=3 9 5 6 20 25 11 12 13 -2 31 34 29 14 27 -16 18 21 28 61 26 -18 23 -6 35 -3 -5 44 39 54 -21 51 33 42 -1 43 -17 46 55 -12 45 -19 -20 -13 47 -14 -10 48 -4 -15 -44 -11 -52 -34 -8 -26 -47 -51 -59 -31 -23 -9
right_child=1 2 8 4 22 -7 7 19 37 10 16 24 40 49 15 36 17 41 32 30 -22 60 -24 -25 38 -27 -28 -29 -30 59 -32 -33 53 -35 -36 -37 -38 -39 -40 -41 -42 -43 50 -45 -46 56 -48 -49 -50 57 52 -53 -54 -55 -56 -57 -58 58 -60 -61 -62 -63
leaf_value=-0.07147790551185608 -0.063410762765190823 0.14618244409561157 0.052442421257495875 -0.025351542448800692 0.076086734365671871 0.073126875835916275 -0.04431281644924015 0.0037399147637188438 0.039352982558987365 0.018960195883889409 0.030310920512546663 -0.037120622953840797 -0.026975939056771522 0.061380520604905633 0.021081596979036415 0.061033873644567305 0.076531950490815306 0.019176207996230116 0.021735486978044116 0.022148237191140653 0.0012195606200777471 0.04304480545900085 0.039007456719409674 0.036728842785725226 -0.029345936292266273 0.17945518927140669 -0.0097479751160225812 0.086239421017029708 0.020323058979985761 -0.041555153727531435 -0.0097693353239446876 -0.0080229630877004295 0.035208112072376979 -0.0070931553872751784 -0.053621962943742441 -0.023825406180029471 0.039486256447331662 0.045776785566256598 -0.020082511296137598 0.053593178559094672 0.0019813996655019847 0.03683366406223048 0.0048455571374771272 -0.044057835111714377 0.049661480914801361 -0.013722648285698916 0.01894009882902227 0.081349813021146342 0.080337170037356298 0.089346914566480196 0.01630968407244068 0.0035430316521383046 0.0065217698835812578 0.013403021967546506 -0.063022240725430584 -0.037922538263457164 -0.023459911088530835 0.080433012998622405 0.06191292740404606 -0.03187229676253122 0.023968723341822623 -0.01061040614877129
leaf_weight=30 10.999999999999998 55 25 106 25 23 51 12.999999999999998 10.999999999999998 17 46 262 101 21 58 31 13.999999999999998 98 66 44 47 22 80 12.999999999999998 83 10.999999999999998 58 17 78 35 9.9999999999999982 61 21 29 86 28 29 12.999999999999998 52 15.999999999999998 10.999999999999998 23 66 198 24 63 82 12.999999999999998 10.999999999999998 12.999999999999998 129 134 52 10.999999999999998 10.999999999999998 70 52 23 15.999999999999998 138 9.9999999999999982 64
leaf_count=30 11 55 25 106 25 23 51 13 11 17 46 262 101 21 58 31 14 98 66 44 47 22 80 13 83 11 58 17 78 35 10 61 21 29 86 28 29 13 52 16 11 23 66 198 24 63 82 13 11 13 129 134 52 11 11 70 52 23 16 138 10 64
internal_value=0 0.0311946 0.0624753 -0.0248692 0.00700582 0.131415 -0.0323491 -0.0225073 0.0466209 0.0147237 0.0156862 -0.0395631 -0.0294226 0.0550221 0.0488949 0.0361007 0.0201176 0.0298477 0.0169563 0.00188078 -0.0151437 0.0490896 0.0466122 0.0626222 -0.0364369 0.151728 -0.0198332 0.0656696 0.0274071 -0.0374724 0.0162376 0.00145136 0.0130442 0.0116717 -0.0582399 -0.0391725 0.0506192 0.0243497 -0.0299248 0.0363192 -0.0210891 0.0225326 0.0134103 -0.0401066 0.0608793 -0.0222639 0.0213545 0.0663738 0.0609658 0.0724804 0.0111858 0.00527874 0.0134977 0.0277126 -0.0476322 -0.0332699 -0.0181256 0.076963 0.072835 -0.0338313 0.0370835 -0.00818762
internal_weight=0 1380 476 1731 329 89 1402 593 387 904 893 809 462 281 208 118 681 167 514 131 211 46 118 38 693 66 164 90 140 235 54 212 374 342 116 488 60 106 205 62 227 121 313 460 73 216 93 49 36 73 247 151 181 32 62 153 115 52 39 173 32 77
internal_count=3111 1380 476 1731 329 89 1402 593 387 904 893 809 462 281 208 118 681 167 514 131 211 46 118 38 693 66 164 90 140 235 54 212 374 342 116 488 60 106 205 62 227 121 313 460 73 216 93 49 36 73 247 151 181 32 62 153 115 52 39 173 32 77
is_linear=0
shrinkage=0.05


Tree=4
num_leaves=63
num_cat=0
split_feature=0 1 6 4 1 0 0 1 6 0 4 2 1 6 1 0 5 6 4 0 0 1 1 0 6 1 1 1 6 1 5 1 6 0 1 6 6 2 2 0 6 6 6 6 1 6 5 1 1 0 2 6 6 5 6 6 0 1 5 1 6 0
split_gain=871.259 256.672 200.455 187.817 68.1843 38.0404 37.8965 24.5416 30.5862 24.0407 21.1604 23.7863 19.0292 16.5242 13.2897 12.7847 10.9898 10.4254 8.68851 6.25061 6.15111 4.42986 4.31513 7.45612 10.2058 3.83129 3.79408 3.6635 3.59491 3.43425 3.12878 2.62285 2.29832 2.19012 1.94426 1.9082 1.48507 1.26129 1.24776 1.23954 1.14542 1.12412 1.07691 1.07408 1.04587 1.03453 1.00379 0.987303 0.820604 1.57196 0.793914 0.724419 0.767863 0.71304 0.701656 0.676214 0.615605 0.595574 0.592119 0.583062 0.582481 0.576019
threshold=8.5000000000000018 2018.5000000000002 34.250000000000007 1.0000000180025095e-35 2017.5000000000002 11.500000000000002 3.5000000000000004 2012.5000000000002 43.850000000000009 5.5000000000000009 1.5000000000000002 1.5000000000000002 2014.5000000000002 57.650000000000013 2018.5000000000002 2.5000000000000004 122.50000000000001 50.900000000000006 1.5000000000000002 4.5000000000000009 11.500000000000002 2019.5000000000002 2015.5000000000002 11.500000000000002 41.850000000000009 2011.5000000000002 2018.5000000000002 2019.5000000000002 43.150000000000006 2017.5000000000002 142.50000000000003 2016.5000000000002 57.050000000000004 11.500000000000002 2016.5000000000002 57.050000000000004 61.550000000000004 1.0000000180025095e-35 1.5000000000000002 2.5000000000000004 78.450000000000017 35.550000000000004 44.45000000000001 37.45000000000001 2016.5000000000002 39.500000000000007 220.00000000000003 2015.5000000000002 2015.5000000000002 3.5000000000000004 1.0000000180025095e-35 50.900000000000006 55.95000000000001 147.50000000000003 36.000000000000007 32.250000000000007 2.5000000000000004 2016.5000000000002 155.00000000000003 2013.5000000000002 48.300000000000004 3.5000000000000004
decision_type=2 2 2 2 2 2 2 2 2 2 2 2 2 2 2 2 2 2 2 2 2 2 2 2 2 2 2 2 2 2 2 2 2 2 2 2 2 2 2 2 2 2 2 2 2 2 2 2 2 2 2 2 2 2 2 2 2 2 2 2 2 2
left_child=2 7 9 5 12 27 13 -2 22 -1 17 20 19 21 28 35 31 60 29 25 -12 39 -9 24 -24 -4 55 45 -8 33 38 -10 -31 -18 -20 -14 57 -27 47 -6 -19 -25 -36 -43 -37 -3 48 -17 -32 -50 -33 -51 -53 -22 -13 -11 -15 -35 -21 -39 -5 -49
right_child=1 3 4 10 6 -7 14 8 16 26 11 54 15 56 -16 30 18 40 34 58 53 -23 23 41 -26 37 -28 -29 -30 32 46 50 -34 36 42 44 -38 59 -40 -41 -42 43 -44 -45 -46 -47 -48 61 49 51 -52 52 -54 -55 -56 -57 -58 -59 -60 -61 -62 -63
leaf_value=0.081114080633435934 -0.060240224545652227 0.14536634519182404 -0.069630070655576651 0.096412385051900668 -0.020663024197665997 0.069470532173695781 0.017293065186434736 0.013607461662853466 -0.0041304462892057759 0.023563073472730046 0.017547564716900096 0.072953539093335476 -0.026035697877407074 -0.033143732892196687 0.023790991777610598 -0.035429988583821931 0.025721027304855537 0.061002661335852838 -0.011265536199013392 -0.03937032661799874 0.03741434563076898 0.0011585825350769658 0.10087422728538514 0.020211576484143734 0.043776220000452469 -0.034524134670694671 0.048001741135821625 0.17048242633992977 -0.0093045229946420224 0.043774011731147769 -0.028487712184765507 0.01807754202704278 0.023673472183103533 0.012327232409006683 0.014808473267998452 -0.044302792224017062 0.0056953810602609276 -0.056121983777645025 -0.014020808701488106 -0.012202609706950446 0.049132205950001541 0.048897361457347875 0.0053517967902624863 0.030529650568197939 -0.038205385720118501 0.13163110384574303 -0.0070368184708058841 -0.032345786532669361 -0.028278598279274744 -0.022012705184885715 0.0052876543330417566 -0.0040023726436109949 -0.017484271421292146 0.027857506275177003 0.059630545122282844 0.0084850192070007324 -0.023196869387346157 0.018468919383741698 -0.029841702107502067 -0.048593716509640221 0.081954709165974679 -0.026166541442613711
leaf_weight=35 10.999999999999998 29 31 11.000000000000002 81 23 14.999999999999998 17 107 29 85 11.999999999999998 25 183 66 89 49 31 14.999999999999998 56 89 47 9.9999999999999982 20 36 11.999999999999998 17 10.999999999999998 83 17 56 13.999999999999998 87 64 39 110 43 43 10.999999999999998 93 59 9.9999999999999982 132 39 195 26 9.9999999999999982 66 58 61 91 13.999999999999998 43 25 56 9.9999999999999982 17 103 23 64 19 88
leaf_count=35 11 29 31 11 81 23 15 17 107 29 85 12 25 183 66 89 49 31 15 56 89 47 10 20 36 12 17 11 83 17 56 14 87 64 39 110 43 43 11 93 59 10 132 39 195 26 10 66 58 61 91 14 43 25 56 10 17 103 23 64 19 88
internal_value=0 0.0296348 -0.0236257 0.0593515 -0.0276337 0.124845 -0.0139426 0.0139875 0.0149019 0.0486066 0.0442898 0.0364517 -0.0352255 -0.0218854 0.00644711 -0.0316897 0.011048 0.0617297 0.0147818 -0.0479789 0.0277279 -0.012462 0.0371203 0.0405961 0.0561888 -0.0539738 0.0282894 0.144142 -0.00523346 0.0192844 -0.0266158 0.00137879 0.0269591 0.0162026 0.00599454 -0.0393159 0.0139816 -0.0498952 -0.030492 -0.0161411 0.0532209 0.0302009 0.00750858 0.0342782 -0.0404045 0.138873 -0.0225474 -0.0312376 -0.023216 -0.0215386 0.00699297 -0.0182257 -0.0141729 0.0353185 0.0619817 0.0196969 -0.0322982 0.0161152 -0.0365962 -0.0516191 0.0872559 -0.0288148
internal_weight=0 1380 1731 476 1640 89 585 904 893 91 387 267 1055 421 164 826 761 120 549 229 199 221 132 115 46 150 56 66 98 363 496 212 104 259 186 330 210 119 254 174 90 69 171 49 305 55 242 243 232 176 105 118 57 114 68 39 200 167 79 107 30 154
internal_count=3111 1380 1731 476 1640 89 585 904 893 91 387 267 1055 421 164 826 761 120 549 229 199 221 132 115 46 150 56 66 98 363 496 212 104 259 186 330 210 119 254 174 90 69 171 49 305 55 242 243 232 176 105 118 57 114 68 39 200 167 79 107 30 154
is_linear=0
shrinkage=0.05


Tree=5
num_leaves=63
num_cat=0
split_feature=0 1 7 7 1 3 7 0 3 1 3 7 0 1 0 5 1 1 1 1 5 3 1 0 0 7 1 5 1 4 5 3 3 5 3 4 0 3 0 3 7 3 3 7 3 3 1 3 7 0 3 7 3 4 7 3 3 3 1 3 3 1
split_gain=786.311 231.647 201.578 159.178 64.0328 41.5909 29.5263 27.323 26.4242 24.6511 22.3475 24.9431 17.8142 13.2446 10.7151 10.6037 8.66312 5.21903 5.02193 4.43568 4.26475 3.9928 3.86591 3.4972 3.00368 2.98342 2.97307 2.87646 2.69208 2.45279 2.28019 2.10277 1.75977 1.71902 1.61655 1.59177 3.29441 1.54895 1.44584 1.29582 1.28677 1.31814 1.27089 1.26881 1.23639 1.09286 1.02587 1.00581 1.00099 0.973272 0.879591 0.858199 0.858156 0.83817 0.757215 0.750038 0.720082 2.40661 0.71766 0.672786 0.596782 0.591141
threshold=8.5000000000000018 2018.5000000000002 1.8500000000000003 1.8500000000000003 2018.5000000000002 13261.000000000002 1.5000000000000002 3.5000000000000004 10058.500000000002 2014.5000000000002 67824.500000000015 2.1000000000000005 2.5000000000000004 2017.5000000000002 7.5000000000000009 122.50000000000001 2016.5000000000002 2019.5000000000002 2011.5000000000002 2019.5000000000002 250.00000000000003 20188.000000000004 2019.5000000000002 3.5000000000000004 2.5000000000000004 1.5000000000000002 2015.5000000000002 142.50000000000003 2017.5000000000002 1.5000000000000002 130.00000000000003 30000.500000000004 22.000000000000004 155.00000000000003 21283.000000000004 1.5000000000000002 9.5000000000000018 3443.0000000000005 6.5000000000000009 5939.5000000000009 1.1500000000000001 18484.500000000004 2741.0000000000005 1.5000000000000002 34531.500000000007 2139.5000000000005 2017.5000000000002 9596.5000000000018 1.5000000000000002 9.5000000000000018 35933.000000000007 1.6500000000000001 6971.5000000000009 1.0000000180025095e-35 1.6500000000000001 10684.000000000002 5407.5000000000009 6347.5000000000009 2013.5000000000002 37502.500000000007 20188.000000000004 2013.5000000000002
decision_type=2 2 2 2 2 2 2 2 2 2 2 2 2 2 2 2 2 2 2 2 2 2 2 2 2 2 2 2 2 2 2 2 2 2 2 2 2 2 2 2 2 2 2 2 2 2 2 2 2 2 2 2 2 2 2 2 2 2 2 2 2 2
left_child=3 10 6 4 9 -5 45 17 19 18 11 15 30 26 34 31 44 24 -1 32 -12 25 -4 46 -6 39 -13 61 -27 50 60 51 -8 43 -7 36 56 -37 47 -17 -32 -42 -9 -31 48 -3 -18 -25 -14 -10 -23 -2 -26 -38 -46 -30 -34 -58 -29 -36 -11 -20
right_child=1 2 22 5 7 14 8 42 49 12 20 13 16 -15 -16 21 23 -19 27 -21 -22 29 -24 38 52 28 -28 58 55 33 40 -33 35 -35 59 37 53 -39 -40 -41 41 -43 -44 -45 54 -47 -48 -49 -50 -51 -52 -53 -54 -55 -56 -57 57 -59 -60 -61 -62 -63
leaf_value=-0.063668567935625711 0.015853352798148989 0.028009139132850309 0.12967169406050344 0.071035024210472003 -0.022803554996707529 0.039124266207218178 0.069374209493398661 0.031109081362855846 0.038041165346900628 -0.037076529629883316 -0.014926837699917643 0.014047901332378388 -0.02928560688423942 0.076907790648309812 -0.022204285781634484 0.026364871656352824 -0.027559955418109894 0.0011006533723086753 -0.053164528831839565 0.074533776555742545 -0.057228216257962317 0.016137842659033293 0.16195830540223555 0.0026643360698861735 -0.0025685479310501753 0.015973712638434438 0.036677074686009829 -0.040452553373244077 0.030571498311424663 -0.0035106440592143268 -0.035447884223621745 -0.0037965500303491781 0.043036083267493683 -0.010158033306269271 0.020625093030302147 0.055670638243819397 0.058979265888532008 0.042400057282712726 -0.019226424771571354 0.0078863816689261224 -0.023918288690038026 -0.034147685261503344 0.017129432596266269 0.012747739188166129 -0.035317764404308366 0.013835448464926551 -0.018288541277154135 -0.011468112235702575 -0.021766582285789284 0.022596195119652242 0.0089159849597714273 0.0044577779459129821 -0.014732344018231178 0.073626159025090079 -0.02654881294284548 0.023036079340924821 0.073809743469411687 0.045166482234543025 -0.030468813412719304 0.0078031348330633984 -0.043019071747274963 -0.045544916795832772
leaf_weight=36 20 17 59 44 106 9.9999999999999982 20 29 11.999999999999998 84 13.000000000000002 21 106 19 19 10.999999999999998 70 47 40 35 10.999999999999998 120 10.999999999999998 13.999999999999998 29 117 47 36 59 18 193 89 22 19 38 43 14.999999999999998 45 62 69 64 62 37 36 83 68 52 125 76 68 65 95 29 28 35 75 10.999999999999998 22 36 13.999999999999998 85 70
leaf_count=36 20 17 59 44 106 10 20 29 12 84 13 21 106 19 19 11 70 47 40 35 11 120 11 14 29 117 47 36 59 18 193 89 22 19 38 43 15 45 62 69 64 62 37 36 83 68 52 125 76 68 65 95 29 28 35 75 11 22 36 14 85 70
internal_value=0 0.0281531 0.056384 -0.0224444 -0.0266745 0.0319032 0.0428734 -0.00480585 0.0498119 -0.0312325 0.0132882 0.0145864 -0.028216 0.0400009 0.0106464 0.0117982 -0.0226125 -0.0135885 -0.0466053 0.0580771 -0.034315 0.0152009 0.134745 -0.0169302 -0.0177982 0.0188354 0.0296887 -0.0432302 0.0215153 0.010538 -0.0353697 0.00197384 0.0552811 0.00277705 0.0207135 0.0537657 0.0581488 0.0488845 -0.0128769 0.0104272 -0.032882 -0.0289518 0.023272 0.00732828 -0.0287304 0.0166702 -0.0236082 -0.0100447 -0.0261458 0.0249129 0.0136004 0.00643962 -0.00865045 0.0685168 -0.0327168 0.0263539 0.050043 0.0547142 -0.0354607 0.017173 -0.0400654 -0.0483157
internal_weight=0 1380 476 1731 1606 125 406 277 321 1329 904 880 1111 87 81 793 623 211 218 241 24 589 70 323 164 331 68 182 251 258 488 204 206 73 62 186 98 88 201 80 319 126 66 54 300 85 122 139 182 80 185 115 58 43 118 134 55 33 72 52 169 110
internal_count=3111 1380 476 1731 1606 125 406 277 321 1329 904 880 1111 87 81 793 623 211 218 241 24 589 70 323 164 331 68 182 251 258 488 204 206 73 62 186 98 88 201 80 319 126 66 54 300 85 122 139 182 80 185 115 58 43 118 134 55 33 72 52 169 110
is_linear=0
shrinkage=0.05


Tree=6
num_leaves=63
num_cat=0
split_feature=0 1 7 7 1 3 7 0 3 1 3 7 0 1 0 3 1 1 1 1 1 2 1 2 2 0 2 2 0 1 7 4 2 7 1 3 0 3 3 4 2 3 0 1 7 3 3 1 3 7 3 0 3 3 3 7 3 1 1 1 3 7
split_gain=709.646 209.061 181.924 143.658 57.7896 37.5358 26.6474 24.659 23.8478 22.2477 20.1686 22.5111 16.0773 11.9533 9.67037 8.1055 7.81846 4.71017 4.53229 4.0032 3.84894 3.73755 3.48898 3.37748 3.54968 3.15622 2.99143 2.80768 2.71082 2.6832 2.56487 2.35182 2.19408 2.05107 2.14783 1.82995 1.81696 1.81148 1.74677 1.57172 1.50865 1.45894 1.30487 1.25617 1.22299 1.11584 0.986307 0.92585 0.907748 0.903396 0.852121 0.800312 0.774486 0.752704 0.685863 0.683387 0.607189 0.59532 0.582599 0.577374 0.563718 0.548808
threshold=8.5000000000000018 2018.5000000000002 1.8500000000000003 1.8500000000000003 2018.5000000000002 13261.000000000002 1.5000000000000002 3.5000000000000004 10058.500000000002 2014.5000000000002 67824.500000000015 2.1000000000000005 2.5000000000000004 2017.5000000000002 7.5000000000000009 20188.000000000004 2016.5000000000002 2019.5000000000002 2011.5000000000002 2019.5000000000002 2014.5000000000002 1.0000000180025095e-35 2019.5000000000002 1.5000000000000002 1.0000000180025095e-35 3.5000000000000004 1.5000000000000002 1.5000000000000002 2.5000000000000004 2015.5000000000002 1.5000000000000002 1.5000000000000002 1.5000000000000002 1.8500000000000003 2016.5000000000002 5001.5000000000009 9.5000000000000018 2139.5000000000005 19997.500000000004 1.0000000180025095e-35 1.5000000000000002 21283.000000000004 6.5000000000000009 2017.5000000000002 1.2500000000000002 34531.500000000007 2139.5000000000005 2017.5000000000002 9596.5000000000018 1.5000000000000002 35933.000000000007 9.5000000000000018 6971.5000000000009 22.000000000000004 2975.5000000000005 1.6500000000000001 37502.500000000007 2016.5000000000002 2016.5000000000002 2013.5000000000002 33805.500000000007 1.2500000000000002
decision_type=2 2 2 2 2 2 2 2 2 2 2 2 2 2 2 2 2 2 2 2 2 2 2 2 2 2 2 2 2 2 2 2 2 2 2 2 2 2 2 2 2 2 2 2 2 2 2 2 2 2 2 2 2 2 2 2 2 2 2 2 2 2
left_child=3 10 6 4 9 -5 46 17 19 18 11 15 32 29 41 21 45 28 -1 27 -12 43 -4 24 -17 47 35 31 -6 -13 59 36 38 34 -26 -23 -8 -33 -11 -28 51 -7 48 -2 -9 49 -3 -18 -27 -14 -25 -10 -30 -29 -46 -47 -43 -40 -31 -20 61 -50
right_child=1 2 22 5 7 14 8 44 40 12 20 13 16 -15 -16 23 25 -19 30 -21 -22 26 -24 50 33 42 39 53 52 58 -32 37 -34 -35 -36 -37 -38 -39 57 -41 -42 56 -44 -45 54 55 -48 -49 60 -51 -52 -53 -54 -55 -56 -57 -58 -59 -60 -61 -62 -63
leaf_value=-0.060485138744115832 0.019312047361231904 0.026608681788339333 0.12318810780169601 0.067483272979205297 -0.021663376927938103 0.037168051674962045 0.048230027807531536 0.0095582670780519647 0.032972707938064227 -0.031749884676159794 -0.054366805607622304 0.013345506467989513 -0.027821326553645845 0.073062398872877424 -0.021094071708227458 0.014932865561780681 -0.026181958062308178 0.0010456205692459294 -0.050518976741058888 0.070807088602866441 -0.014180495504003306 0.02689128660907348 0.15386039343747226 0.020041648200519072 -0.0057226971509711198 0.0025311194958963566 0.018112722492390654 0.070513374010721844 -0.0024401205848774005 0.028649055390130906 -0.033978968511025109 0.05023626225690047 -0.020012254520718541 0.012558875705948786 0.0039734537359855486 0.010339421429419366 0.063925465728555411 0.031665915995836257 -0.041894416258885313 0.034933741603578837 0.039255098654673651 0.019593838817979159 -0.018265103248460302 0.032310560472854757 0.03126634886419332 -0.033551875798099012 0.013143676187952653 -0.01737411436266624 -0.013538471132863401 -0.020678252981681574 0.0079658755943888722 0.018220846446846347 -0.013995726278115964 0.057901729324034285 0.019649555378903949 -0.025221372480903354 0.0074129781020539146 -0.036055995210220938 0.039846201126392075 -0.043027518037706616 -0.017782831968118747 -0.0060844155494123699
leaf_weight=36 34 17 59 44 106 9.9999999999999982 54 14.999999999999998 10.999999999999998 262 11.000000000000002 21 106 19 19 63 70 47 43 35 12.999999999999998 18 10.999999999999998 48 96 13.999999999999998 41 14.999999999999998 29 21 75 24 28 38 141 231 28 29 65 21 12.999999999999998 38 62 41 27 83 68 52 43 76 21 56 29 56 24 35 13.999999999999998 133 26 64 24 58
leaf_count=36 34 17 59 44 106 10 54 15 11 262 11 21 106 19 19 63 70 47 43 35 13 18 11 48 96 14 41 15 29 21 75 24 28 38 141 231 28 29 65 21 13 38 62 41 27 83 68 52 43 76 21 56 29 56 24 35 14 133 26 64 24 58
internal_value=0 0.0267454 0.0535648 -0.0213222 -0.0253407 0.030308 0.0407297 -0.00456555 0.0473213 -0.0296708 0.0126238 0.0138571 -0.0268052 0.0380008 0.0101141 0.0112083 -0.0214818 -0.0129091 -0.0442751 0.0551733 -0.0325992 0.016399 0.128008 0.00628543 0.00422747 -0.0160837 0.0139829 0.0525171 -0.0169083 0.0282042 -0.0410687 0.0482838 -0.0336012 0.00177496 4.58989e-05 0.0115359 0.0535894 0.0400751 -0.0344284 0.0238102 0.0236673 0.0196779 -0.012233 0.0264179 0.0221084 -0.0272939 0.0158367 -0.0224278 -0.00954247 -0.0248385 0.0163664 0.0206428 -0.00821792 0.0605662 0.0257996 -0.031081 0.0163144 -0.0379726 0.0348432 -0.0460381 -0.0108947 -0.00925792
internal_weight=0 1380 476 1731 1606 125 406 277 321 1329 904 880 1111 87 81 793 623 211 218 241 24 386 70 407 338 323 311 206 164 68 182 135 488 275 237 249 82 53 460 62 80 62 201 75 66 300 85 122 139 182 69 67 58 71 51 118 52 198 47 107 125 101
internal_count=3111 1380 476 1731 1606 125 406 277 321 1329 904 880 1111 87 81 793 623 211 218 241 24 386 70 407 338 323 311 206 164 68 182 135 488 275 237 249 82 53 460 62 80 62 201 75 66 300 85 122 139 182 69 67 58 71 51 118 52 198 47 107 125 101
is_linear=0
shrinkage=0.05


Tree=7
num_leaves=63
num_cat=0
split_feature=0 3 7 7 3 3 7 0 3 7 0 3 3 3 0 5 3 0 5 0 5 2 2 2 4 5 3 2 4 3 7 2 3 3 3 3 4 3 3 3 4 3 7 0 3 0 4 3 0 3 5 3 3 7 3 2 0 3 2 5 4 3
split_gain=640.455 183.394 158.73 129.651 43.078 33.876 26.8941 20.1487 18.1352 22.7482 15.3499 14.5646 11.6511 11.2165 8.72751 8.28329 6.83814 5.76564 4.90655 3.57523 3.47367 2.7986 2.72159 4.11787 2.68434 2.66078 2.38614 2.32418 3.20082 2.66557 2.20135 2.31092 2.18633 2.16842 2.1172 1.83191 1.73166 1.6762 1.67507 1.60531 1.59438 1.51648 1.37402 1.36139 1.32685 1.51651 1.66597 1.31669 1.22752 1.18049 1.06543 1.00934 1.00527 0.939918 1.02355 0.912558 0.85627 0.851184 0.793263 0.774212 0.752511 0.655912
threshold=8.5000000000000018 10058.500000000002 2.1000000000000005 1.8500000000000003 8417.5000000000018 13261.000000000002 1.5000000000000002 3.5000000000000004 67824.500000000015 2.1000000000000005 2.5000000000000004 19091.500000000004 34531.500000000007 6006.5000000000009 7.5000000000000009 122.50000000000001 42065.000000000007 6.5000000000000009 142.50000000000003 2.5000000000000004 250.00000000000003 1.5000000000000002 1.5000000000000002 1.0000000180025095e-35 1.0000000180025095e-35 142.50000000000003 7336.5000000000009 1.5000000000000002 1.5000000000000002 2975.5000000000005 1.6500000000000001 1.5000000000000002 41605.000000000007 1639.0000000000002 80757.500000000015 20985.500000000004 1.5000000000000002 21529.000000000004 30000.500000000004 2741.0000000000005 1.5000000000000002 1000.5000000000001 1.6500000000000001 3.5000000000000004 5407.5000000000009 9.5000000000000018 1.0000000180025095e-35 21283.000000000004 11.500000000000002 17762.500000000004 137.50000000000003 1000.5000000000001 41605.000000000007 1.1500000000000001 25974.000000000004 1.5000000000000002 11.500000000000002 18484.500000000004 1.0000000180025095e-35 25.000000000000004 1.5000000000000002 35933.000000000007
decision_type=2 2 2 2 2 2 2 2 2 2 2 2 2 2 2 2 2 2 2 2 2 2 2 2 2 2 2 2 2 2 2 2 2 2 2 2 2 2 2 2 2 2 2 2 2 2 2 2 2 2 2 2 2 2 2 2 2 2 2 2 2 2
left_child=3 2 6 4 7 -5 41 19 9 15 16 -11 18 27 47 38 25 39 42 33 -10 49 23 35 61 -6 51 28 44 -30 31 36 -13 -1 43 -17 50 56 58 -9 -39 -2 57 -14 45 -8 -47 -7 -29 -20 -15 -4 -45 -27 -55 -35 -25 -12 -3 -59 -51 -24
right_child=1 8 26 5 10 14 13 17 20 11 12 32 34 30 -16 22 -18 -19 21 -21 -22 -23 24 37 -26 53 -28 48 29 -31 -32 -33 -34 55 -36 -37 -38 40 -40 -41 -42 -43 -44 52 -46 46 -48 -49 -50 60 -52 -53 -54 54 -56 -57 -58 59 -60 -61 -62 -63
leaf_value=-0.010046716432507131 0.029543394362553956 0.015649031310835306 0.1407505166530609 0.064109107851982122 -0.037908546568939043 0.035309649631381036 0.044829254439382848 0.028174686611726368 -0.013471471031124772 0.078855253142469078 -0.021842463576720789 0.033045423737898171 -0.038258556635291492 0.033963866760446264 -0.020039368028703489 0.026128304807533476 -0.052651634871959688 -0.012558223457179135 -0.013342894425043484 -0.0059343328090282546 -0.051648464257066901 0.010424721236340702 0.01749680131803924 0.0071320280384859205 0.031512001136110891 -0.032566226664476276 0.10087183659726924 0.049258293658494955 0.049005238668007017 0.027498147979378704 0.018932758761399205 0.050690376623110336 0.013762658426449413 -0.023298136405078055 -0.050047675147652626 0.013391350932757963 0.022718389826858865 0.0091527834547580119 -0.0034978531524695964 0.012554134774070823 -0.0022738125157665532 0.012681019002047834 -0.011177738183843239 -0.023709565649429956 0.069884733511851385 0.044099798781627959 0.067931414056908002 0.015498657212950863 0.063834125329650798 -0.013099197944892305 0.051932123574343597 0.12318890041775175 -0.031673406941386366 -0.022668760186478273 -0.032177392074040009 -0.0094090335572568282 0.013756733287765714 -0.024099943061938158 0.0039121739231632096 -0.033020290606458426 -0.021439452733875826 0.0067630557239883489
leaf_weight=51 15.999999999999998 17 9.9999999999999982 44 181 9.9999999999999982 33 29 13.000000000000002 17 46 49 54 33 19 58 50 18 153 73 10.999999999999998 9.9999999999999982 68 73 36 164 10.999999999999998 20 34 25 22 22 21 131 15.999999999999998 55 29 72 89 38 53 80 13.999999999999998 57 12.999999999999998 10.999999999999998 22 52 52 35 10.999999999999998 45 130 67 49 12.999999999999998 147 37 94 71 119 18
leaf_count=51 16 17 10 44 181 10 33 29 13 17 46 49 54 33 19 58 50 18 153 73 11 10 68 73 36 164 11 20 34 25 22 22 21 131 16 55 29 72 89 38 53 80 14 57 13 11 22 52 52 35 11 45 130 67 49 13 147 37 94 71 119 18
internal_value=0 0.0254082 0.0500123 -0.0202561 -0.0240737 0.0287926 0.0387598 -0.00864557 0.0119049 0.0130917 -0.0284202 0.0373423 -0.0238276 0.0455909 0.00960838 0.0103869 -0.0350888 0.0125656 -0.0192667 -0.015373 -0.0309693 -0.0156056 0.0134126 0.0116448 0.0200488 -0.033184 0.12213 0.052503 0.0487035 0.0398921 0.0331846 0.0364851 0.0272606 -0.0189064 -0.0324347 0.0199289 0.032204 0.0089315 0.00161234 0.0193153 0.00430791 0.0154914 -0.0261749 -0.0312654 0.0552843 0.0524084 0.0599875 0.018694 0.0597853 -0.0164535 0.0384559 0.126382 -0.0292459 -0.0301299 -0.0266853 -0.0220443 0.0115585 -0.0275383 0.00570971 -0.0299642 -0.0195439 0.0152502
internal_weight=0 1380 489 1731 1606 125 423 353 891 867 1253 87 742 327 81 780 511 85 485 268 24 317 580 458 122 461 66 210 138 59 117 95 70 195 257 113 73 345 200 67 125 96 168 241 79 66 33 62 72 307 44 55 187 280 116 144 220 154 111 108 154 86
internal_count=3111 1380 489 1731 1606 125 423 353 891 867 1253 87 742 327 81 780 511 85 485 268 24 317 580 458 122 461 66 210 138 59 117 95 70 195 257 113 73 345 200 67 125 96 168 241 79 66 33 62 72 307 44 55 187 280 116 144 220 154 111 108 154 86
is_linear=0
shrinkage=0.05


Tree=8
num_leaves=63
num_cat=0
split_feature=0 6 7 5 7 5 6 2 4 0 6 6 6 6 6 0 0 6 5 0 0 6 5 4 6 0 4 6 7 6 6 6 6 7 6 6 5 6 5 6 7 0 6 5 2 6 6 6 6 6 5 6 5 0 0 6 0 0 6 2 6 7
split_gain=578.011 133.95 118.31 114.471 35.7017 33.4582 30.173 27.2014 22.0593 16.7373 16.4352 15.7749 11.711 10.7158 8.98527 8.51854 6.91678 8.56417 6.99164 5.38035 5.14581 3.40294 3.25624 2.58403 2.51203 2.3227 2.8041 3.18114 1.6291 1.735 2.15018 1.57625 1.77464 1.55304 1.46672 1.28773 1.24233 4.13665 1.10016 1.0222 0.988981 0.909906 0.867018 0.851987 0.833981 0.779141 0.776126 0.814494 0.764176 0.747866 0.742035 0.729514 0.72124 0.716092 0.683257 2.03249 0.956358 0.673737 0.580781 0.573815 0.603768 0.545726
threshold=8.5000000000000018 34.250000000000007 2.1000000000000005 177.50000000000003 1.6500000000000001 142.50000000000003 41.850000000000009 1.5000000000000002 1.5000000000000002 5.5000000000000009 57.650000000000013 43.150000000000006 73.350000000000009 61.550000000000004 41.850000000000009 3.5000000000000004 6.5000000000000009 45.20000000000001 155.00000000000003 2.5000000000000004 4.5000000000000009 44.45000000000001 155.00000000000003 1.0000000180025095e-35 50.900000000000006 9.5000000000000018 1.5000000000000002 39.500000000000007 1.1500000000000001 46.70000000000001 47.500000000000007 57.050000000000004 60.750000000000007 1.6500000000000001 32.250000000000007 52.800000000000004 202.50000000000003 46.70000000000001 130.00000000000003 39.500000000000007 1.1500000000000001 2.5000000000000004 36.000000000000007 142.50000000000003 1.5000000000000002 43.550000000000004 49.150000000000013 52.800000000000004 39.500000000000007 57.650000000000013 155.00000000000003 50.000000000000007 137.50000000000003 3.5000000000000004 3.5000000000000004 50.900000000000006 2.5000000000000004 3.5000000000000004 52.800000000000004 1.5000000000000002 46.70000000000001 1.1500000000000001
decision_type=2 2 2 2 2 2 2 2 2 2 2 2 2 2 2 2 2 2 2 2 2 2 2 2 2 2 2 2 2 2 2 2 2 2 2 2 2 2 2 2 2 2 2 2 2 2 2 2 2 2 2 2 2 2 2 2 2 2 2 2 2 2
left_child=1 9 4 6 7 19 39 8 12 -1 16 -10 23 36 -5 41 17 18 48 31 22 -13 28 -2 -25 -9 -27 42 46 -30 -31 -3 -33 40 -11 -22 37 -6 -14 -4 -21 -12 -28 -39 -8 -18 -19 -48 -7 -45 -23 -47 -40 -42 56 -56 -32 -49 -53 60 -16 -34
right_child=2 5 3 14 13 10 44 25 11 34 15 21 38 -15 59 -17 45 20 -20 33 35 50 -24 24 -26 26 27 -29 29 30 54 32 61 -35 -36 -37 -38 43 52 -41 53 -43 -44 49 -46 51 47 57 -50 -51 -52 58 -54 -55 55 -57 -58 -59 -60 -61 -62 -63
leaf_value=0.066927005989210947 0.038042748284836614 -0.055020077755817999 0.12372017394412647 -0.011539556174760775 0.046550146321004092 0.0071646789518686445 0.048645382324854526 0.025324120062092944 0.027320185166120142 0.026623520773390065 -0.028873860078125164 0.013406911810360304 0.014650117419660092 0.0002741302372416175 0.015780713116484029 -0.0094066946475456163 -0.016305256223953939 -0.00052657438708203182 -0.016522670689631591 -0.019414158614183014 -0.0021865366873416027 0.0038676569630364957 -0.032599182675282161 0.074242851138114935 0.049407551989757589 0.064507455311038284 0.060041640202204385 0.026398249284217235 -0.0087982851156266414 -0.034624252249212832 -0.015297988502551679 -0.035147369488289483 -0.039138646849564147 -0.019460967445576734 0.0054955234006047252 0.021057921074903931 0.00018603382632136347 0.011305905564085526 0.02903316531873619 0.11031231312524706 -0.033546048471773109 -0.021619468107819558 0.04662387490761085 0.015368507131158064 0.066329923520485543 -0.030694471001625062 -0.014787446286534257 -0.00035322892612644607 0.021361192518046926 0.024878436705932538 -0.0051647556513281807 -0.016532352803782981 0.016634539901637112 -0.028160109298510684 -0.022472232918847691 -0.002163683637315574 -0.026712299317121508 -0.011137465362747512 -0.025545012836272904 0.03442736448425996 0.030218288699785868 -0.051560304313898089
leaf_weight=35 24 12.999999999999998 44 21 10.999999999999998 12.999999999999998 15 11.999999999999998 153 46 319 123 18 237 14 75 46 28 22 22 11.000000000000002 121 21 15.999999999999998 28 22 14.999999999999998 19 80 17 69 190 13.999999999999998 44 9.9999999999999982 12.999999999999998 11.999999999999998 85 120 21 108 50 61 72 12 30 47 28 35 29 28 33 12.999999999999998 144 22 28 25 30 39 19 15 24
leaf_count=35 24 13 44 21 11 13 15 12 153 46 319 123 18 237 14 75 46 28 22 22 11 121 21 16 28 22 15 19 80 17 69 190 14 44 10 13 12 85 120 21 108 50 61 72 12 30 47 28 35 29 28 33 13 144 22 28 25 30 39 19 15 24
internal_value=0 -0.0192433 0.0241378 0.0644216 0.0188173 -0.0225196 0.100934 0.0253169 0.021119 0.0398031 -0.017384 0.0144763 0.0340103 0.00755216 0.015739 -0.0247686 -0.0122369 -0.00937052 0.00681834 -0.0324509 -0.0120751 0.00725156 -0.0134409 0.05124 0.0584386 0.0462737 0.0484223 0.0446973 -0.0123652 -0.0148167 -0.0178072 -0.0380857 -0.0371201 -0.0281806 0.0228507 0.0104042 0.0158052 0.0167567 0.0262512 0.119388 -0.0295808 -0.0278909 0.0492721 0.0149947 0.0565052 -0.0217074 -0.00792307 -0.00989547 0.0175163 0.0180991 0.00217029 -0.0241437 0.0278213 -0.0304684 -0.0158218 -0.0110994 -0.0183337 -0.00593128 -0.0214142 0.0276734 0.0232484 -0.0469839
internal_weight=0 1731 1380 161 1219 1640 92 773 644 91 1081 425 219 446 69 444 637 489 70 559 419 272 395 68 44 129 117 95 374 241 161 241 228 318 56 24 209 197 151 65 274 369 76 186 27 148 133 105 48 101 149 102 133 252 144 50 94 58 72 48 29 38
internal_count=3111 1731 1380 161 1219 1640 92 773 644 91 1081 425 219 446 69 444 637 489 70 559 419 272 395 68 44 129 117 95 374 241 161 241 228 318 56 24 209 197 151 65 274 369 76 186 27 148 133 105 48 101 149 102 133 252 144 50 94 58 72 48 29 38
is_linear=0
shrinkage=0.05


Tree=9
num_leaves=63
num_cat=0
split_feature=6 7 3 1 4 6 1 1 1 6 1 6 1 7 2 7 7 2 1 6 6 6 3 7 6 6 6 7 1 1 6 6 4 1 6 4 3 3 6 6 3 3 6 6 6 3 6 3 3 6 1 3 3 4 7 7 1 3 4 6 6 6
split_gain=384.804 153.224 110.667 109.903 88.5396 64.8302 53.249 31.2616 31.0968 16.9036 11.4729 10.4453 8.93921 7.99722 5.86412 5.8132 5.74561 5.64489 5.36994 5.2528 4.26092 7.14898 4.10325 3.7538 3.74705 3.74151 3.54212 3.24037 2.81254 2.77529 2.77425 2.29288 3.17597 1.99369 1.97887 1.81692 1.77199 1.71731 1.70369 1.73676 1.65096 1.56428 1.53057 1.827 1.49079 1.47657 1.41139 1.40803 1.43071 1.47349 1.35521 1.31793 1.15375 1.09698 1.05498 0.967857 0.96545 0.918458 1.77508 0.839967 0.838976 0.731751
threshold=43.150000000000006 1.5000000000000002 11009.500000000002 2018.5000000000002 1.5000000000000002 45.20000000000001 2015.5000000000002 2013.5000000000002 2017.5000000000002 57.050000000000004 2014.5000000000002 38.95000000000001 2016.5000000000002 1.8500000000000003 1.5000000000000002 1.8500000000000003 1.8500000000000003 1.5000000000000002 2016.5000000000002 50.900000000000006 78.450000000000017 63.500000000000007 2004.5000000000002 1.8500000000000003 37.95000000000001 54.850000000000001 44.45000000000001 2.1000000000000005 2009.5000000000002 2019.5000000000002 63.500000000000007 61.550000000000004 1.5000000000000002 2019.5000000000002 51.850000000000001 1.0000000180025095e-35 36947.500000000007 20818.000000000004 61.550000000000004 59.500000000000007 7794.5000000000009 23847.000000000004 50.900000000000006 53.800000000000004 40.100000000000001 50180.000000000007 36.70000000000001 6347.5000000000009 5407.5000000000009 78.450000000000017 2017.5000000000002 3515.5000000000005 73019.500000000015 1.5000000000000002 1.1500000000000001 2.1000000000000005 2016.5000000000002 30688.000000000004 1.5000000000000002 61.550000000000004 59.500000000000007 37.45000000000001
decision_type=2 2 2 2 2 2 2 2 2 2 2 2 2 2 2 2 2 2 2 2 2 2 2 2 2 2 2 2 2 2 2 2 2 2 2 2 2 2 2 2 2 2 2 2 2 2 2 2 2 2 2 2 2 2 2 2 2 2 2 2 2 2
left_child=2 5 4 6 11 40 23 28 10 33 45 -1 15 14 22 30 20 18 27 -5 21 26 -6 36 -20 34 -14 -9 -4 44 53 32 50 42 56 -21 -3 -18 39 54 -2 -22 -10 -44 -13 -7 -24 48 49 -37 -28 61 -38 59 -27 -39 -12 58 -19 -8 -11 -16
right_child=1 3 7 19 13 8 12 17 9 60 25 29 16 -15 51 -17 37 57 24 35 41 -23 46 -25 -26 38 31 -29 -30 -31 -32 -33 -34 -35 -36 47 52 55 -40 -41 -42 -43 43 -45 -46 -47 -48 -49 -50 -51 -52 -53 -54 -55 -56 -57 -58 -59 -60 -61 -62 -63
leaf_value=0.055895009338855745 0.018789949627809121 -0.018519417766947301 -0.058302896943959306 0.058078860348843513 0.044815918848370065 -0.039318028476434889 0.0060970698370887292 -0.014892754790489564 -0.010602651940037807 -0.019523001548538851 -0.024780663661658764 0.11079381015565662 -0.013470270837608137 0.064086387087317079 0.060756081466873495 0.012731025438815198 0.042646880583329633 0.051152987877527881 0.016999379687798702 0.025281977975233034 0.020716866059923796 -0.011610293426712272 0.028787476520823398 -0.0043764480812983082 0.041424442248211971 -0.016616143022353449 0.014200222243310974 0.013941448064226853 -0.023950484051154214 0.1335635618730025 -0.016622426420590791 0.0037969636759953573 0.0041630790186152891 0.0033328255701344464 -0.000849325517908885 0.050747041209884318 -0.027796685829892889 0.013909964196626906 -0.015660509536974131 -0.032961334006741963 0.0078913074886284972 0.0069791222724597899 0.0026384247682576419 -0.011565524065453145 0.092592554489771536 -0.051057877975541191 0.014212950684416754 0.033995448886171772 0.062669250640002158 0.031646946693460153 0.026432320571714837 0.041392815113067631 -0.043028623291424345 -0.013951627612113954 -0.027653736607656222 0.030978300135869247 -0.016175175580111417 0.025383175969123841 0.029226944968104365 -0.0037288131591751532 -0.025783853409449005 0.045634173229336744
leaf_weight=9.9999999999999982 69 52 11.000000000000002 47 33 97 29 20 159 82 80 45 19 34 24 47 10.999999999999998 14.999999999999998 123 22 67 57 46 22 18 24 84 19 12.999999999999998 10.999999999999998 53 136 73 50 12.999999999999998 23 111 23 24 188 70 30 61 36 14.999999999999998 37 26 38 10.999999999999998 18 31 29 13.999999999999998 20 221 12.999999999999998 55 25 24 87 154 11.999999999999998
leaf_count=10 69 52 11 47 33 97 29 20 159 82 80 45 19 34 24 47 11 15 123 22 67 57 46 22 18 24 84 19 13 11 53 136 73 50 13 23 111 23 24 188 70 30 61 36 15 37 26 38 11 18 31 29 14 20 221 13 55 25 24 87 154 12
internal_value=0 -0.00817622 0.0378205 0.00549341 0.0595106 -0.0191312 -0.000768562 0.0147546 -0.0226504 -0.0135539 -0.029322 0.103738 0.00512141 0.0419499 0.0375226 -0.00300532 0.00864698 0.0201103 0.0155755 0.0440498 0.00706679 0.00478698 0.0302161 -0.0238549 0.0201175 -0.02639 0.00751189 -0.000845323 -0.0396953 0.110476 -0.00691859 0.00874232 0.0123198 -0.00579933 -0.0194806 0.0381627 -0.0262759 0.0253567 -0.0286277 -0.0293464 0.0133014 0.0164681 -0.00758296 -0.00263314 0.106243 -0.0425596 0.0235245 0.0413113 0.0466575 0.0423616 0.0174976 0.0493253 -0.0295027 -0.00313694 -0.0265725 0.0200735 -0.0212747 0.0328644 0.03766 -0.00127234 -0.0236085 0.0557154
internal_weight=0 2558 553 1138 285 1420 979 268 1281 542 739 81 780 204 170 236 544 244 180 159 497 400 105 199 141 605 343 39 24 71 189 324 188 306 148 112 177 47 457 433 139 97 256 97 60 134 72 90 52 41 115 65 125 136 245 36 135 64 39 116 236 36
internal_count=3111 2558 553 1138 285 1420 979 268 1281 542 739 81 780 204 170 236 544 244 180 159 497 400 105 199 141 605 343 39 24 71 189 324 188 306 148 112 177 47 457 433 139 97 256 97 60 134 72 90 52 41 115 65 125 136 245 36 135 64 39 116 236 36
is_linear=0
shrinkage=0.05


Tree=10
num_leaves=63
num_cat=0
split_feature=0 1 6 4 1 0 0 3 3 6 3 1 6 1 0 0 4 6 2 1 0 3 4 4 6 1 6 1 1 6 6 3 1 0 3 4 6 2 2 6 6 3 6 3 3 2 0 6 1 6 3 0 3 3 3 1 3 0 3 3 6 3
split_gain=472.454 142.695 109.302 102.581 38.9327 21.1808 21.109 16.2229 14.5172 17.0938 13.9624 11.3576 9.32756 7.13004 7.07837 6.10974 6.72392 5.69342 4.43114 3.9446 3.69265 2.89475 6.97265 2.78485 4.28717 2.64051 2.62914 2.4478 2.13934 2.06602 1.97466 1.95862 1.65054 1.66856 1.58542 1.57036 1.49017 1.45288 1.28208 1.16268 1.12251 1.11092 1.06184 1.02195 1.00272 0.833947 0.829837 0.801385 0.76633 0.727512 0.826763 0.721452 0.701067 0.698102 0.691785 0.656383 0.652833 0.646892 1.0653 0.633713 0.616763 0.590981
threshold=8.5000000000000018 2018.5000000000002 34.250000000000007 1.0000000180025095e-35 2017.5000000000002 3.5000000000000004 11.500000000000002 10058.500000000002 67824.500000000015 43.850000000000009 13261.000000000002 2014.5000000000002 57.650000000000013 2018.5000000000002 2.5000000000000004 11.500000000000002 1.5000000000000002 35.550000000000004 1.5000000000000002 2016.5000000000002 4.5000000000000009 22252.000000000004 1.5000000000000002 1.5000000000000002 53.800000000000004 2019.5000000000002 44.45000000000001 2011.5000000000002 2019.5000000000002 43.150000000000006 61.550000000000004 14903.000000000002 2015.5000000000002 3.5000000000000004 3515.5000000000005 1.5000000000000002 61.550000000000004 1.5000000000000002 1.0000000180025095e-35 62.250000000000007 41.850000000000009 5214.0000000000009 57.050000000000004 6659.5000000000009 27148.500000000004 1.0000000180025095e-35 9.5000000000000018 32.250000000000007 2017.5000000000002 39.500000000000007 3963.5000000000005 6.5000000000000009 2741.0000000000005 31361.000000000004 2543.0000000000005 2016.5000000000002 210.50000000000003 2.5000000000000004 6659.5000000000009 41270.500000000007 35.100000000000001 19796.500000000004
decision_type=2 2 2 2 2 2 2 2 2 2 2 2 2 2 2 2 2 2 2 2 2 2 2 2 2 2 2 2 2 2 2 2 2 2 2 2 2 2 2 2 2 2 2 2 2 2 2 2 2 2 2 2 2 2 2 2 2 2 2 2 2 2
left_child=2 8 10 6 11 12 28 15 9 21 54 20 25 29 42 16 39 34 -18 30 27 22 -2 24 44 57 -10 -4 49 -7 35 48 -16 -34 60 -11 -33 46 -38 -5 -23 -25 -13 -19 -21 -29 -9 -12 -26 -3 -51 53 56 -35 -1 -44 -15 -6 -59 -42 -17 -43
right_child=1 3 4 7 5 13 -8 37 26 19 47 14 -14 52 32 17 18 43 -20 23 -22 40 -24 41 31 -27 -28 45 -30 -31 -32 36 33 51 -36 -37 38 -39 -40 -41 59 61 55 -45 -46 -47 -48 -49 -50 50 -52 -53 -54 -55 -56 -57 -58 58 -60 -61 -62 -63
leaf_value=0.062173037036605511 0.06065017357468605 0.10817554901386131 -0.053068674187506409 0.055756496265530586 -0.01497698565600095 0.013753322126964729 0.051132276524668153 0.026887868683446538 -0.046202253753488715 0.010471193190211149 0.020384800514659365 -0.019130297489464283 -0.023773144100792707 0.013886883719400923 -0.023946689558986402 0.046769077765444922 0.015109050551485592 0.059530939418694077 0.044137249974643487 0.036918108086836966 -0.027197772827989693 0.012580043413825999 0.025068069260567427 0.021231147535145285 0.01354168583935296 0.0016460339523891501 -0.012988796285711802 -0.024795646530886492 0.12688538594679399 -0.0064101835662121777 -0.0027477945712865285 0.013911144611041022 -0.022320847231293878 -0.0099256097975118866 0.025068524073470724 -0.0078099845775536124 0.012704870459157976 0.031837779512772189 0.0031515048322281643 0.039826696921908669 0.030266599625349045 0.0059138531937178336 -0.032937166948210111 0.04350112353761991 0.020449835527688268 -0.038696135942623999 0.012262572823433071 0.0044319366849958899 0.022848256692491672 0.10370610095560549 0.085379277467727666 -0.018793542392370178 0.013231344394282335 -0.017129920320095204 0.049621165508315683 -0.028106747231422327 0.029192775625147317 -0.0022815677941449594 -0.013214902829245798 0.015373661816120149 0.03324671588264979 -0.00088366308720486076
leaf_weight=23 19 29 31 13.999999999999998 81 14.999999999999998 23 10.999999999999998 11 73 37 25 200 11.000000000000002 151 24 58 58 17 19 79 28 50 9.9999999999999982 55 47 13 11.999999999999998 10.999999999999998 83 101 92 124 82 22 13.999999999999998 50 12.999999999999998 118 63 25 117 110 11.999999999999998 18 107 82 9.9999999999999982 37 16.000000000000004 9.9999999999999982 82 36 57 21 195 19 37 56 9.9999999999999982 12.999999999999998 44
leaf_count=23 19 29 31 14 81 15 23 11 11 73 37 25 200 11 151 24 58 58 17 19 79 28 50 10 55 47 13 12 11 83 101 92 124 82 22 14 50 13 118 63 25 117 110 12 18 107 82 10 37 16 10 82 36 57 21 195 19 37 56 10 13 44
internal_value=0 0.0218227 -0.0173976 0.04398 -0.0203573 -0.0100117 0.0923816 0.0328488 0.0101558 0.0112022 0.0359405 -0.0260939 -0.0159498 0.00523172 -0.0233623 0.0391363 0.0323443 0.0471394 0.0216888 0.0082748 -0.0359467 0.0277909 0.034866 0.0103786 0.0127164 -0.0088698 -0.0282116 -0.0405544 0.106756 -0.00332393 0.00200814 0.0110146 -0.0195869 -0.0176787 0.0356978 0.00752939 0.00879595 0.016181 0.00599477 0.042723 0.0200419 0.00506053 -0.0290369 0.056783 0.0289065 -0.0372944 0.0139924 0.0169906 0.0172845 0.102731 0.0966573 -0.0150741 0.0179356 -0.0128799 0.0561824 -0.0298489 0.0235806 -0.0117103 -0.00886508 0.0260115 0.042018 0.00405615
internal_weight=0 1380 1731 476 1640 585 89 387 904 880 91 1055 421 164 826 281 152 129 75 748 229 132 69 560 389 221 24 150 66 98 188 352 496 345 59 87 260 106 168 77 63 171 330 70 37 119 93 47 92 55 26 221 66 139 44 305 30 174 93 35 37 161
internal_count=3111 1380 1731 476 1640 585 89 387 904 880 91 1055 421 164 826 281 152 129 75 748 229 132 69 560 389 221 24 150 66 98 188 352 496 345 59 87 260 106 168 77 63 171 330 70 37 119 93 47 92 55 26 221 66 139 44 305 30 174 93 35 37 161
is_linear=0
shrinkage=0.05


Tree=11
num_leaves=63
num_cat=0
split_feature=0 1 7 6 1 7 7 3 3 6 3 1 6 0 1 3 7 1 0 3 4 1 6 1 6 1 1 0 3 6 7 1 6 3 0 6 6 3 4 6 1 6 0 6 6 1 7 3 6 3 3 3 0 6 3 0 3 0 6 3 1 0
split_gain=426.389 128.783 110.487 98.6454 35.1368 20.2499 16.2688 15.3303 13.1018 15.4272 12.601 10.397 9.705 7.07781 4.61062 3.6616 3.14399 3.10094 2.8661 2.65828 5.56919 2.59909 2.57547 2.45896 2.37481 2.24673 2.03225 2.01234 1.85257 1.84783 1.40674 1.3901 1.33905 1.335 1.25491 1.20943 1.20359 1.19247 1.17497 2.93469 1.04729 0.971926 0.950033 0.89367 0.871028 0.837128 0.80549 0.78792 0.782285 0.765704 0.763216 1.74371 0.725348 0.72325 0.697624 0.675983 0.662769 0.65111 0.661289 0.624337 0.604705 0.586143
threshold=8.5000000000000018 2018.5000000000002 1.8500000000000003 34.250000000000007 2017.5000000000002 1.2500000000000002 1.5000000000000002 10058.500000000002 67824.500000000015 43.850000000000009 13261.000000000002 2013.5000000000002 57.650000000000013 3.5000000000000004 2018.5000000000002 40110.500000000007 1.8500000000000003 2019.5000000000002 9.5000000000000018 15173.500000000002 1.5000000000000002 2015.5000000000002 35.550000000000004 2019.5000000000002 45.800000000000004 2019.5000000000002 2016.5000000000002 4.5000000000000009 25292.000000000004 78.450000000000017 1.8500000000000003 2015.5000000000002 51.850000000000001 5001.5000000000009 11.500000000000002 40.100000000000001 35.550000000000004 2139.5000000000005 1.5000000000000002 61.550000000000004 2011.5000000000002 45.800000000000004 2.5000000000000004 41.850000000000009 53.800000000000004 2017.5000000000002 1.8500000000000003 22252.000000000004 57.050000000000004 2004.5000000000002 5407.5000000000009 6347.5000000000009 7.5000000000000009 32.250000000000007 29061.000000000004 2.5000000000000004 210.50000000000003 6.5000000000000009 66.500000000000014 2543.0000000000005 2014.5000000000002 2.5000000000000004
decision_type=2 2 2 2 2 2 2 2 2 2 2 2 2 2 2 2 2 2 2 2 2 2 2 2 2 2 2 2 2 2 2 2 2 2 2 2 2 2 2 2 2 2 2 2 2 2 2 2 2 2 2 2 2 2 2 2 2 2 2 2 2 2
left_child=3 8 6 10 11 12 49 17 9 19 59 27 23 28 30 16 18 22 47 20 -2 52 37 41 -10 35 -20 40 42 -24 -7 -21 -19 -28 -33 -4 -9 -8 39 45 -5 -6 48 -16 -18 -35 -17 -11 -13 -3 -31 -52 -15 -12 -46 -14 -45 58 -23 -1 -30 -43
right_child=1 2 25 4 5 14 7 36 24 15 53 13 55 21 43 46 44 32 26 31 -22 57 29 -25 -26 -27 33 -29 60 50 -32 34 -34 38 -36 -37 -38 -39 -40 -41 -42 61 -44 56 54 -47 -48 -49 -50 -51 51 -53 -54 -55 -56 -57 -58 -59 -60 -61 -62 -63
leaf_value=0.059064386072366137 0.065484447435786339 0.022183052654145288 0.10010745308615945 -0.050415240372380904 0.0018287524770130405 -0.0033523172193851607 0.039861399315297606 0.013586434834408309 -0.042529250433047609 0.019311077130927903 0.019365559719704294 -0.017152691488577562 -0.02318067419612424 -0.024654967797299226 0.0088996462237376436 -0.0044812170596384079 0.023679842458417019 0.064048190350117898 5.3091201232746243e-05 0.0080532314023002982 0.025542715075425805 -0.0090501076452589296 0.048109444552192501 0.0023462801175192002 -0.011072848830372094 0.12054111524061724 0.023196259353842057 -0.029487548563629392 -0.036119500464863251 0.028073264120353592 0.01563983109469215 0.031133487692901071 0.043444352845350906 0.01351899900061043 0.017926367045682227 0.083666972517967231 0.026556262884427001 0.025184430266099591 0.0041764334634777538 0.0044983061911383028 -0.038672478223333556 -0.014228136533940281 -0.020159121541952603 0.012937359660863876 0.019403532892465589 0.024181651358958334 0.006566135424443266 0.0097203134756648196 -0.027098809858927361 0.010042862069077682 0.058143997490406024 0.032572691729292273 -0.017631725028578966 0.0042103399150073533 0.0038098771019856661 -0.014964278215735122 0.027864763872890635 -0.017853865145546637 -0.015969251864589751 0.047140106416883924 -0.029051964510428283 -0.0086234697259285238
leaf_weight=23 11.999999999999998 15.999999999999998 44 31 15.999999999999998 52 25 53 12 61 37 22 183 120 12.999999999999998 66 42 23 100 15.999999999999998 32 75 102 50 12 10.999999999999998 13.999999999999998 40 36 18 11.999999999999998 35 11.999999999999998 79 37 14.999999999999998 27 31 158 120 49 81 98 9.9999999999999982 16.000000000000004 24 22 33 195 69 10.000000000000002 20 53 9.9999999999999982 12.999999999999998 29 29 82 64 21 190 110
leaf_count=23 12 16 44 31 16 52 25 53 12 61 37 22 183 120 13 66 42 23 100 16 32 75 102 50 12 11 14 40 36 18 12 35 12 79 37 15 27 31 158 120 49 81 98 10 16 24 22 33 195 69 10 20 53 10 13 29 29 82 64 21 190 110
internal_value=0 0.0207316 0.041781 -0.0165278 -0.0193394 -0.00951113 0.0317785 0.0369289 0.00964804 0.0106421 0.0341434 -0.0247892 -0.0141376 -0.023011 0.00919401 0.00786106 0.00913845 0.0432244 0.0079403 0.0264014 0.0364359 -0.0179134 0.0408865 -0.00760501 -0.026801 0.0997955 0.00642038 -0.0386444 -0.0267235 0.0443025 0.000208711 0.0213841 0.056984 0.00803236 0.0243465 0.0959277 0.0179638 0.0317366 0.00747515 0.00981236 -0.0432228 -0.0100087 -0.0242451 0.0202528 0.019078 0.0160035 -0.00171938 0.0159441 -0.0260904 0.0123281 0.0362128 0.0410965 -0.0225033 0.016141 0.0124133 -0.0220567 0.0240372 -0.0143204 -0.0122359 0.0533733 -0.0301778 -0.0110003
internal_weight=0 1380 476 1731 1640 585 406 321 904 880 91 1055 469 935 116 748 660 241 589 132 44 394 206 257 24 70 495 120 541 150 64 88 35 395 72 59 80 56 381 223 80 207 315 52 71 103 88 94 217 85 48 30 173 47 29 212 39 221 139 44 226 191
internal_count=3111 1380 476 1731 1640 585 406 321 904 880 91 1055 469 935 116 748 660 241 589 132 44 394 206 257 24 70 495 120 541 150 64 88 35 395 72 59 80 56 381 223 80 207 315 52 71 103 88 94 217 85 48 30 173 47 29 212 39 221 139 44 226 191
is_linear=0
shrinkage=0.05


Tree=12
num_leaves=63
num_cat=0
split_feature=6 7 3 1 4 6 1 1 1 6 1 6 5 7 4 6 1 6 6 1 7 3 1 7 6 3 4 6 1 6 6 1 6 6 6 1 3 6 6 3 4 3 3 3 3 6 6 6 3 1 6 6 3 3 1 3 3 1 6 6 1 4
split_gain=283.556 113.106 81.3852 81.16 65.7516 48.0316 39.1752 23.2963 22.8606 12.3919 8.53678 7.86218 6.89202 6.11362 5.05089 4.62544 4.01171 5.67586 3.9704 3.90424 3.55754 3.40648 3.25948 2.90456 2.71314 2.60737 2.35661 6.0251 2.19318 2.00654 1.76427 1.64918 1.64394 1.54201 1.93722 1.49603 1.46968 1.33275 1.4004 1.32672 1.22919 1.16646 1.12225 1.09807 1.19462 1.14779 1.07771 1.59689 1.04669 1.04328 1.03519 0.98375 1.06267 0.916773 0.910057 0.890387 0.819625 0.812831 0.801617 0.634671 0.608222 0.602929
threshold=43.150000000000006 1.5000000000000002 11009.500000000002 2018.5000000000002 1.5000000000000002 45.20000000000001 2015.5000000000002 2013.5000000000002 2017.5000000000002 57.050000000000004 2014.5000000000002 38.95000000000001 122.50000000000001 1.8500000000000003 1.5000000000000002 53.800000000000004 2016.5000000000002 38.95000000000001 50.900000000000006 2019.5000000000002 2.1000000000000005 210.50000000000003 2016.5000000000002 1.8500000000000003 54.850000000000001 18003.000000000004 1.0000000180025095e-35 63.500000000000007 2009.5000000000002 39.500000000000007 44.45000000000001 2016.5000000000002 63.500000000000007 36.70000000000001 35.550000000000004 2019.5000000000002 36947.500000000007 61.550000000000004 59.500000000000007 6659.5000000000009 1.0000000180025095e-35 27455.000000000004 50180.000000000007 6347.5000000000009 5407.5000000000009 78.450000000000017 51.850000000000001 53.800000000000004 22252.000000000004 2016.5000000000002 50.900000000000006 61.550000000000004 26649.500000000004 73019.500000000015 2019.5000000000002 23115.500000000004 4225.5000000000009 2017.5000000000002 41.850000000000009 59.500000000000007 2016.5000000000002 1.0000000180025095e-35
decision_type=2 2 2 2 2 2 2 2 2 2 2 2 2 2 2 2 2 2 2 2 2 2 2 2 2 2 2 2 2 2 2 2 2 2 2 2 2 2 2 2 2 2 2 2 2 2 2 2 2 2 2 2 2 2 2 2 2 2 2 2 2 2
left_child=2 5 4 6 11 39 23 28 10 35 42 -1 22 19 15 41 20 -18 61 21 -9 -6 32 36 31 -19 27 51 -4 54 -16 -12 -8 34 -23 46 -3 38 55 -2 -20 49 -7 44 45 -42 -10 -48 -28 -14 -33 52 -17 -38 -13 -26 -31 -32 -22 -11 -54 -5
right_child=1 3 7 18 13 8 12 16 9 59 24 29 14 -15 30 26 17 25 40 -21 58 33 -24 -25 37 -27 48 -29 -30 56 57 50 -34 -35 -36 -37 53 -39 -40 -41 43 -43 -44 -45 -46 -47 47 -49 -50 -51 -52 -53 60 -55 -56 -57 -58 -59 -60 -61 -62 -63
leaf_value=0.047671782076358797 0.016850675730448631 -0.015522810675723192 -0.050750007412650358 0.043754592183090392 0.04304292370137331 -0.03377297018299398 -0.0032855519620787312 -0.010804882319366915 -0.0089753128127433076 -0.01671596828893554 -0.021633438831195236 0.098071039319038392 0.015638387277722359 0.055288122944972096 -0.013192232096424471 0.015215444199956683 0.016123076416300359 0.054567348531314314 0.022146170349283654 0.057356018679482604 0.0079603601247072216 0.023596040539595547 0.0040165290467167663 -0.0033230991970578379 -0.019889534158162945 0.028140044398605825 0.01957831179158977 -0.0096827682591258332 -0.020414979985127084 0.091506991982460012 -0.0027047604079901552 -0.014883996783850753 -0.014456235599827092 0.017673708125948907 0.039729028219978015 0.0028896771930158141 -0.024004643088256991 -0.013087575696408749 -0.028438300572018679 0.0070379451255767464 0.043527097805686622 0.015909214257003947 -0.044007776717881898 0.028869840081192946 0.054682862487706277 0.026669601144062152 0.0031610039585608651 -0.010384518668676417 0.0074441628099453667 0.0351159007711844 -0.0011353586169302857 0.003463261204180361 0.0010197787023908287 -0.037582475479160042 0.11548804998397828 -0.025932560436296881 0.074514889175241641 0.0070132405186692885 0.023553229402750731 -0.022161410642219347 0.010182930368676105 0.055145429475949359
leaf_weight=9.9999999999999982 63 52 11.000000000000002 21 37 97 87 21 165 82 80 30 9.9999999999999982 34 26 82 148 13.999999999999998 22 13.999999999999998 17 49 109 22 131 28 52 52 12.999999999999998 20.000000000000004 48 49 53 40 30 50 111 24 188 76 23 36 37 38 10.999999999999998 18 55 36 27 22 19 55 27 13.999999999999998 9.9999999999999982 114 10.999999999999998 39 15.999999999999998 154 55 26
leaf_count=10 63 52 11 21 37 97 87 21 165 82 80 30 10 34 26 82 148 14 22 14 17 49 109 22 131 28 52 52 13 20 48 49 53 40 30 50 111 24 188 76 23 36 37 38 11 18 55 36 27 22 19 55 27 14 10 114 11 39 16 154 55 26
internal_value=0 -0.00701862 0.0324659 0.00472588 0.0510664 -0.0164308 -0.00065529 0.0126855 -0.0194599 -0.0116605 -0.0251802 0.0891794 0.00439671 0.0359333 0.00761517 0.0101506 0.0173088 0.0207267 0.037859 0.0320623 0.00528288 0.0297924 -0.00246675 -0.0204571 -0.0226511 0.0369491 0.00783229 0.00561711 -0.0343185 0.0950256 -0.00176381 -0.0167673 -0.00751445 0.0256725 0.0297225 -0.00502101 -0.0225868 -0.0245565 -0.0251922 0.0114854 0.0327407 0.0220833 -0.036599 0.0353305 0.0400517 0.0361262 -0.00656607 -0.00219766 0.0154312 0.0290292 -0.0110425 0.00924996 0.0111906 -0.0255254 0.102425 -0.0227014 0.0854775 0.00165158 0.0155205 -0.0202694 0.0071658 0.0500559
internal_weight=0 2558 553 1138 285 1420 979 268 1281 542 739 81 780 204 531 418 244 190 159 170 54 156 249 199 605 42 350 271 24 71 113 148 140 119 79 306 177 457 433 139 112 68 134 90 52 41 256 91 79 32 68 219 164 125 40 245 31 87 33 236 82 47
internal_count=3111 2558 553 1138 285 1420 979 268 1281 542 739 81 780 204 531 418 244 190 159 170 54 156 249 199 605 42 350 271 24 71 113 148 140 119 79 306 177 457 433 139 112 68 134 90 52 41 256 91 79 32 68 219 164 125 40 245 31 87 33 236 82 47
is_linear=0
shrinkage=0.05


Tree=13
num_leaves=63
num_cat=0
split_feature=0 1 4 1 0 0 0 1 3 3 1 5 1 0 4 4 1 2 4 2 0 0 0 1 3 1 3 0 0 5 3 0 1 1 2 0 3 3 2 3 3 3 2 3 5 1 0 3 1 3 3 3 5 1 3 3 0 2 3 2 3 1
split_gain=348.639 104.868 75.5583 62.1423 41.7668 15.7314 14.7587 15.3034 12.1207 10.8089 7.55103 7.27447 4.7484 4.49569 4.96933 3.49771 4.13881 3.29773 2.92228 2.76525 2.57452 2.47467 5.68987 2.42512 2.27397 2.147 2.09338 2.05643 1.94621 1.8966 1.86215 1.6212 1.57681 1.55442 1.48773 1.46061 1.3246 1.24162 1.20204 1.09492 1.00097 0.917356 0.903412 0.824091 0.807719 0.781369 0.824218 0.737113 0.818274 1.50298 0.673631 0.671514 0.652068 0.638389 0.637908 0.603734 0.601855 0.574674 0.551636 0.542542 0.5271 0.518607
threshold=8.5000000000000018 2018.5000000000002 1.0000000180025095e-35 2018.5000000000002 3.5000000000000004 11.500000000000002 3.5000000000000004 2017.5000000000002 10058.500000000002 67824.500000000015 2014.5000000000002 122.50000000000001 2015.5000000000002 11.500000000000002 1.5000000000000002 1.5000000000000002 2017.5000000000002 1.5000000000000002 1.5000000000000002 1.5000000000000002 4.5000000000000009 10.500000000000002 11.500000000000002 2019.5000000000002 2004.5000000000002 2019.5000000000002 25292.000000000004 4.5000000000000009 11.500000000000002 250.00000000000003 20985.500000000004 2.5000000000000004 2013.5000000000002 2019.5000000000002 1.5000000000000002 2.5000000000000004 44476.500000000007 37735.500000000007 1.5000000000000002 20818.000000000004 2139.5000000000005 2255.5000000000005 1.5000000000000002 19997.500000000004 220.00000000000003 2015.5000000000002 10.500000000000002 6347.5000000000009 2019.5000000000002 5407.5000000000009 80757.500000000015 5214.0000000000009 1.0000000180025095e-35 2016.5000000000002 3276.0000000000005 9927.5000000000018 9.5000000000000018 1.0000000180025095e-35 15397.500000000002 1.0000000180025095e-35 30866.500000000004 2016.5000000000002
decision_type=2 2 2 2 2 2 2 2 2 2 2 2 2 2 2 2 2 2 2 2 2 2 2 2 2 2 2 2 2 2 2 2 2 2 2 2 2 2 2 2 2 2 2 2 2 2 2 2 2 2 2 2 2 2 2 2 2 2 2 2 2 2
left_child=3 9 5 6 23 33 10 12 13 11 36 37 32 14 47 16 28 -16 -15 30 55 43 -23 35 27 34 31 -6 45 -11 51 42 50 -3 40 -5 -1 57 56 -22 -20 -36 61 -18 53 -13 -47 48 49 -4 -8 -17 -34 -14 -37 -9 -10 -2 -24 -33 -30 -12
right_child=1 2 8 4 24 -7 7 20 38 29 26 15 44 18 17 19 21 -19 25 -21 39 22 58 -25 -26 -27 -28 -29 60 -31 -32 59 52 -35 41 54 -38 -39 -40 -41 -42 -43 -44 -45 -46 46 -48 -49 -50 -51 -52 -53 -54 -55 -56 -57 -58 -59 -60 -61 -62 -63
leaf_value=-0.032004037279731189 0.012343259057139649 0.088259063634005472 0.030136320939553637 -0.015071160962172557 0.046892562389373782 0.043671678524950276 -0.027222560769787026 0.004950613657442423 0.022772169553420762 -0.011432305451195971 -0.026466206428797351 0.0094141661499937378 -0.016235538916938966 0.054158469438552861 0.012959899908284948 0.018382494412362577 0.019802596704768284 0.038001933693885805 0.035770078837716331 0.022599503370346847 -0.0049434782281009993 0.052440334934937327 0.026589595143579777 0.001301934473969518 0.023650193210341969 0.054488218149968563 -0.025993000232873986 0.022375001643712707 0.011061375130240643 -0.039641838182102554 -0.0022366577306196893 -0.0048867407339540404 -0.026444967985153202 0.10884866280989214 0.054426508545875552 0.004554206408703557 -0.043388241137328906 -0.0052119387682738171 0.028021989418910098 0.012545756728892835 0.021965771496039014 0.036162223497574982 -0.011925463771469713 0.0072738411769803085 0.00055457525886595251 0.012854074174538255 0.024242550087101918 0.029449032140352455 0.050380156934261323 0.051948719945820898 -0.040865109048106453 0.0073000630572462441 -0.018803692396824667 -0.010787628206890077 -0.0080201269031709276 -0.0069525208813532944 0.010316875271276265 0.0025845473253432276 0.015289435218329784 -0.016458326944848525 0.0058772870562007759 -0.021558861635169208
leaf_weight=78 17 55 28 106 25 23 51 12.999999999999998 10.999999999999998 13.000000000000002 69 21 101 30 58 14.999999999999998 35 17 24 27 10.999999999999998 19 18 47 80 13.999999999999998 219 12.999999999999998 135 10.999999999999998 56 10.999999999999998 35 10.999999999999998 9.9999999999999982 12.999999999999998 38 53 12.999999999999998 48 29 22 21 21 10.999999999999998 24 47 24 13.999999999999998 10.999999999999998 10.999999999999998 154 138 115 45 59 82 134 27 128 77 245
leaf_count=78 17 55 28 106 25 23 51 13 11 13 69 21 101 30 58 15 35 17 24 27 11 19 18 47 80 14 219 13 135 11 56 11 35 11 10 13 38 53 13 48 29 22 21 21 11 24 47 24 14 11 11 154 138 115 45 59 82 134 27 128 77 245
internal_value=0 0.0187464 0.0377411 -0.0149451 0.0046114 0.0792813 -0.0195343 -0.0135424 0.0281879 0.00874469 -0.0239264 0.00964759 -0.0178195 0.0336227 0.0277964 0.0121449 0.0149176 0.0186361 0.0404877 0.00747969 0.00154181 0.0227803 0.0294968 -0.00871115 0.0284339 0.036345 -0.0219501 0.038505 0.0118139 -0.0243617 0.00566531 -0.0200822 -0.0228015 0.0916907 0.0333567 -0.0115808 -0.0357333 0.00137222 0.0137808 0.00928505 0.0282168 0.0418698 -0.0219657 0.0151043 -0.012662 0.0178869 0.0203929 0.0367189 0.0400109 0.0362885 -0.029643 0.00828371 -0.0203496 -0.013335 -0.00520174 -0.00480334 0.0117901 0.00368321 0.0198095 -0.0155426 0.00917848 -0.0226372
internal_weight=0 1380 476 1731 329 89 1402 593 387 904 809 880 462 281 152 676 424 75 129 252 131 120 64 211 118 99 693 38 304 24 225 474 235 66 85 164 116 204 106 59 53 32 335 56 227 92 71 77 53 39 62 169 173 216 58 72 93 151 45 139 212 314
internal_count=3111 1380 476 1731 329 89 1402 593 387 904 809 880 462 281 152 676 424 75 129 252 131 120 64 211 118 99 693 38 304 24 225 474 235 66 85 164 116 204 106 59 53 32 335 56 227 92 71 77 53 39 62 169 173 216 58 72 93 151 45 139 212 314
is_linear=0
shrinkage=0.05


Tree=14
num_leaves=63
num_cat=0
split_feature=0 1 4 1 0 0 0 1 3 3 1 5 1 0 4 4 0 2 5 0 3 2 4 0 1 3 3 0 1 3 0 1 3 1 2 0 2 3 3 3 1 3 3 2 3 0 1 5 0 3 1 3 3 1 3 3 3 3 2 5 0 3
split_gain=314.646 94.6438 68.1914 56.0834 37.6945 14.1976 13.3197 13.8113 10.9434 9.83253 6.81481 6.38891 4.28543 4.07361 4.3208 3.49029 3.84024 2.9003 2.68324 2.53634 5.40583 2.51722 2.43792 2.3235 2.18867 2.05225 1.88927 1.85593 1.84818 1.8206 1.46314 1.45414 1.4317 1.40286 1.3879 1.3182 1.21966 1.19545 0.996195 0.988168 0.959104 0.827914 0.815353 0.81533 0.803854 0.787814 0.786446 0.728967 0.718658 0.652424 0.738492 1.35644 0.620136 0.576146 0.575712 0.548554 0.497852 0.493731 0.489644 0.485815 0.454523 0.584426
threshold=8.5000000000000018 2018.5000000000002 1.0000000180025095e-35 2018.5000000000002 3.5000000000000004 11.500000000000002 3.5000000000000004 2017.5000000000002 9927.5000000000018 59019.500000000007 2014.5000000000002 122.50000000000001 2015.5000000000002 11.500000000000002 1.5000000000000002 1.5000000000000002 11.500000000000002 1.5000000000000002 262.50000000000006 10.500000000000002 20572.000000000004 1.5000000000000002 1.5000000000000002 4.5000000000000009 2019.5000000000002 2004.5000000000002 25292.000000000004 4.5000000000000009 2019.5000000000002 21725.500000000004 2.5000000000000004 2017.5000000000002 57800.000000000007 2019.5000000000002 1.5000000000000002 2.5000000000000004 1.5000000000000002 44476.500000000007 30000.500000000004 20818.000000000004 2016.5000000000002 2255.5000000000005 22252.000000000004 1.5000000000000002 2139.5000000000005 9.5000000000000018 2012.5000000000002 220.00000000000003 7.5000000000000009 6347.5000000000009 2019.5000000000002 5407.5000000000009 9442.5000000000018 2016.5000000000002 3276.0000000000005 10343.000000000002 15397.500000000002 1000.5000000000001 1.0000000180025095e-35 25.000000000000004 6.5000000000000009 30688.000000000004
decision_type=2 2 2 2 2 2 2 2 2 2 2 2 2 2 2 2 2 2 2 2 2 2 2 2 2 2 2 2 2 2 2 2 2 2 2 2 2 2 2 2 2 2 2 2 2 2 2 2 2 2 2 2 2 2 2 2 2 2 2 2 2 2
left_child=3 9 5 6 24 33 10 12 13 11 37 38 32 14 49 16 19 57 -11 42 -21 29 -15 55 35 27 30 -6 36 52 43 -18 48 -3 45 -5 44 -1 -2 -25 -22 -38 -13 59 -24 -10 -34 53 -8 50 51 -4 -17 -14 -37 -9 -33 -16 -32 -12 61 -55
right_child=1 2 8 4 25 -7 7 23 34 18 26 15 47 22 17 21 31 -19 -20 20 40 -23 28 39 -26 -27 -28 -29 -30 -31 58 56 46 -35 -36 54 41 -39 -40 -41 -42 -43 -44 -45 -46 -47 -48 -49 -50 -51 -52 -53 -54 60 -56 -57 -58 -59 -60 -61 -62 -63
leaf_value=-0.030403835689410186 0.0045823375918173596 0.08384611183946783 0.028629505168646575 -0.014317603056529925 0.044547932624816898 0.041488094109555951 -0.02146677025787843 0.0036016594473039735 0.022963130588714895 -0.0089200503006577492 -0.02531773009986589 0.017728213638138885 -0.015423762004379886 0.051481760986920061 0.02265905648469925 0.011917433074391368 0.0089104659968996022 0.036101836667341347 -0.039565328359603885 0.050008694670702285 0.014238992266149986 0.021469528531586683 0.033981574093922974 -0.0046963042410259901 0.0012368376247901868 0.022467683404065613 -0.024693350459887013 0.021256251747791582 0.051763808301516945 -0.002993386205943192 -0.0046424037353558975 0.025260115527473523 -0.039675369610389075 0.10340622826056048 0.028329777185406003 0.0043264961317897995 0.051705185472965244 -0.04121882891968677 -0.0025321246700112298 0.011918468807076959 0.026457250349480533 0.034354111552238463 0.0070186268943534403 -0.011329190548331966 0.021405176166445019 0.0097467152434675131 -0.025421769410371782 0.00052684645845808766 -0.014475988635775755 0.027767563694876363 0.047861148416996006 0.049351285262541345 0.0056026541192917842 -0.0039871754213458019 -0.0076191204846448582 -0.006895986936121647 0.01452496349811554 0.010424062986412344 -0.015635410563118058 -0.020490784977652856 -0.013708178999905403 -0.014202939443999814
leaf_weight=78 115 55 28 106 25 23 120 15.999999999999998 12.999999999999998 25 66 52 101 29 9.9999999999999982 59 209 17 9.9999999999999982 19 36 27 24 10.999999999999998 47 80 219 12.999999999999998 13.999999999999998 51 10.999999999999998 18 11.999999999999998 10.999999999999998 13.999999999999998 12.999999999999998 9.9999999999999982 38 86 48 29 22 27 21 27 85 50 10.999999999999998 53 22 13.999999999999998 10.999999999999998 114 42 45 56 27 47 128 248 52 21
leaf_count=78 115 55 28 106 25 23 120 16 13 25 66 52 101 29 10 59 209 17 10 19 36 27 24 11 47 80 219 13 14 51 11 18 12 11 14 13 10 38 86 48 29 22 27 21 27 85 50 11 53 22 14 11 114 42 45 56 27 47 128 248 52 21
internal_value=0 0.017809 0.0358541 -0.0141978 0.00438083 0.0753172 -0.0185576 -0.0128653 0.0267785 0.00830746 -0.0227301 0.00935396 -0.0169285 0.0321443 0.0265482 0.0117057 0.0145097 0.0179764 -0.0176758 0.0204994 0.026548 0.00704719 0.0387619 0.00146472 -0.00827559 0.0270122 -0.0208526 0.0365797 0.0349591 0.00530879 -0.0190781 0.0106659 -0.0216614 0.0871061 0.0136036 -0.0110017 0.0321246 -0.0339467 0.00153834 0.0088208 0.0196902 0.0397763 0.014068 -0.0208675 0.0273235 0.0114999 -0.0281805 -0.0120289 -0.0193251 0.0350058 0.0380103 0.0344741 0.00775625 -0.0126683 -0.00494165 -0.00456318 0.018819 0.0125706 -0.0147655 -0.0215054 -0.0102482 -0.00739243
internal_weight=0 1380 476 1731 329 89 1402 593 387 904 809 869 462 275 149 668 417 74 35 163 84 251 126 131 211 118 693 38 97 224 474 254 235 66 112 164 83 116 201 59 65 32 79 335 51 98 62 227 173 75 53 39 173 216 58 72 45 57 139 314 115 63
internal_count=3111 1380 476 1731 329 89 1402 593 387 904 809 869 462 275 149 668 417 74 35 163 84 251 126 131 211 118 693 38 97 224 474 254 235 66 112 164 83 116 201 59 65 32 79 335 51 98 62 227 173 75 53 39 173 216 58 72 45 57 139 314 115 63
is_linear=0
shrinkage=0.05


Tree=15
num_leaves=63
num_cat=0
split_feature=0 1 6 4 1 6 0 0 1 6 4 2 1 6 0 6 1 5 4 1 1 0 0 1 1 0 1 1 6 6 6 1 1 1 1 0 1 6 6 6 6 5 1 2 6 0 6 6 6 6 4 6 6 6 6 6 5 6 6 5 4 2
split_gain=283.968 85.416 67.973 61.5427 23.3014 12.8911 12.0491 9.14789 8.80162 12.7215 7.42747 7.95446 7.27318 5.75222 4.73472 4.51128 3.76458 3.2985 3.16612 2.71882 1.68888 1.62671 1.51493 4.25269 1.49479 1.41044 1.37021 1.36227 1.27117 1.2276 1.11919 1.11742 1.10206 1.02419 0.942013 0.860107 0.775136 0.684841 0.680731 0.633514 0.723808 0.572662 0.527664 0.512053 0.579632 0.511911 0.551708 0.489921 0.48566 0.498833 0.786565 0.389145 0.365117 0.363257 0.336747 0.333483 0.65796 0.317328 0.288978 0.284445 0.271239 0.260728
threshold=8.5000000000000018 2018.5000000000002 34.250000000000007 1.0000000180025095e-35 2017.5000000000002 45.20000000000001 3.5000000000000004 5.5000000000000009 2013.5000000000002 43.850000000000009 1.5000000000000002 1.5000000000000002 2013.5000000000002 57.650000000000013 3.5000000000000004 50.900000000000006 2018.5000000000002 122.50000000000001 1.5000000000000002 2019.5000000000002 2015.5000000000002 11.500000000000002 11.500000000000002 2017.5000000000002 2019.5000000000002 2.5000000000000004 2018.5000000000002 2019.5000000000002 43.150000000000006 53.800000000000004 50.900000000000006 2016.5000000000002 2016.5000000000002 2015.5000000000002 2017.5000000000002 2.5000000000000004 2017.5000000000002 39.500000000000007 36.000000000000007 35.550000000000004 37.45000000000001 1.0000000180025095e-35 2010.5000000000002 1.0000000180025095e-35 49.150000000000013 6.5000000000000009 77.350000000000009 41.850000000000009 41.850000000000009 44.45000000000001 1.5000000000000002 51.850000000000001 59.500000000000007 48.300000000000004 32.250000000000007 61.550000000000004 137.50000000000003 55.95000000000001 78.450000000000017 155.00000000000003 1.5000000000000002 1.0000000180025095e-35
decision_type=2 2 2 2 2 2 2 2 2 2 2 2 2 2 2 2 2 2 2 2 2 2 2 2 2 2 2 2 2 2 2 2 2 2 2 2 2 2 2 2 2 2 2 2 2 2 2 2 2 2 2 2 2 2 2 2 2 2 2 2 2 2
left_child=2 8 7 5 12 27 13 -1 -2 22 15 19 25 24 30 53 28 31 29 21 41 -12 23 47 43 -4 54 37 -8 32 -14 -11 -19 -32 -20 52 -31 -3 -13 -24 -41 -16 -27 -6 -45 46 -22 -10 -18 -50 -51 -36 -35 -5 -9 -38 -57 -26 -17 60 -43 -33
right_child=1 3 4 10 6 -7 16 26 9 17 11 38 14 -15 20 58 48 18 34 -21 45 -23 39 -25 57 42 -28 -29 -30 36 33 61 -34 35 51 -37 55 -39 -40 40 -42 59 -44 44 -46 -47 -48 -49 49 50 -52 -53 -54 -55 -56 56 -58 -59 -60 -61 -62 -63
leaf_value=0.0486267192874636 -0.030089444667100909 0.084402600444596396 -0.039372770742672251 0.059794494509696941 0.00109175027658542 0.037308874300548009 0.010857407317186395 0.01360588479658653 0.01016326578333974 -0.0028133268979438977 0.0088772679091198379 0.046366477757692343 -0.013649937904511507 -0.018440606244257651 -0.024015481173992159 0.034083463395795516 0.0046437260777955616 0.0099456769594502073 -0.0027422790534156203 0.038821893604472281 -0.0084560780616372757 0.01830287567104831 0.010587898679077626 0.048476676956603404 0.0047109649982303384 -0.038103124431588434 0.02788747229120311 0.098235919258811255 -0.004958734902586923 0.0077899212109444381 -0.026494612187898461 0.010799301229417324 0.022726123347072989 -0.020356447219848636 0.0073205421127591139 -0.017589275159969411 0.019266792014241221 0.073439726872103553 0.033243646818612305 0.03314874775707722 0.018070621718055544 -0.016564198268690346 -0.026299601168755224 -0.0069706601081644289 -0.012998389816370755 -0.01484010719535191 -0.016933014535385631 0.02294242928425471 0.024076320417225364 0.018795133534480226 0.004701605541372879 0.0017824349768969388 -0.024176624626991994 0.048377164178772976 0.0029655561968684198 0.014613726155321097 0.0032553951146409793 -0.003598562460392714 0.028121126426967902 -0.013422613885874549 -0.022298084398110707 0.003469807869411882
leaf_weight=35 14.999999999999998 29 41 11.000000000000002 11.999999999999998 21 14.999999999999998 29 9.9999999999999982 107 80 11.999999999999998 39 200 35 31 13.999999999999998 31 54 11.999999999999998 116 107 20 19 27 10.999999999999998 17 10.999999999999998 83 208 119 13.999999999999998 37 100 79 116 19 28 56 9.9999999999999982 39 66 68 91 71 82 23 30 11.999999999999998 22 18 53 167 19 9.9999999999999982 51 17 20 59 42 30 91
leaf_count=35 15 29 41 11 12 21 15 29 10 107 80 12 39 200 35 31 14 31 54 12 116 107 20 19 27 11 17 11 83 208 119 14 37 100 79 116 19 28 56 10 39 66 68 91 71 82 23 30 12 22 18 53 167 19 10 51 17 20 59 42 30 91
internal_value=0 0.0169186 -0.013488 0.0340613 -0.0158219 0.0715513 -0.00781825 0.0285742 0.00789208 0.00853294 0.0254396 0.0207959 -0.0202599 -0.0122969 -0.0187727 0.035772 0.00367888 0.00607992 0.00812551 0.015751 -0.0146034 0.0142705 0.0231169 0.0289994 -0.00673706 -0.0318483 0.0160413 0.0821262 -0.0025379 0.0108435 -0.0218091 0.000782626 0.0168997 -0.0224429 0.00282102 -0.0211841 0.00944751 0.0790173 0.0355594 0.018087 0.0211478 -0.0183033 -0.0279431 -0.00887422 -0.00961244 -0.011707 -0.00985874 0.0197476 0.0129098 0.0151353 0.012453 0.00509691 -0.0227458 0.0525635 0.0108776 0.0134105 0.0117741 0.001175 0.0301748 -0.0168546 -0.018356 0.00444707
internal_weight=0 1380 1731 476 1640 89 585 91 904 889 387 267 1055 421 935 120 164 761 549 199 394 187 128 59 221 120 56 68 98 363 541 212 68 502 186 383 295 57 68 69 49 173 79 174 162 221 139 40 66 52 40 132 267 30 39 87 68 47 90 138 96 105
internal_count=3111 1380 1731 476 1640 89 585 91 904 889 387 267 1055 421 935 120 164 761 549 199 394 187 128 59 221 120 56 68 98 363 541 212 68 502 186 383 295 57 68 69 49 173 79 174 162 221 139 40 66 52 40 132 267 30 39 87 68 47 90 138 96 105
is_linear=0
shrinkage=0.05


Tree=16
num_leaves=63
num_cat=0
split_feature=0 1 7 6 1 7 7 0 1 6 1 6 6 0 5 1 6 1 6 1 0 1 7 6 6 1 7 1 6 1 1 1 7 0 6 1 1 1 7 6 6 0 7 6 0 6 6 0 7 6 6 6 0 1 6 6 6 5 2 1 6 6
split_gain=256.281 77.088 66.5143 61.3457 21.0295 11.9636 9.9506 8.25597 7.94347 11.4811 6.56404 5.87717 5.24816 4.27309 2.9769 2.44937 1.53145 1.52422 1.44403 1.43347 1.36722 3.83805 1.35888 1.29806 1.58962 1.23662 1.14838 1.12435 1.01007 1.00848 0.994612 0.924331 0.859276 0.776247 0.71776 0.717204 0.697158 0.583527 0.577743 0.571746 0.653237 0.510329 0.620334 0.482604 0.461999 0.513211 0.442154 0.421863 0.382123 0.349092 0.329518 0.325124 0.308813 1.08106 0.606892 0.303914 0.300969 0.593809 0.258913 0.253067 0.250778 0.928334
threshold=8.5000000000000018 2018.5000000000002 1.8500000000000003 34.250000000000007 2017.5000000000002 1.2500000000000002 1.5000000000000002 5.5000000000000009 2013.5000000000002 43.850000000000009 2013.5000000000002 57.650000000000013 35.550000000000004 3.5000000000000004 122.50000000000001 2018.5000000000002 78.450000000000017 2015.5000000000002 39.500000000000007 2019.5000000000002 11.500000000000002 2017.5000000000002 1.6500000000000001 45.20000000000001 51.850000000000001 2018.5000000000002 1.5000000000000002 2017.5000000000002 50.900000000000006 2016.5000000000002 2016.5000000000002 2015.5000000000002 1.6500000000000001 2.5000000000000004 41.850000000000009 2010.5000000000002 2017.5000000000002 2019.5000000000002 1.6500000000000001 35.550000000000004 37.45000000000001 2.5000000000000004 1.1500000000000001 53.800000000000004 6.5000000000000009 66.500000000000014 41.850000000000009 2.5000000000000004 1.2500000000000002 55.95000000000001 59.500000000000007 40.100000000000001 11.500000000000002 2019.5000000000002 45.20000000000001 32.250000000000007 61.550000000000004 137.50000000000003 1.5000000000000002 2016.5000000000002 48.300000000000004 50.000000000000007
decision_type=2 2 2 2 2 2 2 2 2 2 2 2 2 2 2 2 2 2 2 2 2 2 2 2 2 2 2 2 2 2 2 2 2 2 2 2 2 2 2 2 2 2 2 2 2 2 2 2 2 2 2 2 2 2 2 2 2 2 2 2 2 2
left_child=3 8 6 7 10 11 -3 -1 -2 20 22 19 -8 28 29 32 52 38 37 41 21 46 35 27 30 55 -26 59 -12 -11 -25 -30 -7 50 -17 -5 -28 -4 -15 -22 -41 58 43 -43 45 -19 -10 -13 -37 -21 -33 -20 -14 54 -54 -9 -38 -58 -6 -16 -56 -62
right_child=1 2 18 4 5 15 12 25 9 14 13 47 16 17 23 34 -18 44 51 49 39 -23 -24 24 26 -27 36 -29 31 -31 -32 33 -34 -35 -36 48 56 -39 -40 40 -42 42 -44 -45 -46 -47 -48 -49 -50 -51 -52 -53 53 -55 60 -57 57 -59 -60 -61 61 -63
leaf_value=0.046195384349141805 -0.028584972818692531 0.0093858263184152108 0.080182471152009646 -0.040145781360290671 -0.012288345510023647 -0.0030833788047992983 0.020239926216693724 0.012925590613278852 0.0096551025658845914 -0.0026726605232465562 -0.012967440927735505 -0.018033889453995543 0.032671176801834789 -0.019827744527028339 -0.0081330084924896556 0.004835802228906407 0.026715070413330856 -0.0065592676329736914 0.074274293892085549 0.0051094113787015279 0.010058503570035101 0.046052842940154833 -0.021040107943117621 0.0094483932187300057 0.0013401127138206641 0.026493097841739657 0.0074096019550079998 0.0069545149567383753 -0.025169881326811656 0.0042247199874726081 0.021589816935561799 -0.019338624864816668 0.010034176671444371 -0.016709811426699164 0.018401973489194347 -0.034238464012742047 0.018303452745864267 0.094189105033874509 -0.013965909573986815 0.031491309851408009 0.017167090747553189 0.0016086087688260402 -0.0090367253188655457 -0.0076634571118199312 -0.014098102101919856 -0.012654704578744715 0.021795308043559392 -0.011543073033078992 -0.02644938999606717 -0.0034186343895271421 -0.022967793016198154 0.064027935067812611 0.031653283081120913 0.05067080876656941 0.044682129428667186 0.0028172784112393857 0.013883039959724628 0.0030926253537044805 -0.0053465035250958278 -0.00030041253582263985 0.02492160558700561 0.044341590348631145
leaf_weight=35 14.999999999999998 85 29 27 64 47 118 29 9.9999999999999982 107 39 183 42 101 14.999999999999998 12.999999999999998 59 75 16.000000000000004 30 20 19 30 31 59 17 208 79 119 105 37 100 17 116 39 32 19 9.9999999999999982 72 9.9999999999999982 39 36 67 23 82 64 30 29 31 20 167 14.999999999999998 45 13.999999999999998 17 9.9999999999999982 51 17 17 33 10.000000000000002 15.999999999999998
leaf_count=35 15 85 29 27 64 47 118 29 10 107 39 183 42 101 15 13 59 75 16 30 20 19 30 31 59 17 208 79 119 105 37 100 17 116 39 32 19 10 72 10 39 36 67 23 82 64 30 29 31 20 167 15 45 14 17 10 51 17 17 33 10 16
internal_value=0 0.0160727 0.0323583 -0.0128136 -0.0150308 -0.00742734 0.0245974 0.0271455 0.00749748 0.00810629 -0.0192469 -0.0109834 0.0286254 -0.017834 0.00577593 0.00695004 0.0334997 -0.0138732 0.0773713 -0.00589979 0.021961 0.0275494 -0.0302558 0.00771924 0.00905299 0.0152392 0.00770802 0.00328739 -0.0207186 0.000743495 0.0160548 -0.0213208 0.000400972 -0.0201249 0.0150104 -0.0333278 0.0089816 0.0837739 -0.0173881 0.0171826 0.0200904 -0.00773505 -0.00574453 -0.00200593 -0.0111217 -0.0093658 0.0187603 -0.017146 -0.0304057 0.00169819 -0.0216086 0.0693164 0.0362796 0.0377654 0.0357122 0.0103337 0.0127399 0.0111854 -0.0108314 -0.0027481 0.0399599 0.0368724
internal_weight=0 1380 476 1731 1640 585 406 91 904 889 1055 469 321 935 761 116 203 394 70 257 128 59 120 549 422 56 354 127 541 212 68 502 64 383 52 90 295 39 173 69 49 207 126 59 221 139 40 212 63 50 267 31 144 102 88 39 87 68 81 48 43 26
internal_count=3111 1380 476 1731 1640 585 406 91 904 889 1055 469 321 935 761 116 203 394 70 257 128 59 120 549 422 56 354 127 541 212 68 502 64 383 52 90 295 39 173 69 49 207 126 59 221 139 40 212 63 50 267 31 144 102 88 39 87 68 81 48 43 26
is_linear=0
shrinkage=0.05


Tree=17
num_leaves=63
num_cat=0
split_feature=0 3 7 6 3 7 3 7 0 0 0 3 3 3 3 6 5 6 3 5 3 6 7 6 4 3 3 7 3 5 3 5 0 3 3 7 4 6 3 3 6 4 4 5 6 3 3 4 6 3 3 0 0 7 6 3 4 3 5 6 3 6
split_gain=231.294 71.6723 57.3151 55.3645 16.6233 10.0353 7.58929 9.33416 7.45102 6.94105 6.63338 5.28498 5.04054 4.36292 3.09725 2.70499 2.39403 2.03853 1.95995 1.94986 1.71534 1.49667 1.42672 1.30445 2.39078 1.11132 1.06056 0.995387 0.969182 0.933088 0.914401 0.863034 0.81585 0.809854 0.781944 0.740096 0.715856 1.92325 1.90965 0.771855 0.698191 0.678967 0.617594 1.26476 0.951256 0.600525 0.591423 0.589937 0.560119 0.530874 0.515501 0.503235 1.14182 0.492382 0.948142 0.654207 0.485341 0.476243 0.474198 0.419733 0.416422 0.41035
threshold=8.5000000000000018 10058.500000000002 2.1000000000000005 34.250000000000007 8417.5000000000018 1.5000000000000002 59019.500000000007 2.1000000000000005 5.5000000000000009 2.5000000000000004 2.5000000000000004 20572.000000000004 40110.500000000007 6006.5000000000009 34531.500000000007 41.20000000000001 122.50000000000001 41.850000000000009 17762.500000000004 262.50000000000006 2741.0000000000005 57.650000000000013 1.6500000000000001 43.850000000000009 1.5000000000000002 21283.000000000004 35933.000000000007 1.6500000000000001 1000.5000000000001 142.50000000000003 210.50000000000003 25.000000000000004 3.5000000000000004 28981.000000000004 70213.500000000015 1.6500000000000001 1.5000000000000002 57.050000000000004 5407.5000000000009 3443.0000000000005 50.900000000000006 1.0000000180025095e-35 1.5000000000000002 137.50000000000003 44.45000000000001 54615.500000000007 38540.000000000007 1.5000000000000002 35.550000000000004 46777.000000000007 1498.5000000000002 6.5000000000000009 3.5000000000000004 1.6500000000000001 61.550000000000004 22252.000000000004 1.5000000000000002 19796.500000000004 25.000000000000004 39.500000000000007 210.50000000000003 50.000000000000007
decision_type=2 2 2 2 2 2 2 2 2 2 2 2 2 2 2 2 2 2 2 2 2 2 2 2 2 2 2 2 2 2 2 2 2 2 2 2 2 2 2 2 2 2 2 2 2 2 2 2 2 2 2 2 2 2 2 2 2 2 2 2 2 2
left_child=3 2 5 8 10 28 7 16 -1 14 21 -9 15 30 31 -11 33 50 47 -8 32 40 29 48 26 -10 53 34 -2 58 56 -6 -12 -3 -14 42 37 41 -39 -38 -5 -32 43 -15 -44 -29 -13 -17 -18 -16 -4 52 -22 55 -55 -25 -7 -26 -20 -52 -34 -43
right_child=1 6 17 4 9 13 19 11 25 12 20 46 27 35 49 18 23 -19 22 -21 51 -23 -24 24 57 -27 -28 45 -30 -31 36 -33 60 -35 -36 -37 39 38 -40 -41 -42 61 44 -45 -46 -47 -48 -49 -50 -51 59 -53 -54 54 -56 -57 -58 -59 -60 -61 -62 -63
