tree
version=v3
num_class=1
num_tree_per_iteration=1
label_index=0
max_feature_idx=7
objective=regression
feature_names=Column_0 Column_1 Column_2 Column_3 Column_4 Column_5 Column_6 Column_7
feature_infos=[0:14] [2000:2020] [0:3] [1:138000] [0:2] [0:555] [1.1000000000000001:256.80000000000001] [0:2.8999999999999999]
tree_sizes=5414 5394 5403 5417 5415 5407 5425 5454 5427 5439 5432 5432 5438 5445 5449 5452 5460 5464 5456 5481 5467 5459 5483 5474 5488 5483 5489 5493 5520 5517 5497 5514 5523 5517 5534 5544 5544 5566 5552 5582 5577 5590 5592 5563 5582 5578 5586 5584 5570 5634 5592 5606 5580 5623 5578 5601 5593 5599 5616 5644 5649 5624 5617 5670 5602 5653 5642 5626 5640 5687 5647 5677 5644 5644 5642 5654 5653 5652 5674 5672 5678 5664 5675 5705 5660 5685 5720 5679 5666 5718 5696 5676 5727 5727 5692 5673 5682 5673 5677 5693 5684 5694 5717 5702 5740 5691 5705 5725 5694 5682 5711 5715 5678 5701 5702 5737 5687 5709 5703 5765 5704 5722 5734 5698 5719 5707 5737 5716 5715 5723 5695 5691 5731 5676 5705 5709 5717 5758 5679 5706 5704 5704 5686 5694 5718 5691 5744 5719 5709 5711 5699 5735 5765 5727 5769

Tree=0
num_leaves=63
num_cat=0
split_feature=0 1 6 7 1 7 1 0 0 3 7 1 6 1 0 1 3 6 1 2 1 0 1 3 1 1 6 0 1 2 6 3 0 0 5 3 3 3 5 6 1 5 0 6 7 3 5 3 3 6 3 5 3 3 1 5 6 0 1 2 3 3
split_gain=1198.47 364.992 305.699 285.792 93.0101 49.3961 44.8126 41.0279 35.9459 30.7689 30.3958 29.811 27.1123 18.9088 16.9983 13.8195 17.6293 13.3531 13.2577 9.8733 9.28708 8.65137 5.81235 5.52213 5.36315 5.28678 4.78909 6.03705 4.44765 4.25467 3.56717 3.4554 3.25159 2.99961 2.97564 2.80858 2.51154 2.38743 2.17353 2.02932 1.97827 1.94723 1.8756 1.82064 1.75596 1.65105 1.25708 1.16621 1.14426 1.08158 1.03562 1.02264 0.871965 1.62133 0.854992 0.814492 0.809375 0.774904 0.793979 0.771854 0.735124 0.714348
threshold=8.5000000000000018 2018.5000000000002 36.70000000000001 1.8500000000000003 2018.5000000000002 1.5000000000000002 2014.5000000000002 3.5000000000000004 5.5000000000000009 10070.000000000002 2.1000000000000005 2015.5000000000002 52.800000000000004 2016.5000000000002 3.5000000000000004 2016.5000000000002 32744.000000000004 43.850000000000009 2017.5000000000002 1.0000000180025095e-35 2019.5000000000002 4.5000000000000009 2016.5000000000002 29461.500000000004 2019.5000000000002 2018.5000000000002 35.550000000000004 9.5000000000000018 2011.5000000000002 1.5000000000000002 35.550000000000004 25374.500000000004 2.5000000000000004 2.5000000000000004 75.000000000000014 2937.0000000000005 60089.500000000007 23860.000000000004 155.00000000000003 39.500000000000007 2017.5000000000002 25.000000000000004 3.5000000000000004 35.550000000000004 1.8500000000000003 20258.500000000004 75.000000000000014 36947.500000000007 15211.500000000002 47.500000000000007 2816.0000000000005 142.50000000000003 7160.0000000000009 5003.0000000000009 2017.5000000000002 130.00000000000003 59.500000000000007 2.5000000000000004 2016.5000000000002 1.5000000000000002 6036.0000000000009 33859.500000000007
decision_type=2 2 2 2 2 2 2 2 2 2 2 2 2 2 2 2 2 2 2 2 2 2 2 2 2 2 2 2 2 2 2 2 2 2 2 2 2 2 2 2 2 2 2 2 2 2 2 2 2 2 2 2 2 2 2 2 2 2 2 2 2 2
left_child=2 10 8 5 6 -3 21 20 -1 24 13 -12 15 23 31 38 40 43 59 37 32 28 47 34 26 -10 35 52 -4 44 -11 33 56 41 -2 -7 46 54 -8 -5 -17 -14 -42 -15 45 60 -25 -16 -45 -29 -9 -30 53 -28 -19 -31 -6 58 -33 -13 -21 -24
right_child=1 3 4 39 7 9 12 50 25 30 11 18 14 17 22 16 -18 19 -20 29 -22 -23 61 36 -26 -27 27 49 51 55 -32 57 -34 -35 -36 -37 -38 -39 -40 -41 42 -43 -44 48 -46 -47 -48 -49 -50 -51 -52 -53 -54 -55 -56 -57 -58 -59 -60 -61 -62 -63
leaf_value=0.09384468198068667 -6.3056419694409421e-05 0.018852195510104898 -0.081601772541430403 0.17538669385562267 -0.025333010256585478 0.066263000643288064 -0.039634452745532026 0.034706112833662622 0.021365154802108009 0.026075071680945149 -0.0033706378429780724 0.039466987107356362 -0.050797738816154049 0.026716848066483903 -0.028991533811157998 -0.023403927232777847 0.031870562406896896 0.02676449797529476 0.090527821367675135 0.019886520928179195 0.00068929737847046835 -0.045278164047882874 -0.016079198860621733 -0.0081110317102991592 0.088304978266667625 0.051590082167285695 0.056800396933938041 0.076276443730939045 -0.063426097087644989 0.01658640556112019 0.048879385960661118 -0.056489653053241863 -0.01248788398277266 -0.033538086723111579 0.018538150936382541 0.044779534231957491 -0.023552922835166287 0.017158396069537028 -0.025534133509130589 0.15766491382796066 -0.019549259222384943 -0.041148291086370782 -0.0030186556917908146 0.050900957936828313 0.021389789891335033 0.0036314438790430305 0.0038409357567749823 -0.039276405951783569 0.034855432877724336 0.087245461590505197 0.02196051654198266 -0.051874640514666871 0.052328021223132778 0.075583104784076385 0.037873731527581549 0.02638140773836635 -0.034555489204464468 -0.043941970373407038 -0.04830957988334094 0.051803452892458843 0.0097792152146245689 -0.026644088258559538
leaf_weight=39 43 79 34 35 61 32 75 34 39 47 27 32 67 24 49 81 20 29 22 20 52 79 80 66 38 23 27 55 95 44 27 42 43 107 43 29 20 33 43 30 37 238 32 25 26 135 33 63 20 38 30 24 20 20 43 41 39 60 101 21 179 20
leaf_count=39 43 79 34 35 61 32 75 34 39 47 27 32 67 24 49 81 20 29 22 20 52 79 80 66 38 23 27 55 95 44 27 42 43 107 43 29 20 33 43 30 37 238 32 25 26 135 33 63 20 38 30 24 20 20 43 41 39 60 101 21 179 20
internal_value=-3.03204e-10 0.0342367 -0.0281395 0.0697695 -0.0334457 0.054397 -0.038722 -0.00600498 0.0562352 0.0628296 0.0159331 0.0416806 -0.034562 0.0127459 -0.0391631 -0.0213499 -0.0122249 0.0171047 0.057899 0.0145036 -0.0174057 -0.0587151 -0.0269539 -0.000415642 0.0709536 0.0325776 0.0679701 0.0725148 -0.0656531 0.0112495 0.0343956 -0.0433718 -0.0239857 -0.0407411 0.00923755 0.0560495 -0.0073919 0.0282949 -0.0344962 0.167207 -0.0181043 -0.043268 -0.0118829 0.0378382 0.00887386 0.00789957 -0.00412704 -0.0347768 0.0437696 0.0807584 0.0287316 -0.0610964 0.0610721 0.064793 0.0333992 0.0213111 -0.0289298 -0.0487111 -0.0507121 0.044355 0.010795 -0.0181922
internal_weight=0 1403 1707 477 1606 412 1347 259 101 333 926 102 1115 824 827 288 170 619 75 550 195 232 212 205 259 62 221 160 153 445 74 615 143 412 86 61 119 105 118 65 150 305 69 69 360 334 99 112 45 93 64 119 67 47 72 85 100 203 143 53 199 100
internal_count=3110 1403 1707 477 1606 412 1347 259 101 333 926 102 1115 824 827 288 170 619 75 550 195 232 212 205 259 62 221 160 153 445 74 615 143 412 86 61 119 105 118 65 150 305 69 69 360 334 99 112 45 93 64 119 67 47 72 85 100 203 143 53 199 100
is_linear=0
shrinkage=1


Tree=1
num_leaves=63
num_cat=0
split_feature=0 3 6 7 3 7 5 0 0 7 3 3 5 3 0 3 0 6 6 3 6 2 6 3 3 3 3 3 3 4 3 6 4 4 7 2 4 4 2 2 3 4 4 6 7 2 4 3 6 0 3 5 3 3 5 3 6 6 5 6 0 3
split_gain=1081.62 283.516 275.893 260.674 70.5193 48.2641 33.6372 32.5259 32.4411 31.8225 31.5511 19.7708 17.7066 14.7881 11.3257 15.5683 10.858 9.26956 8.41396 8.28075 8.24767 6.2714 7.54184 6.02101 4.75133 4.19878 4.08454 3.95972 3.45554 3.38999 3.37165 4.45808 4.71392 3.48934 3.25034 4.50522 3.95977 3.1602 2.8336 2.37864 2.22226 2.02251 1.96452 1.88957 1.8193 1.42106 1.3996 1.38899 1.38568 3.47658 1.33985 1.27948 1.23815 1.18587 1.10033 1.08898 0.962006 0.867341 0.866468 0.843937 0.843249 0.815955
threshold=8.5000000000000018 10070.000000000002 36.70000000000001 2.1000000000000005 6036.0000000000009 1.5000000000000002 142.50000000000003 3.5000000000000004 5.5000000000000009 2.1000000000000005 20456.000000000004 6240.5000000000009 75.000000000000014 45683.000000000007 2.5000000000000004 41598.000000000007 2.5000000000000004 41.20000000000001 57.050000000000004 21602.500000000004 57.650000000000013 1.0000000180025095e-35 43.850000000000009 40738.000000000007 17947.500000000004 48845.500000000007 39885.000000000007 37247.500000000007 21363.500000000004 1.5000000000000002 3515.5000000000005 61.550000000000004 1.5000000000000002 1.5000000000000002 1.6500000000000001 1.5000000000000002 1.5000000000000002 1.5000000000000002 1.5000000000000002 1.5000000000000002 5214.0000000000009 1.5000000000000002 1.5000000000000002 39.500000000000007 1.6500000000000001 1.5000000000000002 1.5000000000000002 2816.0000000000005 50.900000000000006 2.5000000000000004 4842.5000000000009 25.000000000000004 18387.500000000004 20002.500000000004 147.50000000000003 56098.000000000007 61.550000000000004 61.550000000000004 142.50000000000003 59.500000000000007 11.500000000000002 12039.500000000002
decision_type=2 2 2 2 2 2 2 2 2 2 2 2 2 2 2 2 2 2 2 2 2 2 2 2 2 2 2 2 2 2 2 2 2 2 2 2 2 2 2 2 2 2 2 2 2 2 2 2 2 2 2 2 2 2 2 2 2 2 2 2 2 2
left_child=2 3 8 5 7 50 16 18 -1 12 -11 30 27 -12 20 17 23 -16 48 21 45 58 38 -6 42 29 41 -3 -10 57 31 32 -7 40 35 36 -13 56 -23 -34 -32 -18 -19 -5 51 -8 -17 -9 49 -4 -2 -28 -43 -22 -31 -25 -24 -21 -14 -26 -59 -44
right_child=1 9 4 43 6 11 14 47 28 10 13 34 19 -15 15 46 26 24 -20 25 53 22 37 55 59 -27 44 -29 -30 54 33 -33 39 -35 -36 -37 -38 -39 -40 -41 -42 52 61 -45 -46 -47 -48 -49 -50 -51 -52 -53 -54 -55 -56 -57 -58 60 -60 -61 -62 -63
leaf_value=0.089152449598679184 0.024621121844069827 0.004484593654715833 -0.022982982946214855 0.1662208710397993 -0.049540266034931973 0.090931935650961748 -0.013499479332277853 0.028699309436174544 0.045309021353721619 0.089470059023453646 0.039184778785732177 0.049022100799613527 0.031742103366141625 -0.010015518120711759 0.010905347984622825 -0.03937475902243303 -0.028842178277293407 -0.0026630186221816322 -0.03408096137231794 0.018117924699551265 -0.038199658276914045 0.025555973649024968 0.025112904851203377 -0.062198822901529428 -0.029826403957899331 -0.011521918805582183 -0.045272784928480789 -0.010341175657958957 0.021245857997721919 0.006850312740748956 0.058772547985427082 0.052402070470154286 0.061050303696199903 0.047406368741863658 0.023028647061437368 0.06402773261070252 0.026413549655391014 0.0072309854316359792 0.046682217717170717 0.07921949346219341 0.079415782100775031 -0.031596483008281606 -0.014683509648213506 0.14861603953220226 -0.034773263782262802 -0.028103825369746323 -0.052746194813932695 0.013779700354028208 -0.0033763903336456189 -0.0039283443055505496 0.012299971743241739 -0.058080425017919296 -0.042346826364699101 -0.044979240806824576 -0.007342960981821473 -0.075945468425750728 0.013484726097948594 0.017052607997678795 0.043958472957213723 -0.02163502207491547 0.0047500734760736428 -0.021964660484255071
leaf_weight=39 36 152 54 35 174 35 31 39 25 26 56 45 47 21 22 65 69 22 58 109 158 65 46 34 147 21 39 64 37 36 32 25 43 38 20 24 34 107 21 31 22 37 71 27 20 36 28 26 39 43 57 39 97 109 22 25 29 26 21 40 30 84
leaf_count=39 36 152 54 35 174 35 31 39 25 26 56 45 47 21 22 65 69 22 58 109 158 65 46 34 147 21 39 64 37 36 32 25 43 38 20 24 34 107 21 31 22 37 71 27 20 36 28 26 39 43 57 39 97 109 22 25 29 26 21 40 30 84
internal_value=0 0.0325249 -0.0267325 0.0625438 -0.0317735 0.0490762 -0.0363677 -0.00787965 0.0534234 0.0156956 0.041847 0.0576053 0.0123117 0.0257665 -0.0299642 -0.0250363 -0.046117 -0.0206117 -0.018136 0.0168625 -0.0370315 0.0219537 0.0185128 -0.0542206 -0.0225166 0.00985176 -0.0398441 9.17731e-05 0.0309487 0.0118645 0.0663847 0.0714451 0.0758127 0.0590142 0.0414739 0.0450555 0.0392918 0.0127471 0.0307147 0.0686617 0.0671828 -0.0357972 -0.0166449 0.158554 -0.0482269 -0.0213466 -0.0434006 0.0227315 -0.0113359 -0.0145361 0.0170694 -0.0516766 -0.0393784 -0.0409674 0.00146666 -0.0680237 0.0206167 0.0155195 0.0355148 -0.0280742 0.010462 -0.0186294
internal_weight=0 1403 1707 504 1606 442 1347 259 101 899 103 349 796 77 813 479 534 386 194 580 334 336 268 233 364 244 301 216 62 223 226 134 109 92 123 103 79 182 86 74 54 203 177 62 98 67 93 65 136 97 93 78 134 267 58 59 75 165 68 187 56 155
internal_count=3110 1403 1707 504 1606 442 1347 259 101 899 103 349 796 77 813 479 534 386 194 580 334 336 268 233 364 244 301 216 62 223 226 134 109 92 123 103 79 182 86 74 54 203 177 62 98 67 93 65 136 97 93 78 134 267 58 59 75 165 68 187 56 155
is_linear=0
shrinkage=0.05


Tree=2
num_leaves=63
num_cat=0
split_feature=7 1 1 7 6 1 6 7 1 6 3 1 3 1 1 1 7 6 6 6 2 1 6 2 1 7 2 6 6 2 1 1 6 3 3 3 6 2 3 6 6 4 6 5 7 1 4 6 3 5 6 6 5 6 6 3 3 3 3 3 3 3
split_gain=743.232 606.251 132.467 130.973 124.465 67.2648 60.3855 45.9065 33.3532 29.7021 28.3608 23.276 17.418 12.2253 12.0882 10.8443 17.2696 9.54013 8.14486 7.82765 6.87122 6.28963 5.68887 6.60726 6.15021 5.17139 4.57775 5.19636 7.66241 4.24992 3.91617 3.18525 3.01494 2.9209 2.78 2.71545 2.38323 2.3386 2.14294 2.10513 2.04073 1.93374 2.71308 3.64004 1.68489 1.68103 1.65388 4.59083 2.56902 1.94184 1.46102 1.4463 2.29762 1.44213 1.40858 1.33237 1.26862 1.15875 0.959036 0.86208 0.855529 0.776364
threshold=1.5000000000000002 2018.5000000000002 2015.5000000000002 2.1000000000000005 53.800000000000004 2016.5000000000002 38.95000000000001 1.8500000000000003 2017.5000000000002 45.20000000000001 10070.000000000002 2015.5000000000002 19939.500000000004 2017.5000000000002 2016.5000000000002 2012.5000000000002 2.1000000000000005 34.250000000000007 57.050000000000004 63.500000000000007 1.5000000000000002 2013.5000000000002 51.850000000000001 1.0000000180025095e-35 2019.5000000000002 1.1500000000000001 1.5000000000000002 78.450000000000017 63.500000000000007 1.5000000000000002 2013.5000000000002 2019.5000000000002 43.150000000000006 8004.0000000000009 31547.000000000004 19248.000000000004 35.550000000000004 1.0000000180025095e-35 36947.500000000007 61.550000000000004 39.500000000000007 1.5000000000000002 59.500000000000007 137.50000000000003 1.6500000000000001 2014.5000000000002 1.5000000000000002 51.850000000000001 4219.5000000000009 137.50000000000003 59.500000000000007 57.050000000000004 75.000000000000014 35.550000000000004 47.500000000000007 15912.500000000002 18016.500000000004 5510.5000000000009 2146.0000000000005 34716.000000000007 6386.5000000000009 33859.500000000007
decision_type=2 2 2 2 2 2 2 2 2 2 2 2 2 2 2 2 2 2 2 2 2 2 2 2 2 2 2 2 2 2 2 2 2 2 2 2 2 2 2 2 2 2 2 2 2 2 2 2 2 2 2 2 2 2 2 2 2 2 2 2 2 2
left_child=4 2 15 10 5 21 -5 8 14 33 17 30 13 -9 19 -2 34 -3 25 51 31 -1 23 -11 54 -13 27 28 37 38 -6 46 53 58 -17 50 -12 -16 -14 -37 -8 42 -34 55 -36 -46 47 -19 -48 60 -20 -4 -53 -10 57 -44 -27 -25 -7 -39 -49 -23
right_child=1 3 7 6 11 9 40 12 32 22 36 18 29 -15 26 16 -18 20 35 -21 -22 61 -24 24 -26 56 -28 -29 -30 -31 -32 -33 41 -35 44 39 -38 59 -40 -41 -42 -43 43 -45 45 -47 48 49 -50 -51 -52 52 -54 -55 -56 -57 -58 -59 -60 -61 -62 -63
leaf_value=-0.061534041861693069 -0.059112409622438494 0.08629832958633249 -0.013099496261789823 0.050864560082554827 -0.067048969312950416 0.032198532097614731 0.15852560349873135 0.035891688227653505 0.022708016142249109 0.011545505836606025 0.024335435203587018 -0.01143705439063962 0.026205893872181397 0.087640415557793214 -0.012459361255168916 -0.019346011073685079 0.015537827807877744 0.078354118125779304 -0.029806417723496754 -0.027272415438703464 0.073227788561797999 -0.032279624428712961 0.0023263484735370561 -0.0023739640088751915 0.0081888292372847612 -0.024590318961518594 0.016746119257590886 0.02144421996368516 -0.01971663624225628 0.04613082796335221 -0.050396982770340118 0.073029417109986158 0.036233358944837861 0.0099550696705738382 -0.043376918232187311 -0.042671008931623927 0.041951226640958343 0.0071267292896227451 0.013324718372842102 -0.025734410770237449 0.14058985201449231 0.0093703681990651919 0.033537340856024195 0.0052700299929295267 -0.038189579125331802 -0.024266130627110239 0.054921217444466389 0.061159777680509966 0.03432381000990669 0.038599950149655345 -0.03678457002605548 -0.0052207616903838152 0.013003930573662123 0.038431301156857188 -0.021498540477400779 0.018112567346543075 -0.038642476747433346 -0.017460789254733496 0.020730326868227272 -0.0020324485367088909 0.04894187541111656 -0.042215715029409961
leaf_weight=30 31 44 39 20 54 26 35 25 25 25 48 54 88 21 20 32 21 21 117 51 83 66 85 20 24 29 67 31 42 20 102 24 26 62 47 222 32 150 51 20 29 41 28 35 46 41 41 38 24 20 209 98 21 35 132 28 36 35 61 31 23 28
leaf_count=30 31 44 39 20 54 26 35 25 25 25 48 54 88 21 20 32 21 21 117 51 83 66 85 20 24 29 67 31 42 20 102 24 26 62 47 222 32 150 51 20 29 41 28 35 46 41 41 38 24 20 209 98 21 35 132 28 36 35 61 31 23 28
internal_value=0 0.0226534 0.00350569 0.0699664 -0.0263737 -0.0088436 0.1267 0.0113986 0.00578756 -0.000201232 0.0579924 -0.0387259 0.0324197 0.0595161 -0.00077245 -0.031723 -0.0271825 0.064687 -0.0347669 -0.0102408 0.0612165 -0.0416009 -0.00876481 -0.0127595 -0.0156393 -0.0228727 0.00503073 0.00216602 -0.000293343 0.0245805 -0.0561611 0.055997 0.0223381 0.0182478 -0.0325869 -0.0372588 0.0313818 0.00376526 0.0214797 -0.0412713 0.150398 0.0187146 0.021989 0.0179192 -0.0357489 -0.031628 0.0535492 0.0575213 0.047316 0.0521202 -0.0342801 -0.00474324 -0.00200464 0.0318799 -0.0186974 0.025825 -0.0323731 -0.0119747 0.0241576 0.00555803 0.056553 -0.0352393
internal_weight=0 1673 1191 482 1437 594 84 973 768 470 398 843 205 46 550 218 187 318 687 209 274 124 321 236 211 119 341 274 243 159 156 191 218 149 166 568 80 201 139 242 64 158 117 91 134 87 167 102 65 81 326 158 119 60 187 56 65 55 87 181 61 94
internal_count=3110 1673 1191 482 1437 594 84 973 768 470 398 843 205 46 550 218 187 318 687 209 274 124 321 236 211 119 341 274 243 159 156 191 218 149 166 568 80 201 139 242 64 158 117 91 134 87 167 102 65 81 326 158 119 60 187 56 65 55 87 181 61 94
is_linear=0
shrinkage=0.05


Tree=3
num_leaves=63
num_cat=0
split_feature=0 1 6 4 1 6 1 0 0 3 3 6 6 0 5 4 2 4 6 1 3 1 0 6 6 1 1 0 3 1 3 3 1 3 0 3 1 0 6 6 5 0 1 3 3 3 3 6 0 0 6 5 3 5 3 3 3 3 1 1 3 6
split_gain=884.953 271.442 224.624 172.315 69.8935 40.1388 34.205 30.3906 26.7288 25.752 23.2165 36.1373 20.1206 12.599 11.7131 12.2649 10.8963 14.5183 10.5861 10.5544 14.8233 7.03611 6.73597 6.54733 6.03838 4.32341 4.00934 3.80472 12.2208 3.66067 3.4785 3.33063 2.86567 2.72621 2.54716 2.49072 2.43298 2.35522 1.9593 1.59612 1.54559 1.48626 1.42623 1.27885 1.21935 1.2135 1.20782 1.19279 1.16182 1.09855 1.03372 0.976677 0.809275 0.780565 0.702693 0.645538 0.582421 0.575435 0.566748 0.561095 0.548069 0.538363
threshold=8.5000000000000018 2018.5000000000002 36.70000000000001 1.0000000180025095e-35 2018.5000000000002 45.20000000000001 2014.5000000000002 3.5000000000000004 5.5000000000000009 10320.500000000002 67288.500000000015 43.150000000000006 52.800000000000004 3.5000000000000004 75.000000000000014 1.5000000000000002 1.5000000000000002 1.5000000000000002 43.850000000000009 2016.5000000000002 32744.000000000004 2019.5000000000002 4.5000000000000009 51.850000000000001 53.800000000000004 2016.5000000000002 2018.5000000000002 11.500000000000002 20857.000000000004 2011.5000000000002 27373.000000000004 4219.5000000000009 2016.5000000000002 20002.500000000004 2.5000000000000004 14998.000000000002 2016.5000000000002 2.5000000000000004 42.500000000000007 50.900000000000006 155.00000000000003 11.500000000000002 2017.5000000000002 23860.000000000004 6386.5000000000009 11721.500000000002 3515.5000000000005 39.500000000000007 11.500000000000002 3.5000000000000004 35.550000000000004 1.0000000180025095e-35 31003.500000000004 142.50000000000003 2816.0000000000005 32002.500000000004 38001.000000000007 4609.5000000000009 2013.5000000000002 2013.5000000000002 33859.500000000007 59.500000000000007
decision_type=2 2 2 2 2 2 2 2 2 2 2 2 2 2 2 2 2 2 2 2 2 2 2 2 2 2 2 2 2 2 2 2 2 2 2 2 2 2 2 2 2 2 2 2 2 2 2 2 2 2 2 2 2 2 2 2 2 2 2 2 2 2
left_child=2 10 8 5 6 47 22 21 -1 16 11 27 19 34 32 24 17 23 31 40 39 37 29 -5 30 51 -10 28 -2 -4 -16 -19 52 -17 36 48 -14 -6 -30 42 -8 -18 -21 -36 57 61 -43 -3 -26 -44 -29 -15 -13 58 -9 -34 -53 -25 -31 -24 -27 -38
right_child=1 3 4 9 7 -7 12 54 26 -11 -12 14 13 25 15 33 41 18 -20 20 -22 -23 59 44 35 60 -28 50 38 53 -32 -33 55 -35 43 -37 45 -39 -40 -41 -42 46 49 -45 -46 -47 -48 -49 -50 -51 -52 56 -54 -55 -56 -57 -58 -59 -60 -61 -62 -63
leaf_value=0.080576617748309418 0.078113445639610299 0.15059931925364903 -0.071360916074584516 0.085827978903597058 -0.024688505351543429 0.063236223608255385 -0.034108180860678357 0.02987635074018994 0.017980871762698278 0.023656250431668014 -0.037114938442060853 0.00012053832411766052 -0.045757640594685518 -0.034883030131459235 0.042174366443622407 0.0080052978018648 0.059162563215131352 0.057052008604461503 0.018744475332399212 -0.022570376266056385 0.030122237643226982 0.00099677984007240199 -0.042576110098097059 0.055430205166339876 0.030717166236468724 -0.013713279929943385 0.044302083187453128 0.022092358136306639 0.020914496146142485 -0.059040173888206482 0.02117551366161359 0.033896442813177906 0.0091975066807822563 -0.0052742295771498575 -0.028222059885350367 0.01358596986137508 -0.027775173570428576 -0.010695212823880274 0.042104282478491468 -0.0032622473356737334 -0.022217856156964637 0.082074651580590463 -0.017054265558820319 -0.037072686116460349 0.047059161439538005 -0.039264739449836515 0.066975907595069314 0.13688707557217827 0.018839540471322837 -0.0025096471578581261 0.035335959675835402 -0.01988751087875034 -0.0083987256679046423 -0.044701210533579193 0.019377478249371055 -4.9810110329417517e-05 -0.029828688940581157 0.066379279345273975 -0.051281441289644986 -0.034065589571700382 -0.022967244498431683 -0.035224418757082543
leaf_weight=39 22 35 34 22 100 20 75 34 39 96 22 50 108 52 41 130 23 44 51 71 20 52 45 30 35 80 23 23 20 43 38 24 77 55 96 210 35 43 24 22 43 26 37 71 30 226 27 29 50 20 41 26 63 24 30 25 34 20 52 34 20 79
leaf_count=39 22 35 34 22 100 20 75 34 39 96 22 50 108 52 41 130 23 44 51 71 20 52 45 30 35 80 23 23 20 43 38 24 77 55 96 210 35 43 24 22 43 26 37 71 30 226 27 29 50 20 41 26 63 24 30 25 34 20 52 34 20 79
internal_value=0 0.0294197 -0.0241803 0.0600623 -0.0287288 0.125065 -0.0333027 -0.00494128 0.0481454 0.0461687 0.0136351 0.0148701 -0.0296682 -0.0336319 0.0107732 0.0145878 0.0534454 0.0478292 0.0359645 -0.0182865 -0.0103119 -0.0147534 -0.0507699 0.0616714 0.0197967 -0.0231206 0.0277452 0.039263 0.0476862 -0.0568919 0.0320737 0.0488795 0.000855209 0.00405733 -0.0372553 0.0165089 -0.0392199 -0.0204807 0.0324726 -0.0157031 -0.0297753 0.0697767 -0.0178414 -0.0319849 0.0550283 -0.0371432 0.0743828 0.144386 0.0237303 -0.0119509 0.0305765 -0.0298676 -0.00462914 -0.0527579 0.024955 0.00693101 -0.0255208 0.0598098 -0.0547933 -0.0389134 -0.0155641 -0.0329374
internal_weight=0 1403 1707 477 1606 84 1347 259 101 393 926 904 1115 827 774 559 297 221 119 288 170 195 232 102 374 212 62 130 66 153 79 68 215 185 615 295 448 143 44 150 118 76 128 167 80 340 53 64 85 57 64 112 113 119 64 102 60 50 95 79 100 114
internal_count=3110 1403 1707 477 1606 84 1347 259 101 393 926 904 1115 827 774 559 297 221 119 288 170 195 232 102 374 212 62 130 66 153 79 68 215 185 615 295 448 143 44 150 118 76 128 167 80 340 53 64 85 57 64 112 113 119 64 102 60 50 95 79 100 114
is_linear=0
shrinkage=0.05


Tree=4
num_leaves=63
num_cat=0
split_feature=0 1 6 7 1 0 7 0 1 3 6 3 6 1 2 2 0 7 1 0 6 1 1 1 2 0 1 6 0 1 1 3 6 0 3 3 6 6 6 7 2 6 3 1 3 3 0 1 6 3 3 3 6 6 3 3 6 0 3 7 1 0
split_gain=798.67 244.976 202.723 190.995 63.0977 34.1525 33.5117 24.1227 22.3409 20.9529 32.6139 20.391 14.3423 13.4217 10.6918 10.6143 9.88904 8.28429 7.0556 6.07921 5.20405 4.66832 4.31522 3.61843 3.47311 3.43376 11.176 3.40598 3.79575 3.30376 2.44037 2.36893 2.29455 2.24438 2.21156 2.09232 1.87109 1.59525 1.48137 1.36676 1.31921 1.22506 1.0966 1.08723 1.03571 0.981547 0.96397 0.942167 0.932934 0.855906 0.833225 0.756312 0.70446 0.70256 1.02046 0.63418 0.587121 0.581676 0.87759 0.545748 0.517855 0.517629
threshold=8.5000000000000018 2018.5000000000002 36.70000000000001 1.8500000000000003 2017.5000000000002 3.5000000000000004 1.5000000000000002 5.5000000000000009 2014.5000000000002 67288.500000000015 43.150000000000006 10465.000000000002 57.050000000000004 2018.5000000000002 1.0000000180025095e-35 1.0000000180025095e-35 2.5000000000000004 1.8500000000000003 2016.5000000000002 4.5000000000000009 43.850000000000009 2019.5000000000002 2019.5000000000002 2018.5000000000002 1.5000000000000002 11.500000000000002 2017.5000000000002 35.550000000000004 11.500000000000002 2011.5000000000002 2016.5000000000002 23860.000000000004 50.000000000000007 3.5000000000000004 29461.500000000004 4219.5000000000009 35.550000000000004 42.500000000000007 47.500000000000007 1.6500000000000001 1.5000000000000002 39.500000000000007 33859.500000000007 2017.5000000000002 20258.500000000004 3515.5000000000005 6.5000000000000009 2016.5000000000002 35.550000000000004 30801.000000000004 46147.000000000007 35901.000000000007 51.850000000000001 78.450000000000017 5214.0000000000009 2816.0000000000005 57.650000000000013 2.5000000000000004 6519.5000000000009 1.2500000000000002 2017.5000000000002 11.500000000000002
decision_type=2 2 2 2 2 2 2 2 2 2 2 2 2 2 2 2 2 2 2 2 2 2 2 2 2 2 2 2 2 2 2 2 2 2 2 2 2 2 2 2 2 2 2 2 2 2 2 2 2 2 2 2 2 2 2 2 2 2 2 2 2 2
left_child=2 9 7 6 8 12 -3 -1 19 10 25 22 21 32 31 20 40 18 51 29 -10 57 27 -9 44 26 37 35 53 -4 39 43 -7 -32 -19 -8 -13 -2 45 42 47 -5 -18 -12 60 -30 49 -17 -27 -35 -41 -16 -31 -29 -55 -15 -14 -6 -59 -34 -20 -46
right_child=1 3 4 41 5 13 11 23 15 -11 14 36 56 55 17 16 30 34 24 -21 -22 -23 -24 -25 -26 48 -28 28 38 52 33 -33 59 46 -36 -37 -38 -39 -40 50 -42 -43 -44 -45 61 -47 -48 -49 -50 -51 -52 -53 -54 54 -56 -57 -58 58 -60 -61 -62 -63
leaf_value=0.076547785141529184 0.022009865346957338 0.015215088872686973 -0.067792871594429024 0.14306935616901945 -0.019774140458133433 0.0071825245149132874 0.052653702288060579 0.017081828090624931 -0.021208156798130429 -0.035259190642020925 0.022067663951643876 0.021276968749968903 -0.022560320388187061 0.028382533175103804 -0.0013317951998289895 -0.043469758690507329 -0.02933239398300648 0.031666940616236795 0.0053857105961804723 -0.036967686309090142 0.0096645194504942217 0.0015166265301077683 0.073299835190961241 0.042086977519742823 0.017719552065509129 0.020987740223822389 0.076505520790815351 0.058122557690066683 0.069835928976535802 -0.042466149975856148 -0.029132933620559544 0.013882295968537423 -0.015693707884319365 -0.0096402448113076383 0.015120829643906883 0.033929272651672365 0.039005872649563983 0.040649859420955184 0.076071290517675472 -0.017271084112248251 -0.027991223564514747 0.12930011828740437 -0.036917644139234124 0.033194418364892835 -0.0044751154584810144 0.054974967837333681 -0.024805523455142975 -0.037637635787533978 0.033569161557569741 -0.021293259254441813 -0.030114874826825185 -0.0088156726656182273 -0.052053623889621939 0.039966466455232531 0.053637504463012402 0.018408604636788367 -0.031183724873699248 -0.0067648755596770391 -0.017649198827617195 -0.0067000020761042835 0.01063549199947951 0.0042458480616756481
leaf_weight=39 22 79 34 35 62 24 37 39 39 22 42 46 22 34 85 108 125 36 76 79 21 51 38 23 84 23 20 31 20 24 76 46 31 40 46 25 22 24 29 28 26 30 77 46 20 25 32 193 41 26 23 56 95 21 39 30 192 31 46 37 123 114
leaf_count=39 22 79 34 35 62 24 37 39 39 22 42 46 22 34 85 108 125 36 76 79 21 51 38 23 84 23 20 31 20 24 76 46 31 40 46 25 22 24 29 28 26 30 77 46 20 25 32 193 41 26 23 56 95 21 39 30 192 31 46 37 123 114
internal_value=0 0.0279487 -0.0229713 0.0570592 -0.0272924 -0.0137475 0.0444922 0.0457382 -0.034544 0.0129533 0.0141266 0.0514378 -0.0214204 0.00612333 0.0102345 -0.0306429 -0.0322535 0.00754552 0.00536481 -0.0482314 -0.0104027 -0.0114222 0.0577054 0.0263579 0.00863416 0.0372998 0.0453019 0.0550949 0.0588492 -0.0540473 -0.0272425 0.0230774 -0.00610896 -0.0226846 0.022385 0.0451035 0.0270128 0.0317351 0.0672589 -0.0303772 -0.0387968 0.136714 -0.0322238 0.0278839 0.00634235 0.0615798 -0.0176838 -0.0397302 0.0290477 -0.0142308 -0.0230634 -0.00430412 -0.05012 0.0520105 0.0488526 0.0237073 -0.0302972 -0.0161696 -0.0132672 -0.0108001 0.00863055 0.00294421
internal_weight=0 1403 1707 477 1606 560 412 101 1046 926 904 333 404 156 774 814 754 640 558 232 60 190 265 62 417 130 66 227 165 153 427 134 92 174 82 62 68 46 74 253 327 65 202 88 333 45 98 301 64 66 51 141 119 91 60 64 214 139 77 68 199 134
internal_count=3110 1403 1707 477 1606 560 412 101 1046 926 904 333 404 156 774 814 754 640 558 232 60 190 265 62 417 130 66 227 165 153 427 134 92 174 82 62 68 46 74 253 327 65 202 88 333 45 98 301 64 66 51 141 119 91 60 64 214 139 77 68 199 134
is_linear=0
shrinkage=0.05


Tree=5
num_leaves=63
num_cat=0
split_feature=0 1 6 7 1 7 1 0 0 3 6 3 6 0 5 4 1 3 1 0 6 1 1 1 1 3 0 6 0 1 3 6 3 3 3 0 3 0 6 3 6 6 5 1 1 6 6 0 0 3 3 5 3 3 3 1 3 6 0 0 5 3
split_gain=720.799 221.091 182.957 172.373 57.1296 30.2443 27.8344 24.684 21.7708 18.91 29.434 18.4029 16.5434 10.2937 9.55647 10.2799 8.82683 12.9164 5.69287 5.48649 5.25575 3.89449 3.50102 3.26563 3.26362 3.23448 10.3274 3.07389 3.43076 2.98164 2.40617 2.40061 2.29017 2.26587 2.06466 1.93076 1.91824 1.78978 1.68866 1.64334 1.35493 1.30323 1.29615 1.1589 1.1099 1.10561 0.967323 0.919744 0.862072 0.791406 0.683646 0.664384 0.572348 0.528159 0.798011 0.506388 0.504885 0.585507 1.20653 0.494751 0.556874 0.493251
threshold=8.5000000000000018 2018.5000000000002 36.70000000000001 1.8500000000000003 2018.5000000000002 1.5000000000000002 2014.5000000000002 3.5000000000000004 5.5000000000000009 67288.500000000015 43.150000000000006 10465.000000000002 52.800000000000004 3.5000000000000004 75.000000000000014 1.5000000000000002 2016.5000000000002 32744.000000000004 2019.5000000000002 4.5000000000000009 53.800000000000004 2019.5000000000002 2016.5000000000002 2018.5000000000002 2016.5000000000002 20857.000000000004 11.500000000000002 35.550000000000004 9.5000000000000018 2011.5000000000002 36391.000000000007 41.850000000000009 25374.500000000004 20002.500000000004 14998.000000000002 2.5000000000000004 2937.0000000000005 2.5000000000000004 35.550000000000004 23275.000000000004 50.900000000000006 43.550000000000004 25.000000000000004 2017.5000000000002 2016.5000000000002 39.500000000000007 47.500000000000007 11.500000000000002 3.5000000000000004 36947.500000000007 3515.5000000000005 25.000000000000004 2816.0000000000005 5214.0000000000009 7374.5000000000009 2013.5000000000002 36947.500000000007 61.550000000000004 11.500000000000002 2.5000000000000004 25.000000000000004 9772.0000000000018
decision_type=2 2 2 2 2 2 2 2 2 2 2 2 2 2 2 2 2 2 2 2 2 2 2 2 2 2 2 2 2 2 2 2 2 2 2 2 2 2 2 2 2 2 2 2 2 2 2 2 2 2 2 2 2 2 2 2 2 2 2 2 2 2
left_child=2 9 8 5 6 61 19 18 -1 10 25 21 16 32 30 20 41 40 35 29 24 27 49 -10 -16 26 -2 36 53 -4 44 -27 37 -17 47 -6 -7 42 -13 -26 43 -8 -14 -18 -12 -5 50 -22 -45 -15 -30 -31 -9 -29 -55 -21 57 -36 -59 60 -34 -3
right_child=1 3 4 45 7 11 12 52 23 -11 14 38 13 22 15 33 17 -19 -20 55 34 -23 -24 -25 39 31 -28 28 46 51 -32 -33 59 -35 56 -37 -38 -39 -40 -41 -42 -43 -44 48 -46 -47 -48 -49 -50 -51 -52 -53 -54 54 -56 -57 -58 58 -60 -61 -62 -63
leaf_value=0.072720397435701814 0.071037655120546175 0.017545719944624876 -0.064403226971626287 0.13591589280537197 -0.022226169187575581 0.05136388330720365 -0.017549725987815432 0.026963406264343681 0.016227736552126514 -0.033496232322332536 -0.00098992453786195256 0.020213119912406673 -0.039607079082460549 -0.022183035717022664 0.017996356473304331 0.007126885188044981 -0.02043650162891603 0.02857281781733036 0.00090255236360602662 -0.038598920206228897 0.02766117215156555 0.069634843754925221 -0.014077392341801899 0.039982629437809405 0.047688021867171582 0.014477306969153385 0.030052132568522995 0.042188352293201857 0.063170864979426075 -0.05215776835878691 -0.0077373841948186368 0.035260191198551297 -0.045185984846423659 -0.0049796523390845818 0.016529098329156999 -0.0095564283127355029 0.033765121723214789 -0.025947982302614466 0.037055578675459735 0.028342238920075553 -0.0027411856476894838 -0.029901252186132807 -0.031734403197755334 -0.01538472218089737 0.0076035076350608206 0.12283511241277059 0.068274895258639987 0.017093143792822958 -0.0025003469607327135 -0.03065551308885453 0.05220404598448012 -0.044542182919005274 0.017488174103200436 0.057945810826051804 0.044161663027036759 -0.030513925236814163 0.007823004296980799 0.017552125886740055 0.0050114446451929827 -0.034189665466547017 -0.03785666202733276 0.0094050712448855243
leaf_weight=39 22 49 34 35 100 32 28 34 39 22 64 46 67 49 35 130 71 20 52 45 35 38 100 23 23 24 51 28 30 48 60 33 34 55 82 43 30 107 22 21 22 90 238 37 91 30 38 50 20 63 27 71 30 21 21 34 50 34 44 60 109 30
leaf_count=39 22 49 34 35 100 32 28 34 39 22 64 46 67 49 35 130 71 20 52 45 35 38 100 23 23 24 51 28 30 48 60 33 34 55 82 43 30 107 22 21 22 90 238 37 91 30 38 50 20 63 27 71 30 21 21 34 50 34 44 60 109 30
internal_value=0 0.0265512 -0.0218227 0.0542062 -0.0259278 0.0422676 -0.0300629 -0.00442166 0.0434513 0.0123057 0.0134203 0.0488659 -0.0267844 -0.0303785 0.00972278 0.0131684 -0.0164638 -0.00917108 -0.0132647 -0.0458198 0.0179372 0.0548201 -0.0208774 0.02504 0.0293909 0.0354348 0.0424039 0.0523401 0.0559067 -0.051345 0.000764284 0.0265095 -0.0336536 0.00352764 0.0148699 -0.0184164 0.0428484 -0.0315119 0.0256622 0.0384548 -0.0142036 -0.0269704 -0.0334638 -0.0161737 0.00405525 0.129879 0.0620956 0.0214447 -0.0108639 -0.0269488 0.0579761 -0.047614 0.0225219 0.0475076 0.0510537 -0.0351193 0.0122086 0.0135791 0.0104779 -0.0380004 -0.0395993 0.0144543
internal_weight=0 1403 1707 477 1606 412 1347 259 101 926 904 333 1115 827 774 559 288 170 195 232 374 265 212 62 79 130 73 227 165 153 215 57 615 185 295 143 62 412 68 44 150 118 305 128 155 65 95 85 57 112 57 119 64 70 42 79 210 160 78 203 143 79
internal_count=3110 1403 1707 477 1606 412 1347 259 101 926 904 333 1115 827 774 559 288 170 195 232 374 265 212 62 79 130 73 227 165 153 215 57 615 185 295 143 62 412 68 44 150 118 305 128 155 65 95 85 57 112 57 119 64 70 42 79 210 160 78 203 143 79
is_linear=0
shrinkage=0.05


Tree=6
num_leaves=63
num_cat=0
split_feature=0 3 6 7 3 7 5 3 0 7 3 3 3 3 0 3 6 0 6 6 3 2 6 3 3 2 2 6 4 2 3 3 3 7 2 4 2 3 2 4 7 3 4 6 3 3 0 3 3 3 6 0 6 0 0 3 3 3 3 3 6 3
split_gain=650.522 171.954 165.382 158.089 44.7253 28.8294 20.9998 20.01 19.7309 19.3553 19.6419 12.0155 10.611 10.1684 6.6754 6.66364 11.4977 6.62997 5.02188 5.00817 4.90335 4.71142 5.72759 3.99413 2.70199 2.55072 3.08892 2.05612 5.95102 3.68038 2.45858 1.94044 4.01518 1.8248 2.76746 2.07626 1.78979 1.68968 1.63086 1.61263 1.59398 1.47917 1.36943 1.12615 1.02679 0.966628 0.948409 0.895829 0.892714 0.889854 0.802905 2.14845 0.799993 0.752397 1.20292 0.741795 0.68268 0.680493 0.658977 0.567411 0.545159 0.524317
threshold=8.5000000000000018 10070.000000000002 34.250000000000007 2.1000000000000005 6036.0000000000009 1.5000000000000002 142.50000000000003 13269.000000000002 3.5000000000000004 2.1000000000000005 20456.000000000004 6240.5000000000009 20631.500000000004 45683.000000000007 2.5000000000000004 41598.000000000007 57.650000000000013 3.5000000000000004 57.050000000000004 41.20000000000001 44858.500000000007 1.0000000180025095e-35 43.850000000000009 40738.000000000007 41598.000000000007 1.5000000000000002 1.0000000180025095e-35 57.050000000000004 1.5000000000000002 1.5000000000000002 3701.0000000000005 35668.000000000007 31547.000000000004 1.6500000000000001 1.5000000000000002 1.5000000000000002 1.5000000000000002 17416.500000000004 1.5000000000000002 1.5000000000000002 1.8500000000000003 2534.0000000000005 1.5000000000000002 39.500000000000007 61872.000000000007 2253.0000000000005 2.5000000000000004 17416.500000000004 4002.0000000000005 3989.0000000000005 50.900000000000006 2.5000000000000004 64.950000000000017 3.5000000000000004 6.5000000000000009 2816.0000000000005 54503.000000000007 20002.500000000004 31171.500000000004 12589.000000000002 75.300000000000011 56098.000000000007
decision_type=2 2 2 2 2 2 2 2 2 2 2 2 2 2 2 2 2 2 2 2 2 2 2 2 2 2 2 2 2 2 2 2 2 2 2 2 2 2 2 2 2 2 2 2 2 2 2 2 2 2 2 2 2 2 2 2 2 2 2 2 2 2
left_child=2 3 7 5 8 45 14 41 18 12 -11 27 21 -12 23 16 19 46 50 -8 25 -3 36 -6 42 26 -14 28 48 30 -30 32 37 34 35 -13 -23 53 -24 61 58 -1 60 -5 -22 -2 57 -44 -7 -29 51 -4 -26 -21 59 -10 -25 -18 -28 -55 -16 -17
right_child=1 9 4 43 6 11 15 -9 55 10 13 33 20 -15 24 39 17 -19 -20 31 44 22 38 56 52 -27 40 49 29 -31 -32 -33 -34 -35 -36 -37 -38 -39 -40 -41 -42 -43 47 -45 -46 -47 -48 -49 -50 -51 -52 -53 -54 54 -56 -57 -58 -59 -60 -61 -62 -63
leaf_value=0.072953764750407296 0.023115704285446556 0.027191733125544772 -0.017595094369069017 0.12928949662617276 -0.038472624260118639 0.072136306679911097 0.007678218428855358 0.019250531046046935 0.021636090205893632 0.070087714951771948 0.03095151385558503 0.037342234233187305 0.014732986478277055 -0.0098464991365160275 -0.018498382964171469 -0.025326781886230623 -0.029569157316714903 -0.011876565508805869 -0.026090822934076704 -0.017242142152467586 -0.004123499812946344 0.01974661520216614 0.0069250872939530961 -0.048415317073945079 -0.04301107439729903 0.015903940961806706 0.0025945530233312717 0.036937825701066428 0.047046226782854215 0.058412021657694949 0.026793401089051497 -0.030469565320274106 0.0051584826951677149 0.018309513637796045 0.049683418559531373 0.020971101823755924 0.036568730927649 -0.021910857440714068 0.019654972607205654 -0.043680310828818215 0.013124403349190419 0.055740163102746015 -0.023699600475304058 0.11569862763086956 -0.017379261890337581 0.010708761157400984 -0.024244218147717989 -0.033143914398692902 0.05935198779810559 0.049543480911026047 -0.0024600473256447377 -0.0026159474322962209 -0.033529606546190659 -0.00029321059957146644 -0.017919047580411039 0.010889884575198476 -0.059186039226395752 -0.034777353517711163 -0.0032506343651587119 -0.010946013756096364 -0.027109867509673626 -0.034395456716821003
leaf_weight=26 20 71 54 35 174 36 23 47 42 26 56 45 59 21 40 28 158 57 58 83 48 64 190 31 45 59 129 28 43 46 23 23 22 20 24 34 21 108 29 36 28 24 33 27 21 73 52 105 22 28 39 43 44 25 33 26 28 104 77 25 34 37
leaf_count=26 20 71 54 35 174 36 23 47 42 26 56 45 59 21 40 28 158 57 58 83 48 64 190 31 45 59 129 28 43 46 23 23 22 20 24 34 21 108 29 36 28 24 33 27 21 73 52 105 22 28 39 43 44 25 33 26 28 104 77 25 34 37
internal_value=0 0.0252237 -0.0207316 0.0486019 -0.0245517 0.038114 -0.0282257 0.0426736 -0.00564877 0.0121173 0.0325125 0.0447058 0.00947823 0.0198248 -0.0359307 -0.023171 -0.0214683 -0.0275645 -0.0137723 -0.0148552 0.00402985 0.0155949 0.0128865 -0.0422846 -0.0310122 0.00641892 0.00450897 0.0515501 0.0542873 0.0475553 0.0399884 -0.0164799 -0.0153929 0.0321302 0.0348138 0.0302964 0.0239027 -0.017043 0.00861078 -0.0351908 0.00193112 0.0646912 -0.0279428 0.123371 -0.00815786 0.0133769 -0.0304123 -0.0308855 0.0672871 0.0432407 -0.00851884 -0.0109549 -0.0383236 -0.0138759 -0.0105097 0.0175272 -0.0535268 -0.0316365 0.000409701 -0.00561961 -0.022455 -0.030489
internal_weight=0 1403 1707 504 1610 442 1348 97 262 899 103 349 796 77 534 814 713 371 194 342 421 375 304 233 301 352 293 226 170 112 66 319 296 123 103 79 85 274 219 101 234 50 212 62 69 93 314 138 58 56 136 97 89 166 83 68 59 262 206 50 74 65
internal_count=3110 1403 1707 504 1610 442 1348 97 262 899 103 349 796 77 534 814 713 371 194 342 421 375 304 233 301 352 293 226 170 112 66 319 296 123 103 79 85 274 219 101 234 50 212 62 69 93 314 138 58 56 136 97 89 166 83 68 59 262 206 50 74 65
is_linear=0
shrinkage=0.05


Tree=7
num_leaves=63
num_cat=0
split_feature=0 1 6 7 1 7 1 0 0 7 1 6 6 1 0 1 1 6 2 1 7 0 5 7 1 1 2 1 6 5 2 6 0 1 7 0 6 5 7 5 6 6 5 1 5 1 6 6 1 1 1 1 0 6 4 6 1 1 1 5 6 6
split_gain=587.096 182.344 149.257 140.955 48.4771 24.7123 23.6299 20.7243 16.8554 15.0843 17.336 13.6865 10.2484 9.85496 8.41443 7.65237 7.52643 6.77341 5.08528 4.7359 4.65398 4.48131 3.50524 4.68941 3.17132 2.8042 2.54416 2.49715 2.23161 2.92706 2.21344 2.04036 1.65676 1.68112 1.59876 1.58116 1.09074 1.06617 0.916811 0.862911 0.857778 0.825784 0.740803 0.721278 0.597814 0.565829 0.891722 0.565825 0.5559 0.481584 0.438018 0.428426 0.401273 0.384151 0.347029 0.340699 0.332063 0.326001 0.314576 0.265659 0.25405 0.239493
threshold=8.5000000000000018 2018.5000000000002 34.250000000000007 1.8500000000000003 2018.5000000000002 1.5000000000000002 2014.5000000000002 3.5000000000000004 5.5000000000000009 2.1000000000000005 2015.5000000000002 52.800000000000004 35.550000000000004 2016.5000000000002 3.5000000000000004 2017.5000000000002 2016.5000000000002 43.850000000000009 1.0000000180025095e-35 2019.5000000000002 1.6500000000000001 11.500000000000002 147.50000000000003 1.2500000000000002 2018.5000000000002 2016.5000000000002 1.0000000180025095e-35 2011.5000000000002 47.500000000000007 75.000000000000014 1.5000000000000002 47.500000000000007 2.5000000000000004 2017.5000000000002 1.5000000000000002 2.5000000000000004 35.550000000000004 162.50000000000003 1.8500000000000003 147.50000000000003 39.500000000000007 51.850000000000001 1.0000000180025095e-35 2016.5000000000002 130.00000000000003 2017.5000000000002 51.850000000000001 78.450000000000017 2016.5000000000002 2013.5000000000002 2017.5000000000002 2016.5000000000002 6.5000000000000009 59.500000000000007 1.5000000000000002 54.850000000000001 2013.5000000000002 2015.5000000000002 2015.5000000000002 137.50000000000003 59.500000000000007 59.500000000000007
decision_type=2 2 2 2 2 2 2 2 2 2 2 2 2 2 2 2 2 2 2 2 2 2 2 2 2 2 2 2 2 2 2 2 2 2 2 2 2 2 2 2 2 2 2 2 2 2 2 2 2 2 2 2 2 2 2 2 2 2 2 2 2 2
left_child=2 9 8 5 6 -3 20 19 -1 13 -11 16 39 26 32 51 37 36 59 35 27 47 34 -24 -10 42 -2 -4 -28 -30 38 -23 33 43 50 53 -15 58 45 -7 -5 -29 57 -13 -32 54 -47 -14 -34 -43 -18 -12 -44 -6 -20 -21 -22 -16 -8 -19 -35 -45
right_child=1 3 4 40 7 12 11 -9 24 10 15 14 21 17 25 -17 22 18 30 55 56 31 23 -25 -26 -27 28 41 29 -31 44 -33 48 60 -36 -37 -38 -39 -40 -41 -42 49 52 61 -46 46 -48 -49 -50 -51 -52 -53 -54 -55 -56 -57 -58 -59 -60 -61 -62 -63
leaf_value=0.066510832348936483 0.013893542346956495 0.01314033294226267 -0.056976522772740096 0.12282477123396739 -0.017555747170489831 0.034336135505388186 -0.030241561042410988 0.020346167133495546 0.015195347238822203 -0.0051918720102144614 0.026829971041944289 -0.037361985969322699 0.048098242655396466 0.018085513442444304 -0.032574564963579182 0.06632052524523302 -0.019422918371399683 0.018677084764791092 0.0045622291501533456 0.0042340894171502439 -0.03304269214471181 0.052750660616617942 0.021357665101531892 -0.0080584389246290637 0.039406432779062361 -0.012728096595965327 -0.017032274844435355 -0.03599598650421415 -0.0046317726415822857 0.011202209118085031 0.01094831009765833 0.067216748534104767 -0.029683208736506379 -0.024386506798592483 -0.0010642212416444505 -0.0085682223421023329 0.031284554410311909 -0.015752112982725656 0.015069060126104608 0.023146892268033254 0.1113029948870341 -0.048907138719115145 -0.017461481258177605 -0.030165820680558682 0.019339899702860819 0.011158801404253384 0.0034828048576535267 0.040849269548458841 -0.023782640053789217 -0.041843909241936428 -0.012276778024042378 0.035822410537646364 -0.026034295771803176 -0.023909400651852292 -0.00080952047306039423 -0.0040848346200073144 -0.025565865111571773 -0.024656702750004256 -0.024344568471519317 0.024856915020129898 -0.028925329085113933 -0.033741105262157137
leaf_weight=38 26 79 39 35 61 96 42 67 38 27 27 108 45 24 26 22 51 83 144 32 33 65 20 42 21 100 24 35 116 39 44 39 66 44 21 43 45 27 26 21 30 43 39 80 41 81 71 67 101 55 37 26 21 39 38 20 27 26 49 22 103 113
leaf_count=38 26 79 39 35 61 96 42 67 38 27 27 108 45 24 26 22 51 83 144 32 33 65 20 42 21 100 24 35 116 39 44 39 66 44 21 43 45 27 26 21 30 43 39 80 41 81 71 67 101 55 37 26 21 39 38 20 27 26 49 22 103 113
internal_value=0 0.0239625 -0.019695 0.0490775 -0.0233241 0.0382816 -0.0271491 -0.00364433 0.0405399 0.0110253 0.0291634 -0.0241307 0.044246 0.00878005 -0.027404 0.0415312 -0.014764 0.0119268 0.0100743 -0.0118872 -0.0416683 0.0507017 -0.00806117 0.00143063 0.0238129 -0.0188139 -0.000721668 -0.045851 -0.00284455 -0.000647739 0.00773887 0.0581754 -0.0303651 -0.0319496 -0.0134602 -0.016586 0.0266936 -0.0244774 0.00602538 0.0323278 0.117507 -0.0425886 -0.0242476 -0.03409 0.014996 0.00532138 0.0075733 0.0437618 -0.0261146 -0.0449431 -0.0164183 0.0312414 -0.020462 -0.0200337 0.00344066 0.0010345 -0.0296781 -0.0286156 -0.0270663 0.0199719 -0.0275668 -0.0322591
internal_weight=0 1403 1707 477 1610 412 1348 262 97 926 102 1116 333 824 827 75 289 619 550 195 232 216 171 62 59 212 205 172 179 155 445 104 615 448 109 143 69 118 360 117 65 133 112 301 85 334 152 112 167 98 88 53 60 100 182 52 60 52 91 105 147 193
internal_count=3110 1403 1707 477 1610 412 1348 262 97 926 102 1116 333 824 827 75 289 619 550 195 232 216 171 62 59 212 205 172 179 155 445 104 615 448 109 143 69 118 360 117 65 133 112 301 85 334 152 112 167 98 88 53 60 100 182 52 60 52 91 105 147 193
is_linear=0
shrinkage=0.05


Tree=8
num_leaves=63
num_cat=0
split_feature=0 1 6 7 1 7 1 0 3 3 6 3 6 0 2 1 3 7 1 1 7 1 7 3 1 2 1 6 0 3 3 3 3 0 5 0 6 3 6 6 6 5 5 7 6 3 3 6 6 5 3 3 5 3 3 3 1 3 3 3 1 3
split_gain=529.854 164.565 134.705 127.212 43.7506 22.3029 21.326 18.7037 16.4621 15.4256 22.4575 14.5816 12.3521 7.59402 7.2765 6.7926 11.2083 5.59512 4.97049 4.27415 4.20022 3.24055 2.59036 8.81638 2.53079 2.34673 2.25368 2.15214 2.57335 1.84522 1.80379 1.58921 1.52038 1.42699 1.39669 1.31419 1.27601 1.26912 1.22143 1.04261 1.03721 0.986064 0.985525 0.910925 0.774144 0.771334 0.749843 0.74527 0.679513 0.668574 0.665861 0.567172 0.493927 0.454158 0.440954 0.79626 0.434629 0.423216 0.420415 0.401792 0.396301 0.392073
threshold=8.5000000000000018 2018.5000000000002 34.250000000000007 1.8500000000000003 2018.5000000000002 1.5000000000000002 2014.5000000000002 3.5000000000000004 13269.000000000002 68452.500000000015 43.150000000000006 10465.000000000002 52.800000000000004 3.5000000000000004 1.0000000180025095e-35 2016.5000000000002 32744.000000000004 1.8500000000000003 2016.5000000000002 2019.5000000000002 1.6500000000000001 2019.5000000000002 2.1000000000000005 21839.500000000004 2016.5000000000002 1.5000000000000002 2011.5000000000002 35.550000000000004 11.500000000000002 25374.500000000004 23860.000000000004 29461.500000000004 4219.5000000000009 2.5000000000000004 142.50000000000003 2.5000000000000004 35.550000000000004 2534.0000000000005 50.900000000000006 42.500000000000007 47.500000000000007 25.000000000000004 155.00000000000003 1.5000000000000002 39.500000000000007 3515.5000000000005 15561.500000000002 51.850000000000001 35.550000000000004 1.0000000180025095e-35 31790.500000000004 35901.000000000007 130.00000000000003 56098.000000000007 6386.5000000000009 4609.5000000000009 2013.5000000000002 11160.500000000002 33519.000000000007 9772.0000000000018 2016.5000000000002 9381.5000000000018
decision_type=2 2 2 2 2 2 2 2 2 2 2 2 2 2 2 2 2 2 2 2 2 2 2 2 2 2 2 2 2 2 2 2 2 2 2 2 2 2 2 2 2 2 2 2 2 2 2 2 2 2 2 2 2 2 2 2 2 2 2 2 2 2
left_child=2 9 8 5 6 59 20 19 37 10 22 21 15 29 30 42 38 18 51 33 26 27 48 -24 49 50 -4 32 54 35 34 -19 -7 -6 -12 41 -13 -1 43 -25 45 -14 -8 46 -5 -30 -17 -28 -2 -15 61 -16 -27 -22 55 -29 -49 -43 -26 -3 -33 -20
right_child=1 3 4 44 7 11 12 -9 -10 -11 14 36 13 24 17 16 -18 31 25 -21 53 -23 23 39 58 52 47 28 40 -31 -32 60 -34 -35 -36 -37 -38 -39 -40 -41 -42 57 -44 -45 -46 -47 -48 56 -50 -51 -52 -53 -54 -55 -56 -57 -58 -59 -60 -61 -62 -63
leaf_value=0.066136905550956734 0.017181237674473476 0.015273417232139985 -0.054127695698004512 0.11668352706091745 -0.019031988266855482 0.043565459650110556 -0.02671347941954931 0.019328858796507122 0.017267594137724409 -0.031890344584272028 0.019605597884647604 0.016642327509496523 -0.033955285798257857 -0.027184851868794515 -0.0012649739237830921 -0.012452441573412599 0.027515308621805165 0.026081135237796441 0.0094198178010628918 0.00098277814188175126 -0.023844125941395761 0.060847593304750175 0.065402826368808745 0.016806497639045122 -0.01031983821931017 0.010702559182983499 -0.034196187938962667 0.040876067375264523 0.057547041624784467 -0.03274860746901611 0.010803911605161495 0.0072077219755473463 0.027604033887386321 -0.0081398110963988978 0.034636722351424398 -0.022156733413723029 0.031282992305403406 0.050192287440101305 -0.0014275676250029145 0.0325800396502018 0.062354162027095927 -0.024715629794767924 -0.017218805845220422 -0.005811186442868068 0.10573784252007803 0.044373201489448552 -0.021033827887605067 -0.046461781235628358 0.027640268960121003 -0.019438867955856646 -0.00063575848550747412 -0.0077114855406985611 0.018372904658090414 -0.032544302741686508 0.037461983064810432 0.053045081272721298 -0.039751713275909428 -0.028962011495254993 -0.018023549409016317 0.007926151934079825 0.016498341934978577 0.0049845383279284259
leaf_weight=26 24 49 39 35 100 37 75 67 47 21 68 46 67 52 85 57 20 36 64 52 30 38 20 20 77 43 35 41 20 203 46 22 25 43 20 107 22 24 22 22 29 105 43 26 30 25 46 43 44 60 44 57 41 30 30 20 55 133 23 30 24 225
leaf_count=26 24 49 39 35 100 37 75 67 47 21 68 46 67 52 85 57 20 36 64 52 30 38 20 20 77 43 35 41 20 203 46 22 25 43 20 107 22 24 22 22 29 105 43 26 30 25 46 43 44 60 44 57 41 30 30 20 55 133 23 30 24 225
internal_value=0 0.0227644 -0.0187103 0.0466236 -0.0221579 0.0363675 -0.0257916 -0.00346211 0.0385129 0.010474 0.0114571 0.0420337 -0.0229242 -0.0260338 0.0082312 -0.0140258 -0.00765811 0.00601605 0.0042269 -0.0112929 -0.0395849 0.0473338 0.0306882 0.0380798 -0.0178732 0.00697821 -0.0435584 0.0450716 0.0480559 -0.0288469 0.0188276 0.0182128 0.0371294 -0.0157567 0.0230218 -0.0269244 0.021379 0.0584835 -0.0123168 0.0250688 0.0549803 -0.028597 -0.0232536 -0.0141739 0.111632 0.0502282 -0.0162849 -0.0404592 0.0239488 -0.0230352 0.00509434 -0.00385266 0.0144464 -0.0281942 0.0424251 0.0448659 -0.0426959 -0.0270886 -0.0120917 0.0124833 0.012055 0.00596675
internal_weight=0 1403 1707 477 1610 412 1348 262 97 926 905 333 1116 827 775 289 171 641 559 195 232 265 130 62 212 417 172 227 165 615 134 82 62 143 88 412 68 50 151 42 74 305 118 129 65 45 103 133 68 112 333 142 84 60 91 61 98 238 100 79 46 289
internal_count=3110 1403 1707 477 1610 412 1348 262 97 926 905 333 1116 827 775 289 171 641 559 195 232 265 130 62 212 417 172 227 165 615 134 82 62 143 88 412 68 50 151 42 74 305 118 129 65 45 103 133 68 112 333 142 84 60 91 61 98 238 100 79 46 289
is_linear=0
shrinkage=0.05


Tree=9
num_leaves=63
num_cat=0
split_feature=0 1 6 7 1 7 1 0 0 1 6 6 6 0 5 4 1 1 0 0 6 5 7 4 5 1 1 1 1 6 1 1 5 1 0 7 0 6 0 5 6 1 6 5 6 6 5 6 1 1 1 0 6 6 1 5 6 1 5 6 6 6
split_gain=478.193 148.52 121.571 114.809 39.4849 20.1283 19.2467 16.8801 13.9764 13.4915 23.2401 11.1477 8.36199 6.8536 6.6308 6.77751 6.13032 3.85742 3.80763 3.76941 3.41273 3.14927 4.28805 3.14468 7.17591 2.58709 2.28404 2.08906 1.68642 1.66916 1.66198 1.39599 1.375 1.31443 1.28786 1.26754 1.08406 0.899059 0.821438 0.710682 0.698665 0.617667 0.613261 0.603388 0.482691 0.481925 0.468664 0.466215 0.433108 0.374154 0.373508 0.362149 0.346696 0.307481 0.294216 0.291779 0.258548 0.241792 0.23427 0.23067 0.220173 0.215294
threshold=8.5000000000000018 2018.5000000000002 34.250000000000007 1.8500000000000003 2018.5000000000002 1.5000000000000002 2014.5000000000002 3.5000000000000004 5.5000000000000009 2014.5000000000002 43.850000000000009 52.800000000000004 35.550000000000004 3.5000000000000004 75.000000000000014 1.5000000000000002 2016.5000000000002 2019.5000000000002 4.5000000000000009 11.500000000000002 53.800000000000004 147.50000000000003 1.2500000000000002 1.5000000000000002 220.00000000000003 2018.5000000000002 2016.5000000000002 2011.5000000000002 2016.5000000000002 47.500000000000007 2016.5000000000002 2016.5000000000002 155.00000000000003 2017.5000000000002 2.5000000000000004 1.5000000000000002 2.5000000000000004 43.550000000000004 2.5000000000000004 147.50000000000003 39.500000000000007 2017.5000000000002 35.550000000000004 1.0000000180025095e-35 51.850000000000001 61.550000000000004 25.000000000000004 78.450000000000017 2017.5000000000002 2013.5000000000002 2017.5000000000002 6.5000000000000009 59.500000000000007 54.850000000000001 2015.5000000000002 162.50000000000003 61.550000000000004 2013.5000000000002 147.50000000000003 59.500000000000007 59.500000000000007 59.500000000000007
decision_type=2 2 2 2 2 2 2 2 2 2 2 2 2 2 2 2 2 2 2 2 2 2 2 2 2 2 2 2 2 2 2 2 2 2 2 2 2 2 2 2 2 2 2 2 2 2 2 2 2 2 2 2 2 2 2 2 2 2 2 2 2 2
left_child=2 9 8 5 6 -3 18 17 -1 -2 23 16 39 31 28 20 37 34 27 47 30 35 -23 24 -11 -10 43 -4 -12 -21 -16 38 44 45 52 50 41 -8 60 -7 -5 61 -25 54 48 -22 57 -14 -17 55 -18 -45 -6 -19 -15 -20 -35 -29 -32 -43 -13 -33
right_child=1 3 4 40 7 12 11 -9 25 10 14 13 19 26 15 32 21 53 49 29 33 22 -24 42 -26 -27 -28 46 -30 -31 58 36 -34 56 -36 -37 -38 -39 -40 -41 -42 59 -44 51 -46 -47 -48 -49 -50 -51 -52 -53 -54 -55 -56 -57 -58 -59 -60 -61 -62 -63
leaf_value=0.060236466440715286 -0.030670095793902875 0.01185915055507912 -0.053138813902350035 0.11084935239383154 -0.015726360929061156 0.030989051905150219 -0.014266222189845785 0.018362415966285923 0.013572199838726144 0.059807676573594419 -0.0038487547735281099 -0.030996656054403729 0.043334812116291789 -0.029586593864055783 0.015443801907822491 0.00044826872392811557 -0.017801226776860215 0.0039732460209052078 -0.035283502936363224 0.047711245073721958 0.011457269101842514 0.020776925599202516 -0.0073521791247739684 0.016322175943787442 0.025224667713046073 0.035439743066117878 -0.01148710726806894 -0.045900948771408628 0.0048844032900748208 0.060795421057786694 0.0348385938256979 -0.027134491279721264 -0.0079883059934498027 0.021844907845592218 -0.0077328207155386384 -0.0013552414696841014 -0.021359827612886337 -0.024525215844623745 -0.02680234245278619 0.020834626576730186 0.10045095403989157 -0.021787036447362466 0.026258255604823883 -0.015616463732499725 0.00096873257876253663 0.0062139028421370314 -0.036505507268536262 0.036754769387085044 0.0084265967366906509 -0.02473274367477964 -0.011202269502777003 -0.023760637853826799 -0.021762330734576937 -0.0039297315258227175 -0.02206462512795742 -0.027181013934314255 0.015549366420679054 -0.038702849745750431 0.027185659222304821 -0.026111971738847713 -0.035648599956462634 -0.030524344491747631
leaf_weight=38 20 79 34 35 61 96 28 67 38 24 118 41 45 26 30 22 51 32 25 65 139 20 42 24 40 21 100 28 104 39 20 80 26 21 43 21 101 90 66 21 30 44 44 39 62 64 71 67 75 34 37 21 39 20 26 20 73 20 20 103 67 113
leaf_count=38 20 79 34 35 61 96 28 67 38 24 118 41 45 26 30 22 51 32 25 65 139 20 42 24 40 21 100 28 104 39 20 80 26 21 43 21 101 90 66 21 30 44 44 39 62 64 71 67 75 34 37 21 39 20 26 20 73 20 20 103 67 113
internal_value=0 0.0216262 -0.0177748 0.0442924 -0.02105 0.0345491 -0.024502 -0.003289 0.0365873 0.00995033 0.010847 -0.021778 0.039932 -0.0247321 0.00753998 0.0104749 -0.0133245 -0.0107282 -0.0376057 0.0457634 0.0144084 -0.0072752 0.00172173 0.0302384 0.0381933 0.0213556 -0.0169795 -0.0422085 0.000242454 0.0526178 0.02434 -0.0274045 0.00267147 0.0120677 -0.0149689 -0.0123927 -0.0259082 -0.0220909 -0.031197 0.0291665 0.10605 -0.0272593 0.0227514 -0.0218835 0.00441458 0.00980419 -0.0390855 0.0393985 0.00661708 -0.0286914 -0.0150267 -0.0184669 -0.0180804 0.000933639 -0.0258256 -0.0316824 0.0169558 -0.0429017 0.0310121 -0.0248174 -0.0338826 -0.0291192
internal_weight=0 1403 1707 477 1610 412 1348 262 97 926 906 1116 333 827 774 552 289 195 232 216 367 171 62 132 64 59 212 153 222 104 70 615 185 297 143 109 441 118 174 117 65 340 68 112 159 203 119 112 97 79 88 60 100 52 52 45 94 48 40 147 108 193
internal_count=3110 1403 1707 477 1610 412 1348 262 97 926 906 1116 333 827 774 552 289 195 232 216 367 171 62 132 64 59 212 153 222 104 70 615 185 297 143 109 441 118 174 117 65 340 68 112 159 203 119 112 97 79 88 60 100 52 52 45 94 48 40 147 108 193
is_linear=0
shrinkage=0.05


Tree=10
num_leaves=63
num_cat=0
split_feature=0 3 6 7 3 7 5 3 3 7 0 3 3 5 3 6 0 0 6 6 3 3 2 2 3 3 4 3 3 4 3 6 4 2 2 6 3 7 2 4 4 2 3 4 3 7 3 4 0 5 3 3 0 0 6 0 3 3 0 3 5 3
split_gain=431.569 117.915 109.718 105.25 30.3562 19.3072 14.144 13.5405 13.3721 19.8897 13.2879 9.31282 8.43833 6.6989 4.64348 7.76623 4.53728 4.3814 3.67033 3.3162 2.90756 2.84358 2.92586 2.85806 2.06665 2.02916 1.82385 1.68057 1.56851 1.5568 1.55201 2.41608 2.12694 1.61391 1.48654 1.41701 1.17955 1.15974 1.85314 1.31112 1.15401 1.10089 1.08959 0.923526 0.845727 0.831913 0.817485 0.746259 0.675241 0.640559 0.630916 0.575063 0.565347 0.917814 0.530591 1.45064 0.508521 0.453026 0.444078 0.419493 0.400892 0.391136
threshold=8.5000000000000018 10070.000000000002 34.250000000000007 2.1000000000000005 6036.0000000000009 1.5000000000000002 142.50000000000003 13269.000000000002 68452.500000000015 2.1000000000000005 3.5000000000000004 20456.000000000004 6240.5000000000009 75.000000000000014 41598.000000000007 57.650000000000013 2.5000000000000004 3.5000000000000004 41.20000000000001 57.050000000000004 40738.000000000007 21839.500000000004 1.0000000180025095e-35 1.5000000000000002 35370.000000000007 39885.000000000007 1.5000000000000002 36391.000000000007 17416.500000000004 1.0000000180025095e-35 3515.5000000000005 61.550000000000004 1.5000000000000002 1.0000000180025095e-35 1.5000000000000002 43.850000000000009 35901.000000000007 1.6500000000000001 1.5000000000000002 1.5000000000000002 1.5000000000000002 1.5000000000000002 2534.0000000000005 1.5000000000000002 5214.0000000000009 1.6500000000000001 2253.0000000000005 1.5000000000000002 2.5000000000000004 25.000000000000004 17416.500000000004 2816.0000000000005 3.5000000000000004 6.5000000000000009 50.900000000000006 2.5000000000000004 20002.500000000004 54503.000000000007 2.5000000000000004 20631.500000000004 142.50000000000003 56098.000000000007
decision_type=2 2 2 2 2 2 2 2 2 2 2 2 2 2 2 2 2 2 2 2 2 2 2 2 2 2 2 2 2 2 2 2 2 2 2 2 2 2 2 2 2 2 2 2 2 2 2 2 2 2 2 2 2 2 2 2 2 2 2 2 2 2
left_child=2 3 7 5 10 46 16 42 9 13 19 -11 30 27 15 18 20 48 -8 54 59 22 60 35 28 43 -23 -3 52 -25 31 32 -7 -32 -35 -24 -13 38 39 -14 61 -34 -1 -18 -5 49 -2 -37 56 -27 -45 -12 -20 -54 55 -4 -17 -22 -30 -6 -15 -16
right_child=1 8 4 44 6 12 14 -9 -10 11 51 36 37 21 40 17 25 -19 24 -21 57 26 23 29 -26 45 -28 -29 58 -31 33 -33 41 34 -36 47 -38 -39 -40 -41 -42 -43 -44 50 -46 -47 -48 -49 -50 -51 -52 -53 53 -55 -56 -57 -58 -59 -60 -61 -62 -63
leaf_value=0.059961293637752537 0.020058950325474143 0.0032222541676124798 -0.014258485894512247 0.10555218426804794 -0.028878724146848441 0.059281175136566167 0.0072707686573266987 0.015489855398265449 -0.029738563991018704 0.05766594117650619 0.01821260422889498 0.028243153071962297 0.030244222829739254 0.020417275818738534 -0.020473662783790911 -0.02402575100430205 -0.017740581739369942 -0.0097117478289363689 -0.014359469048493735 -0.02110117774713656 -0.04001415371894837 0.0090318828852905438 0.015077582924411848 0.013405937566939329 -0.00017564045610251252 -0.02900290477734346 -0.001335217128923562 -0.0066303228719930968 -0.025674064308404923 0.03054773658514023 0.04612560782800703 0.031890990644693376 0.03914374094023261 0.025190424761967735 0.041286156269220206 0.01162292330586554 0.015127600391084951 0.015184365510940552 0.040509589637319252 0.017234750352252057 -0.036091337228814767 0.051504455939415966 0.045187449889878439 -0.018858191551584188 0.093563170234362281 -0.022103634160012008 0.0086492306157334217 0.0040286097535649915 -0.019575386780958909 -0.038065077135196107 -0.026821445747472274 0.0087508690476310082 -0.0042521254727616907 -0.014995593882419847 -0.0018965431614420736 -0.0019499839998261875 -0.028528003079386861 -0.048788156679698401 -0.017551058468275444 -0.033788792634832449 0.028726866291392417 -0.028306343507122352
leaf_weight=26 20 149 54 38 87 35 23 47 21 26 42 40 45 47 28 158 69 57 83 58 31 175 65 27 27 39 56 61 20 26 34 25 43 32 26 46 30 20 24 34 36 31 24 33 24 20 73 109 52 39 101 26 50 33 39 43 104 28 106 87 21 37
leaf_count=26 20 149 54 38 87 35 23 47 21 26 42 40 45 47 28 158 69 57 83 58 31 175 65 27 27 39 56 61 20 26 34 25 43 32 26 46 30 20 24 34 36 31 24 33 24 20 73 109 52 39 101 26 50 33 39 43 104 28 106 87 21 37
internal_value=0 0.0205449 -0.016886 0.0399042 -0.0199975 0.0313466 -0.0230243 0.0347579 0.00969157 0.0106347 -0.00442439 0.0321132 0.0367411 0.00799791 -0.018876 -0.0174547 -0.0293477 -0.0224649 -0.0120196 -0.0110909 -0.0345862 0.0108019 0.0137035 0.011392 -0.0134104 -0.0252927 0.00651865 0.000360315 -0.0146342 0.0218151 0.0424767 0.04591 0.0491253 0.0374761 0.0324058 0.00888098 0.0226222 0.0262023 0.0283418 0.0246452 -0.0289098 0.0443219 0.0528698 -0.0224403 0.100911 -0.0312013 0.0111029 0.00628241 -0.0247799 -0.033534 -0.0248603 0.0145949 -0.0114415 -0.00852362 -0.00682186 -0.00880214 -0.0258129 -0.0441781 -0.0188404 -0.0313338 0.0229835 -0.0249323
internal_weight=0 1403 1707 504 1610 442 1348 97 899 878 262 96 349 782 814 713 534 371 342 194 233 572 341 273 319 301 231 210 292 53 226 134 109 92 58 220 70 123 103 79 101 74 50 203 62 98 93 155 314 78 134 68 166 83 136 97 262 59 126 174 68 65
internal_count=3110 1403 1707 504 1610 442 1348 97 899 878 262 96 349 782 814 713 534 371 342 194 233 572 341 273 319 301 231 210 292 53 226 134 109 92 58 220 70 123 103 79 101 74 50 203 62 98 93 155 314 78 134 68 166 83 136 97 262 59 126 174 68 65
is_linear=0
shrinkage=0.05


Tree=11
num_leaves=63
num_cat=0
split_feature=0 1 6 7 1 7 1 0 3 3 6 3 6 2 0 1 3 6 4 7 1 1 3 4 3 1 6 0 3 3 3 3 1 3 6 0 3 0 6 3 6 7 6 6 1 6 1 6 3 6 6 7 1 3 6 6 1 3 3 6 3 3
split_gain=389.491 122.328 99.0204 93.8452 32.6644 16.3918 16.2944 13.9748 12.2203 11.8767 16.9384 11.6192 9.21655 5.62584 5.56684 5.29262 9.73044 4.26502 5.70011 3.21762 3.20916 2.72739 1.99133 1.97544 6.6418 1.74241 1.50235 1.9393 1.46805 1.45609 1.45179 1.41668 1.3799 1.23758 1.08919 1.05605 0.983352 0.968147 0.947959 0.812239 0.810181 0.745329 0.726991 0.723916 0.71311 0.710381 0.685136 0.635969 0.626406 0.618762 0.618346 0.569462 0.610079 0.543571 0.515128 0.501183 0.415617 0.376982 0.351685 0.342197 0.895927 0.328021
threshold=8.5000000000000018 2018.5000000000002 34.250000000000007 1.8500000000000003 2018.5000000000002 1.5000000000000002 2014.5000000000002 3.5000000000000004 13269.000000000002 68452.500000000015 43.150000000000006 10465.000000000002 52.800000000000004 1.0000000180025095e-35 3.5000000000000004 2016.5000000000002 32744.000000000004 61.550000000000004 1.5000000000000002 1.6500000000000001 2019.5000000000002 2019.5000000000002 34716.000000000007 1.5000000000000002 21839.500000000004 2010.5000000000002 35.550000000000004 11.500000000000002 25374.500000000004 20002.500000000004 23860.000000000004 35901.000000000007 2017.5000000000002 2937.0000000000005 50.900000000000006 2.5000000000000004 2534.0000000000005 2.5000000000000004 35.550000000000004 36155.500000000007 47.500000000000007 1.5000000000000002 53.800000000000004 42.500000000000007 2016.5000000000002 43.550000000000004 2017.5000000000002 59.500000000000007 3515.5000000000005 39.500000000000007 77.350000000000009 1.2500000000000002 2013.5000000000002 15561.500000000002 35.550000000000004 77.350000000000009 2016.5000000000002 27028.000000000004 56098.000000000007 78.450000000000017 5214.0000000000009 33859.500000000007
decision_type=2 2 2 2 2 2 2 2 2 2 2 2 2 2 2 2 2 2 2 2 2 2 2 2 2 2 2 2 2 2 2 2 2 2 2 2 2 2 2 2 2 2 2 2 2 2 2 2 2 2 2 2 2 2 2 2 2 2 2 2 2 2
left_child=2 9 8 5 6 -3 19 20 36 10 23 21 15 30 28 45 34 18 32 25 35 26 50 24 -2 -4 33 59 37 -20 46 56 39 -7 41 -6 -1 44 -13 42 48 53 -15 -26 -14 -8 -12 -46 -29 -5 -16 52 -27 -17 -25 -24 -19 -31 -21 -28 -61 -10
right_child=1 3 4 49 7 11 12 -9 61 -11 13 38 14 17 22 16 -18 31 29 58 -22 -23 55 54 43 51 27 40 -30 57 -32 -33 -34 -35 -36 -37 -38 -39 -40 -41 -42 -43 -44 -45 47 -47 -48 -49 -50 -51 -52 -53 -54 -55 -56 -57 -58 -59 -60 60 -62 -63
leaf_value=0.056963231586492982 0.056655632928013802 0.010803469373620575 -0.049084570471729552 0.1004401297228677 -0.01629765485972166 0.038996892748400569 -0.013134607865608165 0.016856964078120221 0.018633804984390736 -0.028251636071529775 0.015445159384537312 0.013616734998219688 -0.02904712332017494 0.023046655102040282 -0.0098405301976424026 -0.011064581669409547 0.026448974320665005 -0.0010253648527601225 0.0049567552728918742 -0.020396496839821338 0.0010247942825886778 0.053265907615423207 -0.018223649537076756 0.014707793196430431 0.014762773618567735 -0.042490965873003009 0.040663680554397647 0.049692941606044774 -0.028205762128230973 -0.0016191087104380131 0.009101190618441805 -0.0060067090052845227 0.02396611731289135 0.024861228882024689 -0.00038149300751022318 -0.0069275172135581506 0.042928076535463336 -0.018918669714688141 0.026235849681225692 0.0074353732177297824 0.053814418459760732 -0.004853602677870255 0.012918236057637362 0.027906311167912052 -0.019168325220899923 -0.02225380347731213 0.024277913075385859 -0.02483586515988824 0.037821073651313784 0.09065438310305278 -0.018728421969960132 -0.031393637452964432 -0.034206409424543387 -0.018370927756895191 0.023814263863658366 -0.02619478025219657 0.0039751446570869394 -0.010224336283281447 -0.028052487671375276 0.025867827254391851 0.038677560538053518 0.010262586430392483
leaf_weight=26 20 79 28 35 100 32 28 67 25 21 42 46 66 22 106 57 20 62 130 30 52 38 49 24 20 40 31 20 203 35 46 70 31 30 22 43 24 107 22 54 29 26 91 22 70 90 46 169 25 30 24 54 50 46 44 33 126 20 30 21 39 22
leaf_count=26 20 79 28 35 100 32 28 67 25 21 42 46 66 22 106 57 20 62 130 30 52 38 49 24 20 40 31 20 203 35 46 70 31 30 22 43 24 107 22 54 29 26 91 22 70 90 46 169 25 30 24 54 50 46 44 33 126 20 30 21 39 22
internal_value=0 0.0195176 -0.0160417 0.0400883 -0.0189976 0.0312794 -0.0221374 -0.00284329 0.03302 0.00892124 0.00978381 0.036137 -0.019631 0.00698223 -0.022317 -0.0119445 -0.00632369 0.00503447 0.0083819 -0.0341942 -0.0096121 0.0408682 -0.01533 0.0264856 0.0329404 -0.037672 0.0387928 0.0412862 -0.0247256 0.00207147 0.0162995 6.5217e-05 0.014278 0.0321571 -0.0106644 -0.0134801 0.0502264 -0.0230108 0.0176994 0.0124796 0.0472973 -0.0124181 0.0148901 0.0216475 -0.0244464 -0.0200899 0.0200623 -0.0231759 0.0430975 0.0959236 -0.0114814 -0.0354529 -0.0378884 -0.0143276 0.0206002 -0.0214315 0.00232604 -0.00474828 -0.0242245 0.0363981 0.0341942 0.0147154
internal_weight=0 1403 1707 477 1610 412 1348 262 97 926 905 333 1116 775 827 289 171 641 383 232 195 265 212 130 62 172 227 165 615 185 134 258 198 62 151 143 50 412 68 167 74 129 113 42 305 118 88 239 45 65 130 144 90 103 68 82 188 55 60 91 60 47
internal_count=3110 1403 1707 477 1610 412 1348 262 97 926 905 333 1116 775 827 289 171 641 383 232 195 265 212 130 62 172 227 165 615 185 134 258 198 62 151 143 50 412 68 167 74 129 113 42 305 118 88 239 45 65 130 144 90 103 68 82 188 55 60 91 60 47
is_linear=0
shrinkage=0.05


Tree=12
num_leaves=63
num_cat=0
split_feature=0 1 6 4 1 6 0 3 1 6 3 1 6 2 1 5 5 4 0 4 6 6 4 0 6 2 4 5 1 6 1 3 1 1 0 3 3 6 3 3 0 6 6 0 3 1 3 3 3 6 3 3 0 0 1 3 3 6 1 1 3 6
split_gain=351.516 110.401 89.3659 68.0512 29.5835 16.942 15.6859 12.3498 11.1441 17.4525 11.0288 10.6716 6.28771 6.19107 6.18467 5.2292 4.75164 5.04442 4.49125 3.79969 6.91145 3.94101 3.56176 2.85976 2.70056 2.61358 2.38786 5.71019 2.21227 1.8398 1.60356 1.46442 1.38045 1.31671 1.31734 1.14897 1.12162 0.925969 0.887475 0.800272 0.679013 0.75979 0.659759 0.620354 0.619804 0.585013 0.55386 0.51806 0.499788 0.464903 0.430441 0.390072 0.385107 0.358798 0.33544 0.332471 0.327637 0.414221 0.325661 0.315617 0.30026 0.332863
threshold=8.5000000000000018 2018.5000000000002 34.250000000000007 1.0000000180025095e-35 2017.5000000000002 45.20000000000001 3.5000000000000004 6240.5000000000009 2014.5000000000002 43.850000000000009 13269.000000000002 2014.5000000000002 57.050000000000004 1.0000000180025095e-35 2018.5000000000002 155.00000000000003 75.000000000000014 1.5000000000000002 2.5000000000000004 1.5000000000000002 43.850000000000009 50.900000000000006 1.5000000000000002 4.5000000000000009 53.800000000000004 1.5000000000000002 1.5000000000000002 220.00000000000003 2019.5000000000002 35.550000000000004 2011.5000000000002 37247.500000000007 2016.5000000000002 2015.5000000000002 3.5000000000000004 15912.500000000002 20002.500000000004 50.000000000000007 2534.0000000000005 23275.000000000004 6.5000000000000009 77.350000000000009 59.500000000000007 11.500000000000002 4333.0000000000009 2016.5000000000002 2937.0000000000005 14880.500000000002 4842.5000000000009 35.550000000000004 30801.000000000004 42831.000000000007 11.500000000000002 4.5000000000000009 2016.5000000000002 30801.000000000004 24517.500000000004 59.500000000000007 2017.5000000000002 2013.5000000000002 36947.500000000007 61.550000000000004
decision_type=2 2 2 2 2 2 2 2 2 2 2 2 2 2 2 2 2 2 2 2 2 2 2 2 2 2 2 2 2 2 2 2 2 2 2 2 2 2 2 2 2 2 2 2 2 2 2 2 2 2 2 2 2 2 2 2 2 2 2 2 2 2
left_child=2 8 10 5 11 44 12 19 -2 26 38 23 28 15 37 -13 31 24 42 21 29 -5 -9 30 32 52 27 -10 -6 46 -4 45 -18 53 -35 43 58 -8 -1 -34 41 50 47 -26 -3 -11 -21 -15 -23 -28 -36 -32 -24 -20 -44 -29 57 -14 -19 -25 61 -37
right_child=1 3 4 7 6 -7 14 22 9 16 -12 13 56 18 -16 -17 17 36 33 20 -22 48 25 59 35 -27 49 55 -30 -31 51 -33 39 34 40 60 -38 -39 -40 -41 -42 -43 54 -45 -46 -47 -48 -49 -50 -51 -52 -53 -54 -55 -56 -57 -58 -59 -60 -61 -62 -63
leaf_value=0.054115068339384523 -0.028442699126899243 0.095825463533401489 -0.046049800690482645 0.060177792454588 -0.010713209052864971 0.038764619715511803 0.0043169332186225803 0.030776591466224575 0.052307237374285859 -0.00080787615306550072 0.01397959451646881 0.015245177787506864 -0.015623772576717394 -0.018270847542832296 0.016014115994017739 -0.015702016219401208 0.013029326350272943 -0.00055039025416287292 -0.025275116320699453 0.036379668750871334 0.013317902864435236 0.034502148181200031 0.007468268889706673 -0.027506116347180472 0.019964501706676352 0.030593509546348027 0.0139724037454774 0.026016065999865536 0.0014619186114264177 0.046424720938815632 -0.031424462878041799 -0.0061338632978731773 0.034290145188570022 -0.020445704712407795 -0.0069577547025115221 0.011491485787968186 -0.0038088650472292845 -0.0069365032804746402 0.040781672360996411 0.020145606715232134 -0.018575393587902743 -0.018782188142499618 -0.030800894747919111 0.01158066926883501 0.085906711007867551 0.0053748964252869191 0.026002053059637549 -0.025173340341797818 0.044182550311088566 0.022623550656399774 -0.013499342685358393 -0.037280455929167726 0.013777014216155573 -0.019589913377956472 -0.026335733087189429 0.016899174028076232 -0.025321886956691741 -0.020749992608351815 0.0058997041496524003 -0.021123211825376048 0.0048406826508793389 0.0068082125636203571
leaf_weight=26 20 36 34 29 139 20 25 47 24 65 47 21 56 36 67 39 30 24 64 36 37 40 41 45 36 21 24 20 51 43 72 64 20 127 57 79 55 68 24 20 54 31 67 57 28 93 20 111 20 44 45 47 59 49 113 20 25 133 106 34 52 73
leaf_count=26 20 36 34 29 139 20 25 47 24 65 47 21 56 36 67 39 30 24 64 36 37 40 41 45 36 21 24 20 51 43 72 64 20 127 57 79 55 68 24 20 54 31 67 57 28 93 20 111 20 44 45 47 59 49 113 20 25 133 106 34 52 73
internal_value=0 0.0185417 -0.0152396 0.0380839 -0.0180477 0.0789333 -0.00881759 0.0293528 0.00847518 0.00929014 0.031369 -0.0230246 -0.0140651 -0.0203284 0.00443242 -0.0048705 0.00642431 0.00890875 -0.0215585 0.0370117 0.0317554 0.0450437 0.0190953 -0.0324845 0.0123023 0.0145579 0.0260943 0.0330262 -0.00744515 0.0386462 -0.0364734 0.000246785 0.0211371 -0.0181815 -0.0165159 0.0102201 0.0021766 -0.00391139 0.047715 0.0272179 -0.013847 -0.0119271 -0.0259682 0.014826 0.091486 0.00283135 0.0326734 -0.0234829 0.0377289 0.0195702 -0.00984375 -0.0337373 0.0111904 -0.0228099 -0.0279978 0.0214576 -0.0199427 -0.0192311 0.00470892 -0.024759 0.00812031 0.00924228
internal_weight=0 1403 1707 477 1610 84 564 393 926 906 97 1046 404 814 160 60 774 552 754 225 136 89 168 232 367 121 132 64 190 99 153 222 70 427 314 297 185 93 50 40 187 133 327 93 64 158 56 147 60 68 102 119 100 113 180 40 214 189 130 79 204 152
internal_count=3110 1403 1707 477 1610 84 564 393 926 906 97 1046 404 814 160 60 774 552 754 225 136 89 168 232 367 121 132 64 190 99 153 222 70 427 314 297 185 93 50 40 187 133 327 93 64 158 56 147 60 68 102 119 100 113 180 40 214 189 130 79 204 152
is_linear=0
shrinkage=0.05


Tree=13
num_leaves=63
num_cat=0
split_feature=0 1 6 4 1 6 1 0 3 3 6 3 6 2 0 1 3 4 6 6 6 4 2 0 1 0 3 6 3 6 1 5 3 3 1 3 6 5 0 0 2 3 5 3 5 1 3 3 6 3 6 5 0 3 6 6 3 3 3 3 3 3
split_gain=317.243 99.6366 80.6527 61.4162 26.7084 15.2901 13.2585 11.3464 11.1674 10.1112 13.7699 9.95351 7.59495 4.53447 4.52461 4.44732 8.52161 4.15977 6.61433 3.97703 3.44924 4.85636 3.03653 2.68672 2.59161 2.58094 1.81441 2.56396 1.64691 1.57773 1.44721 1.34359 1.25712 1.21473 1.09981 1.00931 0.947374 0.945375 0.905475 0.831657 0.828306 0.800946 0.722554 0.606749 0.604899 0.593932 0.559373 0.557991 1.15975 0.555206 0.601173 0.539737 0.488527 0.460912 0.413714 0.374081 0.35204 0.299342 0.298159 0.296039 0.288309 0.285251
threshold=8.5000000000000018 2018.5000000000002 34.250000000000007 1.0000000180025095e-35 2018.5000000000002 45.20000000000001 2014.5000000000002 3.5000000000000004 6729.5000000000009 61872.000000000007 43.150000000000006 13269.000000000002 52.800000000000004 1.0000000180025095e-35 3.5000000000000004 2016.5000000000002 32744.000000000004 1.5000000000000002 43.850000000000009 50.900000000000006 61.550000000000004 1.5000000000000002 1.5000000000000002 9.5000000000000018 2019.5000000000002 4.5000000000000009 15211.500000000002 38.95000000000001 34716.000000000007 35.550000000000004 2011.5000000000002 155.00000000000003 24517.500000000004 23860.000000000004 2017.5000000000002 31003.500000000004 50.900000000000006 142.50000000000003 2.5000000000000004 2.5000000000000004 1.5000000000000002 2534.0000000000005 162.50000000000003 3701.0000000000005 25.000000000000004 2017.5000000000002 4333.0000000000009 4994.5000000000009 78.450000000000017 36155.500000000007 53.800000000000004 25.000000000000004 3.5000000000000004 9381.5000000000018 77.350000000000009 64.950000000000017 42831.000000000007 9193.5000000000018 7010.5000000000009 33859.500000000007 31790.500000000004 2816.0000000000005
decision_type=2 2 2 2 2 2 2 2 2 2 2 2 2 2 2 2 2 2 2 2 2 2 2 2 2 2 2 2 2 2 2 2 2 2 2 2 2 2 2 2 2 2 2 2 2 2 2 2 2 2 2 2 2 2 2 2 2 2 2 2 2 2
left_child=2 9 11 5 6 46 25 24 17 10 26 41 15 33 32 42 36 19 29 -5 21 34 23 -10 38 30 27 -2 51 43 -4 53 39 37 49 -22 45 -12 -6 44 -28 -1 -8 -19 -14 -17 -3 48 -21 50 -15 -16 -47 -23 -30 -53 -32 -46 -40 -13 -42 -9
right_child=1 3 4 8 7 -7 12 61 22 -11 13 59 14 20 28 16 -18 18 -20 47 35 31 -24 -25 -26 -27 40 -29 54 -31 56 -33 -34 -35 -36 -37 -38 -39 58 -41 60 -43 -44 -45 57 52 -48 -49 -50 -51 -52 55 -54 -55 -56 -57 -58 -59 -60 -61 -62 -63
leaf_value=0.051409315489805665 0.022233950218651446 0.091034190191162961 -0.043747310603366181 0.057588514108811655 -0.014721931211650371 0.036826388370245697 -0.020343882565969949 0.018151101739322013 0.026612357541682397 -0.021537293514951931 0.015414889122920989 0.017003135323524477 -0.026274872651466958 0.020920189375862142 -0.015470556491935575 -0.014357660613744192 0.025075923970434816 0.034447770035610746 0.012415117284328474 0.040303397991440518 0.0025653307715401753 0.0075702064763754602 0.032744286512887043 0.01007434486573402 0.00092181614488184177 -0.023521090977931328 0.013441414540367467 0.044718245807148164 -0.016497110537424378 0.043326586874371228 -0.029853239717582865 -0.0086649314715312089 -0.025416719771401825 0.0081990894181375486 0.021817904097899313 -0.0039625875419005757 -6.557142848826268e-05 0.027781306570395826 -0.0019776939583772963 -0.016779067825672091 0.027998852694318413 0.03874258911237121 -0.011029722764053279 0.023736199932172894 -0.018244155969372705 -0.010994648022224775 0.081611375084945148 0.042528502605855473 0.023667304605478421 0.007218145289716274 0.011709820912577787 -0.011025613285946074 -0.0014465289611724161 0.0017721945674098825 -0.023739338146917751 -0.0045992521658683059 -0.035416432676163123 -0.022066897989078696 -0.010306972371680398 0.009050477575510741 0.019713630491778964 0.011590257479498784
leaf_weight=26 32 36 34 31 100 20 91 37 33 28 68 25 65 22 37 71 20 39 41 22 160 50 27 96 52 79 35 21 49 44 72 26 215 46 31 94 22 20 22 102 21 24 27 20 76 37 28 20 20 51 91 54 21 109 33 39 47 157 21 22 21 30
leaf_count=26 32 36 34 31 100 20 91 37 33 28 68 25 65 22 37 71 20 39 41 22 160 50 27 96 52 79 35 21 49 44 72 26 215 46 31 94 22 20 22 102 21 24 27 20 76 37 28 20 20 51 91 54 21 109 33 39 47 157 21 22 21 30
internal_value=0 0.0176146 -0.0144776 0.0361797 -0.0171453 0.0749866 -0.0199845 -0.00253785 0.0278851 0.00805142 0.00897401 0.0298005 -0.0177236 0.00642666 -0.0201619 -0.010746 -0.00559355 0.0347233 0.0293998 0.042966 0.00466038 0.00767555 0.0174964 0.014305 -0.008637 -0.0308603 0.0240229 0.0311428 -0.0138628 0.0361607 -0.0346498 0.00187239 -0.0223333 0.0147836 0.0131811 0.000149487 -0.00965573 0.0182254 -0.0121129 -0.020676 0.0191222 0.0453293 -0.0182127 0.0308167 -0.0220098 -0.0112913 0.0869117 0.0356547 0.0323814 0.0115486 0.013503 -0.0103628 -0.00753757 0.00359547 -0.0194117 -0.00833069 -0.0320505 -0.02082 -0.00604548 0.0132806 0.0238562 0.0152134
internal_weight=0 1403 1707 477 1610 84 1348 262 393 926 898 97 1116 768 827 289 171 237 144 93 634 380 156 129 195 232 130 53 212 103 153 185 615 134 195 254 151 88 143 400 77 50 118 59 298 129 64 62 42 164 113 130 58 159 82 93 119 233 43 47 42 67
internal_count=3110 1403 1707 477 1610 84 1348 262 393 926 898 97 1116 768 827 289 171 237 144 93 634 380 156 129 195 232 130 53 212 103 153 185 615 134 195 254 151 88 143 400 77 50 118 59 298 129 64 62 42 164 113 130 58 159 82 93 119 233 43 47 42 67
is_linear=0
shrinkage=0.05


Tree=14
num_leaves=63
num_cat=0
split_feature=0 1 6 7 1 7 7 1 6 0 3 1 6 2 7 1 0 2 7 7 6 4 1 4 3 1 1 1 2 1 0 3 3 3 3 1 6 3 0 7 6 3 7 3 7 0 3 6 3 6 6 6 1 4 3 7 7 1 6 0 3 1
split_gain=286.312 89.922 72.7891 69.2413 24.1079 12.8917 12.3108 9.73008 14.2482 9.02926 8.86194 8.68979 6.36691 5.33748 4.44479 3.87575 3.7138 3.43082 3.58557 2.45685 2.42108 2.8102 2.1596 2.14888 5.03911 1.80934 1.51544 1.30742 1.19766 1.12205 1.07287 1.07144 0.944975 0.85465 0.847446 0.760493 0.714275 0.902339 1.0152 0.70492 0.640012 0.60579 0.594851 0.592406 0.48763 0.461134 1.12157 0.456189 0.431632 0.404279 0.388075 0.369062 0.351018 0.34805 0.602466 0.341069 0.334005 0.330828 0.330696 0.322388 0.546124 0.313416
threshold=8.5000000000000018 2018.5000000000002 34.250000000000007 2.1000000000000005 2017.5000000000002 1.2500000000000002 1.5000000000000002 2014.5000000000002 43.850000000000009 5.5000000000000009 10465.000000000002 2014.5000000000002 57.050000000000004 1.0000000180025095e-35 1.5000000000000002 2018.5000000000002 2.5000000000000004 1.0000000180025095e-35 2.1000000000000005 1.6500000000000001 61.550000000000004 1.5000000000000002 2019.5000000000002 1.5000000000000002 20857.000000000004 2019.5000000000002 2018.5000000000002 2011.5000000000002 1.5000000000000002 2015.5000000000002 3.5000000000000004 35901.000000000007 20002.500000000004 7160.0000000000009 23860.000000000004 2017.5000000000002 36.000000000000007 5214.0000000000009 9.5000000000000018 1.5000000000000002 35.550000000000004 2937.0000000000005 1.6500000000000001 18219.000000000004 1.5000000000000002 2.5000000000000004 3515.5000000000005 60.750000000000007 36947.500000000007 59.500000000000007 35.550000000000004 39.500000000000007 2017.5000000000002 1.5000000000000002 2382.5000000000005 1.5000000000000002 1.1500000000000001 2016.5000000000002 59.500000000000007 6.5000000000000009 17532.500000000004 2016.5000000000002
decision_type=2 2 2 2 2 2 2 2 2 2 2 2 2 2 2 2 2 2 2 2 2 2 2 2 2 2 2 2 2 2 2 2 2 2 2 2 2 2 2 2 2 2 2 2 2 2 2 2 2 2 2 2 2 2 2 2 2 2 2 2 2 2
left_child=2 7 9 6 11 12 -3 -2 23 -1 22 19 25 14 -13 39 43 34 20 27 21 35 28 24 -9 45 -11 -4 33 -18 -31 61 -23 36 52 48 41 38 -38 -7 -12 -8 59 49 47 -6 -47 -29 -19 -15 -25 -5 -10 -30 -55 -17 -48 -45 -14 60 -32 -22
right_child=1 3 4 51 5 15 10 8 17 26 40 13 58 16 -16 55 29 18 -20 -21 31 32 -24 50 -26 -27 -28 44 53 30 42 -33 -34 -35 -36 -37 37 -39 -40 -41 -42 -43 -44 57 -46 46 56 -49 -50 -51 -52 -53 -54 54 -56 -57 -58 -59 -60 -61 -62 -63
leaf_value=0.047318868221420993 -0.026847400926053522 0.0091844457101454089 -0.04040642204957131 0.086627755505698067 -0.011828007753337583 -0.0067992552920865526 0.032739264015108349 0.048901664963720934 0.012925202793513352 0.010110803733971951 0.011657490323135712 0.015250714979483746 -0.015146071739683423 -0.017572178477766338 -0.013617916880175471 0.02160062190766136 -0.020691685879652481 0.011238409732194509 0.020938379957430787 -0.02060552248576035 -0.00099353151472901264 0.0043054759203313064 0.046269415515033829 0.012290310324169697 0.019661422789369415 0.0020420980106361885 0.026847290070283983 -0.029679027719553126 0.042719068502386409 -0.018428036080688003 -0.0048707643257720132 -0.0051182902701360665 -0.0035128379312597893 0.023724138879598206 0.0078210758474758935 0.018969303563237193 0.024160120191729882 0.043686412349343305 0.03918380128300708 0.0037162453511401135 0.022026285800066863 0.021505108131095768 -0.0060217558980608984 -0.027841931442419688 -0.023374660896218341 0.0042700662929564719 -0.005766683071587151 -0.03747524780531724 0.0051100991718703885 -0.02323038062374843 0.020194373176094484 0.078926228199686324 0.019475712697563131 0.04232087790966034 0.030778013083797236 0.013408646649784512 -0.011927456200249834 -0.023622114528886608 -0.019166859249616492 -0.01683489201521432 -0.013907627563741877 0.003348857321820799
leaf_weight=38 20 79 39 35 62 30 30 23 39 38 46 20 79 54 40 24 113 102 31 60 62 130 38 24 41 55 21 86 30 127 21 76 55 33 45 25 22 25 23 34 22 20 30 75 23 20 44 24 40 76 44 28 43 20 26 27 44 122 145 54 82 126
leaf_count=38 20 79 39 35 62 30 30 23 39 38 46 20 79 54 40 24 113 102 31 60 62 130 38 24 41 55 21 86 30 127 21 76 55 33 45 25 22 25 23 34 22 20 30 75 23 20 44 24 40 76 44 28 43 20 26 27 44 122 145 54 82 126
internal_value=0 0.0167339 -0.0137538 0.0343707 -0.0162881 -0.0079558 0.0269395 0.00764885 0.00841035 0.0283105 0.0311265 -0.0207808 -0.0117815 -0.0183478 -0.00399504 0.00698107 -0.0194899 0.00582094 0.00434608 -0.0293172 0.00351108 0.00622574 0.0352305 0.0235938 0.0301696 -0.00584072 0.0160679 -0.0323562 0.0333987 -0.0164191 -0.0148816 -0.000108458 0.00198111 0.0308502 0.0133345 0.0109279 0.0328099 0.0360701 0.0318389 -0.0012129 0.0150121 0.0282456 -0.012473 -0.0234998 -0.0299956 -0.00839104 -0.00641797 -0.03138 0.00951213 -0.0208801 0.0174047 0.0832049 0.0163602 0.0385292 0.0357966 0.0172637 -0.00884707 -0.0252286 -0.0177488 -0.0137057 -0.0120652 0.00191679
internal_weight=0 1403 1707 477 1610 564 414 926 906 97 335 1046 449 814 60 115 754 774 647 232 616 352 267 132 64 225 59 172 229 427 314 264 185 153 127 167 120 70 45 64 68 50 187 327 133 170 108 110 142 130 68 63 82 76 46 51 88 197 224 157 103 188
internal_count=3110 1403 1707 477 1610 564 414 926 906 97 335 1046 449 814 60 115 754 774 647 232 616 352 267 132 64 225 59 172 229 427 314 264 185 153 127 167 120 70 45 64 68 50 187 327 133 170 108 110 142 130 68 63 82 76 46 51 88 197 224 157 103 188
is_linear=0
shrinkage=0.05


Tree=15
num_leaves=63
num_cat=0
split_feature=0 1 6 7 1 7 1 0 1 6 3 3 6 3 0 2 7 0 6 4 1 1 7 3 1 1 2 3 1 1 3 3 3 0 6 3 0 1 3 6 0 6 6 3 0 6 3 3 7 3 3 3 0 4 7 6 1 3 2 3 1 6
split_gain=258.396 81.1546 65.6922 62.4903 21.8664 11.1105 10.8852 9.27033 8.7814 12.859 8.16901 7.9979 7.51668 7.06977 4.32227 3.09631 3.23598 2.96649 2.18502 2.5362 2.07999 1.94903 1.94749 4.06038 1.79409 1.08587 1.08088 0.96697 0.888462 0.882469 0.878212 0.782293 0.775271 0.733364 0.706933 1.12948 0.916216 0.686345 0.686279 0.676351 0.65732 0.577611 0.559627 0.546725 0.500348 0.49757 0.483349 0.441161 0.428344 0.394323 0.377079 0.372835 0.3514 0.844521 0.336799 0.320534 0.307022 0.291748 0.289414 0.285654 0.282858 0.268943
threshold=8.5000000000000018 2018.5000000000002 34.250000000000007 2.1000000000000005 2018.5000000000002 1.5000000000000002 2015.5000000000002 3.5000000000000004 2014.5000000000002 43.850000000000009 13269.000000000002 10465.000000000002 54.850000000000001 35370.000000000007 3.5000000000000004 1.0000000180025095e-35 2.1000000000000005 3.5000000000000004 61.550000000000004 1.5000000000000002 2019.5000000000002 2019.5000000000002 2.1000000000000005 21839.500000000004 2013.5000000000002 2017.5000000000002 1.5000000000000002 35901.000000000007 2013.5000000000002 2017.5000000000002 19064.000000000004 29201.500000000004 6907.5000000000009 2.5000000000000004 36.000000000000007 5214.0000000000009 9.5000000000000018 2017.5000000000002 2534.0000000000005 59.500000000000007 3.5000000000000004 35.550000000000004 77.350000000000009 2937.0000000000005 2.5000000000000004 51.850000000000001 42831.000000000007 15444.500000000002 1.6500000000000001 29461.500000000004 33519.000000000007 4333.0000000000009 11.500000000000002 1.5000000000000002 1.1500000000000001 57.050000000000004 2017.5000000000002 9772.0000000000018 1.5000000000000002 68452.500000000015 2016.5000000000002 54.850000000000001
decision_type=2 2 2 2 2 2 2 2 2 2 2 2 2 2 2 2 2 2 2 2 2 2 2 2 2 2 2 2 2 2 2 2 2 2 2 2 2 2 2 2 2 2 2 2 2 2 2 2 2 2 2 2 2 2 2 2 2 2 2 2 2 2
left_child=2 8 10 5 6 57 17 20 -2 22 38 21 13 25 30 31 18 24 19 37 33 26 47 -24 46 -8 32 60 59 -21 39 56 34 -6 43 36 -36 49 -1 -14 -27 -13 50 -7 -32 -31 -4 -10 -30 58 -16 -5 -28 -54 -46 -26 -11 -3 -17 -19 -20 -22
right_child=1 3 4 51 7 11 12 -9 9 15 -12 41 14 -15 42 16 -18 28 27 29 61 -23 23 -25 55 40 52 -29 48 45 44 -33 -34 -35 35 -37 -38 -39 -40 -41 -42 -43 -44 -45 54 -47 -48 -49 -50 -51 -52 -53 53 -55 -56 -57 -58 -59 -60 -61 -62 -63
leaf_value=0.046591011950602904 -0.025505030602216722 0.011102735787173924 -0.031014428287744523 0.082375719149907434 -0.013231418186798691 0.031102300407364964 -0.012722225945649876 0.013788804181837547 0.020110344434700288 0.012010638517614931 0.011929022421703694 0.011074615648502241 -0.014898341796591816 0.020384656868520239 -0.007003522737558639 0.015871062487936939 0.019891461147175684 -0.023519982475166522 -0.00094385493974832283 -0.0034965854472291005 0.0036367631793837066 0.043955944674579722 0.047552429661154749 0.019454047867717844 -0.021281542074224304 -0.0099623151425574288 0.031598231149837376 -0.004862375809553717 -0.021043484818276972 0.0067619234932353722 -0.023173882948454991 0.0057621185273502868 0.023005718159539678 -0.0054229918477493666 0.022952113760931588 0.044290116766378999 0.037224612223065418 0.01802083818614483 0.034866007758925364 -0.019826263034852541 -0.00059971695438051898 0.020924971659075132 -0.016231662888200053 0.020429852637462317 -0.013419114458172218 0.00053306873014662419 -0.039579795114696031 0.012213100779003332 -0.015565623406351346 0.0064016933713606757 -0.013193715100779253 0.074603136601271464 0.046654340199061804 0.03366801115053316 -0.020418469695483939 -0.027342755736952482 0.017667080490488787 0.0048419531108811502 0.0092448402330693284 -0.030511703306720372 0.0031814144705542336 -0.0037543855560215889
leaf_weight=26 20 49 28 36 100 30 135 67 48 47 47 46 121 21 89 26 31 48 62 54 32 38 20 36 29 37 24 76 86 75 186 31 37 43 22 21 23 25 24 164 38 22 31 20 23 56 40 28 61 71 34 27 21 31 68 88 49 30 45 21 126 20
leaf_count=26 20 49 28 36 100 30 135 67 48 47 47 46 121 21 89 26 31 48 62 54 32 38 20 36 29 37 24 76 86 75 186 31 37 43 22 21 23 25 24 164 38 22 31 20 23 56 40 28 61 71 34 27 21 31 68 88 49 30 45 21 126 20
internal_value=0 0.0158972 -0.0130661 0.0326522 -0.0154737 0.0255925 -0.0180426 -0.00225646 0.0072664 0.00798984 0.026895 0.0295701 -0.0151188 -0.00727627 -0.0176491 0.00552989 0.00412878 -0.0249473 0.00333553 0.00591445 -0.00776944 0.033469 0.0224141 0.0294892 -0.0295942 -0.0100424 0.0317288 -0.000103035 -0.0209674 0.00188206 -0.0196826 0.0126678 0.0293077 -0.0108834 0.0313179 0.0347152 0.0302469 0.0103815 0.040963 -0.0177341 -0.0052186 0.0142615 -0.0102278 0.0268333 -0.0216875 0.00409921 -0.0360529 0.0172008 -0.0187704 0.00903652 -0.00871463 0.0790446 0.0366027 0.0389125 -0.0186494 -0.0258404 0.0148978 0.00872522 0.0116713 -0.0256479 0.00182095 0.000794014
internal_weight=0 1403 1707 477 1610 414 1348 262 926 906 97 335 947 231 716 774 647 401 616 352 195 267 132 56 185 210 229 264 216 185 562 127 153 143 116 66 45 167 50 285 75 68 154 50 277 131 68 76 147 142 123 63 76 52 91 117 96 79 71 69 188 52
internal_count=3110 1403 1707 477 1610 414 1348 262 926 906 97 335 947 231 716 774 647 401 616 352 195 267 132 56 185 210 229 264 216 185 562 127 153 143 116 66 45 167 50 285 75 68 154 50 277 131 68 76 147 142 123 63 76 52 91 117 96 79 71 69 188 52
is_linear=0
shrinkage=0.05


Tree=16
num_leaves=63
num_cat=0
split_feature=0 1 6 7 1 7 1 0 3 6 0 3 6 3 0 2 0 6 4 6 1 1 1 4 3 1 1 3 6 0 6 3 3 3 3 0 6 0 7 3 3 3 1 3 0 3 3 3 2 1 6 6 6 6 7 3 3 6 3 6 3 1
split_gain=233.203 73.2421 59.2872 56.3975 19.7344 10.0272 9.82388 8.36647 8.22077 10.5655 7.50926 7.30149 6.78381 6.38047 3.90085 3.40137 2.67726 2.65577 3.47189 1.97776 1.87719 1.62807 1.61917 1.50523 4.1424 1.23455 0.979999 0.963045 0.940538 1.23669 0.93789 0.914973 0.866598 0.821065 0.792586 0.661861 0.610406 0.593231 0.58219 0.516921 0.508049 0.480543 0.479725 0.454676 0.451564 0.436223 0.425296 0.410564 0.395268 0.368718 0.363871 0.354576 0.344549 0.319469 0.303962 0.29598 0.294621 0.265938 0.263302 0.260814 0.290153 0.254214
threshold=8.5000000000000018 2018.5000000000002 34.250000000000007 2.1000000000000005 2018.5000000000002 1.5000000000000002 2015.5000000000002 3.5000000000000004 68452.500000000015 43.150000000000006 5.5000000000000009 6907.5000000000009 54.850000000000001 35370.000000000007 3.5000000000000004 1.0000000180025095e-35 3.5000000000000004 61.550000000000004 1.5000000000000002 35.550000000000004 2019.5000000000002 2019.5000000000002 2013.5000000000002 1.5000000000000002 21839.500000000004 2018.5000000000002 2017.5000000000002 27028.000000000004 35.550000000000004 11.500000000000002 53.800000000000004 23860.000000000004 31003.500000000004 71146.500000000015 19064.000000000004 2.5000000000000004 59.500000000000007 3.5000000000000004 1.6500000000000001 29683.500000000004 34716.000000000007 2937.0000000000005 2017.5000000000002 4842.5000000000009 2.5000000000000004 42831.000000000007 35901.000000000007 36947.500000000007 1.5000000000000002 2017.5000000000002 51.850000000000001 35.550000000000004 39.500000000000007 57.650000000000013 1.1500000000000001 42002.500000000007 46147.000000000007 47.500000000000007 9772.0000000000018 45.20000000000001 17762.500000000004 2016.5000000000002
decision_type=2 2 2 2 2 2 2 2 2 2 2 2 2 2 2 2 2 2 2 2 2 2 2 2 2 2 2 2 2 2 2 2 2 2 2 2 2 2 2 2 2 2 2 2 2 2 2 2 2 2 2 2 2 2 2 2 2 2 2 2 2 2
left_child=2 8 10 5 6 58 16 20 9 23 -1 21 13 26 34 31 22 18 30 -13 35 28 45 24 -2 -12 59 49 41 43 39 42 -19 38 36 -6 -14 -28 -18 -17 -16 -7 -11 -30 61 -4 -26 53 -21 -20 -51 -25 -5 -32 -46 -24 -40 -31 -3 -8 -61 -36
right_child=1 3 4 52 7 11 12 -9 -10 15 25 19 14 -15 40 17 33 32 27 48 -22 -23 55 51 46 -27 37 -29 29 57 47 -33 -34 -35 44 -37 -38 -39 56 -41 -42 -43 -44 -45 54 -47 -48 -49 -50 50 -52 -53 -54 -55 -56 -57 -58 -59 -60 60 -62 -63
leaf_value=0.042884968456469087 0.045174807924777273 0.010547598979877766 -0.02946370632520744 0.078399656500135154 -0.012569847205653788 0.030208763555856423 -0.0085094266596275406 0.013099363872280985 -0.024023742428315537 0.011776495497629401 0.0090088123504660621 0.011273080377065561 -0.014153424789359379 0.019365423616199268 -0.008043990103608888 0.021795958515118671 -0.021165423411711126 0.0022402116458761158 -0.0012444024662793866 0.021031513146641204 0.00075431301940205651 0.043599326461553574 -0.023170956300778523 0.010785445763031021 0.022558981109233128 0.024114770016499931 -0.0094641994382884051 -0.0087516657344531273 0.026348362520470153 0.03664577094571931 0.0087452714794045809 0.0069382355047349371 -0.0037303577433815422 -0.028848885582840961 -0.025437893683002113 -0.0051518423872631653 -0.018834949852671565 -0.00056973109749378634 -0.011776218235853219 0.011336450726680812 -0.014647908997124967 0.020609310398470949 0.019167504723831691 0.035359028109260615 -0.012748158702869779 -0.037600805796682839 0.012496130232743565 0.0044483277002083403 0.028750294150301704 0.0064891029557544895 0.00098472622647771939 0.018340671756728131 0.070958290781293606 0.014311927360578035 -0.019397546252345341 -0.029139807737535901 -0.01800449585580096 0.043479319258282585 0.0045998554527371498 -0.010543865964839074 -0.015995362666748968 -0.021016899672233399
leaf_weight=38 20 49 28 35 100 32 37 67 21 42 38 54 121 21 115 27 113 160 41 43 52 35 90 24 21 21 37 20 42 35 76 46 98 23 42 43 164 38 31 21 39 22 46 21 23 40 21 35 27 73 51 44 28 39 68 27 49 24 30 46 52 144
leaf_count=38 20 49 28 35 100 32 37 67 21 42 38 54 121 21 115 27 113 160 41 43 52 35 90 24 21 21 37 20 42 35 76 46 98 23 42 43 164 38 31 21 39 22 46 21 23 40 21 35 27 73 51 44 28 39 68 27 49 24 30 46 52 144
internal_value=0 0.0151024 -0.0124128 0.0310196 -0.0147 0.0243129 -0.0171405 -0.00214363 0.00690308 0.00762072 0.0255502 0.0280916 -0.0143629 -0.00691245 -0.0167666 0.00540808 -0.0236999 0.00389358 0.00653505 0.0184626 -0.00738097 0.0337504 -0.0281145 0.0208115 0.026446 0.0143855 -0.00954024 0.00161012 0.0317918 0.0342236 0.0111366 0.0126528 -2.76791e-05 -0.019919 -0.0186985 -0.0103393 -0.0168474 -0.00495767 -0.0188548 0.0172199 -0.00971641 0.0262979 0.01564 0.0293519 -0.0206031 -0.0342502 0.0175276 0.00918998 0.0240088 0.00286609 0.00422521 0.0156741 0.0750924 0.0106331 -0.0177169 -0.0245484 -0.015591 0.0394255 0.00828896 -0.0120861 -0.0134365 -0.0220152
internal_weight=0 1403 1707 477 1610 414 1348 262 926 905 97 335 947 231 716 775 401 641 383 124 195 211 185 130 62 59 210 185 176 122 198 134 258 216 562 143 285 75 193 48 154 54 88 63 277 68 42 150 70 165 124 68 63 115 91 117 80 59 79 135 98 186
internal_count=3110 1403 1707 477 1610 414 1348 262 926 905 97 335 947 231 716 775 401 641 383 124 195 211 185 130 62 59 210 185 176 122 198 134 258 216 562 143 285 75 193 48 154 54 88 63 277 68 42 150 70 165 124 68 63 115 91 117 80 59 79 135 98 186
is_linear=0
shrinkage=0.05


Tree=17
num_leaves=63
num_cat=0
split_feature=0 1 6 7 1 7 7 1 6 0 1 6 2 5 6 1 5 4 0 0 7 6 4 5 1 1 1 1 1 6 1 7 5 1 7 6 5 0 5 6 6 6 0 7 1 7 0 6 7 6 6 0 1 1 1 0 4 1 6 6 6 1
split_gain=210.466 66.101 53.5067 50.8987 17.8596 9.5665 9.04954 7.60825 10.514 6.77711 6.47272 4.65357 4.41005 4.27425 3.81867 2.9575 2.85028 3.02751 2.81587 2.286 1.8924 1.87799 1.62606 4.30384 1.33702 1.11418 1.09514 1.03558 0.889361 0.869364 0.782539 0.842515 0.776784 0.63977 0.589277 0.466731 0.428983 0.41678 0.353803 0.320005 0.316342 0.310956 0.308475 0.520039 0.393221 0.307815 0.295749 0.364021 0.278656 0.262065 0.250605 0.243802 0.24352 0.232163 0.227271 0.226418 0.219492 0.16854 0.163099 0.15952 0.155419 0.134022
threshold=8.5000000000000018 2018.5000000000002 34.250000000000007 2.1000000000000005 2017.5000000000002 1.2500000000000002 1.5000000000000002 2014.5000000000002 43.850000000000009 5.5000000000000009 2014.5000000000002 57.050000000000004 1.0000000180025095e-35 155.00000000000003 35.550000000000004 2018.5000000000002 75.000000000000014 1.5000000000000002 2.5000000000000004 11.500000000000002 1.6500000000000001 53.800000000000004 1.5000000000000002 220.00000000000003 2019.5000000000002 2018.5000000000002 2016.5000000000002 2010.5000000000002 2016.5000000000002 50.000000000000007 2015.5000000000002 1.6500000000000001 155.00000000000003 2017.5000000000002 1.5000000000000002 59.500000000000007 155.00000000000003 3.5000000000000004 147.50000000000003 35.550000000000004 51.850000000000001 39.500000000000007 2.5000000000000004 1.1500000000000001 2018.5000000000002 1.5000000000000002 6.5000000000000009 77.350000000000009 1.1500000000000001 61.550000000000004 59.500000000000007 4.5000000000000009 2013.5000000000002 2016.5000000000002 2017.5000000000002 2.5000000000000004 1.5000000000000002 2013.5000000000002 57.650000000000013 78.450000000000017 61.550000000000004 2017.5000000000002
decision_type=2 2 2 2 2 2 2 2 2 2 2 2 2 2 2 2 2 2 2 2 2 2 2 2 2 2 2 2 2 2 2 2 2 2 2 2 2 2 2 2 2 2 2 2 2 2 2 2 2 2 2 2 2 2 2 2 2 2 2 2 2 2
left_child=2 7 9 6 10 11 -3 -2 22 -1 20 24 13 -12 38 34 28 21 35 59 27 26 23 -9 42 -11 -18 -4 -10 56 51 37 40 49 -7 -14 52 48 -8 -24 54 -5 -6 44 -44 -17 47 -39 -32 58 -13 -20 55 -37 -19 -29 -21 -22 -23 -16 -35 -28
right_child=1 3 4 41 5 15 14 8 16 25 12 50 18 -15 19 45 17 32 30 29 57 33 39 -25 -26 -27 61 36 -30 -31 31 -33 -34 60 -36 53 -38 46 -40 -41 -42 -43 43 -45 -46 -47 -48 -49 -50 -51 -52 -53 -54 -55 -56 -57 -58 -59 -60 -61 -62 -63
leaf_value=0.040740719398385604 -0.023946008868515493 0.0078745141177058008 -0.036664809925215584 0.074479673589978909 -0.010013376056186615 -0.0061916094162218849 0.020686186186988684 0.042733549326658252 -0.0027486000228298321 0.0085583717782834658 0.015500651000599778 -0.012924772713560304 -0.018171647776925596 -0.012478434638335156 0.027919299937784671 0.019176182275017106 0.0097060868206123516 0.00034025314010002403 -0.019696592702530324 0.036885497166264443 -0.019950599020177668 0.0065651024782276126 0.010246173355456752 0.015950979883782565 0.0017662970211313224 0.022909031746288142 0.019449440699536354 -0.032783292340380805 0.0035934236390928092 0.044708928804505957 -0.011748319450998679 -0.0048435039410833275 -0.0062963958614720749 0.015024636747936408 0.0034227360375499467 -0.024301032010299057 -0.019360444881021979 -0.008409617086646096 0.013521476045605683 0.017423638210377911 0.00023627128553456596 0.067410373900617868 -0.0059504573148759926 -0.0093253883067518483 0.0023628764711320404 0.011393806048565443 -0.014928462356328965 -0.014890062977229397 -0.01714304376197489 0.0035970729935797864 -0.016424963399928449 -0.015010183471806196 -0.024999876833352887 -0.020586307636931936 0.0061196930737545093 -0.026750991557325639 0.031588855846169987 -0.014623906456485945 0.010728319274882476 0.024070343999331126 0.010143571994139827 0.025237830616533757
leaf_weight=38 20 79 28 35 62 30 96 24 118 38 21 79 147 39 45 24 30 22 64 31 33 109 24 40 55 21 20 28 104 22 32 30 26 21 34 67 20 72 21 44 62 28 33 50 25 27 54 31 95 64 145 49 61 113 75 35 53 27 30 67 73 20
leaf_count=38 20 79 28 35 62 30 96 24 118 38 21 79 147 39 45 24 30 22 64 31 33 109 24 40 55 21 20 28 104 22 32 30 26 21 34 67 20 72 21 44 62 28 33 50 25 27 54 31 95 64 145 49 61 113 75 35 53 27 30 67 73 20
internal_value=0 0.0143472 -0.0117921 0.0294686 -0.013965 -0.00679333 0.0230972 0.00655793 0.00723131 0.0242727 -0.0178319 -0.0100889 -0.0157321 -0.00268575 0.0266871 0.00607379 0.00500694 0.00693114 -0.0167703 0.0305979 -0.0251993 0.00956018 0.0202742 0.0259944 -0.00500998 0.0136662 0.0169275 -0.0278665 0.000222438 0.0358609 -0.0140964 -0.0128123 0.0017157 0.00782376 -0.00108399 -0.0202619 -0.0261557 -0.0136541 0.0194002 0.0148904 0.00302586 0.0713378 -0.00720231 -0.00558854 -0.00236712 0.0150561 -0.0119313 -0.01036 -0.0157837 0.00624462 -0.0151905 -0.0176644 -0.0272517 -0.021969 0.00480889 -0.029432 0.0335436 -0.0175536 0.00746364 0.0256168 0.011234 0.0223436
internal_weight=0 1403 1707 477 1610 564 414 926 906 97 1046 449 814 60 335 115 774 552 754 218 232 367 132 64 225 59 70 172 222 106 427 314 185 297 64 327 144 284 117 68 159 63 170 108 58 51 157 103 127 203 224 113 124 180 97 63 84 60 139 112 94 40
internal_count=3110 1403 1707 477 1610 564 414 926 906 97 1046 449 814 60 335 115 774 552 754 218 232 367 132 64 225 59 70 172 222 106 427 314 185 297 64 327 144 284 117 68 159 63 170 108 58 51 157 103 127 203 224 113 124 180 97 63 84 60 139 112 94 40
is_linear=0
shrinkage=0.05


Tree=18
num_leaves=63
num_cat=0
split_feature=0 1 6 4 1 6 1 3 3 6 0 3 6 3 0 2 6 4 0 4 6 6 2 0 1 3 6 3 6 5 1 3 6 3 5 3 3 2 0 6 0 0 3 3 3 3 0 3 6 3 3 1 3 3 6 1 1 1 3 6 3 5
split_gain=189.945 59.6561 48.2898 36.2487 16.1415 9.57598 8.03679 7.55388 7.02674 8.74214 6.81348 6.11857 5.63852 5.61346 3.13457 2.84669 2.21854 2.84247 2.19459 2.10143 3.76491 2.63459 2.05315 1.669 1.50443 1.3669 1.65238 1.3219 1.15931 0.914039 0.830044 0.823794 0.767728 0.754349 0.709032 0.705343 0.703607 0.65242 0.538893 0.520679 0.51069 0.503832 0.472826 0.468611 0.466445 0.442708 0.436378 0.43417 0.430311 0.36555 0.362379 0.33928 0.317312 0.31133 0.269181 0.262322 0.251196 0.243601 0.242594 0.239587 0.222411 0.218482
