tree
version=v3
num_class=1
num_tree_per_iteration=1
label_index=0
max_feature_idx=7
objective=regression
feature_names=Column_0 Column_1 Column_2 Column_3 Column_4 Column_5 Column_6 Column_7
feature_infos=[0:14] [2000:2020] [0:3] [1:138000] [0:2] [0:555] [1.1000000000000001:256.80000000000001] [0:2.8999999999999999]
tree_sizes=1414 1411 1407 1409 1398 1407 1415 1426 1416 1411 1413 1411 1422 1419 1411 1416 1419 1420 1417 1413 1420 1417 1422 1418 1423 1425 1434 1420 1424 1422 1437 1426 1439 1428 1426 1434 1431 1442 1441 1437 1420 1443 1437 1433 1451 1434 1446 1443 1429 1443 1441 1447 1440 1428 1442 1440 1455 1445 1453 1457 1444 1448 1448 1449 1443 1449 1449 1462 1443 1451 1464 1463 1446 1458 1456 1449 1462 1465 1455 1468 1462 1466 1452 1453 1469 1464 1462 1455 1455 1462 1468 1467 1470 1463 1455 1471 1464 1468 1477 1477 1470 1474 1479 1462 1476 1469 1471 1464 1477 1473 1464 1462 1472 1455 1462 1467 1479 1468 1470 1471 1462 1479 1472 1471 1469 1471 1463 1470 1466 1485 1470 1482 1474 1470 1476 1485 1474 1475 1465 1469 1470 1470 1477 1469 1466 1468 1474 1470 1463 1473 1476 1462 1487 1486 1469 1472 1463 1469 1474 1478 1471 1475 1462 1470 1465 1471 1468 1474 1482 1478 1478 1474 1468 1476 1482 1470 1479 1473 1471 1473 1464 1488 1484 1461 1465 1477 1483 1466 1482 1465 1472 1487 1489 1491 1462 1483 1473 1486 1460 1469 1467 1459 1465 1475 1466 1479 1469 1483 1470 1475 1483 1473 1479 1464 1469 1463 1467 1486 1469 1479 1466 1475 1475 1494 1466 1491 1464 1480 1478 1488 1477 1479 1478 1484 1497 1462 1478 1472 1479 1490 1472 1472 1475 1477 1488 1478 1471 1489 1476 1476 1474 1464 1486 1484 1478 1479 1465 1492 1468 1486 1468 1477 1487 1489 1470 1477 1477 1492 1487 1479 1487 1485 1479 1490 1476 1473 1477 1483 1475 1478 1469 1478 1476 1465 1489 1478 1480 1493 1481 1479 1496 1459 1486 1479 1485 1491 1493 1481 1479 1492 1477 1494 1464 1480 1480 1468 1475 1483 1470 1482 1481 1479 1473 1485 1488 1485 1474 1474 1480 1482 1483 1475 1481 1480 1481 1480 1488 1482 1488 1491 1485 1474 1471 1492 1491 1482 1473 1489 1492 1487 1484 1485 1479 1491 1482 1482 1487 1485 1474 1484 1494 1493 1477 1472 1480 1477 1476 1487 1476 1483 1474 1487 1487 1469 1482 1469 1484 1474 1480 1490 1476 1475 1477 1492 1475 1485 1482 1485 1486 1483 1486 1487 1486 1481 1481 1476 1486 1480 1479 1492 1489 1477 1481 1478 1487 1476 1483 1478 1479 1490 1487 1480 1471 1482 1493 1500 1478 1482 1478 1471 1490 1478 1483 1482 1483 1486 1476 1477 1479 1484 1479 1481 1484 1473 1479 1481 1480 1477 1486 1476 1474 1484 1486 1481 1479 1486 1488 1479 1475 1491 1482 1483 1479 1491 1485 1474 1487 1486 1475 1479 1489 1474 1481 1481 1478 1487 1476 1473 1490 1472 1495 1481 1486 1492 1479 1480 1478 1478 1485 1477 1496 1497 1482 1481 1492 1488 1473 1499 1482 1484 1489 1480 1487 1481 1497 1474 1487 1470 1485 1490 1473 1493 1480 1481 1492 1486 1481 1497 1478 1471 1480 1481 1482 1471 1478 1482 1473 1488 1479 1483 1479 1487 1483 1483 1486 1490 1485 1489 1473 1479 1486 1480 1474 1484 1478 1495 1475 1483 1484 1479 1473 1479 1472 1472 1478 1481 1476 1499 1489 1470 1484 1478 1473 1480 1495 1484 1489 1468 1471 1479 1484 1481 1489 1483 1484 1487 1486 1482 1460 1491 1486 1474 1483 1485 1494 1493 1496 1474 1479 1477 1491 1484 1488 1475 1495 1495 1482 1476 1489 1498 1483 1483 1484 1473 1482 1476 1482 1484 1486 1481 1475 1477 1483 1476 1489 1483 1489 1485 1478 1482 1481 1478 1476 1474 1477 1489 1471 1498 1484 1482 1479 1487

Tree=0
num_leaves=15
num_cat=0
split_feature=0 3 6 7 3 7 5 0 7 3 3 3 5 0
split_gain=1198.47 313.168 305.699 287.936 77.4858 53.6837 36.9061 35.9675 35.4088 31.3896 27.3959 21.7807 19.639 12.7667
threshold=8.5000000000000018 10070.000000000002 36.70000000000001 2.1000000000000005 6036.0000000000009 1.5000000000000002 142.50000000000003 3.5000000000000004 2.1000000000000005 10070.000000000002 30039.500000000004 6240.5000000000009 75.000000000000014 2.5000000000000004
decision_type=2 2 2 2 2 2 2 2 2 2 2 2 2 2
left_child=2 3 9 5 7 -2 -6 -4 12 -1 -10 -7 -3 -8
right_child=1 8 4 -5 6 11 13 -9 10 -11 -12 -13 -14 -15
leaf_value=0.084386773238365825 0.017876091186104091 0.00011028708768687983 -0.019184803296183786 0.16669255435910066 -0.048473578443217903 0.069842183412006653 -0.039057529818450502 0.023790377840377169 0.070173102255623981 0.02863562475408377 0.018597478626774831 0.043695802246150661 0.01777250163048158 -0.026322078130864228
leaf_weight=50 93 216 194 62 534 226 334 65 51 51 52 123 580 479
leaf_count=50 93 216 194 62 534 226 334 65 51 51 52 123 580 479
internal_value=-3.03204e-10 0.0342367 -0.0281395 0.0657864 -0.0334457 0.0516321 -0.0382616 -0.00839953 0.0165492 0.0562352 0.0441349 0.0606273 0.0129797 -0.0315541
internal_weight=0 1403 1707 504 1606 442 1347 259 899 101 103 349 796 813
internal_count=3110 1403 1707 504 1606 442 1347 259 899 101 103 349 796 813
is_linear=0
shrinkage=1


Tree=1
num_leaves=15
num_cat=0
split_feature=0 1 1 4 0 1 0 3 1 3 5 2 4 4
split_gain=1081.62 337.276 212.447 212.273 137.53 51.6943 40.9215 31.0069 28.8968 27.285 20.597 13.6596 18.228 13.5641
threshold=8.5000000000000018 2018.5000000000002 2018.5000000000002 1.0000000180025095e-35 3.5000000000000004 2014.5000000000002 3.5000000000000004 10320.500000000002 2017.5000000000002 48845.500000000007 75.000000000000014 1.5000000000000002 1.5000000000000002 1.5000000000000002
decision_type=2 2 2 2 2 2 2 2 2 2 2 2 2 2
left_child=2 9 5 -3 -4 -1 -7 11 -8 10 -2 12 -5 -12
right_child=1 3 4 7 -6 6 8 -9 -10 -11 13 -13 -14 -15
leaf_value=-0.056742818146173303 0.0027486956953721984 0.13882834311752093 -0.016253339538577563 0.068468059234175024 0.050931581875681878 -0.038439115627680077 -0.026872796913693577 0.026558496546931567 0.0015217288527095869 -0.014192680797438968 0.027134871612663453 0.07753125684041727 0.039663432563553341 0.012421821652554043
leaf_weight=232 186 84 195 102 125 702 330 96 123 74 414 76 119 252
leaf_count=232 186 84 195 102 125 702 330 96 123 74 414 76 119 252
internal_value=0 0.0325249 -0.0267325 0.0666819 0.00999077 -0.0352051 -0.0308789 0.0512613 -0.019163 0.01493 0.0174594 0.059246 0.0529579 0.0215678
internal_weight=0 1403 1707 477 320 1387 1155 393 453 926 852 297 221 666
internal_count=3110 1403 1707 477 320 1387 1155 393 453 926 852 297 221 666
is_linear=0
shrinkage=0.05


Tree=2
num_leaves=15
num_cat=0
split_feature=0 3 6 7 3 7 7 3 0 0 3 3 6 3
split_gain=976.164 257.213 257.099 240.84 63.2427 45.0997 30.9067 28.2756 27.8276 27.1631 26.0367 23.5058 19.8362 18.1004
threshold=8.5000000000000018 10070.000000000002 36.70000000000001 2.1000000000000005 6036.0000000000009 1.5000000000000002 2.1000000000000005 40187.500000000007 3.5000000000000004 3.5000000000000004 10070.000000000002 30039.500000000004 50.900000000000006 6240.5000000000009
decision_type=2 2 2 2 2 2 2 2 2 2 2 2 2 2
left_child=2 3 10 5 8 -2 -3 9 -4 12 -1 -8 -6 -7
right_child=1 6 4 -5 7 13 11 -9 -10 -11 -12 -13 -14 -15
leaf_value=0.077620855137705808 0.015606338139222834 0.011534149049378783 -0.017121278816718877 0.15177680609687683 -0.015819121804563518 0.063191164322856791 0.064760187326693072 -0.049389903253065671 0.020679430814298731 -0.020016083430939191 0.026845446291069192 0.016986407420168128 -0.040026799053434405 0.039355912675127031
leaf_weight=50 93 796 194 62 98 226 51 261 65 368 51 52 620 123
leaf_count=50 93 796 194 62 98 226 51 261 65 368 51 52 620 123
internal_value=0 0.0308986 -0.0253959 0.0594911 -0.0302621 0.0465461 0.014869 -0.0346129 -0.00763461 -0.0310615 0.0519818 0.0406414 -0.0367227 0.0547908
internal_weight=0 1403 1707 504 1606 442 899 1347 259 1086 101 103 718 349
internal_count=3110 1403 1707 504 1606 442 899 1347 259 1086 101 103 718 349
is_linear=0
shrinkage=0.05


Tree=3
num_leaves=15
num_cat=0
split_feature=0 1 7 7 1 1 7 1 0 3 7 3 0 2
split_gain=880.988 282.251 216.364 203.61 75.7989 53.68 39.3468 37.2373 30.0888 24.1179 37.8206 21.0286 16.2676 12.4334
threshold=8.5000000000000018 2018.5000000000002 1.8500000000000003 1.8500000000000003 2018.5000000000002 2018.5000000000002 1.5000000000000002 2014.5000000000002 3.5000000000000004 48845.500000000007 2.1000000000000005 10465.000000000002 2.5000000000000004 1.0000000180025095e-35
decision_type=2 2 2 2 2 2 2 2 2 2 2 2 2 2
left_child=3 9 6 4 7 -5 -3 -1 -6 10 13 -8 -9 -2
right_child=1 2 -4 5 8 -7 11 12 -10 -11 -12 -13 -14 -15
leaf_value=-0.052983722743076112 0.025841449180905543 0.015501143127868447 0.14538086680265574 0.0069703375125924746 -0.014434379029971285 0.070719165683297794 0.061115744946137918 -0.037033773851222716 0.02462303889703683 -0.014122381051089867 0.047280810676953375 0.029946976067388761 -0.024786538268337682 0.0091736529932376562
leaf_weight=217 136 79 65 75 195 59 265 494 66 74 85 68 601 631
leaf_count=217 136 79 65 75 195 59 265 494 66 74 85 68 601 631
internal_value=0 0.0293537 0.0606004 -0.0241261 -0.0291662 0.0350389 0.0472249 -0.0340616 -0.00455779 0.0132579 0.015636 0.054751 -0.0303118 0.0121291
internal_weight=0 1403 477 1707 1573 134 412 1312 261 926 852 333 1095 767
internal_count=3110 1403 477 1707 1573 134 412 1312 261 926 852 333 1095 767
is_linear=0
shrinkage=0.05


Tree=4
num_leaves=15
num_cat=0
split_feature=0 1 6 7 1 0 7 1 6 1 3 3 6 1
split_gain=795.092 254.731 211.184 195.269 68.2663 35.7786 35.5105 24.8469 24.1448 22.2429 21.1958 18.9783 17.0604 11.7447
threshold=8.5000000000000018 2018.5000000000002 36.70000000000001 1.8500000000000003 2017.5000000000002 3.5000000000000004 1.5000000000000002 2014.5000000000002 43.850000000000009 2016.5000000000002 10070.000000000002 10465.000000000002 57.050000000000004 2018.5000000000002
decision_type=2 2 2 2 2 2 2 2 2 2 2 2 2 2
left_child=2 8 10 6 7 12 -3 -4 9 -2 -1 -8 -6 -7
right_child=1 3 4 -5 5 13 11 -9 -10 -11 -12 -13 -14 -15
leaf_value=0.070342143293470147 0.0041329604263106983 0.014726086035724492 -0.049307592977480642 0.13811182957429155 -0.010190359203659587 -0.004345584392760192 0.058059957845593403 -0.03075878410137289 0.0090453227477638332 0.044778102794379902 0.024529438086456676 0.028449627231149112 -0.03077633919838433 0.02354570513125509
leaf_weight=50 51 79 232 65 190 92 265 814 776 99 51 68 214 64
leaf_count=50 51 79 232 65 190 92 265 814 776 99 51 68 214 64
internal_value=0 0.027886 -0.0229198 0.0575704 -0.0273301 -0.0132414 0.0448637 -0.0348729 0.012595 0.0309588 0.047209 0.0520134 -0.0210948 0.007097
internal_weight=0 1403 1707 477 1606 560 412 1046 926 150 101 333 404 156
internal_count=3110 1403 1707 477 1606 560 412 1046 926 150 101 333 404 156
is_linear=0
shrinkage=0.05


Tree=5
num_leaves=15
num_cat=0
split_feature=0 1 7 7 1 1 7 1 0 3 7 3 0 2
split_gain=717.571 229.895 176.23 168.11 62.16 43.573 32.0482 30.3488 24.2131 21.697 34.0529 17.1279 14.1515 11.8656
threshold=8.5000000000000018 2018.5000000000002 1.8500000000000003 1.8500000000000003 2018.5000000000002 2018.5000000000002 1.5000000000000002 2014.5000000000002 3.5000000000000004 51981.500000000007 2.1000000000000005 10465.000000000002 2.5000000000000004 1.0000000180025095e-35
decision_type=2 2 2 2 2 2 2 2 2 2 2 2 2 2
left_child=3 9 6 4 7 -5 -3 -1 -6 10 13 -8 -9 -2
right_child=1 2 -4 5 8 -7 11 12 -10 -11 -12 -13 -14 -15
leaf_value=-0.04786915799027764 0.023999238102816678 0.013989781830817184 0.1312062382698059 0.0066980895263453327 -0.012928662528045094 0.064132826240591204 0.055156959624222991 -0.033670947613262454 0.022108246366295853 -0.018492109480906616 0.043378688881851063 0.027027146337444293 -0.022248030074999148 0.0077522093859116849
leaf_weight=217 136 79 65 75 195 59 265 494 66 55 88 68 601 647
leaf_count=217 136 79 65 75 195 59 265 494 66 55 88 68 601 647
internal_value=0 0.0264917 0.0546919 -0.0217738 -0.0263535 0.0319865 0.0426205 -0.0307867 -0.00406875 0.0119653 0.0138885 0.0494127 -0.0274014 0.0105742
internal_weight=0 1403 477 1707 1573 134 412 1312 261 926 871 333 1095 783
internal_count=3110 1403 477 1707 1573 134 412 1312 261 926 871 333 1095 783
is_linear=0
shrinkage=0.05


Tree=6
num_leaves=15
num_cat=0
split_feature=0 1 6 7 1 0 7 1 6 1 3 6 5 6
split_gain=647.607 207.48 173.748 159.048 58.5225 30.4217 28.9235 20.8925 20.7525 20.1534 15.6794 14.4809 11.212 11.1662
threshold=8.5000000000000018 2018.5000000000002 34.250000000000007 1.8500000000000003 2017.5000000000002 3.5000000000000004 1.5000000000000002 2013.5000000000002 43.850000000000009 2016.5000000000002 6907.5000000000009 57.050000000000004 75.000000000000014 57.050000000000004
decision_type=2 2 2 2 2 2 2 2 2 2 2 2 2 2
left_child=2 8 -1 6 7 11 -3 -4 9 -2 -8 -6 -10 -9
right_child=1 3 4 -5 5 -7 10 13 12 -11 -12 -13 -14 -15
leaf_value=0.044303915706299934 0.0028572223642293147 0.013290292558059852 -0.049802595463982469 0.12464592484327464 -0.0088800635918424211 0.0068339131056563938 0.055299094996669074 -0.021738465100902868 -0.0014180947445597955 0.041546147358086372 0.032856511425287012 -0.027846017365004416 0.011880636773310058 -0.033171160014906928
leaf_weight=97 51 79 137 65 190 160 209 343 222 99 124 214 554 566
leaf_count=97 51 79 137 65 190 160 209 343 222 99 124 214 554 566
internal_value=0 0.0251671 -0.0206851 0.0519573 -0.0246006 -0.0116185 0.0404894 -0.0316005 0.011367 0.0283919 0.0469421 -0.0189264 0.0080761 -0.0288572
internal_weight=0 1403 1707 477 1610 564 412 1046 926 150 333 404 776 909
internal_count=3110 1403 1707 477 1610 564 412 1046 926 150 333 404 776 909
is_linear=0
shrinkage=0.05


Tree=7
num_leaves=15
num_cat=0
split_feature=0 1 1 4 0 1 0 3 3 5 4 0 1 0
split_gain=584.466 187.251 120.725 115.982 76.8467 32.977 30.5508 19.0554 17.6857 16.2614 10.9784 11.1743 9.75929 8.69502
threshold=8.5000000000000018 2018.5000000000002 2018.5000000000002 1.0000000180025095e-35 3.5000000000000004 2015.5000000000002 3.5000000000000004 51981.500000000007 6240.5000000000009 75.000000000000014 1.5000000000000002 11.500000000000002 2017.5000000000002 3.5000000000000004
decision_type=2 2 2 2 2 2 2 2 2 2 2 2 2 2
left_child=2 7 5 -3 -4 13 -7 9 -5 -2 11 -11 -8 -1
right_child=1 3 4 8 -6 6 12 -9 -10 10 -12 -13 -14 -15
leaf_value=-0.046082704902903456 -3.5753425891478051e-05 0.10268844192226728 -0.011585347144745101 0.047126216459605436 0.038635656309500339 -0.027650080885995861 -0.015402767053898373 -0.017744448527863079 0.025685874086117284 0.031438696518733461 0.0080628332574741376 0.014734223930632645 0.0020855349433661356 -0.031313243416500179
leaf_weight=185 197 84 195 225 125 636 227 55 168 164 253 257 123 216
leaf_count=185 197 84 195 225 125 636 227 55 168 164 253 257 123 216
internal_value=0 0.0239088 -0.0196509 0.0493594 0.00803223 -0.0260377 -0.0211211 0.0107987 0.0379609 0.012601 0.0162946 0.0212414 -0.00925688 -0.0381271
internal_weight=0 1403 1707 477 320 1387 986 926 393 871 674 421 350 401
internal_count=3110 1403 1707 477 320 1387 986 926 393 871 674 421 350 401
is_linear=0
shrinkage=0.05


Tree=8
num_leaves=15
num_cat=0
split_feature=0 1 6 7 1 7 6 6 3 1 3 2 0 7
split_gain=527.48 168.994 146.329 132.84 47.4523 25.5655 25.4725 18.2402 18.361 17.8307 13.4567 11.1149 10.2686 9.38194
threshold=8.5000000000000018 2018.5000000000002 34.250000000000007 1.8500000000000003 2017.5000000000002 1.5000000000000002 57.050000000000004 43.850000000000009 30364.000000000004 2013.5000000000002 10465.000000000002 1.0000000180025095e-35 3.5000000000000004 1.2500000000000002
decision_type=2 2 2 2 2 2 2 2 2 2 2 2 2 2
left_child=2 7 -1 5 9 -3 13 8 -2 -4 -7 -11 -13 -6
right_child=1 3 4 -5 6 10 -8 -9 -10 11 -12 12 -14 -15
leaf_value=0.040972839556058349 0.038589526048395786 0.010839400495272837 -0.045380262345293146 0.11332195089413571 -0.0068017803517998092 0.047568995097898088 -0.02269657052521195 0.0071734409960234049 0.0014806052569765599 -0.0064303143241845858 0.022635430350954482 -0.031891523661333646 -0.020502094930600165 0.012006824743002653
leaf_weight=97 100 79 137 65 225 265 245 776 50 67 68 524 318 94
leaf_count=97 100 79 137 65 225 265 245 776 50 67 68 524 318 94
internal_value=0 0.0227133 -0.0186683 0.0468915 -0.0222616 0.0364109 -0.0105717 0.0102587 0.0262199 -0.0285648 0.0424775 -0.0260304 -0.0275901 -0.00125943
internal_weight=0 1403 1707 477 1610 412 564 926 150 1046 333 909 842 319
internal_count=3110 1403 1707 477 1610 412 564 926 150 1046 333 909 842 319
is_linear=0
shrinkage=0.05


Tree=9
num_leaves=15
num_cat=0
split_feature=0 1 6 7 1 6 7 2 2 6 1 6 0 7
split_gain=476.051 152.517 132.062 119.931 43.436 40.8394 23.3822 17.2539 19.43 13.022 10.3273 10.05 9.8391 9.1446
threshold=8.5000000000000018 2018.5000000000002 34.250000000000007 2.1000000000000005 2016.5000000000002 57.050000000000004 1.5000000000000002 1.5000000000000002 1.0000000180025095e-35 35.550000000000004 2016.5000000000002 57.050000000000004 2.5000000000000004 1.5000000000000002
decision_type=2 2 2 2 2 2 2 2 2 2 2 2 2 2
left_child=2 7 -1 6 12 -6 -3 8 -2 -8 -10 -9 -4 -7
right_child=1 3 4 -5 5 13 9 11 10 -11 -12 -13 -14 -15
leaf_value=0.038924198024474166 0.021976601823105808 0.010297430414541425 -0.040427436945166921 0.10881653740292503 -0.0032330355259843849 -0.026177194505393256 0.027080927416184744 0.039304137974977497 -0.0074099069453675203 0.047759005351103161 0.0067999859815148491 0.014228513961037002 -0.027068998212153569 -0.005752469808043492
leaf_weight=97 161 79 202 63 440 472 117 67 185 218 414 99 434 62
leaf_count=97 161 79 202 63 440 472 117 67 185 218 414 99 434 62
internal_value=0 0.0215777 -0.0177349 0.0445469 -0.0211485 -0.0145121 0.0347667 0.00974578 0.00655605 0.0405371 0.00241129 0.0243494 -0.0313118 -0.0238058
internal_weight=0 1403 1707 477 1610 974 414 926 760 335 599 166 636 534
internal_count=3110 1403 1707 477 1610 974 414 926 760 335 599 166 636 534
is_linear=0
shrinkage=0.05


Tree=10
num_leaves=15
num_cat=0
split_feature=0 1 6 7 1 7 3 1 0 3 7 3 6 0
split_gain=429.636 137.647 119.33 108.329 38.4248 20.813 19.1334 18.7977 16.5298 16.3468 25.5699 11.7978 10.0636 8.71831
threshold=8.5000000000000018 2018.5000000000002 37.95000000000001 1.8500000000000003 2018.5000000000002 1.5000000000000002 7598.0000000000009 2014.5000000000002 3.5000000000000004 48845.500000000007 2.1000000000000005 6907.5000000000009 52.800000000000004 2.5000000000000004
decision_type=2 2 2 2 2 2 2 2 2 2 2 2 2 2
left_child=2 9 6 5 7 -3 -1 -4 -6 10 -2 -7 -9 -14
right_child=1 3 4 -5 8 11 -8 12 -10 -11 -12 -13 13 -15
leaf_value=0.054023994968327528 0.0083327844698112465 0.009782558853024783 -0.036955612797452055 0.10230895464236921 -0.0099864863600128174 0.045578025321199887 0.013995680768534337 -0.012852900672910943 0.019652082320422898 -0.013283082836534125 0.037236083649537143 0.026110606239132222 -0.028692479404188426 -0.018389086308459059
leaf_weight=51 767 79 230 65 195 209 72 270 62 74 85 124 448 379
leaf_count=51 767 79 230 65 195 209 72 270 62 74 85 124 448 379
internal_value=0 0.0204988 -0.0168481 0.0423196 -0.020532 0.0328552 0.0305928 -0.0239591 -0.00283633 0.00925849 0.0112163 0.0383289 -0.0212343 -0.0239706
internal_weight=0 1403 1707 477 1584 412 123 1327 257 926 852 333 1097 827
internal_count=3110 1403 1707 477 1584 412 123 1327 257 926 852 333 1097 827
is_linear=0
shrinkage=0.05


Tree=11
num_leaves=15
num_cat=0
split_feature=0 1 7 7 1 3 7 1 3 7 0 3 0 1
split_gain=387.746 124.226 98.2295 97.864 35.5384 28.4111 19.031 18.542 15.172 23.5321 14.3921 11.1575 9.43452 7.98803
threshold=8.5000000000000018 2018.5000000000002 1.8500000000000003 2.1000000000000005 2018.5000000000002 13269.000000000002 1.5000000000000002 2015.5000000000002 40187.500000000007 2.1000000000000005 3.5000000000000004 10070.000000000002 3.5000000000000004 2019.5000000000002
decision_type=2 2 2 2 2 2 2 2 2 2 2 2 2 2
left_child=2 8 4 6 7 -4 -3 -1 9 -2 13 -8 -9 -6
right_child=1 3 5 -5 10 -7 11 12 -10 -11 -12 -13 -14 -15
leaf_value=-0.032133056223880095 0.0086217788017495314 0.0092934310331253944 0.054000213813896358 0.098260260006738098 -0.015589639221617652 0.0067550337940125126 0.041433493156696165 -0.022472994260595375 -0.0071126234866344812 0.038225388949787296 0.017525224952083647 0.019437652481468143 -0.011641979994656016 0.0072946503355454375
leaf_weight=382 723 79 52 63 143 82 261 636 129 74 66 74 294 52
leaf_count=382 723 79 52 63 143 82 261 636 129 74 66 74 294 52
internal_value=0 0.0194738 -0.0160057 0.0402036 -0.0195065 0.025089 0.0313689 -0.0228585 0.00879557 0.0113704 -0.00265644 0.0365747 -0.019049 -0.00948716
internal_weight=0 1403 1707 477 1573 134 414 1312 926 797 261 335 930 195
internal_count=3110 1403 1707 477 1573 134 414 1312 926 797 261 335 930 195
is_linear=0
shrinkage=0.05


Tree=12
num_leaves=15
num_cat=0
split_feature=6 4 1 3 4 6 1 1 1 6 6 1 6 3
split_gain=285.162 130.756 90.6691 67.1666 53.7715 50.9649 31.5838 25.1932 21.3437 18.3933 14.6646 11.9364 7.49525 6.60548
threshold=43.150000000000006 1.5000000000000002 2017.5000000000002 11009.500000000002 1.5000000000000002 53.800000000000004 2016.5000000000002 2015.5000000000002 2016.5000000000002 51.850000000000001 61.550000000000004 2015.5000000000002 35.550000000000004 3122.5000000000005
decision_type=2 2 2 2 2 2 2 2 2 2 2 2 2 2
left_child=3 2 7 4 -1 6 -3 -2 -5 -4 -9 -7 -10 -6
right_child=1 5 9 8 13 11 -8 10 12 -11 -12 -13 -14 -15
leaf_value=0.082565713346184025 -0.019914546034609279 -0.026350326176888508 0.051276886322208351 -0.0080747523348000429 0.043793851311784239 -0.03742325485340859 -0.00066980557631117856 0.01318445533800755 0.014177888225508379 0.022618158157989537 -0.0038205585380870857 -0.021920506942091418 0.034767680992491737 0.026422107519982297
leaf_weight=83 168 154 74 79 112 152 538 196 102 230 359 678 78 107
leaf_count=83 168 154 74 79 112 152 538 196 102 230 359 678 78 107
internal_value=0 -0.00710284 0.00668315 0.032273 0.0482948 -0.0164052 -0.00638483 -0.00295031 0.0135912 0.0295943 0.00218482 -0.0247596 0.0231001 0.0353063
internal_weight=0 2549 1027 561 302 1522 692 723 259 304 555 830 180 219
internal_count=3110 2549 1027 561 302 1522 692 723 259 304 555 830 180 219
is_linear=0
shrinkage=0.05


Tree=13
num_leaves=15
num_cat=0
split_feature=7 3 7 6 3 7 3 2 6 3 3 3 3 3
split_gain=266.302 189.834 64.0688 46.4106 41.0521 23.6065 17.9886 13.2912 12.5849 11.1032 10.3937 9.47979 8.37075 7.84374
threshold=1.5000000000000002 11009.500000000002 1.8500000000000003 53.800000000000004 40187.500000000007 1.8500000000000003 35901.000000000007 1.5000000000000002 45.20000000000001 25374.500000000004 20998.000000000004 19939.500000000004 67288.500000000015 6240.5000000000009
decision_type=2 2 2 2 2 2 2 2 2 2 2 2 2 2
left_child=3 2 13 6 5 10 8 -4 -1 -5 -3 -7 -6 -2
right_child=1 4 7 9 12 11 -8 -9 -10 -11 -12 -13 -14 -15
leaf_value=0.0097613632489525377 0.034390775819388236 0.0097698701044528283 0.055911432037662183 -0.019174209250129633 -0.010672308287272851 0.041698810204863546 -0.033173723511684398 0.089283307355183819 -0.007165402820654654 -0.031253646711080239 -0.0025833566964646834 0.016312016906441195 -0.03316425017866434 0.020152824351259466
leaf_weight=153 247 314 70 553 219 50 52 52 389 290 372 139 51 159
leaf_count=153 247 314 70 553 219 50 52 52 389 290 372 139 51 159
internal_value=0 0.0135599 0.0383624 -0.0157869 0.00212265 0.00738176 -0.0050823 0.0701355 -0.00238718 -0.0233297 0.00307104 0.0230281 -0.0149208 0.0288148
internal_weight=0 1673 528 1437 1145 875 594 122 542 843 686 189 270 406
internal_count=3110 1673 528 1437 1145 875 594 122 542 843 686 189 270 406
is_linear=0
shrinkage=0.05


Tree=14
num_leaves=15
num_cat=0
split_feature=7 1 7 7 1 1 6 3 7 1 7 6 6 1
split_gain=240.338 199.795 45.7652 45.6514 43.0111 30.1303 20.8057 15.3717 13.6629 12.8 9.39729 8.15134 6.57676 6.33435
threshold=1.5000000000000002 2017.5000000000002 1.8500000000000003 2.3000000000000003 2017.5000000000002 2015.5000000000002 57.050000000000004 6729.5000000000009 1.8500000000000003 2014.5000000000002 2.1000000000000005 45.20000000000001 48.300000000000004 2013.5000000000002
decision_type=2 2 2 2 2 2 2 2 2 2 2 2 2 2
left_child=4 5 7 10 9 13 11 -3 -7 -1 -4 -6 -11 -2
right_child=1 2 3 -5 6 8 -8 -9 -10 12 -12 -13 -14 -15
leaf_value=-0.036748298104350451 -0.032124285712671369 0.033669973923537169 0.05129204525683935 0.015830189683474601 0.01004282088863559 -0.00142808192208494 -0.01823845385744547 0.017197316848601287 0.016539849184510361 -0.0033859136596287569 0.078217314114404288 -0.0042981087688148322 -0.021648694252603122 -0.013651876091185745
leaf_weight=141 67 251 52 60 147 550 225 325 131 54 86 304 566 151
leaf_count=141 67 251 52 60 147 550 225 325 131 54 86 304 566 151
internal_value=0 0.0128819 0.0315038 0.0522408 -0.0149976 -0.00315071 -0.0058195 0.0243755 0.0020283 -0.0231505 0.0680716 0.000376208 -0.0200581 -0.0193292
internal_weight=0 1673 774 198 1437 899 676 576 681 761 138 451 620 218
internal_count=3110 1673 774 198 1437 899 676 576 681 761 138 451 620 218
is_linear=0
shrinkage=0.05


Tree=15
num_leaves=15
num_cat=0
split_feature=7 1 7 7 1 1 6 3 7 1 7 6 1 6
split_gain=216.905 180.315 41.3031 41.2004 38.8175 27.1926 18.7772 14.1758 12.3308 11.5645 8.48106 7.35658 5.89105 5.72494
threshold=1.5000000000000002 2017.5000000000002 1.8500000000000003 2.3000000000000003 2017.5000000000002 2015.5000000000002 57.050000000000004 11009.500000000002 1.8500000000000003 2013.5000000000002 2.1000000000000005 45.20000000000001 2018.5000000000002 57.050000000000004
decision_type=2 2 2 2 2 2 2 2 2 2 2 2 2 2
left_child=4 5 7 10 9 -2 11 12 -7 -1 -4 -6 -3 -11
right_child=1 2 3 -5 6 8 -8 -9 -10 13 -12 -13 -14 -15
leaf_value=-0.039491245257002969 -0.0183627175449163 0.016496562456858845 0.048727442209537217 0.015038680353512366 0.0095406797713739489 -0.0013566778393208304 -0.017326531607709413 0.012954862380158767 0.015712856850764564 -0.013716337470271227 0.074306447301493148 -0.0040832034612992034 0.032393381878113088 -0.023284415340189032
leaf_weight=84 218 73 52 60 147 550 225 214 131 245 86 304 289 432
leaf_count=84 218 73 52 60 147 550 225 214 131 245 86 304 289 432
internal_value=0 0.0122378 0.0299287 0.0496288 -0.0142477 -0.00299317 -0.00552853 0.0231567 0.00192689 -0.0219929 0.064668 0.000357397 0.0291877 -0.0198218
internal_weight=0 1673 774 198 1437 899 676 576 681 761 138 451 362 677
internal_count=3110 1673 774 198 1437 899 676 576 681 761 138 451 362 677
is_linear=0
shrinkage=0.05


Tree=16
num_leaves=15
num_cat=0
split_feature=0 1 7 7 1 1 2 2 7 1 0 1 1 1
split_gain=246.536 76.9003 61.3421 59.1927 24.9419 17.7952 12.1484 13.6537 11.9021 10.978 11.6687 7.77417 6.62598 6.38869
threshold=8.5000000000000018 2018.5000000000002 2.1000000000000005 1.8500000000000003 2016.5000000000002 2018.5000000000002 1.5000000000000002 1.0000000180025095e-35 1.5000000000000002 2019.5000000000002 2.5000000000000004 2012.5000000000002 2016.5000000000002 2018.5000000000002
decision_type=2 2 2 2 2 2 2 2 2 2 2 2 2 2
left_child=3 6 8 4 11 -5 7 -2 -3 10 -6 -1 -9 -12
right_child=1 2 -4 5 9 -7 -8 12 -10 -11 13 -13 -14 -15
leaf_value=-0.04164411594282906 0.017376749371670143 0.0073856090416518768 0.077802209958197588 0.0029770759362727408 -0.017245977566352079 0.039681423919559533 0.019380502470212158 -0.0068912173017255359 0.0289603417742921 0.010271109947013126 -0.009237318871645658 -0.02161192306618992 0.0044908865300684287 0.0051546576091706167
leaf_weight=53 161 79 63 75 471 59 166 185 335 60 326 562 414 101
leaf_count=53 161 79 63 75 471 59 166 185 335 60 326 562 414 101
internal_value=0 0.0155281 0.031838 -0.0127627 -0.0154802 0.0191379 0.00712654 0.00445001 0.0248434 -0.0104356 -0.0118192 -0.0233383 0.000975546 -0.00583313
internal_weight=0 1403 477 1707 1573 134 926 760 414 958 898 615 599 427
internal_count=3110 1403 477 1707 1573 134 926 760 414 958 898 615 599 427
is_linear=0
shrinkage=0.05


Tree=17
num_leaves=15
num_cat=0
split_feature=7 1 7 7 1 6 1 3 7 6 7 1 2 1
split_gain=178.296 148.492 34.4943 34.4428 32.4838 29.3719 22.4415 12.1488 10.7115 7.22222 6.79122 5.62359 5.27946 5.15847
threshold=1.5000000000000002 2017.5000000000002 1.8500000000000003 2.3000000000000003 2016.5000000000002 57.650000000000013 2015.5000000000002 11009.500000000002 1.8500000000000003 45.20000000000001 2.1000000000000005 2013.5000000000002 1.5000000000000002 2013.5000000000002
decision_type=2 2 2 2 2 2 2 2 2 2 2 2 2 2
left_child=4 6 7 10 13 9 11 12 -8 -6 -4 -2 -3 -1
right_child=1 2 3 -5 5 -7 8 -9 -10 -11 -12 -13 -14 -15
leaf_value=-0.035982977776300343 -0.028744768698824877 0.022658350319852617 0.044638905432433464 0.013526153467052307 0.0086500439897371807 -0.017862333561268835 -0.0013171904524523681 0.011516340725585193 0.014592143145451174 -0.0040973155327312851 0.06752819959507432 -0.011339559681073298 0.035927598027266423 -0.022056283540644196
leaf_weight=84 67 256 52 60 149 448 550 214 131 437 86 151 106 319
leaf_count=84 67 256 52 60 149 448 550 214 131 437 86 151 106 319
internal_value=0 0.0110953 0.0271493 0.0451526 -0.0129176 -0.00822437 -0.00272643 0.0209607 0.0017432 -0.000856093 0.0589032 -0.0166889 0.0265438 -0.0249591
internal_weight=0 1673 774 198 1437 1034 899 576 681 586 138 218 362 403
internal_count=3110 1673 774 198 1437 1034 899 576 681 586 138 218 362 403
is_linear=0
shrinkage=0.05


Tree=18
num_leaves=15
num_cat=0
split_feature=0 1 6 7 1 6 7 6 1 6 1 0 4 6
split_gain=203.155 63.2026 55.2399 50.3762 21.524 18.2049 9.94681 9.68095 9.04877 14.1627 6.09601 5.77473 4.11267 3.89855
threshold=8.5000000000000018 2018.5000000000002 34.250000000000007 2.1000000000000005 2016.5000000000002 57.050000000000004 1.5000000000000002 35.550000000000004 2016.5000000000002 43.850000000000009 2012.5000000000002 11.500000000000002 1.5000000000000002 57.050000000000004
decision_type=2 2 2 2 2 2 2 2 2 2 2 2 2 2
left_child=2 8 -1 6 10 -6 -3 -8 -2 -10 -4 -9 13 -11
right_child=1 3 4 -5 5 -7 7 11 9 12 -12 -13 -14 -15
leaf_value=0.025058808261780648 -0.0014525897978579366 0.0065838264466463771 -0.036114626067380112 0.070535689639666721 -0.001591064757158165 -0.015326620496470265 0.014704731769429949 0.024617029859551363 0.027010847142582402 0.022196778263348871 -0.019367720275618519 0.040898826296599411 -1.9900827701671941e-05 0.0073943421123689847
leaf_weight=97 259 79 60 63 440 534 117 112 99 51 576 106 169 348
leaf_count=97 259 79 60 63 440 534 117 112 99 51 576 106 169 348
internal_value=0 0.0140958 -0.0115855 0.028882 -0.0137933 -0.00912165 0.0225434 0.026307 0.00647922 0.00955919 -0.0209476 0.0325339 0.00651744 0.00928638
internal_weight=0 1403 1707 477 1610 974 414 335 926 667 636 218 568 399
internal_count=3110 1403 1707 477 1610 974 414 335 926 667 636 218 568 399
is_linear=0
shrinkage=0.05


Tree=19
num_leaves=15
num_cat=0
split_feature=0 3 6 7 5 3 7 3 7 3 3 0 6 3
split_gain=183.347 54.1187 49.854 46.661 19.6342 9.37559 14.7713 8.41285 8.32338 5.16331 4.76226 4.24535 4.11087 5.50828
threshold=8.5000000000000018 10070.000000000002 34.250000000000007 2.1000000000000005 142.50000000000003 53146.000000000007 2.1000000000000005 2937.0000000000005 1.5000000000000002 3515.5000000000005 20631.500000000004 2.5000000000000004 57.650000000000013 41598.000000000007
decision_type=2 2 2 2 2 2 2 2 2 2 2 2 2 2
left_child=2 3 -1 8 -4 6 10 11 -2 -10 -3 -6 13 -9
right_child=1 5 4 -5 7 -7 -8 12 9 -11 -12 -13 -14 -15
leaf_value=0.023805868188063281 0.0075167741431243331 0.0090218290545667212 -0.020822231292472557 0.067127068004300516 -0.0059163739566380777 -0.014782739075827504 0.026441640166255338 -0.0054309105681029611 0.032053869962692265 0.0195491175468318 0.0010950648649255248 0.011470982869804809 -0.014591232353370356 -0.018888072989961154
leaf_weight=97 93 375 545 62 75 51 90 417 134 215 383 66 414 93
leaf_count=97 93 375 545 62 75 51 90 417 134 215 383 66 414 93
internal_value=0 0.013391 -0.0110062 0.0265064 -0.0131036 0.00603829 0.0072905 -0.0091537 0.0208085 0.0243504 0.00501662 0.00222239 -0.0108897 -0.00788486
internal_weight=0 1403 1707 504 1610 899 848 1065 442 349 758 141 924 510
internal_count=3110 1403 1707 504 1610 899 848 1065 442 349 758 141 924 510
is_linear=0
shrinkage=0.05


Tree=20
num_leaves=15
num_cat=0
split_feature=7 1 7 7 6 1 1 2 7 1 4 6 1 2
split_gain=134.381 112.043 26.2426 27.6081 24.8988 16.6933 15.4471 8.90862 8.21726 6.87825 5.29225 8.71584 4.74297 4.55658
threshold=1.5000000000000002 2017.5000000000002 1.8500000000000003 2.3000000000000003 53.800000000000004 2015.5000000000002 2016.5000000000002 1.5000000000000002 1.8500000000000003 2015.5000000000002 1.5000000000000002 53.800000000000004 2013.5000000000002 1.5000000000000002
decision_type=2 2 2 2 2 2 2 2 2 2 2 2 2 2
left_child=4 5 7 13 6 12 -1 10 -7 -6 11 -3 -2 -4
right_child=1 2 3 -5 9 8 -8 -9 -10 -11 -12 -13 -14 -15
leaf_value=-0.019071608316153288 -0.025487697755556499 0.035871810502693301 0.043504950178895968 0.010965478429570795 -0.026217072304242695 -0.0011992521178723441 0.00076770309885800317 0.028802477151510266 0.012735204637150161 -0.014587004125696773 0.0084849042250722539 0.013874305190662664 -0.0095032579784392578 0.061799384311574404
leaf_weight=124 67 61 77 60 156 550 470 147 131 687 196 172 151 61
leaf_count=124 67 61 77 60 156 550 470 147 131 687 196 172 151 61
internal_value=0 0.00963251 0.0235777 0.0392807 -0.0112145 -0.00237369 -0.00337384 0.0181798 0.00148124 -0.0167392 0.0145399 0.0196333 -0.0144159 0.0515916
internal_weight=0 1673 774 198 1437 899 594 576 681 843 429 233 218 138
internal_count=3110 1673 774 198 1437 899 594 576 681 843 429 233 218 138
is_linear=0
shrinkage=0.05


Tree=21
num_leaves=15
num_cat=0
split_feature=0 3 7 7 5 3 2 2 3 7 3 7 3 0
split_gain=151.692 45.2837 38.1701 36.4867 15.5372 12.2438 11.5204 10.0503 7.36639 6.66791 5.69483 4.47834 4.47809 3.72616
threshold=8.5000000000000018 10070.000000000002 2.1000000000000005 1.8500000000000003 142.50000000000003 13269.000000000002 1.5000000000000002 1.0000000180025095e-35 2937.0000000000005 1.5000000000000002 50260.000000000007 1.8500000000000003 3515.5000000000005 2.5000000000000004
decision_type=2 2 2 2 2 2 2 2 2 2 2 2 2 2
left_child=3 2 9 4 -1 -5 7 -3 13 -2 11 -9 -11 -6
right_child=1 6 -4 5 8 -7 -8 10 -10 12 -12 -13 -14 -15
leaf_value=-0.018969531386029061 0.007127315870996926 0.014151086853526069 0.06091680103732694 0.034013802078194343 -0.0053079104960585639 0.002998847152083749 0.017665201057269937 -0.00046436542678537901 -0.010193165433756599 0.029368287463908765 -0.016305604669731112 0.01294006764720608 0.017722810345219969 0.011186605648300242
leaf_weight=545 93 155 62 52 75 82 159 463 890 134 50 72 215 63
leaf_count=545 93 155 62 52 75 82 159 463 890 134 50 72 215 63
internal_value=0 0.0121803 0.0241775 -0.0100111 -0.0121447 0.0150345 0.00545449 0.00283084 -0.00852651 0.019024 -0.000168541 0.0013396 0.0221941 0.00222219
internal_weight=0 1403 504 1707 1573 134 899 740 1028 442 585 535 349 138
internal_count=3110 1403 504 1707 1573 134 899 740 1028 442 585 535 349 138
is_linear=0
shrinkage=0.05


Tree=22
num_leaves=15
num_cat=0
split_feature=0 1 6 7 1 6 4 1 6 6 1 1 0 4
split_gain=136.902 44.6684 37.0809 33.6998 15.3835 13.0746 7.4615 6.79516 10.6299 6.38728 5.28318 3.60727 3.44362 3.3392
threshold=8.5000000000000018 2018.5000000000002 34.250000000000007 2.1000000000000005 2016.5000000000002 57.050000000000004 1.5000000000000002 2016.5000000000002 43.850000000000009 51.850000000000001 2012.5000000000002 2019.5000000000002 2.5000000000000004 1.5000000000000002
decision_type=2 2 2 2 2 2 2 2 2 2 2 2 2 2
left_child=2 7 -1 6 10 11 9 -2 -9 -3 -4 -6 -7 -10
right_child=1 3 4 -5 5 12 -8 8 13 -11 -12 -13 -14 -15
leaf_value=0.020512522712167469 -0.0017053295667175364 0.040763575854923642 -0.031487443316727877 0.058070404330889384 -0.0027521848152129527 -0.015045113165563504 0.01357098782656113 0.022956341656390579 0.0076969896850204167 0.019791546187021596 -0.01589697055181508 0.010630390825801819 -0.0059572618853950118 -0.00068863753667487021
leaf_weight=97 259 57 60 63 382 392 257 99 399 100 576 58 142 169
leaf_count=97 259 57 60 63 382 392 257 99 399 100 576 58 142 169
internal_value=0 0.0115713 -0.00951059 0.0240018 -0.0113194 -0.00737001 0.0188174 0.00516816 0.00783718 0.0274056 -0.0173678 -0.000988118 -0.0126285 0.00520197
internal_weight=0 1403 1707 477 1610 974 414 926 667 157 636 440 534 568
internal_count=3110 1403 1707 477 1610 974 414 926 667 157 636 440 534 568
is_linear=0
shrinkage=0.05


Tree=23
num_leaves=15
num_cat=0
split_feature=0 1 7 7 1 3 2 2 1 0 4 2 3 1
split_gain=123.554 40.3132 30.4141 30.1694 13.1907 10.62 7.82146 9.40842 7.61254 7.05854 6.734 8.32729 5.14618 5.11534
threshold=8.5000000000000018 2018.5000000000002 2.1000000000000005 1.8500000000000003 2016.5000000000002 21363.500000000004 1.5000000000000002 1.0000000180025095e-35 2019.5000000000002 3.5000000000000004 1.5000000000000002 1.5000000000000002 49377.500000000007 2012.5000000000002
decision_type=2 2 2 2 2 2 2 2 2 2 2 2 2 2
left_child=3 6 10 4 13 -5 7 -2 9 -6 -3 -12 -9 -1
right_child=1 2 -4 5 8 -7 -8 12 -10 -11 11 -13 -14 -15
leaf_value=-0.03153884325106189 0.013492691702562273 0.026035315522549243 0.055166884239703895 0.028460512140736683 -0.011227392362548369 0.0002801458033666547 0.014742191048484177 0.0013367762422688955 0.009936464581017693 -0.0013612111207626258 0.0077096118526581506 0.028521899576662693 -0.01484517270345586 -0.015289390207810189
leaf_weight=53 161 157 63 64 646 70 166 545 60 252 193 64 54 562
leaf_count=53 161 157 63 64 646 70 166 545 60 252 193 64 54 562
internal_value=0 0.0109928 0.0228017 -0.00903506 -0.0109752 0.0137394 0.00490975 0.00276214 -0.00730661 -0.00845871 0.0178766 0.0128924 -0.000122031 -0.0166897
internal_weight=0 1403 477 1707 1573 134 926 760 958 898 414 257 599 615
internal_count=3110 1403 477 1707 1573 134 926 760 958 898 414 257 599 615
is_linear=0
shrinkage=0.05


Tree=24
num_leaves=15
num_cat=0
split_feature=0 1 6 4 5 1 1 2 2 2 4 1 1 6
split_gain=111.508 36.3827 31.4755 20.2487 10.664 8.92616 7.31579 7.05887 8.4911 6.88929 7.57106 4.63139 3.75882 3.65797
threshold=8.5000000000000018 2018.5000000000002 42.500000000000007 1.0000000180025095e-35 142.50000000000003 2018.5000000000002 2019.5000000000002 1.5000000000000002 1.0000000180025095e-35 1.5000000000000002 1.5000000000000002 2013.5000000000002 2016.5000000000002 57.050000000000004
decision_type=2 2 2 2 2 2 2 2 2 2 2 2 2 2
left_child=2 7 5 -3 11 -1 -6 8 -2 10 -5 -4 -10 -9
right_child=1 3 4 9 6 -7 -8 13 12 -11 -12 -13 -14 -15
leaf_value=0.00044086429681200749 0.012818057032559439 0.043944228519796437 -0.028101373927013298 0.023760075283829465 -0.0088459450669545903 0.023223160069216701 0.0093099335459124102 0.023027357971121959 -0.0060410398550683987 0.029045704091226476 0.0073241313669705106 -0.014645937944082331 0.0025317654145233658 0.0078990963816812088
leaf_weight=87 161 84 74 110 931 85 59 67 185 90 193 471 414 99
leaf_count=87 161 84 74 110 931 85 59 67 185 90 193 471 414 99
internal_value=0 0.0104431 -0.00858331 0.0216616 -0.010856 0.0116996 -0.00776393 0.00466426 0.00262403 0.0168989 0.013291 -0.0164729 -0.000115929 0.0140051
internal_weight=0 1403 1707 477 1535 172 990 926 760 393 303 545 599 166
internal_count=3110 1403 1707 477 1535 172 990 926 760 393 303 545 599 166
is_linear=0
shrinkage=0.05


Tree=25
num_leaves=15
num_cat=0
split_feature=0 3 6 7 2 5 2 3 6 3 6 3 7 3
split_gain=100.636 31.8007 28.4066 20.1336 12.563 9.62524 9.20486 7.42511 6.30186 4.53237 4.34423 4.36899 3.89785 3.67945
threshold=8.5000000000000018 7160.0000000000009 42.500000000000007 2.1000000000000005 1.5000000000000002 130.00000000000003 1.0000000180025095e-35 20998.000000000004 57.050000000000004 50260.000000000007 57.650000000000013 35668.000000000007 1.8500000000000003 23860.000000000004
decision_type=2 2 2 2 2 2 2 2 2 2 2 2 2 2
left_child=2 3 7 -2 6 -4 13 -1 -6 12 11 -7 -8 -3
right_child=1 4 5 -5 8 10 9 -9 -10 -11 -12 -13 -14 -15
leaf_value=0.020357907878981982 0.01796581253418434 0.017361757907383434 -0.015664766179507041 0.052141889035701751 0.025852384590733874 -0.002366387909904389 -0.00028692753049877216 -0.00056120459446806065 0.0079213050348513128 -0.014450622834265231 -0.011158897640227325 -0.01367904835247568 0.011963394751325502 0.0026011947621887048
leaf_weight=96 312 128 543 50 98 456 530 76 98 50 431 105 74 63
leaf_count=96 312 128 543 50 98 456 530 76 98 50 431 105 74 63
internal_value=0 0.00992097 -0.00815414 0.0226863 0.00548193 -0.0103132 0.00283653 0.0111146 0.0168868 1.63432e-05 -0.00738393 -0.00448373 0.00121394 0.0124931
internal_weight=0 1403 1707 362 1041 1535 845 172 196 654 992 561 604 191
internal_count=3110 1403 1707 362 1041 1535 845 172 196 654 992 561 604 191
is_linear=0
shrinkage=0.05


Tree=26
num_leaves=15
num_cat=0
split_feature=0 3 6 7 3 6 2 2 3 3 7 0 0 0
split_gain=90.8238 28.8805 25.8494 23.8677 9.66133 9.37305 7.29943 6.5152 4.52231 3.85586 3.81887 3.60615 3.54974 3.36238
threshold=8.5000000000000018 10070.000000000002 34.250000000000007 2.1000000000000005 40187.500000000007 57.050000000000004 1.5000000000000002 1.0000000180025095e-35 3515.5000000000005 50260.000000000007 1.8500000000000003 2.5000000000000004 4.5000000000000009 6.5000000000000009
decision_type=2 2 2 2 2 2 2 2 2 2 2 2 2 2
left_child=2 3 -1 8 5 13 7 -3 -2 10 -9 -7 -6 -4
right_child=1 6 4 -5 12 11 -8 9 -10 -11 -12 -13 -14 -15
leaf_value=0.017320772783336297 0.02161227830126014 0.011079651971400206 -0.0011444955780891637 0.048057829678779647 -0.022546823258034705 -0.013711907452682316 0.01377330056847708 -0.00087461349512621379 0.011102462426866086 -0.01372809147462249 0.011503582517616451 -0.0060846839824716479 -0.010480332875758717 -0.010271851946856446
leaf_weight=97 161 155 491 62 164 508 159 463 281 50 72 223 97 127
leaf_count=97 161 155 491 62 164 508 159 463 281 50 72 223 97 127
internal_value=0 0.00942492 -0.00774643 0.0190059 -0.00925669 -0.00755301 0.00405362 0.00196521 0.0149307 -0.000449731 0.000791237 -0.0113851 -0.0180623 -0.00302018
internal_weight=0 1403 1707 504 1610 1349 899 740 442 585 535 731 261 618
internal_count=3110 1403 1707 504 1610 1349 899 740 442 585 535 731 261 618
is_linear=0
shrinkage=0.05


Tree=27
num_leaves=15
num_cat=0
split_feature=0 1 6 7 1 1 6 3 6 7 6 0 1 1
split_gain=81.9685 28.0044 23.4956 20.9188 8.65804 7.18684 6.60912 6.43362 9.14003 5.18975 5.02821 4.25736 3.36904 3.09749
threshold=8.5000000000000018 2018.5000000000002 42.500000000000007 2.1000000000000005 2016.5000000000002 2018.5000000000002 57.650000000000013 35901.000000000007 43.850000000000009 1.5000000000000002 35.550000000000004 11.500000000000002 2012.5000000000002 2019.5000000000002
decision_type=2 2 2 2 2 2 2 2 2 2 2 2 2 2
left_child=2 7 5 9 12 -1 13 8 -2 -3 -11 -12 -4 -6
right_child=1 3 4 -5 6 -7 -8 -9 -10 10 11 -13 -14 -15
leaf_value=6.2622613642878574e-05 0.01902707450218466 0.0031835220334397504 -0.02601447615790058 0.045637726369831301 -0.0033544071350671391 0.020505121506421881 -0.010129077765744537 -0.0042650517409432119 0.0036227158901015032 0.0090683916384656713 0.015120046138430814 0.029100017974461774 -0.012817981649736687 0.0091806858998576286
leaf_weight=87 114 79 53 63 364 85 508 192 620 117 112 106 553 57
leaf_count=87 114 79 53 63 364 85 508 192 620 117 112 106 553 57
internal_value=0 0.00895367 -0.00735911 0.0187961 -0.00932273 0.010165 -0.00628986 0.00388367 0.00601522 0.0147115 0.01743 0.0219176 -0.0139721 -0.00165726
internal_weight=0 1403 1707 477 1535 172 929 926 734 414 335 218 606 421
internal_count=3110 1403 1707 477 1535 172 929 926 734 414 335 218 606 421
is_linear=0
shrinkage=0.05


Tree=28
num_leaves=15
num_cat=0
split_feature=0 1 7 7 3 3 3 7 0 3 1 5 4 7
split_gain=73.9766 25.274 19.4826 18.8792 9.18829 7.40035 5.87672 9.32312 5.79534 4.75823 4.39635 3.58398 3.3705 3.07895
threshold=8.5000000000000018 2018.5000000000002 1.8500000000000003 2.1000000000000005 17762.500000000004 13269.000000000002 21602.500000000004 1.8500000000000003 2.5000000000000004 6240.5000000000009 2012.5000000000002 147.50000000000003 1.5000000000000002 1.6500000000000001
decision_type=2 2 2 2 2 2 2 2 2 2 2 2 2 2
left_child=2 6 4 9 8 -4 7 -2 -1 -3 -6 13 -8 -12
right_child=1 3 5 -5 10 -7 12 -9 -10 -11 11 -13 -14 -15
leaf_value=-0.008517922872249414 0.0051433352083190744 0.018540061176972815 0.026065743395772119 0.043355840077948953 -0.026181100468294551 0.001953374437715222 0.0014213304070375568 0.027453629813982913 0.00043899255463887143 0.0076804890215059684 -0.013958981821903822 -0.0038182531045426876 -0.011089047121406053 -0.0033166110917756501
leaf_weight=396 402 240 52 63 52 82 409 53 332 174 579 137 62 77
leaf_count=396 402 240 52 63 52 82 409 53 332 174 579 137 62 77
internal_value=0 0.00850599 -0.00699116 0.0178563 -0.00855022 0.0113104 0.00368949 0.00774212 -0.00443318 0.0139759 -0.0120972 -0.0111737 -0.000225471 -0.0127098
internal_weight=0 1403 1707 477 1573 134 926 455 728 414 845 793 471 656
internal_count=3110 1403 1707 477 1573 134 926 455 728 414 845 793 471 656
is_linear=0
shrinkage=0.05


Tree=29
num_leaves=15
num_cat=0
split_feature=0 1 6 7 1 6 3 6 7 6 0 0 0 3
split_gain=66.7639 22.8098 19.5221 17.0506 8.90268 7.56467 5.57504 8.0264 4.57936 4.41628 3.78522 3.6659 2.89276 2.71281
threshold=8.5000000000000018 2018.5000000000002 34.250000000000007 1.8500000000000003 2016.5000000000002 57.650000000000013 35901.000000000007 43.850000000000009 1.5000000000000002 35.550000000000004 11.500000000000002 2.5000000000000004 2.5000000000000004 5214.0000000000009
decision_type=2 2 2 2 2 2 2 2 2 2 2 2 2 2
left_child=2 6 -1 8 11 -6 7 -2 -3 13 -11 -4 -7 -10
right_child=1 3 4 -5 5 12 -8 -9 9 10 -12 -13 -14 -15
leaf_value=0.01514272578492684 0.017682664648817622 0.0023860150370511074 -0.018119421862596002 0.040763204338458869 -0.00034890399895790296 -0.011520103369985804 -0.004080512929446437 0.0032472221567455095 0.016464689352030222 0.013635809663433716 0.026882783414307949 -0.0099654629382276427 -0.0031124788834910161 0.0011427430963242213
leaf_weight=97 114 79 202 65 466 366 192 620 52 112 104 434 142 65
leaf_count=97 114 79 202 65 466 366 192 620 52 112 104 434 142 65
internal_value=0 0.00808069 -0.0066416 0.0169635 -0.00795407 -0.00494961 0.00350501 0.00548924 0.0132086 0.0157762 0.020014 -0.0125552 -0.00916994 0.0079525
internal_weight=0 1403 1707 477 1610 974 926 734 412 333 216 636 508 117
internal_count=3110 1403 1707 477 1610 974 926 734 412 333 216 636 508 117
is_linear=0
shrinkage=0.05


Tree=30
num_leaves=15
num_cat=0
split_feature=0 1 6 7 1 2 1 2 0 2 2 0 7 6
split_gain=60.2544 20.5858 17.8598 15.4057 7.0373 5.79429 5.14519 5.00314 4.82523 4.68433 6.09719 4.20557 4.17792 4.03921
threshold=8.5000000000000018 2018.5000000000002 42.500000000000007 2.1000000000000005 2019.5000000000002 1.0000000180025095e-35 2013.5000000000002 1.0000000180025095e-35 4.5000000000000009 1.5000000000000002 1.0000000180025095e-35 2.5000000000000004 1.5000000000000002 35.550000000000004
decision_type=2 2 2 2 2 2 2 2 2 2 2 2 2 2
left_child=2 9 5 12 6 -1 -4 -8 -7 10 -2 -9 -3 -14
right_child=1 3 4 -5 -6 8 7 11 -10 -11 -12 -13 13 -15
leaf_value=-0.0044159553521736106 0.010306054064772608 0.0022667142857290524 -0.018361315995617401 0.039149887345376472 0.0089115717014203143 0.02434309801588265 0.0044954432219338532 -0.011507813211076089 0.0039086163733512737 0.01093899891375149 -0.00065406952025613696 -0.0057554942052427342 0.0075548720412736388 0.01907134917062716
leaf_weight=55 161 79 126 63 59 65 78 618 52 166 599 654 117 218
leaf_count=55 161 79 126 63 59 65 78 618 52 166 599 654 117 218
internal_value=0 0.00767666 -0.00630952 0.0161153 -0.00802151 0.00896902 -0.00869838 -0.0077965 0.0152611 0.00332976 0.00166775 -0.00855025 0.01261 0.0150492
internal_weight=0 1403 1707 477 1535 172 1476 1350 117 926 760 1272 414 335
internal_count=3110 1403 1707 477 1535 172 1476 1350 117 926 760 1272 414 335
is_linear=0
shrinkage=0.05


Tree=31
num_leaves=15
num_cat=0
split_feature=1 7 7 1 7 1 1 7 7 6 6 7 6 6
split_gain=49.2901 27.8147 20.9477 12.2766 8.99501 6.54551 5.67349 5.64782 4.72675 4.58195 3.69703 2.6121 2.48472 2.21019
threshold=2018.5000000000002 1.2500000000000002 1.5000000000000002 2016.5000000000002 1.8500000000000003 2014.5000000000002 2013.5000000000002 1.8500000000000003 1.8500000000000003 53.800000000000004 35.550000000000004 1.2500000000000002 53.800000000000004 38.95000000000001
decision_type=2 2 2 2 2 2 2 2 2 2 2 2 2 2
left_child=2 -2 5 6 10 -1 -4 -5 -8 11 -3 -7 -12 -6
right_child=1 4 3 7 13 9 8 -9 -10 -11 12 -13 -14 -15
leaf_value=-0.018670655102700207 -0.001593766156968075 0.006696100600118585 -0.018608866374828479 0.0030026847190882354 0.02238679521452186 0.0021486657978097225 -0.0058146594874897463 0.014397760080108938 0.0066822707458822133 -0.0094776552483017452 0.021032407718180421 -0.0070369282656887163 0.010959684890070834 0.035765367839485411
leaf_weight=141 291 119 67 559 58 166 332 135 98 670 166 145 97 66
leaf_count=141 291 119 67 559 58 166 332 135 98 670 166 145 97 66
internal_value=0 0.0107233 -0.00369497 0.000923426 0.0178068 -0.00859739 -0.00507525 0.00521931 -0.00296652 -0.00714955 0.0140087 -0.00213401 0.0173174 0.0295076
internal_weight=0 797 2313 1191 506 1122 497 694 430 981 382 311 263 124
internal_count=3110 797 2313 1191 506 1122 497 694 430 981 382 311 263 124
is_linear=0
shrinkage=0.05


Tree=32
num_leaves=15
num_cat=0
split_feature=0 3 1 4 0 5 2 3 0 2 2 0 1 3
split_gain=49.7886 17.4788 13.7056 11.6311 10.6004 8.55926 5.59348 5.24622 4.36578 3.48187 3.36745 3.79116 3.21937 3.02613
threshold=8.5000000000000018 15561.500000000002 2018.5000000000002 1.5000000000000002 3.5000000000000004 142.50000000000003 1.5000000000000002 41598.000000000007 11.500000000000002 1.5000000000000002 1.0000000180025095e-35 3.5000000000000004 2019.5000000000002 2146.0000000000005
decision_type=2 2 2 2 2 2 2 2 2 2 2 2 2 2
left_child=2 3 7 5 12 -2 13 10 -7 -3 -1 -12 -4 -5
right_child=1 9 4 6 -6 8 -8 -9 -10 -11 11 -13 -14 -15
leaf_value=0.0020852276736072132 0.010845395579770871 -0.00060123849598229086 -0.0075681402973612521 0.014468692071735859 0.014958346109464766 0.03529707385071864 0.018364957162473158 -0.014445330652967096 0.019648576383154322 0.0088391181031274302 -0.0094330198596323037 -0.0029804976520356572 0.0069597771910663983 0.0010246060406318086
leaf_weight=105 174 545 143 50 125 78 76 250 104 119 693 339 52 257
leaf_count=105 174 545 143 50 125 78 76 250 104 119 693 339 52 257
internal_value=0 0.00697819 -0.00573544 0.0122682 0.00359206 0.0187745 0.00622061 -0.00788742 0.0263551 0.00109063 -0.00644549 -0.00731344 -0.00369403 0.0032142
internal_weight=0 1403 1707 739 320 356 383 1387 182 664 1137 1032 195 307
internal_count=3110 1403 1707 739 320 356 383 1387 182 664 1137 1032 195 307
is_linear=0
shrinkage=0.05


Tree=33
num_leaves=15
num_cat=0
split_feature=0 3 1 0 4 5 3 2 3 1 1 2 0 2
split_gain=44.9342 15.8153 12.3928 9.88315 9.18922 7.41996 4.26054 4.00361 3.76456 3.65315 3.13761 3.06985 2.68725 2.56378
threshold=8.5000000000000018 13154.500000000002 2017.5000000000002 3.5000000000000004 1.5000000000000002 142.50000000000003 3000.5000000000005 1.5000000000000002 53146.000000000007 2012.5000000000002 2019.5000000000002 1.0000000180025095e-35 11.500000000000002 1.5000000000000002
decision_type=2 2 2 2 2 2 2 2 2 2 2 2 2 2
left_child=2 4 9 10 5 -2 -5 -6 13 -1 -4 -11 -7 -3
right_child=1 8 3 6 7 12 -8 -9 -10 11 -12 -13 -14 -15
leaf_value=-0.020779382834055771 0.010585029971092039 0.0013752715063464493 -0.0065461258859861775 0.018175093403978038 0.0036325609473948253 0.033071823155104714 0.0036769592714078966 0.016995773764534129 -0.011323469785936909 0.00084086253773421051 0.0066117884573311768 -0.0089403978080266448 0.020110143695412013 0.0093062025377511747
leaf_weight=60 149 594 352 71 253 74 177 72 51 88 52 907 87 123
leaf_count=60 149 594 352 71 253 74 177 72 51 88 52 907 87 123
internal_value=0 0.00662928 -0.00544867 -2.94017e-05 0.0124674 0.018626 0.00782763 0.00659303 0.00180218 -0.00879783 -0.00485253 -0.00807532 0.0260677 0.00273581
internal_weight=0 1403 1707 652 635 310 248 325 768 1055 404 995 161 717
internal_count=3110 1403 1707 652 635 310 248 325 768 1055 404 995 161 717
is_linear=0
shrinkage=0.05


Tree=34
num_leaves=15
num_cat=0
split_feature=1 7 7 1 1 3 7 7 1 3 7 6 6 3
split_gain=37.177 21.2464 15.6077 9.48884 8.09663 6.23589 5.18049 5.01524 4.56574 4.41401 3.85516 3.77099 2.63002 2.25271
threshold=2018.5000000000002 1.2500000000000002 1.5000000000000002 2016.5000000000002 2019.5000000000002 35668.000000000007 1.8500000000000003 1.8500000000000003 2013.5000000000002 29201.500000000004 1.8500000000000003 48.300000000000004 35.550000000000004 20002.500000000004
decision_type=2 2 2 2 2 2 2 2 2 2 2 2 2 2
left_child=2 -2 5 8 6 11 12 -5 -4 -9 -10 -1 -3 -13
right_child=1 4 3 7 -6 -7 -8 9 10 -11 -12 13 -14 -15
leaf_value=0.0020762303145602347 -0.0014520494558832838 0.0038484853367448191 -0.016636984791856872 0.0024654677317685553 0.033432947608110102 -0.016082600330330685 0.022647999066477728 0.0246258449418327 -0.0051767565267660564 0.0060472543124131953 0.0061093350609869 -0.0049170384955739659 0.013255150227099059 -0.010264852993030394
leaf_weight=130 291 110 67 559 56 176 111 52 332 83 98 484 229 332
leaf_count=130 291 110 67 559 56 176 111 52 332 83 98 484 229 332
internal_value=0 0.00931291 -0.00320899 0.000777511 0.0155038 -0.00744065 0.0132726 0.00455427 -0.00449627 0.0132035 -0.00260458 -0.00583284 0.0102028 -0.00709286
internal_weight=0 797 2313 1191 506 1122 450 694 497 135 430 946 339 816
internal_count=3110 797 2313 1191 506 1122 450 694 497 135 430 946 339 816
is_linear=0
shrinkage=0.05


Tree=35
num_leaves=15
num_cat=0
split_feature=0 3 7 6 3 6 3 4 7 0 3 7 6 3
split_gain=37.2986 13.4951 14.9771 10.9656 5.07388 3.95266 3.89404 3.45382 3.16409 2.9983 2.87759 4.07343 2.83173 1.57815
threshold=8.5000000000000018 15561.500000000002 2.1000000000000005 34.250000000000007 35668.000000000007 48.300000000000004 3515.5000000000005 1.5000000000000002 1.6500000000000001 2.5000000000000004 53146.000000000007 2.1000000000000005 53.800000000000004 11160.500000000002
decision_type=2 2 2 2 2 2 2 2 2 2 2 2 2 2
left_child=3 2 6 -1 5 -5 -2 12 -6 13 11 -3 -8 -7
right_child=1 10 -4 4 8 9 7 -9 -10 -11 -12 -13 -14 -15
leaf_value=0.011362473162121535 0.015025172333423951 0.00029412759067646497 0.031559194498030206 0.0010803834633563883 -0.014360280517238852 -0.0052347348811806263 0.021250298672355714 0.0024281498909897361 -0.0037746046643323179 -0.0027918988164058146 -0.010545046303841267 0.012732358058914543 0.0077049610696832199 -0.010558120660523834
leaf_weight=97 161 538 77 255 246 243 50 282 99 441 51 75 169 326
leaf_count=97 161 538 77 255 246 243 50 282 99 441 51 75 169 326
internal_value=0 0.00603982 0.0106881 -0.00496419 -0.00594785 -0.00448199 0.00826049 0.00608661 -0.0113227 -0.00588635 0.000866521 0.00181593 0.0107975 -0.00828469
internal_weight=0 1403 739 1707 1610 1265 662 501 345 1010 664 613 219 569
internal_count=3110 1403 739 1707 1610 1265 662 501 345 1010 664 613 219 569
is_linear=0
shrinkage=0.05


Tree=36
num_leaves=15
num_cat=0
split_feature=1 7 1 4 1 7 7 6 6 3 3 6 1 6
split_gain=31.4983 27.2061 11.0312 9.85414 9.32239 6.48552 7.39024 3.38953 2.45565 2.36553 2.09881 2.08419 1.96103 2.32262
threshold=2017.5000000000002 1.2500000000000002 2011.5000000000002 1.5000000000000002 2019.5000000000002 1.8500000000000003 2.3000000000000003 61.550000000000004 39.500000000000007 35668.000000000007 31003.500000000004 48.300000000000004 2019.5000000000002 45.800000000000004
decision_type=2 2 2 2 2 2 2 2 2 2 2 2 2 2
left_child=2 12 -1 7 5 -3 8 -4 -7 11 -9 -5 13 -2
right_child=1 4 3 9 -6 6 -8 10 -10 -11 -12 -13 -14 -15
leaf_value=-0.02631791160736037 0.0023761482075011983 0.0073183770566183949 0.0038450349407179057 -0.0011691908181017758 0.031018546447324172 0.031394345894017642 0.0036302361672278499 0.00058888775600133018 0.017323635605147533 -0.013212863911739873 -0.006358721728836724 -0.0079105810237683778 0.0061544467791741306 -0.005204174054184634
leaf_weight=57 132 587 341 147 56 68 60 222 57 159 213 521 59 431
leaf_count=57 132 587 341 147 56 68 60 222 57 159 213 521 59 431
internal_value=0 0.00538398 -0.00470287 -0.00393428 0.0113201 0.00989115 0.0180545 0.000112735 0.0249781 -0.00773172 -0.00281305 -0.00642707 -0.00251806 -0.0034269
internal_weight=0 1450 1660 1603 828 772 185 776 125 827 435 668 622 563
internal_count=3110 1450 1660 1603 828 772 185 776 125 827 435 668 622 563
is_linear=0
shrinkage=0.05


Tree=37
num_leaves=15
num_cat=0
split_feature=0 2 2 1 7 1 7 1 1 7 2 1 0 0
split_gain=30.807 11.2303 8.76423 8.38659 6.72692 5.44841 4.01913 3.58794 2.96466 2.39454 2.69983 2.29305 2.11898 1.69316
threshold=8.5000000000000018 1.5000000000000002 1.0000000180025095e-35 2018.5000000000002 1.2500000000000002 2017.5000000000002 2.1000000000000005 2015.5000000000002 2016.5000000000002 1.6500000000000001 1.0000000180025095e-35 2019.5000000000002 4.5000000000000009 2.5000000000000004
decision_type=2 2 2 2 2 2 2 2 2 2 2 2 2 2
left_child=3 2 -2 7 11 -3 -7 12 -4 10 -9 -5 -1 -12
right_child=1 5 8 4 -6 6 -8 9 -10 -11 13 -13 -14 -15
leaf_value=-0.012786425481119879 0.010656880264955346 0.004974738520312323 -0.0051267136071928201 -0.0055049912993220063 0.012941702803126882 0.014193967933615124 0.029704184754420139 0.0048213951518667527 0.002084252091046786 0.0033978532980125787 -0.0081918502616620554 0.0062897570443705524 -0.0051090342831551375 -0.003691873049644954
leaf_weight=265 283 112 185 156 108 143 59 61 621 86 444 56 136 395
leaf_count=265 283 112 185 156 108 143 59 61 621 86 444 56 136 395
internal_value=0 0.00548912 0.00308703 -0.00451156 0.00278485 0.0138199 0.0187242 -0.00619494 0.00042913 -0.00457318 -0.00533485 -0.0023894 -0.0101826 -0.00607327
internal_weight=0 1403 1089 1707 320 314 202 1387 806 986 900 212 401 839
internal_count=3110 1403 1089 1707 320 314 202 1387 806 986 900 212 401 839
is_linear=0
shrinkage=0.05


Tree=38
num_leaves=15
num_cat=0
split_feature=0 3 1 2 2 0 5 3 4 1 3 1 2 0
split_gain=27.8033 10.8572 7.68264 7.65439 6.64551 6.11241 3.38985 2.96958 2.48449 2.46009 2.3486 2.25285 2.03832 2.01917
threshold=8.5000000000000018 20631.500000000004 2017.5000000000002 1.5000000000000002 1.0000000180025095e-35 3.5000000000000004 142.50000000000003 3000.5000000000005 1.5000000000000002 2012.5000000000002 3989.0000000000005 2019.5000000000002 1.0000000180025095e-35 2.5000000000000004
decision_type=2 2 2 2 2 2 2 2 2 2 2 2 2 2
left_child=2 3 9 4 6 11 -2 -7 -3 -1 -6 -4 -11 -14
right_child=1 8 5 -5 10 7 -8 -9 -10 12 -12 -13 13 -15
leaf_value=-0.016755262934602798 0.0096157525146525792 0.00068349947791713746 -0.0052472157317259363 0.016587819538544862 0.010053315429567276 0.014798609644148343 0.02431344112627349 0.002694645384162149 -0.0096033781080383483 0.00093529438957127501 0.0010187168970826996 0.0059022445915791026 -0.0098257995246390315 -0.0050407511564577925
leaf_weight=60 151 429 352 220 88 71 53 177 68 88 394 52 378 529
leaf_count=60 151 429 352 220 88 71 53 177 68 88 394 52 378 529
internal_value=0 0.00521466 -0.00428598 0.00847238 0.00586976 -1.90946e-05 0.0134343 0.00615989 -0.000723961 -0.00692296 0.00266819 -0.00381214 -0.00633005 -0.00703496
internal_weight=0 1403 1707 906 686 652 204 248 497 1055 482 404 995 907
internal_count=3110 1403 1707 906 686 652 204 248 497 1055 482 404 995 907
is_linear=0
shrinkage=0.05


Tree=39
num_leaves=15
num_cat=0
split_feature=0 3 1 2 2 0 5 3 3 3 4 3 1 0
split_gain=25.0925 9.79861 6.93359 6.90809 5.99757 5.51645 3.05934 2.68005 2.40006 2.43106 2.24225 2.12643 2.0332 1.85066
threshold=8.5000000000000018 20631.500000000004 2017.5000000000002 1.5000000000000002 1.0000000180025095e-35 3.5000000000000004 142.50000000000003 3000.5000000000005 35668.000000000007 33269.000000000007 1.5000000000000002 3701.0000000000005 2019.5000000000002 2.5000000000000004
decision_type=2 2 2 2 2 2 2 2 2 2 2 2 2 2
left_child=2 3 8 4 6 12 -2 -7 9 -1 -3 -6 -4 -10
right_child=1 10 5 -5 11 7 -8 -9 13 -11 -12 -13 -14 -15
leaf_value=-0.0057511698632134291 0.0091349647650248462 0.00064932453388560972 -0.0049848549488987455 0.015758428815176806 0.0099793546882574451 0.014058679165187436 0.023097769117404549 0.0025599131893398147 -0.016281876679171216 0.0054751815557000771 -0.0091232091385309629 0.0010532700140735791 0.0056071323472469195 -0.0078552227546377449
leaf_weight=664 151 429 352 220 80 71 53 177 88 52 68 402 52 251
leaf_count=664 151 429 352 220 80 71 53 177 88 52 68 402 52 251
internal_value=0 0.00495393 -0.00407168 0.00804876 0.00557627 -1.81399e-05 0.0127626 0.0058519 -0.00657681 -0.00493585 -0.000687763 0.00253478 -0.00362153 -0.0100427
internal_weight=0 1403 1707 906 686 652 204 248 1055 716 497 482 404 339
internal_count=3110 1403 1707 906 686 652 204 248 1055 716 497 482 404 339
is_linear=0
shrinkage=0.05


Tree=40
num_leaves=15
num_cat=0
split_feature=0 3 6 7 1 1 6 4 6 3 0 3 0 6
split_gain=22.646 8.97314 6.84907 4.4245 4.87937 3.98952 3.35807 3.09455 5.9782 2.49714 1.99165 1.88836 1.74023 1.69696
threshold=8.5000000000000018 6729.5000000000009 34.250000000000007 2.1000000000000005 2016.5000000000002 2016.5000000000002 48.300000000000004 1.5000000000000002 51.850000000000001 23990.500000000004 2.5000000000000004 2146.0000000000005 2.5000000000000004 47.500000000000007
decision_type=2 2 2 2 2 2 2 2 2 2 2 2 2 2
left_child=2 7 -1 9 -5 10 13 8 -2 -3 -4 -9 -8 -7
right_child=1 3 5 4 -6 6 12 11 -10 -11 -12 -13 -14 -15
leaf_value=0.0090350654720299951 0.024871037849470191 0.0032796370791109905 -0.011826877957809311 0.00041728094220161438 0.020753571032904664 0.00042290902059949657 -0.0060528865225431203 0.013101574955651639 0.005987331952666864 -0.0020400003148386696 -0.005816738520966723 0.0024788614647577004 -0.0011503631360337873 0.010912678494545011
leaf_weight=97 95 591 202 54 65 158 471 73 75 352 434 98 294 51
leaf_count=97 95 591 202 54 65 158 471 73 75 352 434 98 294 51
internal_value=0 0.00470623 -0.0038681 0.0024404 0.0115253 -0.00464549 -0.00263424 0.0117629 0.01654 0.00129394 -0.00772562 0.0070137 -0.00416878 0.00298261
internal_weight=0 1403 1707 1062 119 1610 974 341 170 943 636 171 765 209
internal_count=3110 1403 1707 1062 119 1610 974 341 170 943 636 171 765 209
is_linear=0
shrinkage=0.05


Tree=41
num_leaves=15
num_cat=0
split_feature=0 1 2 6 2 6 1 6 3 1 0 0 0 3
split_gain=20.438 8.22865 6.87561 6.18129 3.67189 4.38178 3.60612 3.1742 2.14627 2.06263 2.06059 1.91587 1.73083 1.60328
threshold=8.5000000000000018 2017.5000000000002 1.5000000000000002 34.250000000000007 1.0000000180025095e-35 51.850000000000001 2015.5000000000002 48.300000000000004 3701.0000000000005 2015.5000000000002 11.500000000000002 2.5000000000000004 4.5000000000000009 22862.000000000004
decision_type=2 2 2 2 2 2 2 2 2 2 2 2 2 2
left_child=3 9 4 -1 5 -3 12 13 -6 -2 -11 -9 -5 -8
right_child=1 2 -4 6 8 -7 7 11 -10 10 -12 -13 -14 -15
leaf_value=0.008583312240169989 -0.0091589695096693253 0.022950854653246561 0.015777122040422135 -0.010875314888895824 0.0097464645078453507 0.0061815974872787387 -4.8601054829261443e-05 -0.0063008914499823564 0.00049098251091542222 0.0077370596512411531 -0.00039312562054092586 -0.0018267323172989826 -0.0039366307606756249 0.0098768715153430379
leaf_weight=97 55 53 202 265 78 147 187 541 318 94 456 429 136 52
leaf_count=97 55 53 202 265 78 147 187 541 318 94 456 429 136 52
internal_value=0 0.00447092 0.00780504 -0.00367469 0.0051031 0.0106255 -0.00441322 -0.00305041 0.00231403 7.31818e-05 0.000996397 -0.00432211 -0.00852205 0.00211092
internal_weight=0 1403 798 1707 596 200 1610 1209 396 605 550 970 401 239
internal_count=3110 1403 798 1707 596 200 1610 1209 396 605 550 970 401 239
is_linear=0
shrinkage=0.05


Tree=42
num_leaves=15
num_cat=0
split_feature=1 7 1 1 7 2 7 7 3 7 2 1 0 3
split_gain=18.5292 15.9826 8.42072 7.59996 5.67316 4.66614 4.2744 5.16361 2.06907 1.8709 1.82785 1.34857 1.44026 1.3867
threshold=2017.5000000000002 1.2500000000000002 2011.5000000000002 2019.5000000000002 1.6500000000000001 1.0000000180025095e-35 1.8500000000000003 2.3000000000000003 19064.000000000004 1.8500000000000003 1.5000000000000002 2019.5000000000002 2.5000000000000004 7898.0000000000009
decision_type=2 2 2 2 2 2 2 2 2 2 2 2 2 2
left_child=2 11 -1 6 5 -4 10 -8 -7 -6 -3 12 -2 -14
right_child=1 3 4 -5 9 8 7 -9 -10 -11 -12 -13 13 -15
leaf_value=-0.022492144482308313 -0.005410928304728049 0.0037535644910894105 0.0047430646965319918 0.026465059470917499 -0.0008595857964784038 -0.002970438486035063 0.019803629497066141 0.0019592331311044596 -0.0081289886020197311 0.0053218715705188298 0.010333121200997941 0.0052646376678949008 0.0040478335343202398 -0.0029468150074918459
leaf_weight=57 260 449 104 56 444 288 125 60 598 169 138 59 113 190
leaf_count=57 260 449 104 56 444 288 125 60 598 169 138 59 113 190
internal_value=0 0.00412942 -0.00360702 0.00867919 -0.0029355 -0.0052761 0.00738903 0.0140163 -0.00645217 0.000844601 0.00530038 -0.0019272 -0.00268087 -0.00033825
internal_weight=0 1450 1660 828 1603 990 772 185 886 613 587 622 563 303
internal_count=3110 1450 1660 828 1603 990 772 185 886 613 587 622 563 303
is_linear=0
shrinkage=0.05


Tree=43
num_leaves=15
num_cat=0
split_feature=1 7 1 1 4 7 7 6 6 6 3 3 1 3
split_gain=16.7226 14.4243 7.5997 6.85896 5.38482 3.85765 4.66016 2.32787 2.24 1.60277 1.40173 1.22481 1.21708 1.14244
threshold=2017.5000000000002 1.2500000000000002 2011.5000000000002 2019.5000000000002 1.5000000000000002 1.8500000000000003 2.3000000000000003 61.550000000000004 39.500000000000007 59.500000000000007 31003.500000000004 35668.000000000007 2019.5000000000002 36947.500000000007
decision_type=2 2 2 2 2 2 2 2 2 2 2 2 2 2
left_child=2 12 -1 5 7 -3 8 13 -7 11 -9 -6 -2 -4
right_child=1 3 4 -5 9 6 -8 10 -10 -11 -12 -13 -14 -15
leaf_value=-0.021367537177968444 -0.0025468285286459548 0.0050353579896857594 0.0057406784635531949 0.025141806416546127 -0.0030666822257284843 0.024941494710305157 0.0018612715223328754 0.00055843680485588001 0.011502795678710468 -0.0089983387118215928 -0.005119378526012977 -0.0089241762394191362 0.0050014057301253209 -0.00013005668576150921
leaf_weight=57 563 587 199 56 473 68 60 222 57 244 213 110 59 142
leaf_count=57 563 587 199 56 473 68 60 222 57 244 213 110 59 142
internal_value=0 0.00392295 -0.00342667 0.00824523 -0.00278872 0.00701958 0.0133154 0.000202928 0.0188134 -0.00559588 -0.00222173 -0.00417187 -0.00183084 0.00329597
internal_weight=0 1450 1660 828 1603 772 185 776 125 827 435 583 622 341
internal_count=3110 1450 1660 828 1603 772 185 776 125 827 435 583 622 341
is_linear=0
shrinkage=0.05


Tree=44
num_leaves=15
num_cat=0
split_feature=0 3 7 3 0 3 3 7 1 2 7 2 2 0
split_gain=15.3485 6.67989 9.65112 4.5933 3.22635 2.41189 2.35262 2.9452 1.82244 1.77924 1.61411 1.47591 1.43284 1.29711
threshold=8.5000000000000018 20631.500000000004 1.8500000000000003 7767.5000000000009 2.5000000000000004 3515.5000000000005 41598.000000000007 1.6500000000000001 2015.5000000000002 1.0000000180025095e-35 2.1000000000000005 1.5000000000000002 1.0000000180025095e-35 2.5000000000000004
decision_type=2 2 2 2 2 2 2 2 2 2 2 2 2 2
left_child=3 2 5 4 -1 -2 7 12 -3 -7 -10 -11 -5 -8
right_child=1 8 -4 6 -6 9 13 -9 10 11 -12 -13 -14 -15
leaf_value=-0.002924918479946248 0.0099771453968423886 -0.009836557710077614 0.020170031509561731 0.0021620657137752354 0.0064768759460923841 0.0080827494344079508 -0.015183923720952966 0.0043841518437130736 -0.00083733549336720997 0.00023436919833557114 0.0086952400043664967 0.0068034110311418778 -0.0049415625246543686 -0.0068441774068328121
leaf_weight=182 160 50 112 77 183 140 62 106 397 384 50 110 909 188
leaf_count=182 160 50 112 77 183 140 62 106 397 384 50 110 909 188
internal_value=0 0.00387445 0.00642974 -0.00318445 0.00178886 0.00449156 -0.0045371 -0.00353542 -0.000783678 0.00310719 0.000228948 0.00169711 -0.00438682 -0.00891243
internal_weight=0 1403 906 1707 365 794 1342 1092 497 634 447 494 986 250
internal_count=3110 1403 906 1707 365 794 1342 1092 497 634 447 494 986 250
is_linear=0
shrinkage=0.05


Tree=45
num_leaves=15
num_cat=0
split_feature=0 7 3 6 3 3 3 3 7 6 7 0 7 3
split_gain=13.852 6.03607 5.49095 4.15262 3.948 3.60438 2.35302 1.99795 1.77403 1.73569 1.67548 1.28055 1.14486 1.08008
threshold=8.5000000000000018 2.1000000000000005 20456.000000000004 48.300000000000004 5745.0000000000009 2816.0000000000005 19383.500000000004 31547.000000000004 1.6500000000000001 47.500000000000007 1.6500000000000001 2.5000000000000004 1.1500000000000001 50260.000000000007
decision_type=2 2 2 2 2 2 2 2 2 2 2 2 2 2
left_child=3 4 -3 5 -2 -1 11 -6 13 10 -7 12 -5 -8
right_child=1 2 -4 6 7 9 8 -9 -10 -11 -12 -13 -14 -15
leaf_value=0.011403303897671708 0.008027202861620954 0.021196143344621471 0.0029130722492836515 -0.005492893194869241 0.0022415610950991434 -0.0053140546621643419 -0.0067180162603184268 -0.003202395703879625 -0.00038128653793067385 0.0066717102133802587 0.0028067228519933819 0.00097560919247345699 0.0007366286988835782 -0.013596573006361724
leaf_weight=73 255 88 77 281 767 184 527 216 104 63 97 214 100 64
leaf_count=73 255 88 77 281 767 184 527 216 104 63 97 214 100 64
internal_value=0 0.00368073 0.012664 -0.00302523 0.00248344 0.00131229 -0.00442736 0.00104533 -0.00640321 -0.000829117 -0.0025108 -0.00211943 -0.00385785 -0.0074629
internal_weight=0 1403 165 1707 1238 417 1290 983 695 344 281 595 381 591
internal_count=3110 1403 165 1707 1238 417 1290 983 695 344 281 595 381 591
is_linear=0
shrinkage=0.05


Tree=46
num_leaves=15
num_cat=0
split_feature=1 0 1 1 2 4 2 3 2 3 3 3 1 5
split_gain=12.8563 8.13838 6.45378 5.8246 4.41052 4.18371 2.29628 1.70493 2.07041 1.638 1.55118 1.47824 1.46734 0.703907
threshold=2017.5000000000002 3.5000000000000004 2011.5000000000002 2019.5000000000002 1.5000000000000002 1.5000000000000002 1.0000000180025095e-35 2382.5000000000005 1.0000000180025095e-35 19939.500000000004 19064.000000000004 31378.500000000004 2019.5000000000002 75.000000000000014
decision_type=2 2 2 2 2 2 2 2 2 2 2 2 2 2
left_child=2 12 -1 4 7 11 -7 -3 9 -9 -8 -4 -2 -13
right_child=1 3 5 -5 -6 6 10 8 -10 -11 -12 13 -14 -15
leaf_value=-0.019537563938974292 -0.003745904672267774 0.0084939472131534584 0.0024252280337198804 0.020505836814094985 0.011577319641316731 0.0042839897116498339 -0.0026347276447706239 0.0092657729233598714 0.0003651689714090968 -0.0012574328180635348 -0.0073323176809757641 -0.0042155021485606476 0.0052522464955612894 3.2897206741229944e-05
leaf_weight=57 352 126 384 63 194 63 274 142 471 50 490 182 52 210
leaf_count=57 352 126 384 63 194 63 274 142 471 50 490 182 52 210
internal_value=0 0.00343967 -0.00300453 0.00576766 0.00482309 -0.00241665 -0.004891 0.00316236 0.00214911 0.00652535 -0.00564758 0.000220328 -0.00258773 -0.00193957
internal_weight=0 1450 1660 1046 983 1603 827 789 663 192 764 776 404 392
internal_count=3110 1450 1660 1046 983 1603 827 789 663 192 764 776 404 392
is_linear=0
shrinkage=0.05


Tree=47
num_leaves=15
num_cat=0
split_feature=1 6 1 6 0 0 1 3 5 0 5 0 3 0
split_gain=11.6028 7.55179 5.82454 4.4195 3.46984 3.38474 2.92623 2.23308 1.7859 1.61915 1.23123 1.74705 1.20373 1.12495
threshold=2017.5000000000002 42.500000000000007 2011.5000000000002 38.95000000000001 8.5000000000000018 11.500000000000002 2018.5000000000002 3515.5000000000005 177.50000000000003 2.5000000000000004 147.50000000000003 3.5000000000000004 6519.5000000000009 2.5000000000000004
decision_type=2 2 2 2 2 2 2 2 2 2 2 2 2 2
left_child=2 3 -1 7 10 9 -7 -2 -6 -3 13 -12 -11 -4
right_child=1 5 4 -5 8 6 -8 -9 -10 12 11 -13 -14 -15
leaf_value=-0.018560685655265526 0.011680948181414611 -0.0032623555938092377 -0.0070788357194038094 0.017702598241823062 -0.00046388192344031686 0.0026629437528188447 0.017653831633209601 0.0030079239437592071 0.007013359038330811 0.004345786847918435 0.0064259700325032289 -0.0037869323135485385 -0.00042535290993569639 -0.0033264182730913423
leaf_weight=57 112 297 349 105 501 90 51 220 95 206 62 129 369 467
leaf_count=57 112 297 349 105 501 90 51 220 95 206 62 129 369 467
internal_value=0 0.00326769 -0.00285431 0.00876152 -0.00229581 0.000897698 0.00808518 0.00593376 0.00072796 -0.000264499 -0.00408546 -0.000471749 0.00128396 -0.00493131
internal_weight=0 1450 1660 437 1603 1013 141 332 596 872 1007 191 575 816
internal_count=3110 1450 1660 437 1603 1013 141 332 596 872 1007 191 575 816
is_linear=0
shrinkage=0.05


Tree=48
num_leaves=15
num_cat=0
split_feature=1 7 0 1 6 6 7 3 3 1 0 0 6 0
split_gain=10.4877 10.3663 4.27106 4.16625 3.94543 4.8029 2.4854 2.06362 1.85099 1.71282 1.34029 2.08789 1.22465 0.90794
threshold=2016.5000000000002 1.8500000000000003 8.5000000000000018 2011.5000000000002 33.800000000000004 40.100000000000001 1.6500000000000001 5745.0000000000009 35085.000000000007 2019.5000000000002 2.5000000000000004 6.5000000000000009 38.95000000000001 3.5000000000000004
decision_type=2 2 2 2 2 2 2 2 2 2 2 2 2 2
left_child=3 2 8 -1 -3 12 -5 -4 9 10 -2 13 -6 -12
right_child=1 4 7 6 5 -7 -8 -9 -10 -11 11 -13 -14 -15
leaf_value=-0.017632651422172785 -0.0047441887991913571 -0.0010610927310503589 0.0068012728088023694 -0.0058700161166848914 0.015663871754571481 0.0059122263686731463 -0.00032213262665874344 0.0015702856017388344 0.0074919032462525603 0.0058660227231060466 -0.0018698010476518791 -0.0091073724391799987 0.026054124037170265 0.0033463495191574828
leaf_weight=57 450 52 253 508 53 93 335 740 51 60 162 63 61 172
leaf_count=57 450 52 253 508 53 93 335 740 51 60 162 63 61 172
internal_value=0 0.00185292 0.000605226 -0.00454994 0.0112515 0.0143446 -0.00366534 0.00290305 -0.00177655 -0.00229771 -0.00287602 -0.000758439 0.0212236 0.00081636
internal_weight=0 2210 1951 900 259 207 843 993 958 907 847 397 114 334
internal_count=3110 2210 1951 900 259 207 843 993 958 907 847 397 114 334
is_linear=0
shrinkage=0.05


Tree=49
num_leaves=15
num_cat=0
split_feature=2 2 3 7 5 6 3 6 7 0 6 0 3 3
split_gain=9.26195 6.05522 4.92428 5.87352 3.46752 3.20172 3.07504 1.83617 1.80197 1.54908 1.51169 1.33918 1.23439 0.95073
threshold=1.5000000000000002 1.0000000180025095e-35 68452.500000000015 1.8500000000000003 155.00000000000003 40.100000000000001 20631.500000000004 50.900000000000006 1.6500000000000001 2.5000000000000004 43.850000000000009 11.500000000000002 3000.5000000000005 29461.500000000004
decision_type=2 2 2 2 2 2 2 2 2 2 2 2 2 2
left_child=1 4 3 6 7 11 9 10 -8 -3 -1 -2 -11 -5
right_child=5 2 -4 13 -6 -7 8 -9 -10 12 -12 -13 -14 -15
leaf_value=0.0072622959976657662 0.018855382751909986 -0.0033258319939900994 -0.016821436656808311 0.010499277501489575 -0.0036182216691468417 0.0039656648199227961 -0.0061707936860592345 0.0039361553029133821 -0.0011929809970738058 0.0048865357014749736 0.018399456471772282 0.0087725770430288463 -0.00038881927793754781 0.0031013383267418249
leaf_weight=78 63 399 55 95 102 251 610 199 259 133 50 69 667 80
leaf_count=78 63 399 55 95 102 251 610 199 259 133 50 69 667 80
internal_value=0 -0.00102258 -0.00204058 -0.00167814 0.00443046 0.00728088 -0.00242244 0.00694106 -0.00468719 -0.000781018 0.0116127 0.0135848 0.000488208 0.00711736
internal_weight=0 2727 2298 2243 429 383 2068 327 869 1199 128 132 800 175
internal_count=3110 2727 2298 2243 429 383 2068 327 869 1199 128 132 800 175
is_linear=0
shrinkage=0.05


Tree=50
num_leaves=15
num_cat=0
split_feature=1 7 1 7 6 6 6 7 1 6 6 0 3 3
split_gain=8.74635 8.54208 3.60273 3.52548 3.47783 4.16379 2.15734 2.08097 2.00013 1.62561 1.18319 1.96272 1.13844 1.08286
threshold=2016.5000000000002 1.8500000000000003 2011.5000000000002 1.5000000000000002 33.800000000000004 40.100000000000001 48.300000000000004 1.6500000000000001 2018.5000000000002 47.500000000000007 35.550000000000004 11.500000000000002 26009.500000000004 6519.5000000000009
decision_type=2 2 2 2 2 2 2 2 2 2 2 2 2 2
left_child=2 3 -1 6 -3 -6 9 -4 -5 13 -10 -12 -8 -2
right_child=1 4 7 8 5 -7 12 -9 10 -11 11 -13 -14 -15
leaf_value=-0.016320882304627735 0.0040070899291915936 -0.0013362189127991979 -0.0053498129682847369 0.00094773617932447565 0.019532735130582169 0.0052764778650085378 -0.0018796163695330521 -0.00027333313300371617 0.0016607996492603591 0.010360825533622548 0.0037857761735493249 0.012925116658264485 -0.0067735155457764474 -0.0028270998280598126
leaf_weight=57 113 52 508 559 114 93 603 335 119 51 135 104 148 119
leaf_count=57 113 52 508 559 114 93 603 335 119 51 135 104 148 119
internal_value=0 0.00169211 -0.00415507 0.000559508 0.0102238 0.0131277 -0.00144208 -0.00333247 0.00281648 0.00227837 0.00573443 0.00776273 -0.00284406 0.000501622
internal_weight=0 2210 900 1951 259 207 1034 843 917 283 358 239 751 232
internal_count=3110 2210 900 1951 259 207 1034 843 917 283 358 239 751 232
is_linear=0
shrinkage=0.05


Tree=51
num_leaves=15
num_cat=0
split_feature=1 7 2 2 1 7 6 7 1 6 6 1 6 7
split_gain=7.89358 7.70923 3.66123 3.31232 3.25147 3.19154 4.53276 1.87808 1.61033 1.35126 1.16402 1.14135 0.96336 0.746937
threshold=2016.5000000000002 1.8500000000000003 1.0000000180025095e-35 1.5000000000000002 2011.5000000000002 2.3000000000000003 40.100000000000001 1.6500000000000001 2019.5000000000002 50.900000000000006 49.150000000000013 2018.5000000000002 50.900000000000006 1.2500000000000002
decision_type=2 2 2 2 2 2 2 2 2 2 2 2 2 2
left_child=4 2 9 8 -1 6 -3 -6 10 -2 -4 -5 -12 -14
right_child=1 5 3 11 7 -7 -8 -9 -10 -11 12 -13 13 -15
leaf_value=-0.015504838262169966 0.011879949715350653 0.020347822330426424 0.00047219243858567165 0.0020270763670702523 -0.0050823223066878767 0.00022126963982979457 0.005012653891300102 -0.00025966649831389078 0.0060866648471269852 0.0038246676696097833 -0.0079285659992336475 0.0087613670032640756 -0.0031134324632081239 0.00015742196257545251
leaf_weight=57 72 100 442 147 508 66 93 335 71 188 79 110 595 247
leaf_count=57 72 100 442 147 508 66 93 335 71 188 79 110 595 247
internal_value=0 0.0016075 0.000531533 -0.000317784 -0.00394732 0.0097126 0.0129583 -0.00316585 -0.0012546 0.00605536 -0.00163702 0.00490946 -0.00264926 -0.00215393
internal_weight=0 2210 1951 1691 900 259 193 843 1434 260 1363 257 921 842
internal_count=3110 2210 1951 1691 900 259 193 843 1434 260 1363 257 921 842
is_linear=0
shrinkage=0.05


Tree=52
num_leaves=15
num_cat=0
split_feature=1 7 1 3 7 7 7 6 3 3 0 6 0 3
split_gain=7.14719 6.66447 4.7773 3.84399 2.4322 1.62438 2.29113 1.5064 1.28506 2.75676 1.50696 1.0325 0.747348 0.72704
threshold=2017.5000000000002 1.2500000000000002 2019.5000000000002 71146.500000000015 1.8500000000000003 1.8500000000000003 2.3000000000000003 39.500000000000007 35901.000000000007 34499.000000000007 2.5000000000000004 50.900000000000006 3.5000000000000004 22634.000000000004
decision_type=2 2 2 2 2 2 2 2 2 2 2 2 2 2
left_child=3 13 5 4 8 -3 7 -7 9 10 -1 -12 -10 -2
right_child=1 2 -4 -5 -6 6 -8 -9 12 -11 11 -13 -14 -15
leaf_value=-0.0050358179951113342 -0.00080866268642075544 0.0031921558253702291 0.019603971432765582 -0.01589341707158019 0.0038213463935848572 0.017445587435641379 0.00053381706859606005 0.0064250320419025802 -0.008135473246872426 0.0096418159033279313 -0.0040029436405304639 0.00033643634402663109 -0.0034309015900418254 -0.006780970564744037
leaf_weight=314 566 587 56 50 171 68 60 57 125 52 189 499 260 56
leaf_count=314 566 587 56 50 171 68 60 57 125 52 189 499 260 56
internal_value=0 0.00256465 0.00550263 -0.0022402 -0.00181619 0.00447973 0.00856517 0.0124202 -0.00248611 -0.00158306 -0.00216559 -0.000855632 -0.00495836 -0.00134636
internal_weight=0 1450 828 1660 1610 772 185 125 1439 1054 1002 688 385 622
internal_count=3110 1450 828 1660 1610 772 185 125 1439 1054 1002 688 385 622
is_linear=0
shrinkage=0.05


Tree=53
num_leaves=15
num_cat=0
split_feature=2 1 2 0 1 6 3 0 6 6 5 1 1 3
split_gain=6.58657 4.95163 4.6083 2.58469 2.56404 2.19748 2.03514 1.3932 1.89578 1.26218 1.07421 1.07312 0.805347 0.749
threshold=1.5000000000000002 2016.5000000000002 1.0000000180025095e-35 3.5000000000000004 2011.5000000000002 39.500000000000007 3000.5000000000005 10.500000000000002 47.500000000000007 35.100000000000001 162.50000000000003 2019.5000000000002 2018.5000000000002 19064.000000000004
decision_type=2 2 2 2 2 2 2 2 2 2 2 2 2 2
left_child=1 4 7 11 -1 -2 9 8 -3 -5 -6 -4 -7 -10
right_child=5 2 3 6 10 12 -8 -9 13 -11 -12 -13 -14 -15
leaf_value=-0.01427814957048548 0.012343157521172543 -0.0026160042812781673 -0.0035969254942373437 0.012592744529247286 -0.0040234363346017847 0.0023025913853132081 0.0001430579526837083 0.012816060127949983 0.0051129583467263732 0.0028719037850661313 0.0013859514959753967 0.0040326729314401752 0.0085596154954092687 0.012190433898392847
leaf_weight=57 104 70 589 55 684 211 779 61 140 85 106 50 68 51
leaf_count=57 104 70 589 55 684 211 779 61 140 85 106 50 68 51
internal_value=0 -0.000862336 0.000567758 -0.000557638 -0.00403657 0.00613992 0.00114054 0.006013 0.00442301 0.00669081 -0.00329762 -0.00299993 0.0038276 0.00700276
internal_weight=0 2727 1880 1558 847 383 919 322 261 140 790 639 279 191
internal_count=3110 2727 1880 1558 847 383 919 322 261 140 790 639 279 191
is_linear=0
shrinkage=0.05


Tree=54
num_leaves=15
num_cat=0
split_feature=2 1 2 7 3 7 0 7 0 0 3 1 1 7
split_gain=5.94438 4.46885 4.15899 2.5101 2.43379 1.85681 1.37989 1.29578 1.25736 1.383 1.02721 0.96849 0.949057 0.728304
threshold=1.5000000000000002 2016.5000000000002 1.0000000180025095e-35 1.8500000000000003 68452.500000000015 2.1000000000000005 3.5000000000000004 1.6500000000000001 10.500000000000002 6.5000000000000009 3000.5000000000005 2019.5000000000002 2018.5000000000002 2.1000000000000005
decision_type=2 2 2 2 2 2 2 2 2 2 2 2 2 2
left_child=1 4 8 6 7 12 11 -1 9 -3 -8 -4 -2 -5
right_child=5 2 3 13 -6 -7 10 -9 -10 -11 -12 -13 -14 -15
leaf_value=-0.0046066440035454756 0.0016889374335293254 0.010936442374299138 -0.003417079199864486 0.0098295339125159913 -0.013629798050792256 0.012160428383209732 0.0048036013269059678 -0.00037032920285128061 0.012175257132793244 0.0022348296943830678 -0.00044197761267076251 0.0038310393090359865 0.0075387930311470496 0.0021406681003179728
leaf_weight=508 182 59 589 67 59 89 108 280 61 202 687 50 112 57
leaf_count=508 182 59 589 67 59 89 108 280 61 202 687 50 112 57
internal_value=0 -0.000819219 0.00053937 -0.000529756 -0.00383474 0.00583292 -0.00111991 -0.00310135 0.00571235 0.00420186 0.000270629 -0.00284993 0.00391745 0.00629514
internal_weight=0 2727 1880 1558 847 383 1434 788 322 261 795 639 294 124
internal_count=3110 2727 1880 1558 847 383 1434 788 322 261 795 639 294 124
is_linear=0
shrinkage=0.05


Tree=55
num_leaves=15
num_cat=0
split_feature=3 4 6 6 1 4 3 5 6 6 3 0 6 4
split_gain=5.51557 5.14734 5.9415 3.30222 2.87352 2.00636 1.38163 1.33399 2.4353 1.2239 1.01753 0.988902 1.07059 0.903646
threshold=20631.500000000004 1.5000000000000002 53.800000000000004 43.150000000000006 2011.5000000000002 1.0000000180025095e-35 5405.0000000000009 147.50000000000003 46.70000000000001 61.550000000000004 2001.5000000000002 10.500000000000002 40.100000000000001 1.0000000180025095e-35
decision_type=2 2 2 2 2 2 2 2 2 2 2 2 2 2
left_child=1 2 11 10 -2 9 -4 -7 -9 -6 -3 -1 -13 -8
right_child=4 3 6 -5 5 7 13 8 -10 -11 -12 12 -14 -15
leaf_value=0.0062712244754657143 -0.013644362866709179 0.009515437286179991 -0.0059111435368072755 -0.0013879952708401038 0.0020793190678510278 -0.0051815250642180859 0.00079879274974354361 -0.0058003958457937613 0.0085666118728652315 -0.0022542774938253125 0.0028958245819677613 0.019614887883265816 0.011197777939321217 0.0067469247811229776
leaf_weight=50 55 78 51 954 333 491 168 65 54 319 227 60 102 103
leaf_count=50 55 78 51 954 333 491 168 65 54 319 227 60 102 103
internal_value=0 0.00180463 0.00591815 5.98958e-05 -0.00245687 -0.0019693 0.0016387 -0.00403042 0.000719087 -4.09529e-05 0.00458871 0.0124181 0.0143152 0.00305952
internal_weight=0 1793 534 1259 1317 1262 322 610 119 652 305 212 162 271
internal_count=3110 1793 534 1259 1317 1262 322 610 119 652 305 212 162 271
is_linear=0
shrinkage=0.05


Tree=56
num_leaves=15
num_cat=0
split_feature=1 0 2 2 6 6 1 0 0 5 6 1 0 6
split_gain=5.15277 4.23026 1.80218 2.01715 1.48568 1.3096 1.0234 1.23908 2.04231 1.35799 1.75772 0.900113 0.70466 0.682675
threshold=2019.5000000000002 8.5000000000000018 1.5000000000000002 1.0000000180025095e-35 49.150000000000013 51.850000000000001 2015.5000000000002 6.5000000000000009 3.5000000000000004 147.50000000000003 57.650000000000013 2016.5000000000002 4.5000000000000009 57.050000000000004
decision_type=2 2 2 2 2 2 2 2 2 2 2 2 2 2
left_child=1 6 3 13 -2 -4 12 8 9 -8 -11 -5 -1 -3
right_child=4 2 5 11 -6 -7 7 -9 -10 10 -12 -13 -14 -15
leaf_value=-0.0058038982688581112 0.015827403160413572 0.0078959635395725123 0.0076382481977913252 -0.0036161227823184755 0.0044504841975867753 0.00074973877280664313 -0.0033120405526399299 -0.0069148048946133592 0.0021375073685803085 0.0089627887064125389 -0.0028846302614088208 0.00036770791535325581 -0.0013765910712262505 0.0025970165098971299
leaf_weight=265 60 94 188 185 55 109 652 94 366 56 71 607 136 172
leaf_count=265 60 94 188 185 55 109 652 94 366 56 71 607 136 172
internal_value=0 -0.000398805 0.00166851 0.000702385 0.0103863 0.00511014 -0.00210686 -0.00139629 -0.000943245 -0.00239068 0.00233943 -0.000562859 -0.00430237 0.00446958
internal_weight=0 2995 1355 1058 115 297 1640 1239 1145 779 127 792 401 266
internal_count=3110 2995 1355 1058 115 297 1640 1239 1145 779 127 792 401 266
is_linear=0
shrinkage=0.05


Tree=57
num_leaves=15
num_cat=0
split_feature=3 7 3 4 6 7 2 3 6 6 3 7 2 6
split_gain=4.68621 5.8691 2.63733 2.2541 4.24496 2.23845 1.57637 1.33408 1.21519 1.5105 1.18715 0.943139 0.876165 0.584816
threshold=20631.500000000004 1.8500000000000003 71146.500000000015 1.5000000000000002 53.800000000000004 1.6500000000000001 1.0000000180025095e-35 1000.5000000000001 40.100000000000001 38.95000000000001 5405.0000000000009 1.6500000000000001 1.5000000000000002 59.500000000000007
decision_type=2 2 2 2 2 2 2 2 2 2 2 2 2 2
left_child=1 3 5 4 -1 6 -2 -5 9 -3 -6 -12 13 -9
right_child=2 8 -4 7 10 -7 -8 12 -10 -11 11 -13 -14 -15
leaf_value=0.013677888111190193 0.0025552980432921387 0.0074785099033329444 -0.013527855370193721 0.0046819261983506574 -0.0057335079346290405 0.00065411937465472943 -0.0044744164200884095 -0.00066596537786352186 0.0042073979139835996 0.018699479046980012 0.0054885626116575785 -0.00052807368696667256 0.0036981709519597265 -0.0035331173667137901
leaf_weight=88 91 59 50 119 51 531 645 773 55 61 136 125 95 231
leaf_count=88 91 59 50 119 51 531 645 773 55 61 136 125 95 231
internal_value=0 0.00166343 -0.00226463 0.00072263 0.0039792 -0.00182015 -0.00360525 -0.000346852 0.0103618 0.0131825 0.00124367 0.00260703 -0.00089137 -0.00132564
internal_weight=0 1793 1317 1618 400 1267 736 1218 175 120 312 261 1099 1004
internal_count=3110 1793 1317 1618 400 1267 736 1218 175 120 312 261 1099 1004
is_linear=0
shrinkage=0.05


Tree=58
num_leaves=15
num_cat=0
split_feature=1 1 0 6 4 0 4 6 3 6 0 0 5 0
split_gain=4.44786 3.49066 3.4065 1.51227 2.13255 1.34516 1.08552 2.52658 0.99528 0.868677 1.14521 0.902776 0.861923 1.34818
threshold=2019.5000000000002 2013.5000000000002 8.5000000000000018 42.500000000000007 1.5000000000000002 3.5000000000000004 1.5000000000000002 57.050000000000004 64816.500000000007 59.500000000000007 6.5000000000000009 2.5000000000000004 147.50000000000003 3.5000000000000004
decision_type=2 2 2 2 2 2 2 2 2 2 2 2 2 2
left_child=1 8 9 4 -4 -2 7 -5 -1 10 12 -11 13 -3
right_child=5 2 3 6 -6 -7 -8 -9 -10 11 -12 -13 -14 -15
leaf_value=-0.0048365666561600087 0.0036975293823231295 -0.0023988784387774537 0.011880021188034459 0.0068060646314274751 0.0024618964689252141 0.014562636305622401 -0.001858455388939679 0.00020289629660733005 -0.013379594522456711 -0.0047952884489246075 -0.0046990743016138764 -0.00048762556147075405 0.0031712179652916279 0.0024566297379282815
leaf_weight=99 52 439 81 194 233 63 261 572 52 338 153 190 171 212
leaf_count=99 52 439 81 194 233 63 261 572 52 338 153 190 171 212
internal_value=0 -0.000370523 2.27994e-05 0.00185479 0.00489141 0.00964972 0.000926365 0.00187524 -0.00777854 -0.00161174 -0.000727161 -0.00324518 1.21364e-05 -0.000817668
internal_weight=0 2995 2844 1341 314 115 1027 766 151 1503 975 528 822 651
internal_count=3110 2995 2844 1341 314 115 1027 766 151 1503 975 528 822 651
is_linear=0
shrinkage=0.05


Tree=59
num_leaves=15
num_cat=0
split_feature=1 1 7 7 2 0 2 7 0 7 1 7 5 1
split_gain=4.01419 3.15032 3.71575 1.98915 1.89436 1.96858 1.81176 1.43037 1.18114 0.728808 0.62147 0.588952 0.570194 0.518472
threshold=2019.5000000000002 2013.5000000000002 1.8500000000000003 1.2500000000000002 1.0000000180025095e-35 2.5000000000000004 1.5000000000000002 2.3000000000000003 6.5000000000000009 1.1500000000000001 2011.5000000000002 1.1500000000000001 142.50000000000003 2017.5000000000002
decision_type=2 2 2 2 2 2 2 2 2 2 2 2 2 2
left_child=1 10 4 -2 8 9 11 13 -3 -6 -1 -7 -8 -4
right_child=3 2 7 -5 5 6 12 -9 -10 -11 -12 -13 -14 -15
leaf_value=-0.01150885890401377 0.0027607066134559149 0.0096641884838131117 0.0045435526699991102 0.015916964889869892 -0.0048889521802119021 0.0010690725832753574 0.00041534794539454855 -0.0013183049991573783 0.0015869690093480177 -0.0013519315022673022 -0.0048917670578693439 -0.0014622721606917448 0.005646124047956131 0.0089307387928944087
leaf_weight=57 59 56 146 56 383 293 79 73 236 235 94 1065 153 125
leaf_count=57 59 56 146 56 383 293 79 73 236 235 94 1065 153 125
internal_value=0 -0.000351997 2.16594e-05 0.00916723 -0.000648746 -0.00114927 -0.000218498 0.00489379 0.00313602 -0.00354397 -0.00738961 -0.000916113 0.00386495 0.00656716
internal_weight=0 2995 2844 115 2500 2208 1590 344 292 618 151 1358 232 271
internal_count=3110 2995 2844 115 2500 2208 1590 344 292 618 151 1358 232 271
is_linear=0
shrinkage=0.05


Tree=60
num_leaves=15
num_cat=0
split_feature=1 7 2 7 0 1 2 7 5 1 1 1 5 0
split_gain=3.76484 3.41536 1.98202 1.77625 1.73964 1.63966 1.13228 0.900862 0.825702 0.699948 0.69898 0.412238 0.303606 0.32044
threshold=2016.5000000000002 1.8500000000000003 1.0000000180025095e-35 2.3000000000000003 3.5000000000000004 2011.5000000000002 1.5000000000000002 1.6500000000000001 142.50000000000003 2019.5000000000002 2017.5000000000002 2017.5000000000002 75.000000000000014 10.500000000000002
decision_type=2 2 2 2 2 2 2 2 2 2 2 2 2 2
left_child=5 2 10 11 9 -1 -6 -7 -8 -4 -2 -3 -9 -14
right_child=1 3 4 -5 6 7 8 12 -10 -11 -12 -13 13 -15
leaf_value=-0.010933416134988268 0.0089950977129774397 0.0052659535945647146 -0.002663605822571931 -0.00057583388477338085 0.00019621187828809943 -0.003498450269387287 -0.0008221661815542129 -0.0019025121297739395 0.006086503119706637 0.0033746175996314451 0.0029768377994496033 0.010385147127933612 -0.0012251460363963485 0.0029042874824848366
leaf_weight=57 64 55 623 66 795 508 59 143 162 52 196 138 82 110
leaf_count=57 64 55 623 66 795 508 59 143 162 52 196 138 82 110
internal_value=0 0.00111017 0.000394 0.00650491 -0.0002309 -0.00272607 0.00107627 -0.00217113 0.00424211 -0.00219844 0.00445826 0.00892631 -0.000158357 0.00114068
internal_weight=0 2210 1951 259 1691 900 1016 843 221 675 260 193 335 192
internal_count=3110 2210 1951 259 1691 900 1016 843 221 675 260 193 335 192
is_linear=0
shrinkage=0.05


Tree=61
num_leaves=15
num_cat=0
split_feature=3 7 3 4 7 7 0 2 3 2 3 0 1 3
split_gain=3.61948 4.06355 1.96678 1.66535 1.62756 1.50881 1.69302 1.1983 1.06804 0.57899 0.512401 0.410615 0.387185 0.416224
threshold=20631.500000000004 1.8500000000000003 71146.500000000015 1.5000000000000002 1.6500000000000001 1.6500000000000001 11.500000000000002 1.0000000180025095e-35 1000.5000000000001 1.5000000000000002 5003.0000000000009 2.5000000000000004 2018.5000000000002 3832.0000000000005
decision_type=2 2 2 2 2 2 2 2 2 2 2 2 2 2
left_child=1 3 4 5 7 6 10 -2 -5 -10 -1 -9 -3 -14
right_child=2 12 -4 8 -6 -7 -8 11 9 -11 -12 -13 13 -15
leaf_value=-0.00031065407947319311 0.0022426365399771564 0.012316736116862069 -0.01171679848432541 0.0042593203885617726 0.00050338416702000921 -0.0009222282006099594 0.012869130394932244 -0.0054314614548796863 -0.0010804217036488773 0.003003484551476217 0.0050957527556521305 -0.0028563141841653466 0.0097862704038989782 0.0039363422397185452
leaf_weight=63 91 52 50 119 531 131 62 258 1004 95 144 387 68 55
leaf_count=63 91 52 50 119 531 131 62 258 1004 95 144 387 68 55
internal_value=0 0.00146189 -0.00199026 0.000679072 -0.00160642 0.00347823 0.0056212 -0.00312857 -0.000240191 -0.0007274 0.00345032 -0.00388637 0.00869963 0.00717045
internal_weight=0 1793 1317 1618 1267 400 269 736 1218 1099 207 645 175 123
internal_count=3110 1793 1317 1618 1267 400 269 736 1218 1099 207 645 175 123
is_linear=0
shrinkage=0.05


Tree=62
num_leaves=15
num_cat=0
split_feature=1 3 4 7 1 3 3 0 3 7 1 0 3 7
split_gain=3.34087 2.76305 2.78056 1.72005 1.36253 1.14078 1.28885 0.797594 1.28192 0.809192 0.708646 1.31606 0.929411 0.668284
threshold=2019.5000000000002 36947.500000000007 1.5000000000000002 1.2500000000000002 2011.5000000000002 33519.000000000007 20631.500000000004 2.5000000000000004 2001.5000000000002 1.1500000000000001 2017.5000000000002 10.500000000000002 5214.0000000000009 1.6500000000000001
decision_type=2 2 2 2 2 2 2 2 2 2 2 2 2 2
left_child=1 2 10 -2 -3 6 7 9 -9 -4 -1 12 -12 -6
right_child=3 4 5 -5 13 -7 -8 8 -10 -11 11 -13 -14 -15
leaf_value=0.0013464938957996721 0.0024057002158014706 -0.011506022420711817 -0.0037070946236889904 0.014639711893895374 -0.004820127825540893 0.0062679717024029403 -0.0037033470279772499 0.0059303280798588404 -0.00015996414242425128 0.00110017157450784 -0.0034678204401326 0.0075142432589671128 0.0036892825614712717 -0.0010116961834843964
leaf_weight=489 59 50 268 56 219 54 369 99 679 130 63 170 162 243
leaf_count=489 59 50 268 56 219 54 369 99 679 130 63 170 162 243
internal_value=0 -0.000321122 0.000368502 0.00836313 -0.00366553 -0.000875583 -0.00112526 -0.00031632 0.000615022 -0.00213688 0.00261883 0.00419396 0.00168529 -0.00281699
internal_weight=0 2995 2483 115 512 1599 1545 1176 778 398 884 395 225 462
internal_count=3110 2995 2483 115 512 1599 1545 1176 778 398 884 395 225 462
is_linear=0
shrinkage=0.05


Tree=63
num_leaves=15
num_cat=0
split_feature=3 6 6 3 0 7 1 3 3 7 6 3 6 6
split_gain=3.03262 3.21065 2.15794 1.80044 1.58921 1.56958 1.2681 0.874882 0.854401 0.814847 0.69911 0.609128 1.52944 0.610398
threshold=35668.000000000007 40.100000000000001 35.550000000000004 34499.000000000007 2.5000000000000004 1.8500000000000003 2011.5000000000002 2001.5000000000002 6729.5000000000009 1.6500000000000001 46.70000000000001 5405.0000000000009 53.800000000000004 47.500000000000007
decision_type=2 2 2 2 2 2 2 2 2 2 2 2 2 2
left_child=1 2 7 4 -3 -4 -2 -1 11 -8 -10 12 13 -6
right_child=6 3 5 -5 8 -7 9 -9 10 -11 -12 -13 -14 -15
leaf_value=0.0071147140779498005 -0.010930721381213516 -0.0024309295809033711 0.0052976114808156961 0.0088857385363768446 0.0019698004020615519 0.014940596529310429 -0.0047317892798915476 -0.0001704709906627467 -0.0021806783479611977 -0.0007246205141633428 0.00067733015061321826 0.0076627877703036324 -0.0050725663049767424 0.0078368528187612359
leaf_weight=54 50 608 114 55 124 67 237 174 282 273 887 56 60 69
leaf_count=54 50 608 114 55 124 67 237 174 282 273 887 56 60 69
internal_value=0 0.000731683 0.00479091 -4.37594e-05 -0.000279197 0.00886711 -0.00333177 0.00155497 0.000605955 -0.00258678 -1.21124e-05 0.00294421 0.00189978 0.00406735
internal_weight=0 2550 409 2141 2086 181 560 228 1478 510 1169 309 253 193
internal_count=3110 2550 409 2141 2086 181 560 228 1478 510 1169 309 253 193
is_linear=0
shrinkage=0.05


Tree=64
num_leaves=15
num_cat=0
split_feature=1 1 4 6 6 7 1 6 5 0 5 0 7 1
split_gain=2.9328 2.10434 1.61978 1.88539 1.64934 1.4849 1.12701 1.09676 0.801394 1.11972 0.721512 0.61935 0.44978 0.400722
threshold=2019.5000000000002 2016.5000000000002 1.5000000000000002 53.800000000000004 37.45000000000001 1.2500000000000002 2011.5000000000002 43.150000000000006 147.50000000000003 2.5000000000000004 162.50000000000003 6.5000000000000009 1.6500000000000001 2018.5000000000002
decision_type=2 2 2 2 2 2 2 2 2 2 2 2 2 2
left_child=1 6 3 4 -3 -2 -1 11 -9 -10 12 -4 -8 -13
right_child=5 2 7 -5 -6 -7 10 8 9 -11 -12 13 -14 -15
leaf_value=-0.0091273542783598897 0.0023004963207729477 -0.0018595284351084211 0.0070520681605018955 0.00061474802773665849 0.0078815998064673508 0.013667545842223003 -0.0033699447109615185 -0.0019557963983868171 0.0064535308471169771 -0.0011991678393031989 0.0016265335154630953 0.0043597330538057795 -0.00072159676977109996 -0.0001856208451026114
leaf_weight=57 59 55 54 508 207 56 475 825 74 135 126 68 242 169
leaf_count=57 59 55 54 508 207 56 475 825 74 135 126 68 242 169
internal_value=0 -0.000300872 0.000567806 0.00239157 0.00583671 0.00783576 -0.00232296 -0.000492041 -0.00125518 0.0015104 -0.00186288 0.0022196 -0.00247608 0.00111853
internal_weight=0 2995 2095 770 262 115 900 1325 1034 209 843 291 717 237
internal_count=3110 2995 2095 770 262 115 900 1325 1034 209 843 291 717 237
is_linear=0
shrinkage=0.05


Tree=65
num_leaves=15
num_cat=0
split_feature=1 1 6 2 6 6 6 4 6 6 1 1 6 6
split_gain=2.64686 1.91492 1.61916 1.5112 1.93385 3.03917 1.42616 1.16847 2.32547 1.03314 0.865697 0.52322 0.472317 0.690685
threshold=2019.5000000000002 2014.5000000000002 42.500000000000007 1.0000000180025095e-35 45.800000000000004 57.050000000000004 35.550000000000004 1.5000000000000002 61.550000000000004 49.150000000000013 2018.5000000000002 2011.5000000000002 50.900000000000006 57.650000000000013
decision_type=2 2 2 2 2 2 2 2 2 2 2 2 2 2
left_child=1 11 6 4 -4 -6 -3 8 12 -2 -8 -1 -5 -14
right_child=9 2 3 7 5 -7 10 -9 -10 -11 -12 -13 13 -15
leaf_value=-0.0086709865332139958 0.011981369411029542 -2.3426688153149009e-05 -0.0045663176548687802 0.0066264998021418071 0.01493650363790321 0.0017298640825985268 0.0089989039949061548 -0.0018757799645217001 -0.00177703038211413 0.0024940742690920496 0.0028658922934537813 -0.0032252349123472156 0.00082773403412992426 0.0076078113887924695
leaf_weight=57 60 227 68 107 58 175 102 1253 420 55 132 195 151 50
leaf_count=57 60 227 68 107 58 175 102 1253 420 55 132 195 151 50
internal_value=0 -0.000285828 9.73791e-05 -0.000448623 0.00285227 0.00501735 0.00280015 -0.000950172 0.000642941 0.00744397 0.00553926 -0.00445701 0.0039429 0.00251432
internal_weight=0 2995 2743 2282 301 233 461 1981 728 115 234 252 308 201
internal_count=3110 2995 2743 2282 301 233 461 1981 728 115 234 252 308 201
is_linear=0
shrinkage=0.05


Tree=66
num_leaves=15
num_cat=0
split_feature=1 1 2 0 0 6 1 2 0 5 2 5 0 6
split_gain=2.38879 1.79557 1.31381 1.75036 1.06215 0.932413 0.905171 0.880521 0.846061 0.55735 0.526019 0.517209 0.488879 0.595435
threshold=2019.5000000000002 2016.5000000000002 1.0000000180025095e-35 3.5000000000000004 6.5000000000000009 49.150000000000013 2011.5000000000002 1.5000000000000002 9.5000000000000018 162.50000000000003 1.0000000180025095e-35 142.50000000000003 5.5000000000000009 45.20000000000001
decision_type=2 2 2 2 2 2 2 2 2 2 2 2 2 2
left_child=1 6 4 -4 -3 -2 -1 12 -6 -8 -11 -9 13 -5
right_child=5 2 3 7 8 -7 9 11 -10 10 -12 -13 -14 -15
leaf_value=-0.0082374372846332564 0.011382300941816843 0.0095891892621925087 -0.0021258942290786767 0.0067338144006983697 0.00032524787352612901 0.0023693705896783452 -0.0022660191811459964 -0.0006185079217207283 0.006912049123975657 -0.0017898432955217479 0.0046746494534776594 0.0047283433443658296 -0.00024010461937101302 0.00078678587472218197
leaf_weight=57 60 59 623 60 179 55 717 57 67 65 61 219 690 141
leaf_count=57 60 59 623 60 179 55 717 57 67 65 61 219 690 141
internal_value=0 -0.000271537 0.000530884 1.403e-05 0.00356423 0.00707177 -0.0021394 0.00115642 0.00211921 -0.00172707 0.00133979 0.0036241 0.000392024 0.00256202
internal_weight=0 2995 2095 1790 305 115 900 1167 246 843 126 276 891 201
internal_count=3110 2995 2095 1790 305 115 900 1167 246 843 126 276 891 201
is_linear=0
shrinkage=0.05


Tree=67
num_leaves=15
num_cat=0
split_feature=3 7 3 7 2 1 0 7 1 3 3 3 2 3
split_gain=2.37481 2.6026 1.37461 0.980555 0.943592 0.788333 0.804663 0.721909 0.435891 0.339292 0.339152 0.330337 0.259784 0.307136
threshold=20631.500000000004 1.8500000000000003 71146.500000000015 1.6500000000000001 1.0000000180025095e-35 2019.5000000000002 2.5000000000000004 1.1500000000000001 2018.5000000000002 3832.0000000000005 157.50000000000003 30259.000000000004 1.5000000000000002 29461.500000000004
decision_type=2 2 2 2 2 2 2 2 2 2 2 2 2 2
left_child=1 5 3 4 -2 6 7 -1 -3 -10 -8 -6 13 -5
right_child=2 8 -4 12 11 -7 10 -9 9 -11 -12 -13 -14 -15
