tree
version=v3
num_class=1
num_tree_per_iteration=1
label_index=0
max_feature_idx=7
objective=regression
feature_names=Column_0 Column_1 Column_2 Column_3 Column_4 Column_5 Column_6 Column_7
feature_infos=[0:14] [2000:2020] [0:3] [1:138000] [0:3] [0:555] [1.1000000000000001:256.80000000000001] [0:2.8999999999999999]
tree_sizes=5604 5599 5547 5598 5629 5663 5633 5608 5604 5602 5650 5618 5645 5657 5695 5655 5629 5692 5659 5693 5723 5673 5754 5740 5752 5756 5703 5785 5836 5822 5775 5760 5907 5798 5855 5754 5873 5847 5814 5824 5959 5913 5879 5874 5958 5924 5883 5850 5908 5891 5893 5916 5892 5967 5996 5997 6046 6044 5881 6091 6057 6133 6028 5946 5953 6113 6128 6044 6077 6038 6071 6042 6087 6208 6090 6134 6162 6123 6141 6254 6160 6170 6164 6083 6012 6144 5979 6255 6150 6169 6089 6026 6144 6136 6228 6180 6291 6166 6071 6169 6363 6187 6165 6286 6248 6337 6238 6279 6270 6348 6307 6232 6275 6320 6348 6396

Tree=0
num_leaves=63
num_cat=0
split_feature=0 1 7 6 1 0 7 3 1 6 0 1 6 1 0 5 4 7 3 7 1 6 0 1 7 3 6 1 1 5 3 3 6 6 1 0 6 3 6 0 7 7 3 3 7 6 3 0 1 1 3 6 1 3 6 6 3 6 1 1 3 0
split_gain=1292.58 383.025 334.876 295.985 104.035 56.0909 51.3306 41.0821 36.959 44.3344 35.4801 27.454 22.7603 21.263 18.594 16.3386 13.54 8.91066 6.48839 18.3441 6.33046 5.81091 6.888 5.59871 5.53247 5.4205 5.30194 5.17157 4.83838 4.73083 4.13327 3.37233 3.31403 3.08937 3.08116 2.73356 3.20673 2.69431 2.65735 2.17531 2.12739 2.06272 1.94827 1.86438 1.83484 1.83073 1.72334 1.44475 2.75909 1.39332 1.35036 1.31286 1.28417 1.26493 1.21352 1.1824 1.16245 1.11052 1.10746 1.09907 1.09288 1.04164
threshold=8.5000000000000018 2018.5000000000002 1.8500000000000003 36.70000000000001 2017.5000000000002 3.5000000000000004 1.5000000000000002 10058.500000000002 2012.5000000000002 43.850000000000009 5.5000000000000009 2014.5000000000002 57.050000000000004 2018.5000000000002 2.5000000000000004 122.50000000000001 1.5000000000000002 1.6500000000000001 17910.000000000004 2.1000000000000005 2019.5000000000002 35.550000000000004 9.5000000000000018 2019.5000000000002 1.8500000000000003 35933.000000000007 53.800000000000004 2011.5000000000002 2018.5000000000002 142.50000000000003 37735.500000000007 19796.500000000004 35.550000000000004 40.100000000000001 2015.5000000000002 9.5000000000000018 61.550000000000004 2139.5000000000005 57.050000000000004 11.500000000000002 1.6500000000000001 1.2500000000000002 18484.500000000004 3276.0000000000005 1.6500000000000001 51.850000000000001 5214.0000000000009 3.5000000000000004 2015.5000000000002 2016.5000000000002 9927.5000000000018 35.100000000000001 2017.5000000000002 1000.5000000000001 57.650000000000013 35.550000000000004 15945.500000000002 41.850000000000009 2016.5000000000002 2016.5000000000002 28311.500000000004 6.5000000000000009
decision_type=2 2 2 2 2 2 2 2 2 2 2 2 2 2 2 2 2 2 2 2 2 2 2 2 2 2 2 2 2 2 2 2 2 2 2 2 2 2 2 2 2 2 2 2 2 2 2 2 2 2 2 2 2 2 2 2 2 2 2 2 2 2
left_child=3 8 6 10 11 12 53 21 -2 18 -1 17 23 24 38 30 25 27 19 55 33 37 -23 -6 50 26 58 -5 -12 40 44 46 -9 -4 -20 56 52 51 -13 -36 42 -15 -16 -24 -11 -29 -18 -31 -49 -40 -7 -8 -37 -3 -14 -10 -28 -43 -17 -46 -60 -50
right_child=1 2 20 4 5 13 7 32 9 15 28 14 54 41 29 16 31 -19 34 -21 -22 22 43 -25 -26 -27 35 45 -30 47 -32 -33 -34 -35 39 36 -38 -39 49 -41 -42 57 -44 -45 59 -47 -48 48 61 -51 -52 -53 -54 -55 -56 -57 -58 -59 60 -61 -62 -63
leaf_value=0.09811599904898273 -0.074109630630585677 0.037138422546250861 0.17358545911060097 -0.081410057342869532 -0.018738630488611043 0.0011922044335602741 0.080616188511085166 0.025822432900103973 0.030099344306367164 0.020217065359739699 0.02426286538117137 -0.03232583403839346 -0.026463745365900647 0.013333341638565442 -0.030930971622737863 0.031183923022164144 0.031457692948443923 -0.041997974417814513 0.01584191997330088 0.10981319682162712 0.20822075123968409 0.065908744120726892 0.092161402278853694 0.0010223815635485441 0.02525575870520198 0.011663947440957763 0.037781292293852881 -0.049798936832367503 0.05560212898664664 -0.034407247275150578 -0.0093105418065144337 -0.0030817346841527462 0.047343962325781488 0.14730947446571116 0.049744492866703273 0.022584247168857288 0.0095055439139661562 0.052237542303153819 -0.05378166517596393 0.030693112733598205 -0.026001552317150626 0.021699141697300708 -0.041941915491983971 0.079201894275908957 -0.0011804436859825882 -0.063246739149205408 0.0098465646178845113 -0.034462039292323395 -0.017730920860890811 -0.046743941144528907 -0.014208950259147542 0.058910824827361777 0.037407122642787942 0.018207052372359471 -0.03859111333145377 0.047793252903374925 0.024809719238914479 0.039092944551127239 0.054452267256839312 0.0080398067372898351 0.035365817464851575 -0.027217604634483031
leaf_weight=35 10.999999999999998 9.9999999999999982 44 35 151 18 19 53 13.999999999999998 20 39 25 23 13.999999999999998 53 15.999999999999998 9.9999999999999982 61 15.999999999999998 12.999999999999998 10.999999999999998 63 64 47 11.999999999999998 75 39 34 18 60 61 57 27 14.999999999999998 31 104 49 35 110 29 35 11.999999999999998 166 49 58 99 119 58 78 195 68 11.000000000000002 17 75 200 29 31 39 20 73 11.999999999999998 46
leaf_count=35 11 10 44 35 151 18 19 53 14 20 39 25 23 14 53 16 10 61 16 13 11 63 64 47 12 75 39 34 18 60 61 57 27 15 31 104 49 35 110 29 35 12 166 49 58 99 119 58 78 195 68 11 17 75 200 29 31 39 20 73 12 46
internal_value=-4.79357e-10 0.0360958 0.0723973 -0.0287766 -0.033675 -0.0167438 0.0549835 0.0641321 0.0169813 0.0181034 0.0584908 -0.0430474 -0.0263857 0.00815952 -0.0388005 0.0134635 0.0180161 -0.058366 0.0448532 0.0577673 0.173398 0.0744378 0.0791561 -0.0140479 -0.00654775 0.0236369 0.0267549 -0.0643092 0.0341595 -0.0326815 0.00167377 0.00704656 0.0330859 0.166905 0.0353375 0.0237209 0.0202968 0.0616622 -0.0479976 0.0405363 -0.0374478 0.0303336 -0.0392772 0.0865418 0.00611114 -0.059809 0.0115218 -0.0276787 -0.0254605 -0.0492821 -0.0109855 0.0726576 0.0246668 0.0204343 -0.0373403 0.0420324 0.0320367 0.0350003 0.0419245 0.00395756 0.0472948 -0.0212502
internal_weight=0 1380 476 1731 1639 584 406 321 904 893 92 1055 421 163 826 761 549 229 132 56 70 241 176 198 98 363 288 168 57 496 212 186 80 59 76 240 170 65 330 60 254 65 219 113 151 133 129 242 182 305 86 30 121 85 223 43 70 51 48 131 32 124
internal_count=3111 1380 476 1731 1639 584 406 321 904 893 92 1055 421 163 826 761 549 229 132 56 70 241 176 198 98 363 288 168 57 496 212 186 80 59 76 240 170 65 330 60 254 65 219 113 151 133 129 242 182 305 86 30 121 85 223 43 70 51 48 131 32 124
is_linear=0
shrinkage=1


Tree=1
num_leaves=63
num_cat=0
split_feature=0 1 7 6 1 0 7 3 1 6 0 1 6 1 0 5 7 3 7 1 7 2 1 6 1 7 6 1 1 5 2 3 3 6 6 1 3 3 6 0 7 7 2 3 7 1 1 6 3 6 6 5 3 1 3 3 6 6 0 3 0 6
split_gain=1166.55 345.68 302.225 267.126 93.8912 50.622 46.3259 37.0766 33.3555 40.0118 32.0208 24.7773 20.5411 19.1899 16.7811 14.7455 8.04187 5.85577 16.5556 5.71324 5.63108 6.03422 5.62006 6.66214 5.05284 4.99305 4.72978 4.66734 4.36664 4.26957 4.00818 3.73028 3.59461 2.99091 2.78816 2.78075 2.69661 2.57333 2.39826 1.96322 1.91997 1.8616 1.82424 1.75831 1.73656 2.76473 1.69788 1.65224 1.62513 1.5559 1.4541 1.36603 1.48928 1.25747 1.2187 1.16735 1.0952 1.06712 1.0171 1.62709 1.00884 1.55077
threshold=8.5000000000000018 2018.5000000000002 1.8500000000000003 36.70000000000001 2017.5000000000002 3.5000000000000004 1.5000000000000002 10058.500000000002 2012.5000000000002 43.850000000000009 5.5000000000000009 2014.5000000000002 57.050000000000004 2018.5000000000002 2.5000000000000004 122.50000000000001 1.6500000000000001 17910.000000000004 2.1000000000000005 2019.5000000000002 2.1000000000000005 1.0000000180025095e-35 2019.5000000000002 35.550000000000004 2019.5000000000002 1.8500000000000003 78.450000000000017 2011.5000000000002 2018.5000000000002 142.50000000000003 1.5000000000000002 37735.500000000007 5001.5000000000009 35.550000000000004 40.100000000000001 2015.5000000000002 20985.500000000004 2139.5000000000005 57.050000000000004 11.500000000000002 1.6500000000000001 1.2500000000000002 1.0000000180025095e-35 18484.500000000004 1.8500000000000003 2016.5000000000002 2016.5000000000002 51.850000000000001 29301.500000000004 57.650000000000013 51.850000000000001 220.00000000000003 30236.000000000004 2016.5000000000002 9927.5000000000018 2139.5000000000005 57.650000000000013 35.550000000000004 2.5000000000000004 6659.5000000000009 3.5000000000000004 50.900000000000006
decision_type=2 2 2 2 2 2 2 2 2 2 2 2 2 2 2 2 2 2 2 2 2 2 2 2 2 2 2 2 2 2 2 2 2 2 2 2 2 2 2 2 2 2 2 2 2 2 2 2 2 2 2 2 2 2 2 2 2 2 2 2 2 2
left_child=3 8 6 10 11 12 55 22 -2 17 -1 16 24 25 38 31 27 18 57 34 21 36 23 37 58 54 -25 -5 -12 40 32 42 -23 -9 -4 -19 -17 -8 -13 -37 43 -15 -11 -16 45 -34 -22 -29 -46 -32 -24 52 60 -40 -7 -3 -14 -10 -6 -60 -31 -62
right_child=1 2 19 4 5 13 7 33 9 15 28 14 56 41 29 20 -18 35 -20 -21 46 30 50 26 -26 -27 -28 47 -30 51 49 -33 44 -35 -36 39 -38 -39 53 -41 -42 -43 -44 -45 48 -47 -48 -49 -50 -51 -52 -53 -54 -55 -56 -57 -58 -59 59 -61 61 -63
leaf_value=0.093210199219839918 -0.070404147018085825 0.031131592743537009 0.16490618884563446 -0.077339554343904771 -0.022997954570495624 0.0011325945353342427 0.064787820816040051 0.024531311583968832 0.028594377956220079 0.021235033957397238 0.023049722965329124 -0.030709540605545045 -0.025140557535316632 0.012666675262153149 -0.029384421739938129 0.033481840019424759 -0.039898075090080011 0.015049824025481939 0.10432253663356489 0.1978097135370428 0.024575092500218974 0.035052313815270152 0.096601197512253476 0.079153382953475515 0.0009712630318121073 0.023992970834175745 0.060120018199086189 -0.047308988124132159 0.052822024623552954 -0.030508417969054364 0.018869684676506692 -0.0088450141602241603 -0.013409034709135693 0.044976764337884056 0.13994399785995484 0.047257269005621633 0.017581917088440001 0.043227222561836247 -0.051092582019892613 0.029158457625528864 -0.024701473864593676 0.033250271505676214 0.0038481110968425478 -0.039844818233725543 0.028654448539018631 0.0087458673095376152 0.048579304358538467 -0.0600844023203609 0.010254220875600975 0.035068574051062271 0.075130444392561918 -0.0082007567211985592 -0.032986944995514335 -0.044406743660951271 -0.013498502149356202 0.016482800869818997 -0.036661558337509635 0.045403590027628275 -0.0064247068646993187 -0.019936803093047017 -0.026424847672814913 -0.014327376920643243
leaf_weight=35 10.999999999999998 17 44 35 58 18 25 53 13.999999999999998 17 39 25 23 13.999999999999998 53 60 61 15.999999999999998 12.999999999999998 10.999999999999998 13.000000000000002 13.999999999999998 23 102 47 11.999999999999998 48 34 18 47 84 61 14.999999999999998 27 14.999999999999998 31 48 31 110 29 35 51 134 166 20 230 17 99 30 18 11.999999999999998 9.9999999999999982 73 195 68 68 200 29 37 56 69 43
leaf_count=35 11 17 44 35 58 18 25 53 14 17 39 25 23 14 53 60 61 16 13 11 13 14 23 102 47 12 48 34 18 47 84 61 15 27 15 31 48 31 110 29 35 51 134 166 20 230 17 99 30 18 12 10 73 195 68 68 200 29 37 56 69 43
internal_value=0 0.034291 0.0687775 -0.0273377 -0.0319913 -0.0159066 0.0522343 0.0609255 0.0161322 0.0171982 0.0555662 -0.040895 -0.0250664 0.00775154 -0.0368605 0.0127903 -0.0554477 0.0426105 0.0548789 0.164728 0.0171153 0.0158979 0.0707159 0.0675687 -0.0133455 -0.00622037 0.0730627 -0.0610937 0.0324515 -0.0310474 0.0131342 0.00159008 0.0102973 0.0314317 0.15856 0.0335706 0.0264152 0.0528525 -0.0455977 0.0385095 -0.0355755 0.0288169 0.00580558 -0.0373133 0.00912247 0.00738944 0.0381775 -0.0568185 0.0176143 0.0217283 0.0892398 -0.0262948 -0.0270747 -0.046818 -0.0104362 0.0194126 -0.0354733 0.0399308 -0.0178017 -0.014561 -0.0243603 -0.0217803
internal_weight=0 1380 476 1731 1639 584 406 321 904 893 92 1055 421 163 826 761 229 132 56 70 549 519 241 206 198 98 150 168 57 496 411 212 309 80 59 76 108 56 330 60 254 65 151 219 295 245 30 133 50 102 35 242 232 305 86 85 223 43 151 93 159 112
internal_count=3111 1380 476 1731 1639 584 406 321 904 893 92 1055 421 163 826 761 229 132 56 70 549 519 241 206 198 98 150 168 57 496 411 212 309 80 59 76 108 56 330 60 254 65 151 219 295 245 30 133 50 102 35 242 232 305 86 85 223 43 151 93 159 112
is_linear=0
shrinkage=0.05


Tree=2
num_leaves=63
num_cat=0
split_feature=0 1 7 7 1 1 7 0 3 1 1 7 0 1 5 0 1 7 1 1 2 2 1 1 0 2 5 1 3 0 4 3 1 5 3 0 3 2 2 1 3 4 1 3 1 3 2 7 3 1 1 0 3 0 3 7 3 3 1 3 3 1
split_gain=1052.81 311.976 272.758 211.39 87.8252 55.1537 41.8091 37.6335 33.4616 32.4152 30.1033 32.916 23.1635 15.8665 15.681 12.8406 11.7304 6.73312 6.55678 6.36244 5.31398 6.67097 5.1562 5.07211 4.68045 3.98766 3.55494 3.3971 3.37306 3.36343 3.35489 3.33903 3.24039 3.18253 2.92257 2.73085 2.44505 2.10018 1.87868 1.83907 1.64061 1.54731 3.13438 1.53407 1.52099 1.3921 1.3218 1.30333 1.17997 1.11608 1.11369 1.10515 1.05885 1.05143 1.02675 1.00614 0.970879 0.936673 0.901474 0.860466 0.852049 0.849241
threshold=8.5000000000000018 2018.5000000000002 1.8500000000000003 1.8500000000000003 2018.5000000000002 2018.5000000000002 1.5000000000000002 3.5000000000000004 10058.500000000002 2014.5000000000002 2012.5000000000002 2.1000000000000005 2.5000000000000004 2017.5000000000002 122.50000000000001 7.5000000000000009 2016.5000000000002 2.1000000000000005 2019.5000000000002 2011.5000000000002 1.0000000180025095e-35 1.5000000000000002 2019.5000000000002 2019.5000000000002 3.5000000000000004 1.5000000000000002 142.50000000000003 2015.5000000000002 30000.500000000004 2.5000000000000004 1.5000000000000002 9596.5000000000018 2017.5000000000002 130.00000000000003 20985.500000000004 9.5000000000000018 2139.5000000000005 1.5000000000000002 1.5000000000000002 2017.5000000000002 34531.500000000007 1.5000000000000002 2016.5000000000002 2741.0000000000005 2017.5000000000002 19997.500000000004 1.0000000180025095e-35 1.5000000000000002 4371.5000000000009 2017.5000000000002 2017.5000000000002 9.5000000000000018 1000.5000000000001 6.5000000000000009 9927.5000000000018 1.6500000000000001 20985.500000000004 22.000000000000004 2013.5000000000002 30688.000000000004 6971.5000000000009 2016.5000000000002
decision_type=2 2 2 2 2 2 2 2 2 2 2 2 2 2 2 2 2 2 2 2 2 2 2 2 2 2 2 2 2 2 2 2 2 2 2 2 2 2 2 2 2 2 2 2 2 2 2 2 2 2 2 2 2 2 2 2 2 2 2 2 2 2
left_child=3 10 6 4 9 15 52 18 23 19 -2 14 33 27 28 50 40 -7 29 -1 34 31 -4 25 44 30 -21 -13 46 -6 35 48 -23 -11 49 -8 -32 51 45 53 47 -33 -43 -9 -18 -35 -12 -14 -22 -16 -5 -10 -3 59 -41 -42 -44 -27 -28 -26 -31 -30
right_child=1 2 22 5 7 17 8 43 37 12 11 13 16 -15 20 -17 24 -19 -20 26 21 32 -24 -25 39 57 58 -29 61 60 36 41 -34 38 -36 -37 -38 -39 -40 54 55 42 56 -45 -46 -47 -48 -49 -50 -51 -52 -53 -54 -55 -56 -57 -58 -59 -60 -61 -62 -63
leaf_value=-0.073017950604359311 -0.06688394329764627 0.033724922239780429 0.15063187479972839 0.0060046741925179961 -0.02555684390003389 0.088549692460468843 0.058911687466833333 0.036328376881007492 0.040780655633319507 -0.046429447626926496 0.020173281639376109 0.017550826478483422 -0.034059409277056744 0.085951721354534757 0.025573646950607116 -0.026724867561930106 -0.032260098861796517 0.050194757870014976 0.00092269980071231408 -0.055666437121954827 0.034661960845383318 0.019052041317661143 0.18791922981088813 0.084777807933943627 -0.010749379452317954 0.084879186948140464 -0.04697029797567262 0.041739957478452244 -0.0086391865476392795 -0.0045199295762797884 0.06114618293941021 0.013284227875747571 0.03586251139640808 -0.03637777970413144 0.018045512907405352 0.078153678029775631 0.039571375785202818 0.04825164400614225 -0.025573017867282034 0.0010759651091777616 -0.041044130813644594 -0.015333262365311386 0.010628515851738699 0.020969328918569799 -0.020970931606223951 -0.043473609991833174 0.0050702536480717493 -0.025479699369814052 0.017968567700958567 0.038816329473402446 0.024489845166152175 0.023445481793688879 0.016404199317097665 -0.024454964640048836 -0.012333162761954727 -0.030936101291860852 0.0015959949886781119 0.07081050250147071 -0.035780804107586543 -0.023350032344460488 -0.016640366164260897 0.0013111948835103249
leaf_weight=36 10.999999999999998 9.9999999999999982 59 9.9999999999999982 106 35 54 29 10.999999999999998 169 17 21 106 19 26 19 70 17 47 110 12.999999999999998 86 10.999999999999998 35 42 14.999999999999998 36 47 65 29 24 114 43 178 54 28 29 12.999999999999998 28 18 83 15.999999999999998 102 37 52 113 98 76 57 41 44 56 75 52 69 35 42 56 36 20 29 32
leaf_count=36 11 10 59 10 106 35 54 29 11 169 17 21 106 19 26 19 70 17 47 110 13 86 11 35 42 15 36 47 65 29 24 114 43 178 54 28 29 13 28 18 83 16 102 37 52 113 98 76 57 41 44 56 75 52 69 35 42 56 36 20 29 32
internal_value=0 0.0325765 0.0653386 -0.0259709 -0.0308455 0.036659 0.0496226 -0.00523436 0.0578792 -0.0361836 0.0153256 0.0163383 -0.0327246 0.0455566 0.0131845 0.00862777 -0.0263349 0.0760106 -0.0155417 -0.0538119 0.0173509 0.014959 0.156491 0.0671801 -0.0197228 0.0641902 -0.0500129 0.0342698 0.00151057 -0.0202602 0.0591453 0.0113227 0.0246555 -0.0408819 0.0267012 0.0654821 0.0493411 0.0298601 -0.037943 -0.0150336 -0.0334539 0.00883288 0.0056613 0.027718 -0.0274483 -0.0391332 0.00730288 -0.0304767 0.0210688 0.0336774 0.0210667 0.0262916 0.0184419 -0.0192117 -0.00955886 -0.038046 0.00799403 0.0737828 -0.0413756 -0.0148141 -0.0105801 -0.00535659
internal_weight=0 1380 476 1731 1606 125 406 277 321 1329 904 893 1111 87 806 73 623 52 211 218 594 473 70 241 323 206 182 68 212 164 135 344 129 488 121 82 53 80 319 201 300 274 160 66 122 291 115 182 70 67 54 67 85 114 87 118 144 71 72 62 58 97
internal_count=3111 1380 476 1731 1606 125 406 277 321 1329 904 893 1111 87 806 73 623 52 211 218 594 473 70 241 323 206 182 68 212 164 135 344 129 488 121 82 53 80 319 201 300 274 160 66 122 291 115 182 70 67 54 67 85 114 87 118 144 71 72 62 58 97
is_linear=0
shrinkage=0.05


Tree=3
num_leaves=63
num_cat=0
split_feature=0 1 6 4 1 0 0 3 1 6 0 1 6 1 0 2 4 5 0 4 0 6 3 4 1 3 6 1 1 6 1 1 3 3 2 3 0 1 0 6 6 0 0 2 0 3 3 6 3 5 2 3 3 0 3 1 6 3 3 1 1 5
split_gain=950.162 281.559 217.859 207.41 76.6268 43.7004 41.0727 28.4735 27.1683 33.7619 26.0065 20.1737 16.9324 15.6248 13.8046 12.2308 18.2303 11.8425 10.9458 10.2397 6.81883 6.35109 5.1572 12.6082 4.63492 4.46562 4.2433 4.15108 4.02909 3.93978 3.83331 3.57235 3.11539 2.79766 2.78501 2.59553 2.5261 2.30402 2.00791 2.53801 1.94273 1.54749 1.47912 1.47564 1.46578 1.44585 1.7851 2.0344 1.43762 1.38741 1.354 1.25993 1.23331 1.10023 1.34913 1.06344 1.06192 1.11013 0.988542 0.961145 0.9343 0.914236
threshold=8.5000000000000018 2018.5000000000002 36.70000000000001 1.0000000180025095e-35 2017.5000000000002 11.500000000000002 3.5000000000000004 10058.500000000002 2012.5000000000002 43.850000000000009 5.5000000000000009 2014.5000000000002 57.650000000000013 2018.5000000000002 3.5000000000000004 1.5000000000000002 1.5000000000000002 122.50000000000001 11.500000000000002 1.5000000000000002 4.5000000000000009 50.900000000000006 17910.000000000004 1.5000000000000002 2019.5000000000002 35933.000000000007 53.800000000000004 2015.5000000000002 2011.5000000000002 43.150000000000006 2019.5000000000002 2018.5000000000002 37735.500000000007 2741.0000000000005 1.5000000000000002 19796.500000000004 2.5000000000000004 2015.5000000000002 9.5000000000000018 61.550000000000004 57.050000000000004 9.5000000000000018 11.500000000000002 1.0000000180025095e-35 11.500000000000002 6347.5000000000009 5407.5000000000009 78.450000000000017 2741.0000000000005 142.50000000000003 1.0000000180025095e-35 5214.0000000000009 23625.000000000004 2.5000000000000004 6659.5000000000009 2016.5000000000002 39.500000000000007 3963.5000000000005 6659.5000000000009 2017.5000000000002 2016.5000000000002 1.0000000180025095e-35
decision_type=2 2 2 2 2 2 2 2 2 2 2 2 2 2 2 2 2 2 2 2 2 2 2 2 2 2 2 2 2 2 2 2 2 2 2 2 2 2 2 2 2 2 2 2 2 2 2 2 2 2 2 2 2 2 2 2 2 2 2 2 2 2
left_child=2 8 10 5 11 30 12 15 -2 22 -1 20 24 29 36 16 21 32 -18 25 28 -5 23 -10 53 26 -19 61 -4 -8 56 -12 43 -20 41 51 40 -24 -28 59 -13 -9 -39 -11 -17 46 47 -23 -15 -29 -30 -21 -38 -6 -55 -42 -3 -58 -46 -40 -45 -16
right_child=1 3 4 7 6 -7 13 34 9 17 31 14 -14 48 27 44 18 19 33 35 -22 45 37 -25 -26 -27 38 49 50 -31 -32 -33 -34 -35 -36 -37 52 42 39 -41 55 -43 -44 60 58 -47 -48 -49 -50 -51 -52 -53 -54 54 -56 -57 57 -59 -60 -61 -62 -63
leaf_value=0.084122205121176588 -0.063539742339741107 0.15276831840646679 -0.072366634491951229 0.092867173166836015 -0.021079232028605024 0.071545281876688419 0.017941036336123945 0.038741622594269838 0.087890327628701928 0.019164617830777872 0.020862146648458948 -0.027787366598844527 -0.033135471072047951 0.0342591824202702 -0.040590455830097204 0.061032890563919431 0.019977641600216256 0.036637291746834916 0.060881407414713221 0.026781028211116793 -0.038160959584049033 0.069563723504543304 0.013522554724477233 0.035373205710202457 0.00087656475445057496 0.0093689526220938815 0.027479217446276124 -0.025999912358436392 -0.036202735702196759 -0.009903145572770224 0.17852326198057697 0.047790882819228706 -0.0081013010936926613 0.039275946185506623 0.04583906118686383 -0.0030766872147898797 -0.029291990156992371 0.042469819899528256 0.019503521321166773 0.0078171080541416856 -0.046216479837894446 0.018769610246143691 0.026760119508052696 -0.0011802856858917888 0.080255160535254139 0.049183243215084077 0.081696109338240189 0.046037664132959705 0.019300330068088241 -0.018016800978183447 -0.053914851590851756 0.0083025895697925577 -0.038302808042083469 -0.0056996263853098094 -0.018003547027806887 -0.04006807808692639 0.14702031835913656 0.12578374683856963 0.063374831459738989 0.032327297505210427 0.007229965143759425 -0.030539100025982965
leaf_weight=35 10.999999999999998 29 31 17 81 23 14.999999999999998 10.999999999999998 15.999999999999998 17 39 25 200 29 30 21 58 48 31 9.9999999999999982 79 20 15.999999999999998 40 47 75 70 97 11.999999999999998 83 10.999999999999998 18 61 29 12.999999999999998 57 83 31 104 49 110 82 29 59 41 25 10.999999999999998 17 36 124 107 119 70 37 56 195 16.000000000000004 9.9999999999999982 10.999999999999998 17 75 92
leaf_count=35 11 29 31 17 81 23 15 11 16 17 39 25 200 29 30 21 58 48 31 10 79 20 16 40 47 75 70 97 12 83 11 18 61 29 13 57 83 31 104 49 110 82 29 59 41 25 11 17 36 124 107 119 70 37 56 195 16 10 11 17 75 92
internal_value=0 0.0309477 -0.0246723 0.0620717 -0.0288749 0.130896 -0.014344 0.0462439 0.0145594 0.0155214 0.0501971 -0.0369185 -0.0225948 0.00696615 -0.033278 0.0545737 0.0483939 0.0114723 0.0354663 0.0153483 -0.0500498 0.0653433 0.0388647 0.0503781 -0.0130557 0.0202363 0.0230663 -0.0256075 -0.0563113 -0.00564128 0.151579 0.029366 0.00143505 0.0504388 0.024162 0.00580886 -0.0387251 0.0303812 0.0203521 0.0174175 -0.0411872 0.0211319 0.0348768 0.00528748 0.0721819 0.0589336 0.0640119 0.0587545 0.0259743 -0.0215207 -0.0521288 0.00973503 -0.0334146 -0.016819 -0.0131084 -0.0422855 0.14619 0.138852 0.0766843 0.0213052 0.00352694 -0.0330107
internal_weight=0 1380 1731 476 1639 89 584 387 904 893 92 1055 421 163 826 281 208 761 118 549 229 90 132 56 221 363 288 343 150 98 66 57 212 60 106 186 483 76 240 170 330 93 60 151 73 73 48 37 65 221 119 129 153 174 93 305 55 26 52 121 134 122
internal_count=3111 1380 1731 476 1639 89 584 387 904 893 92 1055 421 163 826 281 208 761 118 549 229 90 132 56 221 363 288 343 150 98 66 57 212 60 106 186 483 76 240 170 330 93 60 151 73 73 48 37 65 221 119 129 153 174 93 305 55 26 52 121 134 122
is_linear=0
shrinkage=0.05


Tree=4
num_leaves=63
num_cat=0
split_feature=0 1 7 6 1 7 7 1 6 0 6 1 6 0 5 1 4 0 6 1 1 4 1 1 1 1 1 1 7 1 0 6 0 6 6 1 6 6 5 0 2 6 6 1 1 6 6 6 2 4 6 4 5 0 5 0 6 1 1 1 7 5
split_gain=857.521 254.107 222.496 196.666 69.4866 38.2972 34.2795 24.5193 30.4701 23.018 18.2161 18.2067 16.9742 12.4587 10.6878 9.99129 9.2413 6.154 4.75099 4.18153 4.02209 10.9563 5.36139 3.74635 3.731 3.63625 3.63312 3.39095 2.79794 2.75775 2.27981 2.26124 2.11248 2.10267 2.01954 1.97872 1.75331 1.59772 1.25214 1.23204 1.22199 1.04687 0.993194 0.959752 0.946587 0.904244 0.891666 1.08708 0.850664 0.840505 1.70205 1.66031 0.825098 0.823241 0.794111 0.712819 0.68193 0.661607 0.634257 0.633725 0.619326 0.585355
threshold=8.5000000000000018 2018.5000000000002 1.8500000000000003 34.250000000000007 2017.5000000000002 1.2500000000000002 1.5000000000000002 2012.5000000000002 43.850000000000009 5.5000000000000009 57.050000000000004 2014.5000000000002 35.550000000000004 3.5000000000000004 122.50000000000001 2018.5000000000002 1.5000000000000002 4.5000000000000009 78.450000000000017 2019.5000000000002 2016.5000000000002 1.5000000000000002 2017.5000000000002 2015.5000000000002 2019.5000000000002 2011.5000000000002 2018.5000000000002 2017.5000000000002 1.8500000000000003 2016.5000000000002 2.5000000000000004 40.100000000000001 11.500000000000002 45.800000000000004 57.050000000000004 2016.5000000000002 57.050000000000004 61.550000000000004 142.50000000000003 2.5000000000000004 1.0000000180025095e-35 41.850000000000009 57.650000000000013 2016.5000000000002 2015.5000000000002 44.45000000000001 35.550000000000004 37.95000000000001 1.0000000180025095e-35 1.5000000000000002 50.900000000000006 1.0000000180025095e-35 1.0000000180025095e-35 6.5000000000000009 147.50000000000003 2.5000000000000004 32.250000000000007 2016.5000000000002 2013.5000000000002 2013.5000000000002 1.6500000000000001 142.50000000000003
decision_type=2 2 2 2 2 2 2 2 2 2 2 2 2 2 2 2 2 2 2 2 2 2 2 2 2 2 2 2 2 2 2 2 2 2 2 2 2 2 2 2 2 2 2 2 2 2 2 2 2 2 2 2 2 2 2 2 2 2 2 2 2 2
left_child=3 7 6 9 11 10 -3 -2 20 -1 24 17 54 30 29 28 27 25 49 31 44 22 -22 52 33 -5 56 32 -7 -10 36 -4 -16 -6 -29 -18 -13 57 60 42 -27 -17 -12 -38 -9 -37 -23 -48 -31 50 51 -14 -15 -40 -8 -35 -11 -34 -42 -19 -25 -32
right_child=1 2 19 4 5 15 12 8 14 26 39 13 18 23 16 41 35 59 -20 -21 21 46 -24 38 -26 40 -28 34 -30 48 61 -33 37 55 -36 45 43 -39 53 -41 58 -43 -44 -45 -46 -47 47 -49 -50 -51 -52 -53 -54 -55 -56 -57 -58 -59 -60 -61 -62 -63
leaf_value=0.07991609607424055 -0.060362755439498206 0.016540139008532555 0.14173363501375372 -0.068748298768074284 0.0039537983218906449 -0.0061129460281405881 0.039296033690052648 0.014261820649399477 -0.0042858444371861272 0.023701514663367437 -0.021348110294860344 -0.026397997349500657 0.065213657418886822 -0.038560932576656347 0.025510411914818145 0.016127856763509606 -0.011893947248657546 -0.040674813613295557 0.049066017315549368 0.16959710879759357 0.044765696142401001 0.022645439766347409 0.08713443372398616 -0.026800048674799893 0.0020367554537951949 -0.034392597774664566 0.047516966304358317 0.042612832609344932 0.020671778979400795 0.018593936383591168 -0.034227953162244577 0.11925357341766359 0.012201527435536264 -0.019500696302616392 0.023770770265710083 0.013734940902735943 -0.043905655281110248 0.005386171287953107 -0.013987329664180438 -0.020133728495445744 -0.055915525763533841 0.032511665681615856 -0.032371908605424431 -0.038064675140075194 0.030309482477605343 0.005069480670609857 0.049463391005992896 0.030645159022374586 0.005354818139880241 0.061817129423369227 0.060420109067232379 0.084284251928329473 -0.029012144859070367 -0.022421030538237616 0.029258198797702792 -0.012650487377646971 0.0085598618164658552 0.018674738162188131 -0.048063707584515218 -0.03171762827879343 -0.017099438811696711 -0.027893510100742182
leaf_weight=35 10.999999999999998 85 44 31 15.999999999999998 52 93 17 107 29 23 25 21 30 49 12.999999999999998 14.999999999999998 40 59 10.999999999999998 14.000000000000002 22 15.999999999999998 76 50 11.999999999999998 17 17 11.999999999999998 13.999999999999998 93 14.999999999999998 64 58 87 39 110 43 78 29 43 39 183 195 20 132 9.9999999999999982 33 91 67 31 25 92 46 25 110 9.9999999999999982 103 64 39 21 60
leaf_count=35 11 85 44 31 16 52 93 17 107 29 23 25 21 30 49 13 15 40 59 11 14 22 16 76 50 12 17 17 12 14 93 15 64 58 87 39 110 43 78 29 43 39 183 195 20 132 10 33 91 67 31 25 92 46 25 110 10 103 64 39 21 60
internal_value=0 0.0294003 0.0589681 -0.0234387 -0.0274086 -0.0135874 0.0447738 0.0138314 0.0147453 0.0481076 -0.0199498 -0.0350726 0.05225 -0.0316141 0.0108987 0.0121363 0.0145809 -0.0475473 0.0610161 0.141295 0.0369215 0.0423684 0.0673624 -0.0243272 -0.0100748 -0.0534957 0.0282273 0.0192245 -0.00109081 0.00136329 -0.0367888 0.136018 0.0161622 -0.0133659 0.0268507 0.00551841 -0.0391278 0.013981 -0.0204447 -0.0297827 -0.0495223 0.0284157 -0.0311411 -0.0401713 0.0229362 0.00704581 0.0308327 0.0350215 0.00712003 0.0659123 0.0694755 0.0755781 -0.0313602 -0.017116 0.0371694 -0.0150154 0.019819 0.016194 -0.0512191 -0.0362529 -0.0246999 -0.0317439
internal_weight=0 1380 476 1731 1640 585 406 904 893 91 469 1055 321 826 761 116 549 229 203 70 132 95 30 343 234 150 56 363 64 212 483 59 259 184 104 186 330 210 221 235 119 52 206 305 37 171 65 43 105 144 77 46 122 124 118 168 39 167 107 79 97 153
internal_count=3111 1380 476 1731 1640 585 406 904 893 91 469 1055 321 826 761 116 549 229 203 70 132 95 30 343 234 150 56 363 64 212 483 59 259 184 104 186 330 210 221 235 119 52 206 305 37 171 65 43 105 144 77 46 122 124 118 168 39 167 107 79 97 153
is_linear=0
shrinkage=0.05


Tree=5
num_leaves=63
num_cat=0
split_feature=0 1 7 6 1 7 7 3 3 6 3 6 1 0 5 4 1 7 1 6 5 1 3 0 6 1 1 0 1 3 1 7 3 1 6 3 6 6 6 3 3 0 6 6 5 6 3 1 3 3 3 6 3 6 3 6 6 6 1 7 1 3
split_gain=773.913 229.331 200.803 177.491 62.7117 34.5632 30.9372 26.0957 22.3739 26.5004 21.8856 16.44 16.4316 11.244 9.02326 9.36272 9.01714 5.6474 4.28562 4.30733 4.24242 3.77383 3.58384 9.47653 3.41454 3.38108 3.36723 3.29293 3.11397 2.60721 2.60362 2.52514 2.37893 2.17948 2.10559 2.08906 2.04077 1.92999 1.89766 1.88414 1.61175 1.54009 1.28639 1.20331 1.13006 1.12442 1.1112 1.03869 1.01396 1.01093 1.00642 0.991197 0.990907 1.09917 0.97432 0.974014 0.944804 0.831736 0.780523 0.771527 0.770819 0.770308
threshold=8.5000000000000018 2018.5000000000002 1.8500000000000003 34.250000000000007 2017.5000000000002 1.2500000000000002 1.5000000000000002 10058.500000000002 67824.500000000015 43.150000000000006 13261.000000000002 57.050000000000004 2014.5000000000002 3.5000000000000004 122.50000000000001 1.5000000000000002 2018.5000000000002 1.6500000000000001 2019.5000000000002 35.550000000000004 250.00000000000003 2019.5000000000002 15173.500000000002 11.500000000000002 53.800000000000004 2015.5000000000002 2019.5000000000002 11.500000000000002 2010.5000000000002 15397.500000000002 2016.5000000000002 1.8500000000000003 19796.500000000004 2016.5000000000002 42.500000000000007 23115.500000000004 40.100000000000001 35.550000000000004 45.800000000000004 2139.5000000000005 27148.500000000004 2.5000000000000004 51.850000000000001 51.850000000000001 142.50000000000003 59.500000000000007 5214.0000000000009 2017.5000000000002 35933.000000000007 36947.500000000007 2543.0000000000005 59.500000000000007 95.000000000000014 50.000000000000007 2139.5000000000005 32.250000000000007 41.850000000000009 35.550000000000004 2016.5000000000002 1.6500000000000001 2013.5000000000002 7917.5000000000009
decision_type=2 2 2 2 2 2 2 2 2 2 2 2 2 2 2 2 2 2 2 2 2 2 2 2 2 2 2 2 2 2 2 2 2 2 2 2 2 2 2 2 2 2 2 2 2 2 2 2 2 2 2 2 2 2 2 2 2 2 2 2 2 2
left_child=3 8 6 10 12 11 54 18 9 22 50 26 17 35 33 24 31 28 19 39 -10 36 23 -2 30 -15 38 -21 -5 47 -16 -7 46 -11 49 41 61 -9 -6 -8 -32 51 -20 -30 -27 -13 -17 -26 -31 -24 -1 -14 -29 -54 -3 -12 -18 -25 -34 -46 -45 -4
right_child=1 2 21 4 5 16 7 37 20 14 55 45 13 25 15 32 56 -19 42 27 -22 -23 34 57 29 44 -28 52 43 48 40 -33 58 -35 -36 -37 -38 -39 -40 -41 -42 -43 -44 60 59 -47 -48 -49 -50 -51 -52 -53 53 -55 -56 -57 -58 -59 -60 -61 -62 -63
leaf_value=0.078270543139913815 0.085403163979450858 0.02641948108725688 0.13823482885080227 -0.065457392621923377 0.0037561084434855731 -0.0058072989358781621 0.053482694268226633 0.019350704382050714 -0.015154159670838939 -0.0032654434949099687 0.025719229957541907 -0.023569274457489575 -0.030272982940077783 -0.029792197169278001 0.018708336989705764 0.02488521192222834 0.015321464263475859 -0.032139285177480985 0.080950937711674234 0.052210358451855815 -0.057344619794325397 0.16111725135283039 0.029043587418021384 0.021739308265122492 0.018917124877842462 -0.023464921150433343 0.0019349177279509606 0.080179685602585482 -0.039317889982148219 0.01538963164637981 0.046765716444878355 0.019638189549247426 -0.014152685610147623 0.0070712632808192337 0.041364552577336629 -0.038590046289604385 0.11329089522361756 0.035774459720899661 -0.014264668340841863 0.035033841190799594 0.026376262017422256 -0.02617819322273135 0.060756304425497856 -0.055047085590478856 -0.017723239176487975 -0.030825595382381887 0.0075317307084333159 0.029837342542841247 0.0072942461997557153 0.014596655571626295 0.06313104445026034 -0.037645377724800477 0.060556370473426324 0.075770945847034463 0.013036544944214471 0.0081318685784935955 0.030886081711221966 0.03919066198998028 -0.00020820555549686437 -0.0056284733489155771 -0.046210651868774044 0.12244820833206177
leaf_weight=23 11.999999999999998 17 34 27 15.999999999999998 52 25 53 13.000000000000002 101 37 82 80 122 36 9.9999999999999982 12.999999999999998 61 23 76 10.999999999999998 10.999999999999998 37 11.000000000000002 51 97 50 11.999999999999998 38 151 21 11.999999999999998 12.999999999999998 103 27 217 14.999999999999998 27 168 31 18 80 11.999999999999998 41 109 153 119 38 52 18 21 106 46 15.999999999999998 68 9.9999999999999982 39 18 44 14.999999999999998 62 9.9999999999999982
leaf_count=23 12 17 34 27 16 52 25 53 13 101 37 82 80 122 36 10 13 61 23 76 11 11 37 11 51 97 50 12 38 151 21 12 13 103 27 217 15 27 168 31 18 80 12 41 109 153 119 38 52 18 21 106 46 16 68 10 39 18 44 15 62 10
internal_value=0 0.0279303 0.0560197 -0.0222668 -0.0260382 -0.012908 0.0425351 0.0496375 0.0131398 0.0144389 0.0457022 -0.0189523 -0.0333189 -0.0300334 0.0109413 0.0142569 0.0115294 -0.0451699 0.0578512 0.0551029 -0.0344915 0.13423 0.0359642 0.0480342 0.0188885 -0.0231108 -0.00957103 0.0595205 -0.0499013 0.0164443 0.0284047 -0.00103627 0.00511818 0.00195358 0.0299292 -0.0349494 0.129217 0.0248937 -0.0126976 0.0432699 0.0373552 -0.0319793 0.0740271 -0.0469225 -0.0194224 -0.0282936 0.00887696 0.0235797 0.0133159 0.0243155 0.0710449 -0.0344745 0.0670282 0.0644827 0.0157131 0.0219772 0.0269949 0.0325712 -0.00338853 -0.0162602 -0.0497281 0.134647
internal_weight=0 1380 476 1731 1640 585 406 321 904 880 91 469 1055 826 757 553 116 229 241 206 24 70 123 41 367 343 234 150 168 292 75 64 186 204 82 483 59 80 184 56 39 266 35 141 221 235 129 89 203 55 44 186 74 62 85 47 52 29 57 124 103 44
internal_count=3111 1380 476 1731 1640 585 406 321 904 880 91 469 1055 826 757 553 116 229 241 206 24 70 123 41 367 343 234 150 168 292 75 64 186 204 82 483 59 80 184 56 39 266 35 141 221 235 129 89 203 55 44 186 74 62 85 47 52 29 57 124 103 44
is_linear=0
shrinkage=0.05


Tree=6
num_leaves=63
num_cat=0
split_feature=0 1 7 6 1 7 7 3 3 6 3 6 1 0 1 2 6 4 7 1 6 6 1 3 0 1 0 1 1 7 3 6 3 0 3 6 6 6 3 6 6 3 6 7 3 6 0 2 3 3 3 3 1 3 3 6 3 0 6 6 6 3
split_gain=698.456 206.971 181.225 160.186 56.5973 31.1933 27.9208 23.5514 20.1924 23.9166 19.7518 14.8371 14.8295 10.2432 8.13797 6.92458 7.17211 8.09556 5.09678 3.86777 3.88736 3.82878 3.40588 3.23442 8.55256 3.03892 2.97187 2.83057 2.52578 2.27894 2.23058 2.3788 2.13419 2.023 1.99651 1.95453 1.91729 1.8418 1.81005 1.74181 1.71264 1.70043 1.53044 1.34119 1.17243 1.16097 1.06424 1.04631 1.00285 0.99561 0.938622 0.935571 0.919629 0.90829 0.894294 0.992003 0.884012 0.87963 0.879048 0.852685 0.750642 0.747416
threshold=8.5000000000000018 2018.5000000000002 1.8500000000000003 34.250000000000007 2017.5000000000002 1.2500000000000002 1.5000000000000002 10058.500000000002 67824.500000000015 43.150000000000006 13261.000000000002 57.050000000000004 2014.5000000000002 2.5000000000000004 2018.5000000000002 1.0000000180025095e-35 61.550000000000004 1.5000000000000002 1.6500000000000001 2019.5000000000002 35.550000000000004 44.45000000000001 2019.5000000000002 15173.500000000002 11.500000000000002 2019.5000000000002 11.500000000000002 2011.5000000000002 2016.5000000000002 1.8500000000000003 35933.000000000007 53.800000000000004 19796.500000000004 3.5000000000000004 28981.000000000004 41.850000000000009 41.850000000000009 40.100000000000001 12741.500000000002 35.550000000000004 45.800000000000004 2139.5000000000005 57.050000000000004 1.6500000000000001 36188.500000000007 51.850000000000001 2.5000000000000004 1.0000000180025095e-35 5214.0000000000009 23334.500000000004 46022.500000000007 18003.000000000004 2018.5000000000002 2543.0000000000005 95.000000000000014 50.000000000000007 1000.5000000000001 6.5000000000000009 32.250000000000007 41.850000000000009 35.550000000000004 54615.500000000007
decision_type=2 2 2 2 2 2 2 2 2 2 2 2 2 2 2 2 2 2 2 2 2 2 2 2 2 2 2 2 2 2 2 2 2 2 2 2 2 2 2 2 2 2 2 2 2 2 2 2 2 2 2 2 2 2 2 2 2 2 2 2 2 2
left_child=3 8 6 10 12 11 56 19 9 23 53 25 18 42 29 38 17 30 27 20 41 -10 37 24 -2 40 -22 -5 35 -7 31 -17 48 -30 -18 -15 49 -4 -11 -9 -6 -8 -14 44 -37 -21 52 -29 -19 -25 -45 -44 -13 -1 -28 -56 -3 -35 -12 -16 -26 -20
right_child=1 2 22 4 5 14 7 39 21 15 58 46 13 28 59 16 34 32 61 45 26 -23 -24 36 60 -27 54 47 33 -31 -32 -33 -34 57 -36 43 -38 -39 -40 -41 -42 -43 51 50 -46 -47 -48 -49 -50 -51 -52 -53 -54 -55 55 -57 -58 -59 -60 -61 -62 -63
leaf_value=0.074357015153636116 0.08113300477464995 0.028891812786459928 0.12791461158882489 -0.060057801093373976 0.0035683029855135828 -0.0055169338127598168 0.0508085607290268 0.018383168991444248 -0.054477387124841861 0.031115247309207918 0.024433268566389343 -0.030207660824260459 -0.023464644417166711 -0.010258031817262665 0.01455539086690316 0.03465977110899985 0.0053266877249436642 0.023640950471162797 -0.025087718905941133 0.076903389718221582 0.049599840295942207 -0.01439645175750439 0.15306138667193325 0.030437936927927168 0.020652343061837278 0.0018381718921009452 0.076170701285203313 -0.031147351222378869 -0.026065532820565365 0.018656280264258387 0.010638149987625065 0.019232190553744311 -0.0032560463997859711 -0.011311746851748064 -0.0038984179120127335 -0.026940389716764913 0.037075167232089576 0.10762635231018068 0.017469243743489463 0.033985736407339574 -0.013551434908939492 0.033282149559067144 -0.032917905568091342 -0.015538924905088018 -0.034482669281332118 0.057718488993123179 -0.017911045471655913 -0.045598012885125744 0.0071551442837945239 0.015498476768671363 -0.028453624248504641 -0.038578430466029962 -0.022740089729951139 0.059974490177063716 0.057528551667928696 0.071982398070394998 0.01306556388611595 -0.020097865364872493 0.0077252751961350442 0.029341778601519763 0.037231129076745771 -0.036158408721288046
leaf_weight=23 11.999999999999998 9.9999999999999982 44 35 15.999999999999998 52 25 53 11 32 37 149 25 17 12.999999999999998 32 138 9.9999999999999982 31 23 76 13 10.999999999999998 19 11.000000000000002 50 11.999999999999998 13.999999999999998 70 11.999999999999998 53 114 56 63 102 160 36 14.999999999999998 101 27 168 31 121 34 76 11.999999999999998 29 119 119 27 24 184 57 21 46 15.999999999999998 75 52 9.9999999999999982 39 18 30
leaf_count=23 12 10 44 35 16 52 25 53 11 32 37 149 25 17 13 32 138 10 31 23 76 13 11 19 11 50 12 14 70 12 53 114 56 63 102 160 36 15 101 27 168 31 121 34 76 12 29 119 119 27 24 184 57 21 46 16 75 52 10 39 18 30
internal_value=0 0.0265338 0.0532187 -0.0211534 -0.0247363 -0.0122626 0.0404083 0.0471556 0.0124828 0.0137169 0.0434171 -0.0180047 -0.031653 -0.0285317 0.010953 0.0103943 0.00818651 0.0124243 -0.0429114 0.0549586 0.0523477 -0.0327669 0.127519 0.034166 0.0456325 -0.00909248 0.0565445 -0.0474062 -0.02399 -0.000984456 0.0194241 0.0226136 0.00489477 -0.0193639 0.00140602 -0.0267419 0.0284328 0.122757 0.0207525 0.023649 -0.0120628 0.0411064 -0.0353579 -0.0276951 -0.0293693 0.0703257 -0.0268789 -0.0440769 0.00843311 0.0216691 -0.0208829 -0.0363328 -0.0281414 0.0674926 0.0636768 0.0612586 0.0149275 -0.0152846 0.0208784 0.0256452 0.0309426 -0.0305323
internal_weight=0 1380 476 1731 1640 585 406 321 904 880 91 469 1055 826 116 757 624 384 229 241 206 24 70 123 41 234 150 168 496 64 199 146 185 185 240 311 82 59 133 80 184 56 330 294 236 35 235 133 129 46 58 305 206 44 74 62 85 115 47 52 29 61
internal_count=3111 1380 476 1731 1640 585 406 321 904 880 91 469 1055 826 116 757 624 384 229 241 206 24 70 123 41 234 150 168 496 64 199 146 185 185 240 311 82 59 133 80 184 56 330 294 236 35 235 133 129 46 58 305 206 44 74 62 85 115 47 52 29 61
is_linear=0
shrinkage=0.05


Tree=7
num_leaves=63
num_cat=0
split_feature=0 1 7 7 1 3 7 0 3 1 3 7 0 3 5 0 1 1 1 5 3 1 2 0 7 1 4 1 3 1 7 0 4 1 0 3 3 7 2 2 3 0 2 3 3 3 2 3 2 3 1 3 1 5 0 4 3 3 3 7 0 5
split_gain=630.357 186.792 163.777 128.482 53.805 32.5763 25.9767 22.5314 21.9899 19.4051 18.2237 20.0827 14.0671 11.053 8.53447 8.39849 7.33107 3.96824 3.69972 3.45547 3.27342 3.27059 2.94161 2.93271 2.8281 2.9009 2.63239 2.49805 2.34775 2.33789 2.27247 2.25979 2.05012 1.87324 1.74202 1.62116 1.52294 1.37599 1.35276 1.34524 1.2932 1.25485 1.20114 1.12273 1.06194 0.99395 0.909077 0.867948 0.842708 1.23848 0.833988 0.816115 0.78444 0.772975 0.739746 0.821672 1.09657 0.705557 0.668206 0.662783 0.661416 0.652964
threshold=8.5000000000000018 2018.5000000000002 2.1000000000000005 1.8500000000000003 2018.5000000000002 13261.000000000002 1.5000000000000002 3.5000000000000004 10058.500000000002 2014.5000000000002 67824.500000000015 2.1000000000000005 2.5000000000000004 20572.000000000004 122.50000000000001 7.5000000000000009 2016.5000000000002 2012.5000000000002 2019.5000000000002 250.00000000000003 9596.5000000000018 2019.5000000000002 1.5000000000000002 3.5000000000000004 1.5000000000000002 2017.5000000000002 1.5000000000000002 2019.5000000000002 19997.500000000004 2015.5000000000002 1.5000000000000002 2.5000000000000004 1.5000000000000002 2016.5000000000002 9.5000000000000018 2139.5000000000005 21283.000000000004 1.5000000000000002 1.5000000000000002 1.5000000000000002 27780.500000000004 6.5000000000000009 1.5000000000000002 34531.500000000007 2741.0000000000005 9596.5000000000018 1.5000000000000002 30866.500000000004 1.0000000180025095e-35 22252.000000000004 2017.5000000000002 2139.5000000000005 2017.5000000000002 25.000000000000004 11.500000000000002 1.5000000000000002 2255.5000000000005 3276.0000000000005 5939.5000000000009 1.5000000000000002 9.5000000000000018 25.000000000000004
decision_type=2 2 2 2 2 2 2 2 2 2 2 2 2 2 2 2 2 2 2 2 2 2 2 2 2 2 2 2 2 2 2 2 2 2 2 2 2 2 2 2 2 2 2 2 2 2 2 2 2 2 2 2 2 2 2 2 2 2 2 2 2 2
left_child=3 10 6 4 9 -5 51 18 21 17 11 14 28 -13 33 36 42 -1 31 -12 37 22 32 52 -22 26 47 -4 39 -15 -19 -6 34 -2 -8 -34 -7 58 60 61 -28 45 43 59 -9 -25 48 -26 49 -27 -39 -3 -18 -30 -24 -56 -57 -33 -16 -14 -10 -11
right_child=1 2 27 5 7 15 8 44 38 12 19 13 16 29 20 -17 23 30 -20 -21 24 -23 54 41 25 46 40 -29 53 -31 -32 57 35 -35 -36 -37 -38 50 -40 -41 -42 -43 -44 -45 -46 -47 -48 -49 -50 -51 -52 -53 -54 -55 55 56 -58 -59 -60 -61 -62 -63
leaf_value=-0.054409009466568625 -0.0031231042490995464 0.023979750938494415 0.11930687991055576 0.063363574762743985 -0.019711300902033473 0.036700946241617204 0.04553242005683758 0.028811203816841394 0.030811622129245236 -0.034777488052845001 -0.013676629129510657 0.069550680486779468 -0.026631007954052141 0.012052286304533482 0.023195967196740889 -0.019164962507784367 -0.024762255772948268 -0.042965720608830457 0.00054224430146240733 -0.051753519339994947 0.0021933701707783975 0.066809424595641251 0.050108373984694476 0.0037928403421704261 0.015094756987304392 0.028750657662749292 0.0051933499191560463 0.14540831717577848 -0.041045452654361728 0.032399303279817104 -0.031219609858734267 0.0028249879296009359 0.047865437964598342 0.0064599294327900214 0.060725292357905164 0.030297689910592708 0.015394779146075822 0.017258489893182464 0.03722708316949698 -0.015123344366164769 -0.012211029939353467 -0.017394851274307697 -0.009829918091947382 -0.030524926469252825 0.016032363907308191 -0.010256008737534286 0.026501389994518832 0.0085489881338889975 0.012979879457747839 0.013091895822435619 0.028692930358318759 0.011731439311166898 -0.016654903285850127 -0.034011905910862478 0.068803697824478149 0.06997973442077636 0.050010967661033981 -0.010399295120603509 0.0082127721666398912 -0.020334536277189636 0.017400834905648872 -0.028425462255781554
leaf_weight=48 101 17 55 44 106 9.9999999999999982 54 29 10.999999999999998 50 13.000000000000002 19 106 20 10.999999999999998 19 70 100 47 10.999999999999998 66 35 20 13.999999999999998 138 28 37 10.999999999999998 52 48 70 12.999999999999998 24 103 29 29 52 23 12.999999999999998 17 14.999999999999998 62 10.999999999999998 114 37 125 32 80 61 23 52 68 52 157 22 9.9999999999999982 22 45 23 69 56 212
leaf_count=48 101 17 55 44 106 10 54 29 11 50 13 19 106 20 11 19 70 100 47 11 66 35 20 14 138 28 37 11 52 48 70 13 24 103 29 29 52 23 13 17 15 62 11 114 37 125 32 80 61 23 52 68 52 157 22 10 22 45 23 69 56 212
internal_value=0 0.0252071 0.0505578 -0.0200958 -0.0238961 0.0287312 0.0387905 -0.00384994 0.0452269 -0.0280743 0.0118587 0.0130311 -0.025398 0.0358353 0.0105292 0.00991856 -0.0204185 -0.0417137 -0.0118254 -0.0311285 0.0135819 0.0526588 0.0503004 -0.0151913 0.0118056 0.013338 0.0102814 0.123657 -0.0317549 0.0264149 -0.0381291 -0.0153698 0.0459352 0.00171539 0.0508408 0.0382529 0.0188313 0.0214039 0.0224666 -0.0287533 0.000172856 -0.0114795 -0.0260465 -0.0266637 0.0216473 -0.00884102 0.0190691 0.0126926 0.0169456 0.0216889 0.0251864 0.0141811 -0.0213067 -0.0357619 0.0583228 0.0613652 0.0562512 -0.00743523 0.0130603 -0.0241484 0.0196026 -0.0296377
internal_weight=0 1380 476 1731 1606 125 410 277 325 1329 904 880 1111 87 793 81 623 218 211 24 589 245 210 323 480 414 270 66 488 68 170 164 136 204 83 53 62 109 80 279 52 201 300 289 66 139 144 218 112 51 75 85 122 209 74 54 32 58 34 175 67 262
internal_count=3111 1380 476 1731 1606 125 410 277 325 1329 904 880 1111 87 793 81 623 218 211 24 589 245 210 323 480 414 270 66 488 68 170 164 136 204 83 53 62 109 80 279 52 201 300 289 66 139 144 218 112 51 75 85 122 209 74 54 32 58 34 175 67 262
is_linear=0
shrinkage=0.05


Tree=8
num_leaves=63
num_cat=0
split_feature=0 3 7 6 3 7 5 0 3 7 3 3 3 0 3 5 0 6 6 6 4 6 3 5 3 3 3 3 2 4 6 3 3 7 2 7 3 3 3 6 2 7 3 4 6 7 3 6 6 0 3 3 6 2 5 0 6 3 6 3 7 6
split_gain=568.897 165.996 145.111 130.828 38.5848 25.4335 16.9633 16.7713 16.32 19.935 16.106 12.1987 10.6496 9.78212 7.34005 7.23461 5.60289 4.80396 4.06257 3.97135 5.2146 3.59283 3.29687 3.11857 2.74368 2.10973 2.06276 2.05003 1.91007 3.17737 3.33471 3.42054 2.39684 1.85058 2.04201 1.83343 1.81269 1.75003 1.72034 1.49948 1.4716 1.45178 1.29727 1.293 1.2783 1.20767 1.05751 1.0178 0.894623 0.889563 0.888426 0.877121 0.870603 0.86562 0.851941 0.842978 1.68303 0.806266 0.787319 0.768486 0.763195 0.74179
threshold=8.5000000000000018 10058.500000000002 2.1000000000000005 34.250000000000007 6347.5000000000009 1.5000000000000002 142.50000000000003 3.5000000000000004 67824.500000000015 2.1000000000000005 13261.000000000002 19091.500000000004 6006.5000000000009 2.5000000000000004 41605.000000000007 122.50000000000001 2.5000000000000004 41.20000000000001 57.650000000000013 43.850000000000009 1.5000000000000002 41.850000000000009 42065.000000000007 250.00000000000003 17395.000000000004 34784.500000000007 41605.000000000007 21725.500000000004 1.5000000000000002 1.5000000000000002 61.550000000000004 5407.5000000000009 2975.5000000000005 1.6500000000000001 1.5000000000000002 1.6500000000000001 18484.500000000004 30000.500000000004 3000.5000000000005 59.500000000000007 1.5000000000000002 1.6500000000000001 1000.5000000000001 1.5000000000000002 48.300000000000004 1.6500000000000001 70213.500000000015 44.45000000000001 61.550000000000004 11.500000000000002 18484.500000000004 19796.500000000004 59.500000000000007 1.0000000180025095e-35 137.50000000000003 2.5000000000000004 50.900000000000006 2543.0000000000005 32.250000000000007 1498.5000000000002 1.8500000000000003 39.500000000000007
decision_type=2 2 2 2 2 2 2 2 2 2 2 2 2 2 2 2 2 2 2 2 2 2 2 2 2 2 2 2 2 2 2 2 2 2 2 2 2 2 2 2 2 2 2 2 2 2 2 2 2 2 2 2 2 2 2 2 2 2 2 2 2 2
left_child=3 2 5 10 7 42 16 18 9 15 57 -11 28 36 17 37 22 -15 55 40 27 59 -6 -10 -19 41 -13 35 29 30 44 -32 -31 34 43 -21 39 53 -9 -8 -17 50 -2 54 -7 -27 60 -45 -37 -30 -18 -22 -26 -3 -14 56 -5 -1 -12 -4 -16 -61
right_child=1 8 21 4 6 12 13 38 23 11 58 26 33 14 46 19 25 24 -20 20 51 -23 -24 -25 52 45 -28 -29 49 32 31 -33 -34 -35 -36 48 -38 -39 -40 -41 -42 -43 -44 47 -46 -47 -48 -49 -50 -51 -52 -53 -54 -55 -56 -57 -58 -59 -60 61 -62 -63
leaf_value=0.067470986169317501 0.026964765787124634 0.016064175590872764 0.13189161190619836 -0.016852981998224041 -0.035603664446818201 0.079505506157875064 -0.01911438593791949 0.02366212130965371 -0.012992797362116663 0.072919355595813071 0.022274984016611772 0.031319708354314982 0.031537376626422912 0.010693110796426864 -0.029218256827128138 0.017273213411942961 -0.020356153974309565 -0.010468378470952965 -0.023244188798559925 0.026394710266122629 0.0058784811617806562 0.08870283484458924 -0.050935266808021899 -0.049165843291716145 -0.020504645541442573 -0.035280431344829222 0.012589815099324501 0.010684737107218352 0.047614212259650235 0.046392029304714769 0.03541860152035952 0.067739260738546206 0.025997837312519551 0.018082961129469121 0.047529452632774007 0.017665768111632629 -0.032174696283681053 -0.0037298991922367617 0.0074915888655031548 -0.028208258913622965 0.029775427607819441 -0.0091036094618695117 0.011368696306708444 0.030398645717650653 0.058470093630827391 -0.023940489888191224 -0.0400632801808809 0.011563506636482016 0.0059224142677798547 0.060022387370610469 -0.02838304176389634 -0.0018503575557682278 -0.0122169039110677 0.0038037144762285528 0.047604856436902827 -0.0027219611377168572 -0.0030305822798982265 0.053920282920201623 0.0064627417176961899 0.12210431656529826 -0.015835167811467096 0.10746323118607204
leaf_weight=23 15.999999999999998 17 12.999999999999998 49 190 9.9999999999999982 74 38 13.000000000000002 17 37 49 33 19 59 89 50 176 59 51 100 9.9999999999999982 43 10.999999999999998 169 108 21 172 20 34 32 10.999999999999998 25 22 22 55 140 89 29 117 32 13.999999999999998 80 15.999999999999998 26 30 19 13.000000000000002 23 52 111 58 39 94 10.999999999999998 54 40 21 9.9999999999999982 31 12.999999999999998 11.999999999999998
leaf_count=23 16 17 13 49 190 10 74 38 13 17 37 49 33 19 59 89 50 176 59 51 100 10 43 11 169 108 21 172 20 34 32 11 25 22 22 55 140 89 29 117 32 14 80 16 26 30 19 13 23 52 111 58 39 94 11 54 40 21 10 31 13 12
internal_value=0 0.0239467 0.0473547 -0.019091 -0.0223289 0.0365958 -0.0257261 -0.00501485 0.0110999 0.0122258 0.0392633 0.0349274 0.0432388 -0.0212015 -0.0167448 0.00969368 -0.0325626 -0.0138487 -0.012205 0.0125214 0.0103971 0.116309 -0.0384331 -0.0295721 -0.015063 -0.0281926 0.0257007 0.0142583 0.0499739 0.0465296 0.0530861 0.0436867 0.0377504 0.0311501 0.0341762 0.019023 -0.0278528 0.0014934 0.0166629 -0.024685 0.0205796 -0.0245473 0.013968 0.0301519 0.0643133 -0.0328152 -0.0295707 0.0219553 0.014203 0.0565757 -0.0258902 0.00304131 -0.0189507 0.00568144 0.0355542 -0.00765039 -0.0106407 0.0610036 0.0189107 0.121239 -0.0268019 0.118018
internal_weight=0 1380 489 1731 1640 423 1371 269 891 867 91 87 327 825 494 780 546 403 202 580 459 66 233 24 384 313 70 301 210 138 79 43 59 117 95 129 331 200 67 191 121 175 96 73 36 138 91 29 78 72 161 158 208 111 44 143 89 44 47 56 72 43
internal_count=3111 1380 489 1731 1640 423 1371 269 891 867 91 87 327 825 494 780 546 403 202 580 459 66 233 24 384 313 70 301 210 138 79 43 59 117 95 129 331 200 67 191 121 175 96 73 36 138 91 29 78 72 161 158 208 111 44 143 89 44 47 56 72 43
is_linear=0
shrinkage=0.05


Tree=9
num_leaves=63
num_cat=0
split_feature=0 1 7 6 1 7 7 3 3 6 0 1 6 0 1 1 7 2 3 7 1 1 6 6 7 6 0 1 6 2 3 1 3 7 6 3 6 1 3 3 1 7 0 6 6 2 6 1 3 3 3 7 6 2 7 6 3 6 6 0 3 3
split_gain=513.43 153.454 133.81 118.072 42.493 23.8136 20.4572 17.338 14.8037 18.1219 14.5718 11.8424 11.0177 8.76125 5.95922 4.5176 3.34872 3.31647 3.27333 7.65314 3.21241 3.02143 2.87295 2.81821 2.79484 2.60646 2.53494 2.29486 2.2886 2.28251 2.1496 2.10313 1.80624 1.66622 1.34414 1.25358 1.21698 1.17527 1.1711 1.13735 1.13444 1.0097 0.996165 0.977009 0.914252 0.893355 0.853446 0.917312 0.849186 0.839037 2.48136 0.808588 0.79498 0.782755 0.773351 0.722543 0.709307 0.705996 0.670848 0.667586 0.723377 0.666895
threshold=8.5000000000000018 2018.5000000000002 1.8500000000000003 34.250000000000007 2017.5000000000002 1.2500000000000002 1.5000000000000002 10058.500000000002 67824.500000000015 43.850000000000009 5.5000000000000009 2013.5000000000002 57.050000000000004 3.5000000000000004 2018.5000000000002 2016.5000000000002 2.1000000000000005 1.0000000180025095e-35 22761.500000000004 2.1000000000000005 2015.5000000000002 2019.5000000000002 35.550000000000004 45.800000000000004 1.8500000000000003 39.500000000000007 2.5000000000000004 2019.5000000000002 78.450000000000017 1.5000000000000002 25292.000000000004 2018.5000000000002 5001.5000000000009 1.6500000000000001 35.550000000000004 2139.5000000000005 45.800000000000004 2019.5000000000002 22252.000000000004 2440.5000000000005 2015.5000000000002 1.8500000000000003 2.5000000000000004 51.850000000000001 57.050000000000004 1.0000000180025095e-35 42.500000000000007 2016.5000000000002 80757.500000000015 5407.5000000000009 6347.5000000000009 1.8500000000000003 59.500000000000007 1.5000000000000002 1.5000000000000002 42.500000000000007 40110.500000000007 41.850000000000009 57.650000000000013 6.5000000000000009 30688.000000000004 36188.500000000007
decision_type=2 2 2 2 2 2 2 2 2 2 2 2 2 2 2 2 2 2 2 2 2 2 2 2 2 2 2 2 2 2 2 2 2 2 2 2 2 2 2 2 2 2 2 2 2 2 2 2 2 2 2 2 2 2 2 2 2 2 2 2 2 2
left_child=3 8 6 10 11 12 -3 21 9 18 -1 26 27 30 33 24 17 38 19 -2 51 22 35 -10 45 37 -5 36 -24 32 42 -12 -19 -7 -9 -8 -6 -4 -17 -27 -20 56 44 -23 -13 -11 -22 -48 54 -30 -51 -15 -14 -47 -28 -42 -34 -16 -31 60 -49 -26
right_child=1 2 25 4 5 14 7 34 23 15 31 13 52 20 57 16 -18 29 40 -21 46 43 28 -25 61 39 48 -29 49 58 -32 -33 41 -35 -36 -37 -38 -39 -40 -41 55 -43 -44 -45 -46 53 47 59 -50 50 -52 -53 -54 -55 -56 -57 -58 -59 -60 -61 -62 -63
leaf_value=0.062608636787959512 0.026834438527486168 0.012908160464721733 0.11307637629837826 -0.052080134138828373 0.0028538839560496854 -0.0051870525299393122 0.043548327803611758 0.015699809199234225 -0.045227209230264021 0.011461798277499232 0.015084949760244061 -0.018996004218404944 -0.019096091457801622 -0.025629935359559309 0.01236184250849944 0.022672386158017383 0.03279659222154057 0.024181786468917773 0.0089534542756155144 0.065389068512355583 -0.0013692594040185214 0.066805715016696771 0.052726461373123472 -0.010959800255174436 0.01805120775848627 0.11001903002078715 -0.040712553673777088 0.0017573337249923498 0.030952472446693316 0.01322505031364845 -0.033159248550645025 0.036158648264758723 0.005733570100578649 0.013079333513536873 0.029406007931188301 0.028499967556807306 -0.011577426318711203 0.1329543697834015 0.011780637761623395 0.090610622366269433 0.017265308329369872 0.016213448616591367 -0.02258464804498897 0.049206282850354915 -0.029748375851374406 -0.0043359643500717774 -0.019892280671707133 -0.006046259144620438 -0.0490064033617576 0.064943403005599962 0.034439159706234936 -0.011621074844151737 -0.025197489482953268 0.0071853490820264114 -0.02987066287743418 0.029906240306221521 -0.0042303883078459057 0.02581637689891534 0.023659971617162229 -0.017455226340546057 -0.017599623277783395 0.0062538333824309318
leaf_weight=35 53 85 29 41 15.999999999999998 47 25 53 12 11.999999999999998 39 22 82 162 12.999999999999998 62 17 13.999999999999998 15.999999999999998 17 9.9999999999999982 23 102 12 25 13.000000000000002 29 50 18 67 226 17 298 17 27 31 168 9.9999999999999982 41 18 20 22 98 11.999999999999998 195 111 97 42 11.999999999999998 10.000000000000002 20 10.999999999999998 153 17 38 26 19 39 20 52 20 23
leaf_count=35 53 85 29 41 16 47 25 53 12 12 39 22 82 162 13 62 17 14 16 17 10 23 102 12 25 13 29 50 18 67 226 17 298 17 27 31 168 10 41 18 20 22 98 12 195 111 97 42 12 10 20 11 153 17 38 26 19 39 20 52 20 23
internal_value=0 0.0227494 0.0457267 -0.0181364 -0.0212125 -0.0104042 0.034719 0.0404945 0.0106507 0.0117073 0.0373001 -0.0272057 -0.0154213 -0.0253079 0.00988017 0.00869318 0.0109446 0.0102605 0.0287876 0.0361977 -0.0196364 0.0471895 0.0448819 -0.0280935 0.0019868 0.109571 -0.0419926 -0.00774136 0.0484897 0.00836988 -0.0294383 0.0214823 0.00658206 -0.000335044 0.0203257 0.035218 -0.0103225 0.118173 0.0183368 0.0987496 0.0204213 0.00585523 -0.0267687 0.0607716 -0.0286583 -0.00158285 -0.0156419 -0.0163183 -0.0367573 0.0394867 0.0446072 -0.0247392 -0.0230685 -0.00280579 -0.0345634 0.0244102 0.00513636 0.0224527 0.0156239 -0.0132773 -0.00977315 0.0123983
internal_weight=0 1380 476 1731 1640 585 406 321 904 880 91 1055 469 935 116 748 560 543 132 70 394 241 206 24 188 70 120 234 150 440 541 56 353 64 80 56 184 39 103 31 62 339 315 35 217 140 221 211 79 48 30 173 235 128 67 46 317 52 87 114 62 48
internal_count=3111 1380 476 1731 1640 585 406 321 904 880 91 1055 469 935 116 748 560 543 132 70 394 241 206 24 188 70 120 234 150 440 541 56 353 64 80 56 184 39 103 31 62 339 315 35 217 140 221 211 79 48 30 173 235 128 67 46 317 52 87 114 62 48
is_linear=0
shrinkage=0.05


Tree=10
num_leaves=63
num_cat=0
split_feature=0 1 7 6 1 7 7 3 1 6 3 1 6 0 1 3 7 2 2 1 1 6 0 1 0 1 0 3 3 1 1 7 6 6 6 3 3 6 7 6 6 6 0 3 6 3 0 7 1 7 7 1 6 3 3 3 6 3 1 3 6 3
split_gain=463.37 138.492 120.905 106.56 38.3499 21.4918 19.0368 16.1918 13.5155 18.9525 13.2114 10.6877 9.95307 7.90703 5.3782 5.33169 3.45387 3.80705 3.06584 2.8992 2.55856 2.85871 2.51149 6.77461 2.38225 2.33834 2.28779 1.98723 1.94363 1.92336 1.5824 1.50376 1.21308 1.18847 1.16451 1.13136 1.06528 0.978547 0.916226 0.907198 0.884357 0.88175 0.860167 0.835047 0.818231 0.816819 0.803806 0.798872 0.806869 0.781793 0.779005 0.735641 0.679733 0.666358 0.665058 0.663713 0.637161 0.633358 0.626058 0.622853 0.61159 0.832737
threshold=8.5000000000000018 2018.5000000000002 2.1000000000000005 34.250000000000007 2017.5000000000002 1.2500000000000002 1.5000000000000002 10058.500000000002 2013.5000000000002 43.850000000000009 11786.500000000002 2013.5000000000002 57.650000000000013 3.5000000000000004 2018.5000000000002 40110.500000000007 1.8500000000000003 1.0000000180025095e-35 1.5000000000000002 2015.5000000000002 2019.5000000000002 35.550000000000004 11.500000000000002 2017.5000000000002 11.500000000000002 2019.5000000000002 2.5000000000000004 5001.5000000000009 29768.000000000004 2019.5000000000002 2016.5000000000002 1.6500000000000001 35.550000000000004 45.800000000000004 59.500000000000007 2139.5000000000005 21283.000000000004 53.800000000000004 1.8500000000000003 35.550000000000004 37.45000000000001 51.850000000000001 2.5000000000000004 6216.5000000000009 41.850000000000009 11470.500000000002 2.5000000000000004 1.6500000000000001 2016.5000000000002 1.6500000000000001 1.6500000000000001 2015.5000000000002 57.650000000000013 59019.500000000007 2139.5000000000005 29061.000000000004 41.850000000000009 36947.500000000007 2010.5000000000002 210.50000000000003 39.500000000000007 3963.5000000000005
decision_type=2 2 2 2 2 2 2 2 2 2 2 2 2 2 2 2 2 2 2 2 2 2 2 2 2 2 2 2 2 2 2 2 2 2 2 2 2 2 2 2 2 2 2 2 2 2 2 2 2 2 2 2 2 2 2 2 2 2 2 2 2 2
left_child=3 8 6 10 11 12 54 20 -2 22 -1 26 25 28 31 16 17 45 27 50 21 35 23 44 -23 33 -5 -19 34 60 -29 -7 -9 -6 51 -8 -12 -18 -17 -24 -41 -22 -14 -26 -10 -11 -36 48 -21 58 57 -13 -20 -52 -3 -39 -16 -15 -28 -58 -4 -62
right_child=1 2 29 4 5 14 7 32 9 15 36 13 42 19 56 38 37 18 52 47 41 24 39 -25 43 -27 49 30 -30 -31 -32 -33 -34 -35 46 -37 -38 55 -40 40 -42 -43 -44 -45 -46 -47 -48 -49 -50 -51 53 -53 -54 -55 -56 -57 59 -59 -60 -61 61 -63
leaf_value=0.056473732212694687 -0.036947847505410518 0.021108212321996691 0.10742255490401696 -0.049476127944341523 0.0027111897346912884 -0.0049276999366330981 0.041370911851525305 0.014914819232697758 0.012223898582160473 0.02507053480173151 0.031925583630800246 -0.028843570236116653 -0.023937800509570159 -0.022336240597069262 0.011743749850071393 -0.0055841919542532802 0.024850872238831864 0.022972696523980374 0.012378051436175347 -0.019846423910033092 0.063465429259383158 0.040349030445672965 0.013262834795750678 0.060870402894522016 0.055825527192189778 0.0016694669543066993 -0.049972577989101409 -0.0025526738328596529 -0.03245133530950832 0.12533333301544189 0.0054468915866720709 0.012425366821287968 0.027935707569122316 -0.011475224000845516 -0.030386746840344536 0.027074969355617803 0.014307495720015887 0.019727419805712992 0.0053079852984340582 0.039164836108684542 0.022498138516377181 0.046745966685314971 -0.014669400402184191 0.043977561146020888 0.028738848343491552 0.014553364824387245 -0.018890586846015037 -0.0080450607133874044 -0.013207186272541317 -0.028562608336408935 -0.016337703716941179 -0.021910683791284549 0.022951517489395643 -0.026779947091232648 0.010051387313219227 0.0045174749586014791 0.013765132278203966 -0.030255514237226222 -0.035949506476903578 0.028236050133047433 0.10393597632646559 0.085543060302734383
leaf_weight=41 14.999999999999998 17 29 41 15.999999999999998 47 25 53 9.9999999999999982 24 10.999999999999998 50 183 50 12.999999999999998 75 42 13.999999999999998 76 83 23 76 20 19 58 50 9.9999999999999982 78 167 10.999999999999998 298 17 27 191 144 31 39 16.000000000000004 26 9.9999999999999982 39 11.999999999999998 29 20 30 80 17 36 102 30 50 163 19 22 68 12.999999999999998 9.9999999999999982 51 39 29 16.000000000000004 9.9999999999999982
leaf_count=41 15 17 29 41 16 47 25 53 10 24 11 50 183 50 13 75 42 14 76 83 23 76 20 19 58 50 10 78 167 11 298 17 27 191 144 31 39 16 26 10 39 12 29 20 30 80 17 36 102 30 50 163 19 22 68 13 10 51 39 29 16 10
internal_value=0 0.0216119 0.0434404 -0.0172296 -0.0201518 -0.00988402 0.03333 0.0388399 0.0101182 0.0109123 0.0354351 -0.0258454 -0.0146502 -0.0240425 0.00938616 0.0079182 0.00955539 0.00829959 0.00643813 -0.0186546 0.0452172 0.0431312 0.0287131 0.0362872 0.0466491 -0.00803469 -0.039893 0.00447611 -0.0279664 0.106247 0.00378741 -0.000318292 0.0193094 -0.0103787 -0.0259638 0.0334571 0.0181835 0.0199733 -0.00278027 0.0222367 0.0258995 0.057733 -0.02267 0.0527876 0.0246101 0.0169804 -0.0291729 -0.0148598 -0.0161859 -0.0349194 -0.0235022 -0.0235381 0.0144927 -0.0195284 0.0122628 0.0129092 0.0213301 -0.0263351 -0.0388114 0.0245256 0.10243 0.0968618
internal_weight=0 1380 476 1731 1640 585 410 325 904 889 91 1055 469 935 116 761 660 589 485 394 245 210 128 59 154 257 120 390 541 66 376 64 80 207 374 56 50 71 101 69 49 35 212 78 40 104 161 221 185 79 173 213 95 72 85 29 52 101 49 39 55 26
internal_count=3111 1380 476 1731 1640 585 410 325 904 889 91 1055 469 935 116 761 660 589 485 394 245 210 128 59 154 257 120 390 541 66 376 64 80 207 374 56 50 71 101 69 49 35 212 78 40 104 161 221 185 79 173 213 95 72 85 29 52 101 49 39 55 26
is_linear=0
shrinkage=0.05


Tree=11
num_leaves=63
num_cat=0
split_feature=0 1 7 6 1 7 0 3 1 3 6 0 0 1 5 4 6 0 6 3 4 1 1 6 5 1 3 6 1 6 3 3 0 3 3 0 3 0 6 6 6 3 0 6 0 6 3 3 3 7 3 7 5 3 1 6 3 3 6 0 3 3
split_gain=418.192 124.989 109.126 96.1704 34.6942 16.6519 14.7283 14.1096 13.78 12.3542 14.7979 12.0622 11.3524 5.90495 4.67745 4.82407 3.63815 3.42683 2.82297 2.81488 5.96443 2.46521 2.40252 2.33342 2.29734 2.11793 2.02812 2.23181 1.99356 1.92182 1.85966 1.65783 1.6327 1.41033 1.24614 1.28135 1.21384 1.16978 1.13267 1.12432 1.09481 1.02105 0.98125 1.5525 0.869809 0.79578 0.794177 0.757231 2.23942 0.750061 0.710427 0.694506 0.635391 0.625691 0.625421 0.610679 0.604712 0.579086 0.575038 0.567944 0.562907 0.562125
threshold=8.5000000000000018 2018.5000000000002 1.8500000000000003 34.250000000000007 2018.5000000000002 1.5000000000000002 3.5000000000000004 10058.500000000002 2014.5000000000002 67824.500000000015 43.850000000000009 5.5000000000000009 3.5000000000000004 2016.5000000000002 122.50000000000001 1.5000000000000002 50.900000000000006 4.5000000000000009 43.150000000000006 15173.500000000002 1.5000000000000002 2019.5000000000002 2019.5000000000002 35.550000000000004 250.00000000000003 2019.5000000000002 35933.000000000007 53.800000000000004 2011.5000000000002 78.450000000000017 19997.500000000004 21283.000000000004 2.5000000000000004 30000.500000000004 41605.000000000007 11.500000000000002 19796.500000000004 6.5000000000000009 43.150000000000006 40.100000000000001 35.550000000000004 2139.5000000000005 9.5000000000000018 61.550000000000004 2.5000000000000004 51.850000000000001 10343.000000000002 5407.5000000000009 6347.5000000000009 1.6500000000000001 46022.500000000007 1.2500000000000002 142.50000000000003 7794.5000000000009 2017.5000000000002 35.100000000000001 1000.5000000000001 5214.0000000000009 41.850000000000009 2.5000000000000004 20572.000000000004 210.50000000000003
decision_type=2 2 2 2 2 2 2 2 2 2 2 2 2 2 2 2 2 2 2 2 2 2 2 2 2 2 2 2 2 2 2 2 2 2 2 2 2 2 2 2 2 2 2 2 2 2 2 2 2 2 2 2 2 2 2 2 2 2 2 2 2 2
left_child=3 9 5 11 8 56 22 21 17 10 19 -1 16 38 33 26 -10 28 -15 20 -2 23 32 41 -11 39 27 60 -5 -25 44 -13 -6 -12 35 -21 57 46 -14 -4 -9 55 -29 54 -18 -23 -20 -31 -49 -40 -51 -8 -30 -34 -44 -7 -3 -17 -53 -32 -16 -60
right_child=1 2 25 4 6 7 51 40 12 24 14 31 13 18 15 36 30 -19 37 34 -22 45 -24 29 -26 -27 -28 42 52 47 59 -33 53 -35 -36 -37 -38 -39 49 -41 -42 -43 43 -45 -46 -47 -48 48 -50 50 -52 58 -54 -55 -56 -57 -58 -59 61 -61 -62 -63
leaf_value=0.05668958868299212 0.066399577818810937 0.023199178129434589 0.099199228395115246 -0.049342658154426088 -0.016007083670218598 0.046229264565876553 0.00771734214254788 0.014169078390553314 -0.013514743117977762 -0.011551732240388024 0.0050544309112972221 0.032302271837697315 -0.0074471208059953319 0.012291681789793075 0.03267489163314595 0.017940845880657436 -0.024202121434740521 -0.025182153558641486 0.0021859079075511544 0.030572804468018668 0.025064834469230846 0.060292157142058669 0.00050575772230389553 0.047627440503999301 -0.04259879832917994 0.11906666755676271 0.0060860600424553334 0.018534876203962738 -0.036943431355451285 0.027387397591438559 -0.029831354297357161 0.013592120883269951 -0.0013625833623310817 -0.0033286066346519282 0.0086895818876869535 0.01713750215454234 -0.0024310047800619426 -0.015439213736582611 -0.022362040796954381 0.083347760836283369 0.026538922223779893 0.025721220924488961 0.01308833803055817 0.0039925034300481183 -0.018050161347648985 0.044408669322729112 -0.008588964411183812 0.059678781032562238 0.030699750967323781 -0.011029483095797547 -0.022265148162841798 0.011156562658456657 -0.027838085064043602 -0.011978710572356763 0.02343279497752733 0.030486314422027629 0.010109673166337114 0.0054133872436985626 0.013076875582337381 -0.025090601139010921 0.021353400708927262 0.026824247618687565
leaf_weight=35 11.999999999999998 9.9999999999999982 44 31 106 14 13.999999999999998 53 72 13.000000000000002 115 17 18 15.999999999999998 17 9.9999999999999982 257 79 20 35 32 23 47 102 10.999999999999998 10.999999999999998 71 70 95 18 197 39 35 89 17 36 56 59 152 14.999999999999998 27 31 104 49 74 11.999999999999998 118 10.000000000000002 20 34 24 12.999999999999998 24 23 17 11 75 119 9.9999999999999982 93 31 29
leaf_count=35 12 10 44 31 106 14 14 53 72 13 115 17 18 16 17 10 257 79 20 35 32 23 47 102 11 11 71 70 95 18 197 39 35 89 17 36 56 59 152 15 27 31 104 49 74 12 118 10 20 34 24 13 24 23 17 11 75 119 10 93 31 29
internal_value=0 0.0205313 0.0412684 -0.0163681 -0.0191443 0.0313276 -0.00301239 0.0365383 -0.0224227 0.00961224 0.0105775 0.0336634 -0.0201635 -0.0138922 0.00785379 0.010275 -0.0241543 -0.0336103 -0.00790623 0.0260121 0.0363379 0.042578 -0.00946057 0.0404936 -0.0257816 0.0989245 0.013655 0.015521 -0.0380491 0.043745 -0.0253879 0.019272 -0.0123168 0.00139713 0.0208491 0.0237605 0.00371603 -0.00954667 -0.0194844 0.0951692 0.0183439 0.0317842 0.0135526 0.011501 -0.0228268 0.0548464 -0.00702739 0.0354949 0.0403594 -0.0205162 -0.0156787 0.0176023 -0.0351071 -0.00557243 0.0145417 0.0393024 0.0116496 0.00638451 0.0202636 -0.028311 0.0253631 0.0232993
internal_weight=0 1380 476 1731 1640 406 277 321 1363 904 880 91 1134 441 748 544 693 229 213 132 44 241 211 206 24 70 359 288 150 150 621 56 164 204 88 71 185 197 228 59 80 56 240 170 331 35 138 48 30 210 58 66 119 58 121 25 85 129 52 290 48 39
internal_count=3111 1380 476 1731 1640 406 277 321 1363 904 880 91 1134 441 748 544 693 229 213 132 44 241 211 206 24 70 359 288 150 150 621 56 164 204 88 71 185 197 228 59 80 56 240 170 331 35 138 48 30 210 58 66 119 58 121 25 85 129 52 290 48 39
is_linear=0
shrinkage=0.05


Tree=12
num_leaves=63
num_cat=0
split_feature=0 1 7 6 1 7 7 3 1 6 0 1 6 0 5 4 1 1 3 0 1 1 6 6 0 1 0 3 3 1 1 7 3 6 6 3 3 5 6 6 5 3 6 5 6 0 3 7 1 7 5 3 6 3 3 6 0 3 3 6 0 3
split_gain=377.418 112.803 98.663 86.7938 31.5341 17.6118 15.4916 13.1721 11.2455 15.5247 10.8861 8.85485 8.12038 6.50251 4.65747 4.33163 4.30213 2.41321 2.20557 2.13155 5.79536 2.08927 2.31951 2.01421 1.9807 1.90303 1.8861 1.70386 1.62888 1.55691 1.50918 1.24771 1.22102 0.988065 0.945183 0.9423 0.921496 0.811848 0.805227 0.80557 0.765078 0.749176 0.718191 0.717858 0.702088 0.700355 0.698417 0.662753 0.653943 0.612781 0.582911 0.558194 0.557409 0.557024 0.552344 0.551138 0.53402 0.647049 0.525407 0.518972 0.516165 0.981709
threshold=8.5000000000000018 2018.5000000000002 2.1000000000000005 34.250000000000007 2017.5000000000002 1.2500000000000002 1.5000000000000002 10058.500000000002 2013.5000000000002 43.850000000000009 5.5000000000000009 2013.5000000000002 57.650000000000013 3.5000000000000004 122.50000000000001 1.5000000000000002 2018.5000000000002 2015.5000000000002 35933.000000000007 11.500000000000002 2017.5000000000002 2019.5000000000002 35.550000000000004 53.800000000000004 11.500000000000002 2019.5000000000002 2.5000000000000004 37735.500000000007 25292.000000000004 2019.5000000000002 2018.5000000000002 1.6500000000000001 19796.500000000004 35.550000000000004 45.800000000000004 12122.500000000002 2139.5000000000005 130.00000000000003 35.550000000000004 37.45000000000001 155.00000000000003 6659.5000000000009 51.850000000000001 177.50000000000003 41.850000000000009 2.5000000000000004 80757.500000000015 1.6500000000000001 2016.5000000000002 1.5000000000000002 122.50000000000001 11009.500000000002 59.500000000000007 2139.5000000000005 50810.000000000007 35.100000000000001 6.5000000000000009 30688.000000000004 5745.0000000000009 41.850000000000009 2.5000000000000004 3276.0000000000005
decision_type=2 2 2 2 2 2 2 2 2 2 2 2 2 2 2 2 2 2 2 2 2 2 2 2 2 2 2 2 2 2 2 2 2 2 2 2 2 2 2 2 2 2 2 2 2 2 2 2 2 2 2 2 2 2 2 2 2 2 2 2 2 2
left_child=3 8 6 10 11 12 53 21 -2 19 -1 26 25 28 27 18 31 40 23 20 44 22 36 -16 -24 34 -5 47 37 -4 -12 51 58 -9 -6 -25 55 -13 -21 -40 -15 -26 -23 48 -10 -14 49 -11 -19 -28 -30 -7 -39 -3 -20 -8 57 -50 -17 -18 -36 -62
right_child=1 2 29 4 5 16 7 33 9 14 30 13 45 17 15 32 59 43 54 38 -22 42 24 35 41 -27 46 -29 50 -31 -32 -33 -34 -35 60 -37 -38 52 39 -41 -42 -43 -44 -45 -46 -47 -48 -49 56 -51 -52 -53 -54 -55 -56 -57 -58 -59 -60 -61 61 -63
leaf_value=0.053855108363287787 -0.033800247808297476 0.019162333175978243 0.092507232915271409 -0.044837609296891748 0.0023435347982740497 0.0036485135306914651 0.043917801444019584 0.013460624270703435 0.010670842342078686 0.012178265023976564 0.012889146451384594 -0.025199178386140955 -0.021578704592227285 -0.023128315814920055 0.024094940330420894 0.016516516247594898 0.010598734221779385 -0.016998675965809638 0.0074417347637916395 0.011545935915783049 0.055681759746451134 0.057277549673681677 0.036333337967823211 0.018553976568260366 0.050164553186585831 0.0015390709367347883 -0.035104535571460066 -0.0062009635030246179 -0.030610352254180767 0.11311333179473877 0.030740767629707563 0.011496582955313738 -0.0027220130963414389 0.025211976413373596 -0.01333681776613733 0.011146549209908463 0.024435160110794732 -0.017287025686640006 0.036111898124217993 0.020204927891086882 -0.015373249028232836 0.038029176369309428 0.042188235620657606 -0.00027084044180810453 0.025968859146038692 -0.013215505763695673 -0.04272911325097084 0.0024062567936142779 -0.0047546106046952663 -0.025453605718518558 -0.025441681524819654 -0.00804084621486254 -0.023667488723504743 0.0090433342847973108 -0.0028069262858480219 0.028961997741663994 -0.015150144818023995 -0.015681455656886101 0.0050910149404968501 0.022134316556203446 0.004291713467266943 -0.0098811694084057922
leaf_weight=35 14.999999999999998 17 55 41 15.999999999999998 14.999999999999998 14 53 9.9999999999999982 20 39 176 183 131 48 10.999999999999998 12.999999999999998 97 58 20 19 23 76 56 62 50 29 61 134 10.999999999999998 17 17 57 27 81 184 31 78 9.9999999999999982 39 42 15.999999999999998 11.999999999999998 9.9999999999999982 30 29 11.999999999999998 131 42 38 92 32 61 68 17 11 52 20 118 39 13.999999999999998 96
leaf_count=35 15 17 55 41 16 15 14 53 10 20 39 176 183 131 48 11 13 97 58 20 19 23 76 56 62 50 29 61 134 11 17 17 57 27 81 184 31 78 10 39 42 16 12 10 30 29 12 131 42 38 92 32 61 68 17 11 52 20 118 39 14 96
internal_value=0 0.0195047 0.0392049 -0.0155497 -0.018187 -0.00887625 0.0300717 0.0350422 0.00913163 0.00985602 0.0319802 -0.0233499 -0.0131908 -0.0217089 0.00714618 0.00957689 0.00856797 -0.0168228 0.0127561 0.0259669 0.0329445 0.0407941 0.0389092 0.0147449 0.0420779 -0.00721533 -0.0361363 0.000851539 -0.0252672 0.0959416 0.0183084 -0.000111523 0.0033724 0.0174267 -0.00932992 0.0128749 0.030195 -0.0229434 0.0200004 0.0234512 -0.0212456 0.0476752 0.0521041 -0.0133607 0.0221444 -0.0204347 -0.0316205 0.00370056 -0.0139811 -0.0296309 -0.0285063 -0.0043102 -0.0200871 0.0110671 0.0051187 0.0373372 -0.0114134 -0.0082794 0.00606528 0.0192504 -0.0103078 -0.00807735
internal_weight=0 1380 476 1731 1640 585 410 325 904 889 91 1055 469 935 761 549 116 394 363 128 59 245 210 288 154 257 120 212 541 66 56 64 186 80 207 240 56 315 69 49 173 78 35 221 40 212 79 151 211 67 226 47 139 85 75 25 114 62 129 52 191 110
internal_count=3111 1380 476 1731 1640 585 410 325 904 889 91 1055 469 935 761 549 116 394 363 128 59 245 210 288 154 257 120 212 541 66 56 64 186 80 207 240 56 315 69 49 173 78 35 221 40 212 79 151 211 67 226 47 139 85 75 25 114 62 129 52 191 110
is_linear=0
shrinkage=0.05


Tree=13
num_leaves=63
num_cat=0
split_feature=0 1 6 4 1 0 0 3 3 6 3 1 6 0 1 4 6 5 4 6 4 1 3 3 1 6 6 6 0 2 1 6 3 1 1 3 1 3 4 5 1 0 6 1 3 3 3 6 5 0 3 3 0 3 6 3 3 3 3 3 6 3
split_gain=340.62 101.804 78.3314 73.85 28.4595 16.8209 15.6629 12.0389 10.2637 12.146 9.82948 7.9915 6.24729 5.86852 5.60631 4.25588 6.65999 3.90973 4.45669 3.361 2.98816 2.17792 2.03973 2.49725 1.97603 1.90925 1.8187 1.73832 1.7022 1.59096 1.5853 1.5101 1.49457 1.40511 1.33762 1.25218 1.20199 0.850951 1.44594 0.837328 0.803082 0.784487 1.08669 0.751684 0.751543 0.745065 0.711359 0.691333 0.690483 0.667798 0.630321 0.617957 0.858951 0.598154 0.588542 0.579245 0.575127 0.846173 0.567031 0.546134 0.515681 0.754104
threshold=8.5000000000000018 2018.5000000000002 34.250000000000007 1.0000000180025095e-35 2017.5000000000002 11.500000000000002 3.5000000000000004 6659.5000000000009 67824.500000000015 43.150000000000006 11786.500000000002 2013.5000000000002 57.650000000000013 3.5000000000000004 2018.5000000000002 1.5000000000000002 43.850000000000009 122.50000000000001 1.5000000000000002 62.250000000000007 1.5000000000000002 2015.5000000000002 11165.500000000002 8257.5000000000018 2017.5000000000002 45.800000000000004 48.300000000000004 35.550000000000004 2.5000000000000004 1.5000000000000002 2019.5000000000002 43.150000000000006 20188.000000000004 2019.5000000000002 2016.5000000000002 5407.5000000000009 2016.5000000000002 38324.500000000007 1.5000000000000002 122.50000000000001 2016.5000000000002 11.500000000000002 61.550000000000004 2018.5000000000002 15397.500000000002 9596.5000000000018 210.50000000000003 59.500000000000007 155.00000000000003 6.5000000000000009 80757.500000000015 8976.0000000000018 2.5000000000000004 2741.0000000000005 66.500000000000014 210.50000000000003 10529.500000000002 8976.0000000000018 28981.000000000004 11009.500000000002 39.500000000000007 3963.5000000000005
decision_type=2 2 2 2 2 2 2 2 2 2 2 2 2 2 2 2 2 2 2 2 2 2 2 2 2 2 2 2 2 2 2 2 2 2 2 2 2 2 2 2 2 2 2 2 2 2 2 2 2 2 2 2 2 2 2 2 2 2 2 2 2 2
left_child=2 8 10 5 11 33 12 15 9 22 -1 28 30 32 31 19 27 36 24 -5 56 48 23 -2 41 -10 -26 46 -4 -22 51 -8 47 60 -20 -21 -11 38 40 -34 -24 -19 58 -12 -28 -36 -17 -13 -15 54 -30 52 -6 55 -23 -16 57 -9 -43 -33 -3 -62
right_child=1 3 4 7 6 -7 14 20 25 17 43 13 -14 21 53 16 -18 18 34 35 29 49 37 -25 26 -27 44 -29 50 -31 -32 59 39 -35 45 -37 -38 -39 -40 -41 -42 42 -44 -45 -46 -47 -48 -49 -50 -51 -52 -53 -54 -55 -56 -57 -58 -59 -60 -61 61 -63
leaf_value=0.048528313382369716 0.01742454790933565 0.092466104852742162 -0.042595728577637097 0.055504246740727819 -0.011581759771606963 0.041490523841070097 0.011689307522028685 0.025459963642060754 -0.037688041230042768 -0.002604956190115634 0.012244689130248169 -0.018536916283110893 -0.019941361073812003 -0.021971899750180372 0.012024017829786644 0.038768651324789974 0.013835470327599485 0.015928703071359469 -0.011251917183399201 0.029332730794946357 0.010745788220723626 -0.0075761514508631087 0.022398922592401505 0.04799902035909541 0.035839391327821289 -0.0094830693560652435 0.020826395866017613 0.044159969370415872 -0.02814933019342707 0.026529055912243693 0.00040351633933630399 0.0016491419622616376 -0.028488075774576928 0.10745766162872315 0.009454527206107741 0.047911002315007722 0.0050714249465528662 0.011748847595992543 0.01688249406245787 -0.023198122464236803 0.038063725166850623 0.01339609578743086 0.0018122008113667023 0.027044087377461518 0.011794507931278763 0.0021986903876021952 0.027064608933555112 -0.024015649107213207 -0.014604586415502819 -0.016271111069292559 -0.040592657898863155 -0.013804093771255932 -0.0026408456894084038 0.011595541723848631 -0.014103629410965369 0.026441470354697422 0.019904319693644843 0.043024148295323056 0.0075864607136911502 -0.007834465664881652 0.089500603824853878 0.071997614800930018
leaf_weight=41 11.000000000000002 29 41 37 61 23 14.999999999999998 16.000000000000004 12 101 39 129 200 131 11.000000000000002 20 44 49 14.999999999999998 30 100 75 14.999999999999998 17 12.999999999999998 12 42 47 67 19 47 20 180 10.999999999999998 50 12.999999999999998 103 21 41 128 18 91 43 10.999999999999998 51 121 37 104 42 82 11.999999999999998 65 48 36 64 19 11.999999999999998 11.999999999999998 78 63 16.000000000000004 9.9999999999999982
leaf_count=41 11 29 41 37 61 23 15 16 12 101 39 129 200 131 11 20 44 49 15 30 100 75 15 17 13 12 42 47 67 19 47 20 180 11 50 13 103 21 41 128 18 91 43 11 51 121 37 104 42 82 12 65 48 36 64 19 12 12 78 63 16 10
internal_value=0 0.0185295 -0.0147722 0.0372447 -0.0172777 0.0783126 -0.00843244 0.0278001 0.00867505 0.00955488 0.0303812 -0.0221824 -0.0135388 -0.0206234 0.00467587 0.0351646 0.0301422 0.00718706 0.00936953 0.044456 0.0172398 -0.0159817 0.0241276 0.0359876 0.012565 -0.0235856 0.0183221 0.0370412 -0.0343295 0.0132658 -0.00774456 -0.0029107 -0.0240039 0.0911445 0.00306446 0.0349494 0.00127086 0.020632 0.0231529 -0.0262897 0.0309434 0.0102269 0.00890902 0.0155006 0.0158734 0.00432028 0.0311713 -0.0209824 -0.0201833 -0.0126926 -0.0300395 -0.00994548 -0.00764448 0.0159408 -0.0105816 0.0211551 0.0290625 0.0329875 0.0107147 -0.00554926 0.0878819 0.0827687
internal_weight=0 1380 1731 476 1640 89 585 387 904 880 91 1055 421 935 164 228 148 757 553 80 159 394 123 28 367 24 106 104 120 119 221 98 541 66 186 43 204 95 74 308 33 261 212 50 93 171 57 233 173 221 79 174 109 66 139 30 40 28 169 83 55 26
internal_count=3111 1380 1731 476 1640 89 585 387 904 880 91 1055 421 935 164 228 148 757 553 80 159 394 123 28 367 24 106 104 120 119 221 98 541 66 186 43 204 95 74 308 33 261 212 50 93 171 57 233 173 221 79 174 109 66 139 30 40 28 169 83 55 26
is_linear=0
shrinkage=0.05


Tree=14
num_leaves=63
num_cat=0
split_feature=0 3 7 7 1 3 7 0 1 1 1 7 0 1 1 1 0 3 7 1 2 2 3 1 1 5 0 5 1 3 0 3 1 3 3 2 2 3 3 2 2 3 3 2 1 3 3 3 7 0 3 0 4 0 0 3 3 5 1 3 1 1
split_gain=307.409 91.9771 79.997 64.0795 27.4247 15.7699 13.6047 11.1998 10.4572 9.49858 9.22715 12.2805 7.31722 6.64242 4.45268 3.6492 2.87969 2.39297 2.23856 2.17503 2.04652 2.55642 1.81901 1.71162 1.68044 1.44974 1.44785 1.33369 1.32809 1.32587 1.21379 1.13763 1.10666 0.929026 0.897307 0.883589 0.873466 0.862973 0.835503 0.829882 0.813776 1.35817 0.823888 0.779849 0.707815 0.691767 0.648651 0.645041 0.584698 0.56797 0.562107 0.539045 0.532004 0.711994 0.510745 0.577759 0.501371 0.493475 0.465048 0.458089 0.454013 0.432257
threshold=8.5000000000000018 10058.500000000002 2.1000000000000005 1.8500000000000003 2018.5000000000002 20818.000000000004 1.5000000000000002 3.5000000000000004 2014.5000000000002 2018.5000000000002 2013.5000000000002 2.1000000000000005 2.5000000000000004 2017.5000000000002 2016.5000000000002 2016.5000000000002 7.5000000000000009 17395.000000000004 2.1000000000000005 2011.5000000000002 1.5000000000000002 1.0000000180025095e-35 6006.5000000000009 2019.5000000000002 2019.5000000000002 142.50000000000003 3.5000000000000004 177.50000000000003 2019.5000000000002 19997.500000000004 2.5000000000000004 22252.000000000004 2017.5000000000002 47283.000000000007 41605.000000000007 1.5000000000000002 1.5000000000000002 1000.5000000000001 21529.000000000004 1.5000000000000002 1.5000000000000002 5407.5000000000009 4532.5000000000009 1.5000000000000002 2017.5000000000002 36188.500000000007 7336.5000000000009 2741.0000000000005 1.1500000000000001 11.500000000000002 3276.0000000000005 6.5000000000000009 1.5000000000000002 9.5000000000000018 11.500000000000002 1294.0000000000002 3000.5000000000005 25.000000000000004 2017.5000000000002 37502.500000000007 2017.5000000000002 2013.5000000000002
decision_type=2 2 2 2 2 2 2 2 2 2 2 2 2 2 2 2 2 2 2 2 2 2 2 2 2 2 2 2 2 2 2 2 2 2 2 2 2 2 2 2 2 2 2 2 2 2 2 2 2 2 2 2 2 2 2 2 2 2 2 2 2 2
left_child=3 2 6 4 8 18 37 23 19 44 -3 14 29 34 27 35 59 -15 50 -1 21 31 24 30 40 -21 48 33 46 39 -6 58 -22 -12 -13 45 51 -2 49 -10 41 42 52 -24 -8 -14 -4 -9 -17 -23 -5 -28 53 -11 -42 -56 -32 -31 -16 -7 -51 -27
right_child=1 10 28 5 7 16 9 47 12 22 11 13 15 17 20 26 -18 -19 -20 25 32 38 43 -25 -26 61 36 -29 -30 57 56 -33 -34 -35 -36 -37 -38 -39 -40 -41 54 -43 -44 -45 -46 -47 -48 -49 -50 60 -52 -53 -54 -55 55 -57 -58 -59 -60 -61 -62 -63
leaf_value=-0.040942421472734879 0.021089865767862648 -0.030843823552131656 0.085768049074844879 0.052249031017223994 -0.013621420418966633 0.013614200812597305 0.010716388950822876 0.021154030627603161 -0.020759514508811572 0.030278009514634809 0.00036624616680245919 0.023015782643448224 -0.016768901248380624 0.069331080615520457 0.012962888247732604 -0.0073735885914753795 -0.012318048910755251 0.034740811735391619 0.0257940424277502 -0.031102084978060291 0.010916372007523024 0.0037391720848374888 0.025181025359779598 0.0003833404620812136 0.049239180938285942 -0.025850074138078428 -0.0067880696557494962 0.010839250005781651 0.10208477973937989 -0.029553396226121832 0.0055604418320581318 0.0083768476308746769 0.021217216077176009 -0.0089168920440202137 0.010242894208058715 -0.0042064602232792158 0.0058500669557939875 0.0083695134572917603 0.0026526967558110587 -0.0093595046276117085 0.034927556075547872 0.047996306046843532 0.019527916237711909 0.038242112542502586 0.020512665476201588 -0.021834971094242882 0.072193222425200723 0.0111945696791785 -0.016376940523274243 0.0060356588291658742 0.039339722635654301 -0.012468201736168515 0.029591200893392434 0.045027708262205125 0.055288306176662451 0.041351068893383296 -0.0067462971775967169 -0.023933551137804227 0.022191847302019597 0.0030706615453319893 0.011212846060339926 -0.018101803135747711
leaf_weight=36 15.999999999999998 14.999999999999998 44 24 106 39 28 29 262 14.999999999999998 130 44 182 10.000000000000002 21 22 18 9.9999999999999982 17 110 64 73 40 47 34 36 128 25 10.999999999999998 52 9.9999999999999982 44 44 34 20 10.999999999999998 10.999999999999998 80 145 17 19 14.999999999999998 11.999999999999998 15.999999999999998 54 107 10.999999999999998 37 100 74 12.999999999999998 62 37 18 9.9999999999999982 29 48 157 39 13.999999999999998 99 36
leaf_count=36 16 15 44 24 106 39 28 29 262 15 130 44 182 10 21 22 18 10 17 110 64 73 40 47 34 36 128 25 11 52 10 44 44 34 20 11 11 80 145 17 19 15 12 16 54 107 11 37 100 74 13 62 37 18 10 29 48 157 39 14 99 36
internal_value=0 0.017603 0.0350273 -0.0140336 -0.0167175 0.0204489 0.027039 -0.0024058 -0.0197004 0.0318976 0.00804022 0.00870604 -0.0177358 0.0268842 0.00677805 -0.0141445 0.00496082 0.0520359 0.0408128 -0.029713 0.00887695 0.00751635 0.0368276 -0.00802877 0.0391727 -0.0274917 -0.0104565 8.15816e-05 0.086225 -0.0223206 -0.0104396 0.0144835 0.015113 -0.00155831 0.0190243 -0.0181152 -0.00784851 0.0104896 0.0056632 -0.0200649 0.0369646 0.0341631 0.0316327 0.0289128 0.0171676 -0.0186446 0.0830531 0.0155707 -0.0147534 0.00743768 0.0477133 -0.00864159 0.0337078 0.0383233 0.0416498 0.0449247 -0.00462445 -0.0253318 0.0189617 0.0108291 0.00899833 -0.0219759
internal_weight=0 1380 489 1731 1606 125 423 277 1329 327 891 876 1111 84 792 623 71 20 54 218 603 495 245 211 189 182 323 189 66 488 164 104 108 164 64 300 201 96 391 279 155 97 82 56 82 289 55 66 122 246 37 190 70 33 58 39 58 209 60 53 173 72
internal_count=3111 1380 489 1731 1606 125 423 277 1329 327 891 876 1111 84 792 623 71 20 54 218 603 495 245 211 189 182 323 189 66 488 164 104 108 164 64 300 201 96 391 279 155 97 82 56 82 289 55 66 122 246 37 190 70 33 58 39 58 209 60 53 173 72
is_linear=0
shrinkage=0.05


Tree=15
num_leaves=63
num_cat=0
split_feature=0 1 6 4 1 0 0 3 3 6 0 1 6 0 1 4 6 5 4 6 5 4 1 0 3 1 6 0 6 3 6 2 1 1 1 3 1 6 0 6 6 6 1 6 3 6 3 0 3 5 1 3 3 3 0 1 3 3 3 3 3 6
split_gain=277.437 83.2051 63.9013 60.0876 23.4324 13.7471 12.7503 9.79819 8.58352 10.2385 8.13181 6.58667 5.14286 4.86493 4.50321 3.55778 5.33463 3.06865 4.03122 2.96056 2.56314 2.48121 1.77052 1.62969 4.88368 1.57772 1.49703 1.44784 1.42324 1.30307 1.28229 1.27068 1.26654 1.13997 1.13346 1.09096 0.956461 0.863335 0.801655 0.716066 0.682744 0.734306 0.66788 0.663519 0.644816 1.06854 0.641441 0.626938 0.59831 0.598155 0.570459 0.569061 0.565226 0.528013 0.701811 0.506784 0.497447 0.490166 0.754005 0.481386 0.52438 0.47181
threshold=8.5000000000000018 2018.5000000000002 34.250000000000007 1.0000000180025095e-35 2017.5000000000002 11.500000000000002 3.5000000000000004 6659.5000000000009 59019.500000000007 43.150000000000006 5.5000000000000009 2013.5000000000002 57.650000000000013 3.5000000000000004 2018.5000000000002 1.5000000000000002 43.850000000000009 122.50000000000001 1.5000000000000002 50.900000000000006 262.50000000000006 1.5000000000000002 2015.5000000000002 11.500000000000002 18003.000000000004 2017.5000000000002 48.300000000000004 4.5000000000000009 35.550000000000004 30688.000000000004 45.20000000000001 1.5000000000000002 2019.5000000000002 2019.5000000000002 2016.5000000000002 21283.000000000004 2016.5000000000002 50.900000000000006 2.5000000000000004 57.050000000000004 35.550000000000004 37.45000000000001 2011.5000000000002 41.850000000000009 5407.5000000000009 78.450000000000017 210.50000000000003 7.5000000000000009 9596.5000000000018 177.50000000000003 2016.5000000000002 24592.000000000004 8107.0000000000009 8976.0000000000018 2.5000000000000004 2016.5000000000002 23847.000000000004 10529.500000000002 8976.0000000000018 2741.0000000000005 210.50000000000003 39.500000000000007
decision_type=2 2 2 2 2 2 2 2 2 2 2 2 2 2 2 2 2 2 2 2 2 2 2 2 2 2 2 2 2 2 2 2 2 2 2 2 2 2 2 2 2 2 2 2 2 2 2 2 2 2 2 2 2 2 2 2 2 2 2 2 2 2
left_child=2 8 10 5 11 33 12 15 9 23 -1 27 32 29 30 19 28 36 25 -5 -10 57 47 24 -2 39 -27 42 46 37 -8 -23 53 61 -20 -12 -11 -13 50 -19 -25 -42 -4 -26 45 -21 -17 56 -36 55 -39 -41 -28 54 -6 -24 -15 58 -9 60 -16 -3
right_child=1 3 4 7 6 -7 14 21 20 17 35 13 -14 22 59 16 -18 18 34 44 -22 31 49 40 43 26 52 -29 -30 -31 -32 -33 -34 -35 48 -37 -38 38 -40 51 41 -43 -44 -45 -46 -47 -48 -49 -50 -51 -52 -53 -54 -55 -56 -57 -58 -59 -60 -61 -62 -63
leaf_value=0.046357038446835114 0.051833182852715258 0.083733037011376743 -0.040700456500053411 0.054124127844205276 -0.010318021734290925 0.037398384705833766 0.0095163203672402451 0.022887098183855412 -0.0079053985886275765 -0.0021659498279349822 0.026204862927689272 -0.012580924049817602 -0.017985091204871424 -0.012770195432791585 0.010344024476679885 0.035252418797463179 0.012580671810164033 0.013793524956448713 -0.010603600045045217 0.03765222449665484 -0.037856990694999697 0.0097227549613453455 -0.014661063533516351 0.0086889470265688086 0.0089406955140558155 0.032678099893606628 0.023093093384522947 -0.023306220155209306 0.039790812388379525 -0.025688123182962402 -0.0052541826573724399 0.023828125470562986 0.00036417344644507196 0.096980540860782977 0.0083318976524751637 0.011026996337116146 0.0047330152067611465 -0.025429442080885475 -0.017342063687194927 0.010373777710353431 0.031936205178499225 0.016354331524381715 -0.03132299692655096 0.023120483112606137 0.043291138399105811 0.0213870766469174 0.024138430066129851 -0.01366301019157652 0.0018298012467124307 0.00051044527441263204 -0.020539331510663034 0.0048102772206757771 0.012753386230600117 -0.012452796031362736 -0.0022362250766794507 -0.0097442417519918653 -0.021588730860022037 0.017914637054006258 0.039467141777276997 0.010456036058409762 0.024061695305557042 0.074457277930699867
leaf_weight=35 15.999999999999998 29 31 26 61 23 18 16.000000000000004 25 99 17 34 200 19 11.000000000000002 20 44 71 14.999999999999998 23 9.9999999999999982 100 97 19 10.999999999999998 12.999999999999998 15.999999999999998 40 47 149 80 19 47 10.999999999999998 50 39 102 99 109 103 9.9999999999999982 31 49 33 12.999999999999998 18 37 53 121 9.9999999999999982 150 83 76 65 48 114 101 11.999999999999998 11.999999999999998 36 19 26
leaf_count=35 16 29 31 26 61 23 18 16 25 99 17 34 200 19 11 20 44 71 15 23 10 100 97 19 11 13 16 40 47 149 80 19 47 11 50 39 102 99 109 103 10 31 49 33 13 18 37 53 121 10 150 83 76 65 48 114 101 12 12 36 19 26
internal_value=0 0.0167229 -0.0133319 0.0336423 -0.0155949 0.0706865 -0.00756878 0.0251231 0.00781397 0.00879175 0.0274509 -0.0200454 -0.0121759 -0.01863 0.00425813 0.031767 0.0271749 0.00661941 0.00855767 0.0402623 -0.016463 0.0155961 -0.0144038 0.0223508 0.0281776 0.0116316 0.0167958 -0.0310732 0.0333494 -0.0217079 -0.00254123 0.0119749 -0.0069188 0.0822869 0.00257498 0.0156346 0.00133502 -0.020195 -0.0209182 0.00952176 0.0165239 0.0201548 -0.0349568 0.0195755 0.033588 0.0305114 0.0280381 -0.0181921 0.003731 -0.0114383 -0.0224836 0.00789114 0.0145516 -0.00888603 -0.00675907 -0.0120046 -0.0201925 0.0263694 0.0299928 0.0143541 0.0190319 0.0793481
internal_weight=0 1380 1731 476 1640 89 585 387 904 869 91 1055 421 935 164 228 148 749 548 80 35 159 394 120 60 362 105 120 104 541 98 119 221 66 186 56 201 392 358 257 60 41 80 44 54 41 57 173 171 221 249 186 92 174 109 211 120 40 28 66 30 55
internal_count=3111 1380 1731 476 1640 89 585 387 904 869 91 1055 421 935 164 228 148 749 548 80 35 159 394 120 60 362 105 120 104 541 98 119 221 66 186 56 201 392 358 257 60 41 80 44 54 41 57 173 171 221 249 186 92 174 109 211 120 40 28 66 30 55
is_linear=0
shrinkage=0.05


Tree=16
num_leaves=63
num_cat=0
split_feature=0 1 7 6 1 7 7 1 6 0 1 6 6 0 1 1 7 7 2 6 0 1 6 2 7 1 1 5 1 7 2 6 6 5 6 2 5 1 0 7 6 6 1 6 0 1 6 6 6 6 2 6 4 6 4 1 4 6 1 2 1 6
split_gain=250.387 75.0926 65.6834 57.6709 21.1477 12.1612 10.1079 7.66076 10.6371 7.33896 5.97609 5.3824 4.89229 4.02492 3.20195 2.78125 2.36166 1.96841 1.65136 1.61177 1.49322 4.27511 1.41222 1.38478 1.30417 1.29036 1.17883 1.10257 0.992061 0.88365 0.815468 0.756213 0.634559 0.619199 0.598508 0.558289 0.547144 0.546781 0.527365 0.663823 0.545111 0.513458 0.490478 0.753538 0.481123 0.473505 0.463362 0.442041 0.436983 0.43613 0.428942 0.404446 0.369816 0.683648 1.05791 0.368871 0.331221 0.329311 0.306614 0.285519 0.278376 0.271731
threshold=8.5000000000000018 2018.5000000000002 1.8500000000000003 34.250000000000007 2017.5000000000002 1.2500000000000002 1.5000000000000002 2013.5000000000002 43.850000000000009 5.5000000000000009 2014.5000000000002 57.650000000000013 35.550000000000004 2.5000000000000004 2016.5000000000002 2018.5000000000002 1.6500000000000001 1.8500000000000003 1.0000000180025095e-35 78.450000000000017 11.500000000000002 2017.5000000000002 39.500000000000007 1.5000000000000002 1.8500000000000003 2019.5000000000002 2010.5000000000002 142.50000000000003 2018.5000000000002 1.6500000000000001 1.5000000000000002 59.500000000000007 35.550000000000004 155.00000000000003 37.45000000000001 1.0000000180025095e-35 220.00000000000003 2019.5000000000002 2.5000000000000004 1.1500000000000001 53.800000000000004 41.850000000000009 2017.5000000000002 51.850000000000001 2.5000000000000004 2015.5000000000002 47.500000000000007 32.250000000000007 54.850000000000001 41.850000000000009 1.5000000000000002 57.650000000000013 1.5000000000000002 50.900000000000006 1.0000000180025095e-35 2016.5000000000002 1.5000000000000002 57.050000000000004 2018.5000000000002 1.5000000000000002 2018.5000000000002 57.650000000000013
decision_type=2 2 2 2 2 2 2 2 2 2 2 2 2 2 2 2 2 2 2 2 2 2 2 2 2 2 2 2 2 2 2 2 2 2 2 2 2 2 2 2 2 2 2 2 2 2 2 2 2 2 2 2 2 2 2 2 2 2 2 2 2 2
left_child=3 7 6 9 10 11 -3 -2 20 -1 16 25 -8 31 24 29 26 18 -16 52 21 41 37 42 35 38 -5 30 47 -7 45 57 -22 -28 -34 -10 -29 -4 -6 40 -40 -9 -20 -44 60 -15 -19 -11 -27 -17 -37 -25 53 54 59 -33 -45 -12 -41 -14 -13 -59
right_child=1 2 22 4 5 15 12 8 14 28 13 44 19 27 17 49 -18 46 23 -21 32 -23 -24 51 -26 48 33 36 -30 -31 -32 55 34 -35 -36 50 -38 -39 39 58 -42 -43 43 56 -46 -47 -48 -49 -50 -51 -52 -53 -54 -55 -56 -57 -58 61 -60 -61 -62 -63
leaf_value=0.044039186664990015 -0.028011288692553839 0.0089166517994197104 0.079546383948161686 -0.038821010291576391 -0.01079960461234513 -0.0032067814653620446 0.020211484497393309 0.0081091018626466404 0.0082554272919272385 0.013584926056450812 -0.013416630759835244 -0.018685694124734569 0.028264793956821611 -0.020021872228178916 0.012715108650400467 0.0079632857026389024 -0.01776354749244256 0.022700123877628989 0.002222102308563248 0.026053527671591206 0.0088579133793245998 0.046725664405446309 0.068725485667105651 0.0091557958997341236 0.0071333134717021423 0.0057889319539893994 -0.028764071660347224 -0.012293202934610047 0.024932660732199165 0.010095522145959823 -0.0032001052898439492 -0.026457623143990833 0.030339395031332973 -0.019267058260738851 0.016628343250172643 -0.0040681679472889583 -0.00034825021401047713 0.093104832768440254 0.0020804086674211758 -0.013712476274889449 -0.0077738315676865377 0.021191639155149461 0.0091747338325868164 0.0089422411418386884 -0.010689636743788061 -0.015440665941697535 0.012550239383893892 0.0013940657037892379 -0.0035671667428687215 0.01853817267677723 0.0044269721085370027 0.017108126958122565 0.03314925114721505 0.032490185576100505 0.049046347916126255 -0.021796958818405616 0.0002952622659372623 -0.02263873697568973 -0.0065886577736819166 0.039938288182020186 -0.014048267785637154 -0.017782015720796254
leaf_weight=35 14.999999999999998 85 29 27 81 47 118 9.9999999999999982 11.999999999999998 29 25 141 11 89 97 12.999999999999998 61 23 179 59 20 19 31 67 52 26 121 232 17 17 10.999999999999998 66 9.9999999999999982 20 39 118 9.9999999999999982 9.9999999999999982 36 23 23 30 86 13.999999999999998 29 154 22 9.9999999999999982 24 39 17 21 67 31 25 119 53 48 44 10 42 72
leaf_count=35 15 85 29 27 81 47 118 10 12 29 25 141 11 89 97 13 61 23 179 59 20 19 31 67 52 26 121 232 17 17 11 66 10 20 39 118 10 10 36 23 23 30 86 14 29 154 22 10 24 39 17 21 67 31 25 119 53 48 44 10 42 72
internal_value=0 0.0158867 0.0319602 -0.0126653 -0.0148151 -0.00719035 0.024248 0.00742327 0.00802115 0.0260784 -0.0190431 -0.0107756 0.0283077 -0.0170617 0.00577808 0.00730532 -0.0261901 0.00770802 0.00683501 0.0330138 0.0213569 0.0271971 0.0766912 0.00547698 0.000327699 -0.00591074 -0.0292498 -0.0142147 0.0148528 0.000326643 -0.0165158 -0.0213407 0.0163632 -0.027417 0.0194265 -0.00207973 -0.0117996 0.0830229 -0.00765198 -0.0056285 -0.00176107 0.017921 0.00399887 0.00607756 -0.0166732 -0.0171186 0.017738 0.0104591 0.001298 0.0158945 -0.00299841 0.0110535 0.0358656 0.0382292 0.0420968 -0.0234597 0.00210209 -0.0186371 -0.00903415 0.0338236 -0.0176214 -0.0197247
internal_weight=0 1380 476 1731 1640 585 406 904 889 91 1055 469 321 826 761 116 229 562 517 203 128 59 70 420 199 257 168 496 56 64 254 330 69 141 49 147 242 39 207 126 59 40 332 153 212 243 45 39 50 52 135 88 144 77 46 185 67 145 67 21 183 120
internal_count=3111 1380 476 1731 1640 585 406 904 889 91 1055 469 321 826 761 116 229 562 517 203 128 59 70 420 199 257 168 496 56 64 254 330 69 141 49 147 242 39 207 126 59 40 332 153 212 243 45 39 50 52 135 88 144 77 46 185 67 145 67 21 183 120
is_linear=0
shrinkage=0.05


Tree=17
num_leaves=63
num_cat=0
split_feature=0 3 7 6 3 7 0 3 7 0 3 3 3 3 3 7 3 0 5 6 2 2 6 6 6 5 7 7 3 3 7 5 3 6 4 3 3 4 3 3 3 5 6 2 7 2 4 5 3 3 4 3 0 6 6 2 6 6 6 3 3 2
split_gain=225.974 69.208 58.887 52.048 17.3976 9.80859 7.49162 7.22346 9.31333 7.16007 6.70198 4.99173 4.46191 4.19772 3.26799 2.97018 2.59144 2.41739 2.41302 2.28013 2.24177 2.88064 1.79522 1.50488 1.25045 1.18606 1.07532 0.976568 0.94917 0.839455 0.820554 0.817505 0.787259 1.75569 1.78501 1.13306 0.922489 1.31029 0.731216 0.707452 0.667656 0.601488 0.56387 0.528195 0.494606 0.905291 0.854864 0.639459 0.483468 0.540726 0.480439 0.441442 0.423087 0.536078 0.411772 0.409845 0.40247 0.400777 0.385782 0.369368 0.368252 0.364978
threshold=8.5000000000000018 9997.5000000000018 2.1000000000000005 34.250000000000007 8417.5000000000018 1.5000000000000002 3.5000000000000004 49032.000000000007 2.1000000000000005 2.5000000000000004 7597.0000000000009 40110.500000000007 5745.0000000000009 20572.000000000004 41605.000000000007 1.6500000000000001 17762.500000000004 6.5000000000000009 262.50000000000006 57.650000000000013 1.5000000000000002 1.0000000180025095e-35 41.850000000000009 43.150000000000006 41.20000000000001 25.000000000000004 1.8500000000000003 1.6500000000000001 73019.500000000015 29061.000000000004 1.6500000000000001 142.50000000000003 5407.5000000000009 61.550000000000004 1.5000000000000002 3443.0000000000005 1294.0000000000002 1.0000000180025095e-35 1000.5000000000001 25009.000000000004 21283.000000000004 25.000000000000004 57.650000000000013 1.5000000000000002 1.6500000000000001 1.5000000000000002 1.5000000000000002 137.50000000000003 2741.0000000000005 210.50000000000003 1.5000000000000002 1498.5000000000002 2.5000000000000004 50.900000000000006 57.050000000000004 1.5000000000000002 37.95000000000001 55.95000000000001 39.500000000000007 29301.500000000004 54615.500000000007 1.5000000000000002
decision_type=2 2 2 2 2 2 2 2 2 2 2 2 2 2 2 2 2 2 2 2 2 2 2 2 2 2 2 2 2 2 2 2 2 2 2 2 2 2 2 2 2 2 2 2 2 2 2 2 2 2 2 2 2 2 2 2 2 2 2 2 2 2
left_child=3 2 5 10 6 38 19 8 20 14 -1 15 32 -10 25 16 50 48 54 52 21 39 51 -23 -17 -6 29 -22 30 -25 -13 41 33 34 36 43 -7 -38 -2 -3 -12 -18 -29 -36 45 46 47 -14 49 -8 -11 -4 53 61 -9 -27 -48 -55 -53 -28 -32 -5
right_child=1 7 22 4 9 12 17 18 13 11 40 28 44 -15 -16 24 31 -19 -20 -21 27 23 -24 26 -26 55 59 42 -30 -31 60 -33 -34 -35 35 -37 37 -39 -40 -41 -42 -43 -44 -45 -46 -47 56 -49 -50 -51 -52 58 -54 57 -56 -57 -58 -59 -60 -61 -62 -63
